{
  "input_neurons": [],
  "layer_one_neurons": [
    0,
    0,
    0.047,
    1,
    0,
    0,
    0.003,
    0.199,
    0.043,
    0,
    1,
    1,
    0.999,
    1,
    1,
    1
  ],
  "layer_two_neurons": [
    0.001,
    0.005,
    0.002,
    0.995,
    0.999,
    0.005,
    0.919,
    0.012,
    0.903,
    0.03,
    0.005,
    0.993,
    0.924,
    0.003,
    0.998,
    0.408
  ],
  "layer_one_weights": [
    [
      1.9253918442795508,
      -2.0794170768834683,
      0.6264885727877479,
      0.6157636492783138,
      -3.161450680119756,
      1.8389429701658757,
      -0.08925632432379989,
      -1.9564824771350573,
      1.1526518403554773,
      -3.0205622202588778,
      -0.8435170174481872,
      -2.410320926236014,
      1.3634148636290269,
      -2.1945785883014857,
      0.09419731101505704,
      -3.4532677928208635,
      -0.9965694726744821,
      3.007665598761599,
      -0.9908728677726883,
      -1.9906447995840433,
      0.005386281758149142,
      1.001619791681976,
      -2,
      0,
      -2,
      2,
      2,
      -1,
      0,
      0,
      -3,
      0,
      -1,
      3,
      -2,
      2,
      1,
      -2,
      2.9998255941058964,
      1.9982132506321333,
      -0.007561082325318935,
      -1.0205300915296402,
      -0.03333782463170081,
      0.9591779480251661,
      -3.034442373120183,
      0.9806897244123579,
      1.9967974356861757,
      0.9974733897377082,
      -1.0034122649768458,
      -1.001856180472269,
      -0.0031637212580356427,
      1.999687534513802,
      -2.000396590809405,
      0,
      1,
      3,
      -2,
      -2,
      0,
      3,
      2,
      1,
      -2,
      0,
      0,
      -0.0005200251562063902,
      1.9909897460998836,
      -1.0368685007662057,
      -1.0818587433493871,
      -2.1463490757980757,
      2.8125746225352235,
      0.8148564361026028,
      -1.1547353294551312,
      1.8618231404575403,
      -3.118014175525391,
      -1.094263546732812,
      0.9448912049092736,
      -3.036899799801428,
      0.9800502384267623,
      -0.005175518008567829,
      0.9984797352306145,
      2,
      -1,
      0,
      -1,
      2,
      2,
      -1,
      -2,
      -1,
      -1,
      2,
      -0.0005802529552309355,
      -2.014557451495255,
      2.933340990746978,
      2.8332115741714925,
      1.731511982850802,
      -1.351028117015301,
      -3.38001111323289,
      -3.390596939387587,
      -3.4050616012943196,
      1.6154288556872218,
      -0.3317724630214149,
      1.781449788301683,
      0.8347435279620118,
      -2.1146830085850374,
      -1.063835311913116,
      -2.0136898591689434,
      2.9972973286639175,
      0,
      -2,
      2,
      2,
      1,
      -2,
      3,
      0,
      -1,
      1,
      3,
      -0.012226964710303163,
      -1.080605652752482,
      1.76162359359499,
      -1.3933987624538107,
      0.4954482580067418,
      -1.5970942594501958,
      0.3529770985286903,
      0.2737067714356859,
      -1.7473911830205975,
      0.32729270180674724,
      -3.547988291074937,
      -1.3783158293291742,
      0.7171874333021506,
      -1.1831692013012327,
      0.9063451467189356,
      -2.021843808371776,
      0.9954593722626757,
      2.9998569048759616,
      -2,
      3,
      0,
      -2,
      1,
      -1,
      2,
      1,
      -3,
      -0.004146470500157384,
      0.9328774196229066,
      -1.2186604132895504,
      -3.442017643942715,
      -1.6430620668362315,
      -0.7771640256388609,
      -2.814107058154291,
      2.115494385761118,
      2.127048428666535,
      -0.9065341614130088,
      -3.8422940119824505,
      -1.660789231162803,
      -0.4614161022258199,
      1.6809192420004107,
      -0.20722633128997625,
      -0.09965169356442732,
      0.9730433592511615,
      -2.0082731361746506,
      0.9999523667776511,
      1,
      2,
      1,
      2,
      2,
      3,
      0,
      -1,
      -2.001564262069047,
      -3.0221554889595086,
      -2.145277414431803,
      -3.333840128023197,
      -0.5989830945957989,
      -2.756145821809384,
      -0.8388642570293474,
      -1.7921400235711906,
      1.249659989606372,
      -0.7654514622528371,
      -1.8782341369934534,
      1.1233502375959104,
      -2.7066984320119847,
      -1.5846491442055266,
      -2.414651566340341,
      1.7589675852546427,
      -2.109217809604067,
      1.9626259319626629,
      2.9874137272805665,
      2.9998118637236746,
      1,
      -1,
      1,
      0,
      2,
      2,
      -2,
      2,
      1.9940951774671434,
      1.947041810212971,
      -1.1873171856700093,
      -3.4191298863733808,
      0.36490331812904636,
      1.1977052665056207,
      -3.9004033910751814,
      1.0860097824853523,
      -0.9235661830660349,
      -0.9887678571869837,
      -4.096578428269698,
      -3.1184901822608886,
      -0.9705879565308242,
      -2.779680921921987,
      0.4243126216781148,
      -1.3172081478575899,
      0.8345645544609239,
      1.9410524909076536,
      -0.00600205918639018,
      1.0019047597970077,
      3.0000077114806296,
      3,
      0,
      0,
      3,
      -2,
      1,
      3,
      1.9895339368141463,
      -1.0740481416195367,
      -3.2282481251839528,
      -0.45141634075660475,
      2.3413931740100944,
      -1.953758544997161,
      -1.1463971676467704,
      0.7335608316763299,
      -0.4563776534921938,
      0.43975069975921255,
      0.4621868656616389,
      -2.5242290344138776,
      0.6187805543155601,
      -1.129092982036263,
      -1.8130824081171926,
      -0.46812811295887147,
      0.7721847676070294,
      -0.0804170404581316,
      2.00942462434332,
      0.007285706695412405,
      2.0010719891182758,
      2.001142158374303,
      -3,
      -1,
      1,
      2,
      1,
      1,
      -0.02033519798596779,
      -1.1065897925072752,
      -1.2178543660620536,
      -1.4065109841402794,
      1.3998483533155313,
      -3.0526971252060267,
      -0.35251837549027865,
      -0.39524095655547353,
      -3.519139018147849,
      -0.6324275657136922,
      -0.6979938835673163,
      -2.7123208948027466,
      0.4086931425183171,
      -1.2926469590748666,
      -2.985792505677783,
      -1.6225444328558625,
      0.7199573300269895,
      1.9331944080680699,
      -2.981156555762684,
      1.018014493513382,
      -1.9884286568741811,
      -0.9949840978377488,
      2,
      2,
      -1,
      -1,
      2,
      -0.9996572942023468,
      0.9740551771269431,
      2.9340098096420175,
      -1.1141594518228306,
      -2.2754111840021367,
      -1.49613473359389,
      -2.9141982977848957,
      -2.197644949310684,
      -0.19100906961730652,
      0.8920239647550215,
      -1.3117733793057242,
      -2.4204019936643637,
      -4.492714689995644,
      -2.5764984412965704,
      0.6759571910714312,
      1.9458903024053449,
      2.2577812164611655,
      1.6664691059933043,
      0.9247323016457021,
      -1.9764671533019256,
      2.0232193446937607,
      1.0146352400651473,
      -1.994642216717738,
      1,
      -1,
      -2,
      1,
      -2,
      -2.9971665953129585,
      2.01544341404638,
      0.0425371087122698,
      1.0407239875253536,
      -0.10665878001766958,
      -0.4412609092871604,
      -1.7538915966671689,
      1.1509190671155183,
      -2.772732733694927,
      -3.7697094895008814,
      -1.8566531729950286,
      -0.932247470140341,
      -1.0928747642018581,
      -2.336290405621458,
      0.7750751606971908,
      -2.9963016007465657,
      -0.7158587501385383,
      -2.3466368849265344,
      -0.0914391384331831,
      -2.9740611110250104,
      0.02356053448692525,
      2.0137123651048636,
      -2.9941200746649597,
      -1,
      1,
      2,
      -1,
      1.0009644818845118,
      2.014066608589836,
      -2.9360157759023666,
      2.1363184132194495,
      0.1477005419541411,
      1.9744635780757767,
      1.6119867926973557,
      -2.612774638483049,
      1.4229859541264258,
      0.30990396367471296,
      1.3401242030201945,
      -2.63263928868836,
      -2.593923975360918,
      -2.790091746347242,
      -1.0644757240877238,
      -3.0112183361206384,
      -2.85566368709351,
      -2.6480094850192963,
      -2.346595087912532,
      -1.0862128021861261,
      -0.9740830634925034,
      -1.9796712867178763,
      1.0140595077321364,
      1.0048864538237396,
      2,
      -3,
      -1,
      2,
      0.003085318519452332,
      -1.9749248417475915,
      -1.884562093613189,
      -0.7848682571242221,
      2.1973350545872936,
      -3.0078206790771684,
      -1.2904088322234877,
      -1.4957107016331184,
      2.396324857155736,
      0.200162508844978,
      -0.8485304143676897,
      1.2371829470297795,
      0.1941642852547996,
      2.1621216470691116,
      -0.02264957559535713,
      2.057097751533283,
      2.2760546020440993,
      0.4461399638580383,
      -0.31506925264773045,
      2.888426082343479,
      -0.9957888307717501,
      -1.9820898257553046,
      1.0117692474156361,
      3.002679012866,
      2,
      3,
      -3,
      2,
      -1.995770309281188,
      1.0451315297018902,
      -2.865933223877816,
      2.1712499849274547,
      1.1577471445548133,
      2.938583049249372,
      1.7221098105931,
      1.4547930982850306,
      -2.758130320677386,
      2.082828448360271,
      1.0312145287824523,
      0.979103520187618,
      -2.173002610065977,
      -0.0426305530762617,
      -1.0590701885639584,
      -0.8917648683733859,
      -1.6696712722828435,
      0.4656644851366108,
      -3.3026551357683247,
      1.8918257583154745,
      1.0031495148662237,
      2.0287811675162124,
      -1.9848364648930674,
      1.0017852107843357,
      2,
      -2,
      3,
      2,
      2.0033804674785087,
      1.0496132551667632,
      0.10547597219771432,
      -0.8881380783906705,
      1.095532267842785,
      -0.0732974269336735,
      -1.4163670962735198,
      -0.670897111075184,
      -3.8788326929035355,
      -1.865583812031496,
      1.1982370595557772,
      -0.8908133099489713,
      0.8500653988411019,
      -1.1247774401189492,
      -2.047211864646417,
      2.1427018886443774,
      -1.619462996209648,
      -2.4697545167079533,
      1.7225545384152334,
      -1.13519057033935,
      -0.013431348266777707,
      -1.9736347141828665,
      3.016659641330576,
      -0.9967594476663528,
      2,
      -1,
      -1,
      1,
      0.0033162699309231478,
      3.036859461809827,
      1.0351920101109282,
      1.0348835516533903,
      -0.9496965936926598,
      1.7945708343691669,
      -1.455096381277603,
      -2.700959258263677,
      -1.8805425344577469,
      -1.8050589710694434,
      1.2614038551366586,
      -0.8637453187116632,
      0.9361287639714057,
      -2.985587323492685,
      -1.8743295201963492,
      1.2054835567934432,
      1.448424670436426,
      -0.3719623691026872,
      2.7598564958439336,
      1.855099282358519,
      -2.0255193214816614,
      -0.9889807691466095,
      0.022607267796871035,
      2.0090043006885625,
      -2,
      3,
      -3,
      -1,
      1.005878241231082,
      1.013054570531032,
      -1.060893247989235,
      1.9154217498152322,
      -0.1536603470370501,
      0.6365458119345065,
      2.4380168269965012,
      -2.690835435136032,
      1.1583418279076685,
      -3.7708534206853646,
      2.2194890932075877,
      0.04244963085861433,
      -3.1538041755986694,
      1.0865186127211384,
      1.2311680660237796,
      -3.7580302782763617,
      -2.5977492059166525,
      -3.419124305815453,
      0.7210288234394007,
      -1.1439573041037403,
      0.967674698306582,
      0.017295072432927907,
      1.0277865496577325,
      1.0151303981609283,
      -1,
      -1,
      -2,
      2,
      2.013529735396972,
      -2.004125164850148,
      -3.085264231107976,
      -2.15833295602341,
      -0.27958124557016967,
      -3.44811083323242,
      1.3933243962903055,
      1.2152098085690999,
      -2.872739197887112,
      -0.8098271914044557,
      1.1780579983261275,
      -1.0634153995989313,
      -3.1404033846916883,
      -0.035024374701641374,
      0.06991075376832169,
      -2.8192739032315965,
      -0.6953046043925352,
      -0.5659169787312176,
      -2.3853617328453582,
      -1.1831747213124084,
      -3.050999748862024,
      1.9937770246243425,
      -1.9839108475099037,
      -2.9873546369378086,
      2,
      2,
      0,
      1,
      0.0009714797130404987,
      -2.0305163598392117,
      -1.1181958306254822,
      -0.20933880309975372,
      -2.281997415441757,
      2.581297876462738,
      -0.618819545748447,
      0.14494911173050423,
      -4.063432860710143,
      -2.1088142089187136,
      -4.09008317673794,
      -0.2145891330173644,
      1.73255262021496,
      -3.1882831114444774,
      0.8922244508733346,
      -2.893861680978664,
      -1.794660109207582,
      -1.6650471067050818,
      0.5641611183146932,
      -2.1921229111068823,
      -2.054316774487154,
      -0.002975230847210705,
      0.007137186409260231,
      2.0084446689714857,
      0,
      0,
      2,
      0,
      -0.005252256624381129,
      -2.0454257399512503,
      -0.10402177376338613,
      -0.22955549050037555,
      -0.33428693238782564,
      -1.454960233843114,
      0.3715076355585641,
      0.12428261046442465,
      -3.1579317426080524,
      -0.29710671274206313,
      -4.272256048265355,
      1.6926729359038548,
      -4.31728746990456,
      -1.2184523430928351,
      -3.094708823990967,
      1.042024302601077,
      0.24540469776575524,
      0.41528127544729904,
      -3.3637790343315235,
      0.8036869464979894,
      1.928190467563644,
      -2.0088164375327735,
      -0.9958234358452822,
      1.0044651321324023,
      -2,
      -1,
      0,
      -1,
      1.9932987816482608,
      0.9556795202749219,
      0.9191483322558529,
      -2.178639053765385,
      2.647754454564932,
      -3.5367982914483242,
      0.3070278870337415,
      0.1195384006201231,
      -0.05847923464533653,
      0.7808813928708259,
      -3.1874430570509675,
      -0.19854376621457748,
      -1.165373304636797,
      -4.1228834539404415,
      -3.024901302671033,
      2.15066964420232,
      -1.6466685487848263,
      0.5328226185142267,
      -1.2928652261194373,
      2.8510236427468896,
      1.9408093369844845,
      -1.0089617542238973,
      0.0007596387780892927,
      1.0026152487666884,
      -2,
      0,
      2,
      3,
      -3.0035109558012527,
      -2.030609953945024,
      -3.0684924154415927,
      -1.1332787468267242,
      0.7252033922328895,
      -1.4467040384111807,
      0.3512199484102106,
      -2.8281683775814046,
      1.0796114855299173,
      -0.9899842935443584,
      0.9929387211277425,
      -4.024855901336464,
      -2.939040341480659,
      -1.9446354020268726,
      -2.8365928480987987,
      0.29179763072388104,
      -1.5317541322731085,
      1.656805252930128,
      -3.214058720428019,
      -0.11304500523127867,
      -3.048351590688682,
      -3.0082374173700166,
      -1.0055226231508747,
      -2.0012686435454747,
      0,
      0,
      0,
      0,
      -1.002761152780259,
      1.9843241090438053,
      1.9521876715974134,
      -2.092798894779275,
      0.8373128406043816,
      0.7281085968874774,
      -2.4296848430255724,
      -1.607558733518952,
      2.319765927428172,
      1.3035503472541037,
      -1.741843192411564,
      -0.8106480118152691,
      -0.7961632072788813,
      -1.7750677843232692,
      1.3489064589451607,
      -0.49992350255093354,
      0.6693227358775454,
      -3.2084693328002016,
      -2.126554456155101,
      -1.0683004013237203,
      -0.034172651757111976,
      -3.0066105641173007,
      2.9930329927131045,
      0.9978405632666971,
      0,
      2,
      1,
      -3,
      -0.001377821764626047,
      -1.0087147126240055,
      -3.0310886537819566,
      -1.0747657206453283,
      -2.100863421201249,
      1.861772660436101,
      0.7815323742053027,
      -3.3519503801585087,
      2.5665694635269554,
      -1.4389564967905863,
      -0.45859847320473596,
      -2.529316341300849,
      1.4104711848453029,
      -1.5844341729686835,
      1.527236944148984,
      -3.3080482037381516,
      -1.2044488655396026,
      -0.1474271990690294,
      1.9185034620298933,
      0.9677381886723245,
      -0.001590464002251048,
      -0.003964671916355559,
      1.9953444025206868,
      1.9969887922184713,
      3,
      1,
      -3,
      2,
      -0.00006678611092778111,
      -1.0039548296947631,
      1.979140220982557,
      2.9462446962426494,
      -3.073990171931436,
      2.911413028347715,
      1.8804287002937097,
      -0.17578223488641603,
      0.7930601338401834,
      0.7812874735745483,
      -1.2206550169903396,
      -3.259818090847958,
      1.681073174395609,
      0.6841219681000185,
      -1.2664930503715108,
      1.8201233364398302,
      2.8704694505099955,
      -1.0933634044620058,
      1.953646281921329,
      -0.003604785883589638,
      1.0158468336460627,
      0.013214414100744755,
      -1.9996095352238865,
      -3.001341948958816,
      0,
      -1,
      0,
      -1,
      -2,
      1,
      1.99563727267514,
      1.9750207129267174,
      -0.04484328617508111,
      0.9514508237989822,
      0.9482038647576279,
      -2.0836419271970694,
      -3.102823861127636,
      -0.09958652192232197,
      -3.1138637799830944,
      -1.1178789440622965,
      -1.1550128095773355,
      0.8510271216311428,
      -3.140050725429454,
      -3.109233936101341,
      1.9155560502657885,
      -1.0386902131841784,
      -1.0122019604830044,
      2.0041085043019895,
      -1.9949010362537118,
      -1.992727432070702,
      -1.9972273617864562,
      -2.998374346842166,
      2,
      0,
      0,
      -1,
      1,
      -1,
      0.9993849583000199,
      0.9922414993488117,
      1.9817204771115107,
      1.973184916227387,
      -3.029887947398633,
      1.96032627538643,
      1.9505468076801242,
      -1.0538719358183788,
      -2.045027734193308,
      1.957452479726228,
      2.9531502963327756,
      -1.0379114789638049,
      2.956748001884013,
      -0.030230314172664474,
      -1.0231316531402992,
      -0.01457250276825023,
      1.997204969269098,
      -0.9943495706045228,
      1.0082299507736432,
      3.004158261285348,
      0.002799089343518729,
      -1.998331627188099
    ],
    [
      -0.9964520088157383,
      -0.038569330098866705,
      -1.1852588772364505,
      -0.43719008025598627,
      0.8812862600811943,
      -0.04420975668546112,
      -2.3212500226229418,
      2.4344745203424982,
      -2.3075312868947675,
      2.992155554430679,
      -2.209267583666226,
      -1.1096320239299255,
      1.8988527232415742,
      -0.07236527615374763,
      0.009175078710445685,
      -1.2069272078433442,
      2.0017801296374493,
      -0.0006386835478057278,
      1.9985411276826048,
      2.9978898367895668,
      -3.0014534177536163,
      0.9999111169526232,
      -2,
      3,
      -3,
      2,
      0,
      -3,
      0,
      -1,
      -2,
      -2,
      -1,
      3,
      3,
      -1,
      -1,
      0,
      1.000216385317027,
      -1.9972682237390644,
      -1.9910774213664548,
      -2.97859750619248,
      -1.9643949567977603,
      1.0478074000407578,
      -1.9492439105417023,
      -2.9611689776338967,
      1.0202400991185063,
      -0.9861385293044727,
      2.007214418278351,
      -1.9990118664000136,
      -1.999843282378827,
      -1.0001543716502563,
      -2.0001959332484023,
      1,
      0,
      -1,
      -1,
      3,
      0,
      2,
      0,
      2,
      -2,
      -2,
      -2,
      2.000652431991536,
      2.010001907275842,
      1.030967918494335,
      2.078449832661753,
      -2.8698962382636473,
      2.1575306563617174,
      1.1727367160620135,
      0.18515483209452346,
      -2.848884577897942,
      0.09785856847250325,
      3.0402102867407796,
      1.004693133982178,
      0.9948616402890167,
      -0.004540447853913289,
      -3.004279253351308,
      -0.0007510774522085444,
      -3,
      1,
      2,
      1,
      0,
      1,
      2,
      -1,
      3,
      -1,
      2,
      0.0007343936018193459,
      2.015618756589236,
      2.031513217857252,
      1.090161142801487,
      -0.8100044276006415,
      -0.7358323829105221,
      0.3238270727555812,
      -2.7013141334479887,
      -0.7634149755490767,
      -0.8418669998645909,
      2.115839310242022,
      -1.9202566163779469,
      -0.9788181773468113,
      -1.0006742942876903,
      0.96474185385145,
      -1.0209745335262126,
      1.9974494062428751,
      0,
      3,
      -1,
      0,
      1,
      -1,
      -1,
      2,
      2,
      -2,
      -3,
      3.0147352053368777,
      2.0282418531235558,
      2.0752678783083534,
      0.22683583070202237,
      1.3903219495544428,
      -1.5642454843828522,
      0.311954578480006,
      2.1538555828953223,
      0.06911076845866049,
      2.9531101769418684,
      -2.053892840704005,
      -0.9885137573763766,
      -0.9743339318946078,
      -2.009092646973398,
      -0.058719150147577844,
      1.971019678039488,
      -0.003222564258406757,
      0.9999398453809791,
      -1,
      -2,
      -2,
      -3,
      1,
      2,
      -2,
      0,
      2,
      2.006278732813919,
      1.026328573324685,
      2.0621763073506285,
      -1.7674316074110132,
      1.4491054546193913,
      2.575794611794913,
      2.3861401201991645,
      -1.947328993509658,
      1.9368181728999183,
      0.842051499065827,
      -3.2790775116061637,
      -1.1989330383336836,
      -3.0327954258895216,
      1.0339889590392357,
      -2.0234439338838053,
      1.912939396077263,
      1.9676630087811249,
      -1.0115808889259958,
      0.9999413393730381,
      -1,
      -3,
      0,
      2,
      1,
      2,
      1,
      -1,
      1.002479647929273,
      1.010028583099968,
      2.01476794857885,
      -1.875877884744268,
      1.3972482327113602,
      -0.4195756986694792,
      -2.4545769365897914,
      0.1472481841152078,
      -0.27423588468686455,
      0.6594900909118725,
      0.5971149465844444,
      -3.4708997606905334,
      -0.33506359873589026,
      1.8913101079137211,
      -1.9772548736886026,
      -0.025298219494570295,
      1.9387647768382263,
      -2.0512691322554266,
      0.9695819126261629,
      0.9965482378798719,
      0,
      -1,
      -1,
      0,
      -1,
      2,
      2,
      1,
      -1.9985988508009391,
      2.0091611302446757,
      0.9845201373663234,
      1.1153300643121167,
      0.36558622616551917,
      1.5519844238849259,
      -1.6170572287587144,
      0.8860450171074546,
      -2.602577216199712,
      1.342168093376762,
      1.4729430711812654,
      2.546512238621441,
      2.708945780168723,
      -1.0385109945623634,
      0.04624687684470904,
      0.00652370770734932,
      0.967950488471045,
      0.9534976395462411,
      -1.0341798973173275,
      0.9957999619505058,
      -3.000005292825381,
      1,
      2,
      2,
      -2,
      1,
      0,
      1,
      -1.9933328316333916,
      -3.0217077852041947,
      -2.0483791404562686,
      2.0452838214218545,
      -1.727246948687894,
      -0.6346647992779618,
      0.07157869460179778,
      -3.4953717824368113,
      -3.7260474373953483,
      1.3492571827582955,
      -0.4092035911845373,
      -0.1423959913368515,
      1.0260727977092858,
      1.9706365371207353,
      1.922787157459519,
      0.9396426567002669,
      -1.0326570079065285,
      -1.0612707803410852,
      -3.048218878072069,
      0.9891556244052194,
      -2.0016173662704895,
      1.9987736926622728,
      2,
      2,
      2,
      0,
      -1,
      2,
      0.9967303767359137,
      0.9475945455621015,
      -1.121842324805704,
      1.9336269508555843,
      -3.0128353051452805,
      -2.0752085930899384,
      -0.37017241971160186,
      1.136324688703018,
      -0.8872759263763574,
      -2.576446872117842,
      0.8426078948623151,
      -1.9654088263310097,
      -0.9113584006717017,
      -0.10865857013666246,
      -2.157344019382265,
      -0.062435753263857204,
      2.9467915757988257,
      -1.086212542740407,
      -2.0730606258824658,
      -0.029238025598055693,
      0.9910681980367811,
      -1.0046693166106448,
      1,
      -1,
      3,
      1,
      0,
      -3.000386244547089,
      1.9542992550104192,
      1.8530389897224153,
      -1.3063381058614743,
      -2.356706597027204,
      -1.4785782241676755,
      0.3642033216925722,
      1.0038478895003085,
      -4.437374000230126,
      1.6635685212233347,
      -0.9626327699530699,
      1.4717201751281763,
      0.7301103549729681,
      -2.096048851402851,
      -1.2100280679517426,
      0.7615837396626939,
      1.9180790996979866,
      0.9079241868594111,
      2.855202661339811,
      -2.1024536227378112,
      0.9531002596273731,
      2.989067943141901,
      0.9959265087926344,
      -3,
      -2,
      -2,
      -2,
      -3,
      0.9985954223756422,
      0.9336553620648944,
      1.7419598113091677,
      -0.5662145710421845,
      1.201094722466299,
      -0.019736957758458275,
      1.7478379062302583,
      -2.645298807160956,
      -2.018035070076836,
      -0.7565238784583427,
      0.7524025304195483,
      2.1571741972552627,
      -2.5039324883327834,
      -2.2740722190485982,
      -1.3181565313844874,
      -1.3107567482086537,
      -0.2036524247366733,
      2.7903113351423627,
      1.7666890762083538,
      -2.1586513680734107,
      -0.06109272202946555,
      -0.01033769996324887,
      2.9957816429531947,
      -1,
      -1,
      -2,
      -1,
      -0.9983659832221449,
      0.9770409028619534,
      -3.128966128937432,
      0.5770004678239987,
      -2.8381977553860285,
      -0.2458180103781669,
      1.407846178733167,
      -2.714871537762446,
      -3.959977782725422,
      -2.1375766149293844,
      1.3570702201640168,
      -3.0505539784229594,
      0.19370306860773776,
      -0.6111676207448221,
      1.647038230197147,
      1.647473656458155,
      1.5965962168923908,
      1.624145826645165,
      -0.29188481916136133,
      -2.2578230777435606,
      2.814142008771066,
      2.925489413405205,
      -3.0177824775393765,
      -0.003479438086827558,
      -2,
      -1,
      0,
      1,
      1.9996764107798706,
      -1.0353265392534186,
      -1.206311250584971,
      2.388779841755456,
      -2.090382843981761,
      -4.509460017510945,
      0.16777871298357483,
      -1.9060960905049444,
      -3.045097057179224,
      1.1265594693790835,
      -3.1841221280944274,
      0.3671007242331076,
      -1.5992919952200058,
      0.5445276685792511,
      -1.310504079244278,
      2.630739155774848,
      -2.4526926683154184,
      -2.3848895918905484,
      -2.2944917377140928,
      -3.2303730445246495,
      0.8357903683435197,
      1.9214361939318667,
      1.9851584182128896,
      -0.9990341089334489,
      2,
      2,
      1,
      -1,
      0.9961566596770928,
      0.9391038414420511,
      2.725995334664791,
      -1.6985794580223827,
      -0.12983212187991536,
      -2.5494620981324565,
      1.2285446236956994,
      1.2484857236579034,
      -3.8553183520514174,
      -4.7125161867074565,
      -3.0957015076263428,
      -0.5397248469683823,
      -0.4278126589293906,
      -1.3300998367109753,
      -1.2902847632308792,
      1.5736733650858301,
      0.44701348417525366,
      -2.4899777478162113,
      1.6878410011057072,
      1.783698104382517,
      -1.1646270147965083,
      -2.0887866249987654,
      -2.0280487814271915,
      -2.0043820707813738,
      3,
      -2,
      -1,
      2,
      -0.0031988309424798344,
      -3.0735112393615567,
      -2.2753800939100977,
      1.326989830185429,
      -4.010722426256541,
      0.6993197649870387,
      -2.4296063069134894,
      -2.589022801995226,
      -1.7035631924230314,
      -2.5914459992175334,
      -0.14596303986111006,
      0.3579983759407761,
      0.45917462860012154,
      -2.4631493602793317,
      0.6198458318360063,
      -2.557332423967907,
      -2.6698292886250763,
      -3.584886266938483,
      -3.3391862800377643,
      0.8067509469212912,
      -1.139773860316874,
      -0.08377328952976347,
      -3.0340353538119236,
      2.992197524785726,
      -2,
      0,
      -1,
      2,
      -1.0065366925578776,
      -0.04629943932245626,
      1.7330638036953478,
      -3.540076280951052,
      0.18509808407643713,
      1.0329486791114544,
      -0.18241496137033467,
      -4.417404798005971,
      -2.6043836426526945,
      -2.491901118089075,
      -1.269635167657827,
      -0.028021955872919477,
      -1.844563587391908,
      1.2618166676335358,
      -0.6813712362310657,
      -3.8052926855674407,
      0.155022039576012,
      -2.549089993268594,
      0.7061701148217079,
      -2.185086063517596,
      1.8722635697852728,
      -0.09027945515541766,
      -2.038680354110907,
      -1.009160788697786,
      -1,
      -3,
      1,
      -2,
      2.0000772028663176,
      -2.029788901605172,
      -1.2031584882433441,
      -1.3723355092833447,
      2.432868587989252,
      0.24397833819671028,
      -1.9060663531850321,
      -1.190042499364259,
      -4.374069775374619,
      -0.3351437641975791,
      -3.2522884300129045,
      -2.126120464420644,
      0.907021494400991,
      0.06729366931714305,
      -2.889876426784483,
      -1.940296684437539,
      -0.823909697495262,
      0.42378998787203503,
      -2.317732485517762,
      -0.15554141509051195,
      -0.13435918999730348,
      -1.0910371528265743,
      1.9615999796028036,
      2.9867811410958547,
      -3,
      1,
      -2,
      0,
      0.0037636922999050876,
      -2.0257598508025323,
      -1.1467217955187048,
      -2.287897684737428,
      1.5742332896530316,
      -3.507213676219289,
      0.3132481210361746,
      -3.9238302568480363,
      -1.0631766087671237,
      -2.0658070994323188,
      -0.060790827309656466,
      -0.012016866757070747,
      -1.8685769114951487,
      0.19805105820238084,
      -0.7695317430177412,
      -0.7818324993849632,
      -2.735433001572765,
      -2.5706571115913786,
      -0.3384204757960403,
      2.840686318011621,
      1.9063881190041752,
      -2.0719039994329917,
      -0.026367652975876774,
      2.0020424185172443,
      -2,
      -1,
      2,
      3,
      -3.0013453092657767,
      -0.027134395034263334,
      0.9103959441047568,
      -0.12029582436843257,
      2.809527043597499,
      -1.3262774648936984,
      -1.4513876922862625,
      -0.545444286020592,
      1.3736580372037221,
      -0.7454367397592099,
      -3.7226163295578916,
      -0.7040698594654476,
      0.3906628550357043,
      -1.6216442182752249,
      2.35909372963928,
      -0.6454225844442881,
      0.3849482176643589,
      -2.5250982455650535,
      -3.313000672756647,
      2.8652930491430055,
      -1.0853865913956806,
      0.9309276973424104,
      -1.0281137654619181,
      1.0012537583636933,
      -2,
      3,
      -3,
      1,
      -0.012710885699769461,
      0.975861696146752,
      -1.0009447337886286,
      -1.9448363994235711,
      -1.9354573264707493,
      1.0165546492856408,
      1.933613914959147,
      -1.2095081594560524,
      -1.3527689750542693,
      -0.3369843408619565,
      0.6569055915011475,
      -2.4435574445823725,
      2.4705321264145406,
      -0.596281245478799,
      -1.5803503589364811,
      -0.6080203233679689,
      1.484704296572702,
      -0.3534454797982186,
      -1.2071405566756943,
      -2.1177879890329434,
      0.9111098909653802,
      -3.067508939316787,
      1.970516743686622,
      2.998987709773649,
      -2,
      -3,
      -1,
      -1,
      -1.0089908081324768,
      -2.9982358335618082,
      1.004550942844861,
      0.11286611305158496,
      2.194015728806891,
      -1.7742505990540849,
      1.1555003690388082,
      0.967003446961341,
      0.8300468030759606,
      0.8545498495311682,
      0.8450320484678707,
      1.7331274374795866,
      1.667199558007419,
      -1.418264624072078,
      -1.4091137660844588,
      -2.4498095705760843,
      -0.3718292953564191,
      -0.19922687191368324,
      0.9269104699643088,
      0.9174901390402548,
      -1.0504346283416444,
      -3.029142709545231,
      -2.011177790471632,
      0.0014166565368973838,
      1,
      -2,
      0,
      -2,
      2.0013719809452075,
      0.009870101233850214,
      1.0273738206035703,
      2.0678128534468376,
      -0.8806816563662433,
      -0.8102143419168616,
      2.1496960997134766,
      1.0418484164368498,
      -0.04806217530394769,
      0.9440283975768475,
      -2.091288396570416,
      -1.1668344470078025,
      -1.213252861169829,
      2.723036692721084,
      0.6560585701502587,
      1.6394323647227642,
      -0.3036609240936712,
      -0.13806228564068812,
      -0.09147199368714809,
      2.924349724710532,
      0.9654327315816076,
      1.000292258479013,
      0.9931831589166277,
      0.007033054017860318,
      1,
      2,
      1,
      -1,
      0.0020770672216489025,
      -1.9845073248149376,
      3.0331689158388424,
      -0.9455736199270217,
      -0.9022085418068646,
      2.136763324583935,
      -2.8885848935536806,
      2.067074820517408,
      -0.9975309322174828,
      -3.0493494580105724,
      1.8799709358606627,
      -1.147685454368482,
      -1.1662085928364643,
      -0.24587093003809535,
      -3.322006300835242,
      0.6947968462549907,
      2.8039454221486153,
      -1.1075215230866546,
      -0.10086773621434544,
      -0.04767531897983045,
      -0.01348392897760457,
      0.9859885806525256,
      -3.007161773305439,
      1.0060142811251838,
      -3,
      2,
      -1,
      3,
      -0.9985370384667365,
      2.011138844010912,
      0.017432231080864502,
      0.04186798529162248,
      -0.9389392325253976,
      2.063521857705016,
      -1.9598980471161094,
      2.006666924985004,
      1.963677886142178,
      -0.1254595943298618,
      -2.1521437496718585,
      0.8606864231009228,
      -3.152538449241069,
      0.8072397156053597,
      -1.2466566521862303,
      -3.2167564371439448,
      -3.1530412465138005,
      -2.092362680715413,
      -0.05334881094546182,
      -1.0184381220337329,
      1.022542947408661,
      2.9978073857769814,
      1.9924501958944738,
      3.0009541489530807,
      0,
      2,
      -3,
      2,
      -1.9999704243836307,
      -1.994715755724905,
      1.008204502381786,
      -0.9695965334646952,
      2.033753766121861,
      -0.9799101399101496,
      1.0238995749088289,
      2.008205247000205,
      0.9848006092456679,
      -0.07293078740870972,
      0.8765287390526457,
      -3.119758078219015,
      -2.1251431393422426,
      0.8648536134724752,
      -0.15569071323368464,
      -1.1240457878885755,
      0.9268682230408528,
      -1.0483630311032024,
      1.9841847988435999,
      1.0076129371944613,
      2.030583157292209,
      -0.9768467062253249,
      -2.0021127975203945,
      2.000546639083305,
      1,
      1,
      -1,
      3,
      2,
      -1,
      1.002598142586134,
      1.018666616275837,
      2.013566304291292,
      -2.996513966602099,
      -0.9986710374054655,
      1.9981124937081505,
      -2.003803172640384,
      -0.035953290963428114,
      -0.0387879314515771,
      0.9744843362664554,
      -3.0531032421544886,
      -2.0480413788514777,
      -2.045177333993938,
      -1.0306762655147559,
      1.0022787227903311,
      -0.9808442747307204,
      3.0229929715688395,
      0.020690177808847694,
      -1.9880527397943502,
      1.0138003742434907,
      -0.9937888183561387,
      2.003361363826347,
      -3,
      0,
      -1,
      1,
      -1,
      0,
      -1.999253022264528,
      0.009187120162522924,
      -0.9815481186587552,
      0.018938222330414013,
      -0.9881418202825167,
      -1.989760606283965,
      2.0156618438965777,
      2.0160545613641103,
      -0.9828653356480781,
      -1.9911805522638817,
      0.00829709943318324,
      0.01935267914010997,
      -0.982448734009824,
      -1.9632825037449702,
      -2.962991241904653,
      -0.967910484080804,
      0.015689376739131154,
      -1.9802884814389574,
      -1.986969965176313,
      -0.9938827392367781,
      1.0053382926055239,
      -2.9959176727798393
    ],
    [
      1.8148728898238475,
      1.7981200340866763,
      1.414261166965147,
      -0.34779383783134526,
      -2.479441220187289,
      0.5069736374161696,
      0.5091843963287656,
      -1.0532695966808578,
      -1.8590226692172176,
      0.9511900621720437,
      1.7749392736943956,
      -1.1508311519968821,
      0.43943386805362006,
      0.9978678280554171,
      -2.0541791042167996,
      -0.4805027285722864,
      1.0007373619510822,
      -2.998162984878996,
      -0.997606754833337,
      2.0024300422864214,
      -1.9987819291544735,
      2.0003602652717642,
      0,
      1,
      1,
      -3,
      2,
      0,
      1,
      2,
      2,
      2,
      1,
      3,
      -2,
      -1,
      0,
      0,
      0.9998282903827886,
      0.9982828103001669,
      -1.006268398344628,
      -1.0166924729699431,
      -1.029738999502912,
      0.9606754051195237,
      -0.04169898726037865,
      -1.0360859481630325,
      -1.0231920536969548,
      1.9854146509342272,
      -1.0085381367833957,
      0.9965424098975194,
      -2.000708086349459,
      3.0000909782268694,
      2.000115472364873,
      1,
      -2,
      -2,
      -2,
      0,
      0,
      -1,
      3,
      -1,
      2,
      -1,
      -3,
      1.9994885949024719,
      -1.0076375675506677,
      -2.030535953233968,
      0.9283452756656534,
      -2.1342654631719067,
      1.8237885270959986,
      0.8156452479470493,
      1.8239017015830634,
      -0.158231148367072,
      -2.1214307409240636,
      -1.0772498869203744,
      2.971603808446055,
      -0.01804990480795005,
      -0.008252467600537095,
      -2.0012673490803925,
      2.0004426440653464,
      0,
      3,
      2,
      -2,
      -3,
      1,
      3,
      2,
      -2,
      -2,
      -1,
      -1.0005701212042266,
      1.9879175243327083,
      -2.057739923021671,
      2.852563641110289,
      2.7685009642759577,
      1.7045668777308605,
      -2.337659549892375,
      0.6705001417187797,
      2.6859548719372786,
      0.7070164276396652,
      -2.2568155317504623,
      -0.15827990994618366,
      0.9245721705427798,
      0.9400528632293219,
      -3.031967493509105,
      1.9964788539541303,
      -1.9995508733095093,
      2,
      2,
      -1,
      -2,
      1,
      -2,
      3,
      3,
      -3,
      0,
      2,
      -1.0108610240095381,
      -2.0709026230357694,
      -0.20943705694915005,
      -0.32525643436664153,
      0.5963718591985973,
      -3.4485203508573608,
      -0.45389575428393975,
      -0.45958493502980863,
      -1.4333956894903312,
      -2.3802846449239357,
      -2.3419728556337076,
      -1.2453188542556415,
      -2.1424862693424087,
      -3.095029120817679,
      1.9538237570741506,
      -0.003257157373621027,
      0.002398117556607875,
      -0.9998013975358592,
      -3,
      0,
      -1,
      0,
      0,
      2,
      -2,
      -1,
      3,
      -1.0036791708559198,
      1.9367914781870526,
      -2.2100030842335623,
      -0.40123049385840936,
      0.4506384746410271,
      0.39988245614810913,
      -0.5858387992602349,
      1.459423198232231,
      0.5125566030804498,
      0.525724745489729,
      -2.4408503980077185,
      -3.3715123426949907,
      -3.2412553945762372,
      -2.1466099690745066,
      -2.095478789687331,
      -0.04548416479885585,
      -2.00866673113658,
      -2.997992940244157,
      -1.9999736684719698,
      -2,
      -1,
      1,
      -2,
      -1,
      -1,
      2,
      0,
      -2.0015161498771,
      -2.0195007141887507,
      -3.1478806676237125,
      -3.3443505714519373,
      1.42224500444534,
      -2.695288471200354,
      -0.7431442585716826,
      -2.6600994613784077,
      0.4586687156095875,
      1.5026355791789314,
      -0.5065461852284551,
      0.5005312114413937,
      -2.3580011222384694,
      -2.2393839181252475,
      0.8421483983909652,
      -2.090341258775238,
      2.971293844826525,
      0.9901220582334903,
      -2.997785793929791,
      2.000888331039281,
      -2,
      3,
      -2,
      2,
      -2,
      -2,
      0,
      -1,
      -0.006120862102903007,
      -2.047983794752115,
      0.7865428182058526,
      -3.4616679650006565,
      0.311673847858505,
      -0.8501953281529083,
      -3.877684461865835,
      1.2302406744320291,
      -1.6314108715798563,
      -0.5637949090533436,
      -1.5748913503826432,
      -2.531759791689218,
      -1.4052206543175014,
      -1.2726081329212473,
      -2.1818909464185965,
      -2.0871828998084894,
      -2.0334017996842224,
      0.995604041295887,
      -1.9925952441657788,
      -1.9964232891474953,
      1.0000065523928061,
      2,
      -2,
      -2,
      -1,
      0,
      -3,
      0,
      -3.0104975249010417,
      0.925032080845647,
      -1.2532166844689798,
      1.5213936861815063,
      -0.7068043234954251,
      -2.9175877083676673,
      -0.9363103370144155,
      -0.8777663930055412,
      1.2411805560408466,
      -2.640621518670823,
      0.45543183663422176,
      -0.55094459799802,
      0.4657079199184364,
      -0.36582677627981813,
      0.8331479302882033,
      -0.07404040648297347,
      -3.023980013355192,
      1.0020332848265343,
      -0.9777294021953601,
      0.009411149728941692,
      -2.9989261586451836,
      -0.9991776409967312,
      -1,
      1,
      -1,
      1,
      0,
      0,
      -0.018313299354500108,
      0.9031252449703696,
      -1.2301059531259375,
      -0.4310510027520405,
      -1.6041653799196547,
      -3.8422848404688876,
      -4.006944706086361,
      0.0936654430112492,
      2.302527581113432,
      -3.5739109582105724,
      1.397906072354549,
      -2.6729416221253395,
      -2.662045542552024,
      1.5138799227141502,
      -1.2859223004652716,
      -0.13716334041469797,
      -0.042397980762931636,
      -1.9836249866336186,
      -1.972852491977071,
      -0.98314784377689,
      -1.9905716490001033,
      -1.9960797013488,
      1,
      -2,
      -2,
      0,
      0,
      0.00038198686889343866,
      0.9795164895911554,
      1.9429704606338174,
      -2.1222020002233535,
      -2.3235187803782806,
      -0.4633688580372739,
      1.3017343370811996,
      -2.941725964175328,
      2.2374270022270872,
      -0.5085282336102387,
      -0.4739006037361068,
      -1.5357131401112918,
      0.39103242820195905,
      -1.6403167795219042,
      -0.49469482583541063,
      -0.3222905026672676,
      -1.1767112720035515,
      -0.0419635159070319,
      0.030928751440813165,
      2.0279146188115265,
      1.017959126596641,
      0.010303039646751149,
      3.0042473797502423,
      0,
      -2,
      2,
      3,
      1,
      1.0033872316908805,
      2.0169591587622757,
      0.045940401358908145,
      -1.9875700170085586,
      1.8754813531866903,
      -1.288188539254849,
      -1.5544292878060821,
      -0.6715999319899209,
      -2.493189575846117,
      1.6763966198242728,
      0.6592751041726226,
      -1.3572326992035149,
      0.5605017662790416,
      -0.5305815382427393,
      2.560662271468988,
      -1.299671655344796,
      -3.1358364948465955,
      1.9949891245136095,
      2.0499179827742187,
      2.04918590147232,
      2.018244950759122,
      1.006533480853801,
      1.0047067967128185,
      3,
      -2,
      0,
      0,
      -0.998404438079497,
      0.016864832752500687,
      -0.9379779378511373,
      2.146291227727227,
      -1.8499202395077572,
      0.02893802396739922,
      2.8898708077169353,
      -0.3219533396378946,
      -2.4532646630628165,
      -1.4614686050343197,
      1.6208991569439415,
      -3.340637668823898,
      2.7050713716484647,
      -2.3175922073131567,
      2.6242301898043814,
      -2.313338086250523,
      1.7180048229569032,
      1.8441546917143745,
      0.9507040328053871,
      -1.9515224823286352,
      3.057438171782249,
      -1.9866773590396256,
      3.00580942584325,
      3.0038669788405628,
      2,
      -1,
      3,
      -1,
      -1.9959613132876508,
      -2.9728279775001116,
      -2.8892434052067735,
      0.239392267672641,
      -1.7410041436077635,
      -1.824837261179708,
      1.0808386129165495,
      1.8946684704227537,
      2.6767162193477785,
      -0.4380721872176587,
      -3.467985403120604,
      0.577774244746496,
      -3.3973983166821724,
      2.7137306386762097,
      -1.2815208031921796,
      1.7867051203725837,
      -0.15791774549457693,
      -0.11547736620891375,
      0.939840203630516,
      0.025830270058575133,
      -0.9489845652221938,
      -2.9855142675953825,
      -0.9957310169847806,
      0.0029600313421905386,
      0,
      -1,
      -2,
      2,
      -2.994837736546034,
      1.0396920035157342,
      2.1333921354442897,
      0.24077329281363227,
      3.302782058813302,
      2.2657000409307897,
      -2.7077787375761675,
      0.07971445679458947,
      -2.114503519928622,
      -1.2164538092762578,
      -3.2719058440113806,
      -3.4256872816281922,
      -1.5241105076120882,
      1.6497775150924203,
      -0.2946364837141917,
      -2.135403147674343,
      -0.09321182199401809,
      1.8862451802524964,
      1.9710965831792342,
      -1.953688114143034,
      2.0675460070753693,
      -1.966213898091555,
      -2.9890789288429898,
      3.0047461590776603,
      -3,
      -3,
      2,
      -1,
      3.0052740664489836,
      2.0428551836326108,
      -1.8648937903113199,
      1.244542789138778,
      1.3353489940848415,
      1.3971206904877342,
      1.313275867163403,
      -1.8246376238112527,
      0.03019677218937849,
      -2.9522743126235755,
      2.9744046132638853,
      -1.2269746358195555,
      2.568370191529005,
      -0.4134731051361948,
      1.666601493580565,
      -0.2049780002401272,
      -0.1319013931953869,
      -0.09210070915803698,
      -0.027772039268070592,
      -1.9923101877169094,
      -1.948562160986054,
      -1.9636453759392019,
      1.0127708839086387,
      0.005033873656452346,
      0,
      -3,
      -2,
      3,
      0.005438290647870802,
      -0.9545531515309729,
      -0.901827432925832,
      -2.7990643799508046,
      1.3276874409374801,
      -2.7065001985920887,
      0.24009565177764047,
      0.138257312155003,
      -1.9128824477484383,
      2.1267357538993372,
      0.11647348358339325,
      -1.1237240888690188,
      1.7069042506362273,
      1.7304664040180913,
      -1.2609391441776172,
      -1.2553184306421665,
      -0.1777738807135718,
      -0.12593399685606574,
      -2.0462503486237695,
      -2.0153526829705455,
      -2.9659885589334185,
      1.0295460759606616,
      1.0159281567587581,
      2.0065426711101577,
      2,
      2,
      2,
      0,
      0.00890403633449034,
      -1.976018005667419,
      -1.9852312689432956,
      2.0772203849267084,
      3.09739735219354,
      -0.9424948204766893,
      0.9710751672064949,
      -2.054791804432292,
      0.945575367898735,
      1.0460878549747405,
      -2.9770421146052386,
      1.8710470228190061,
      1.7271344406669369,
      -0.19579497877445506,
      2.8039275251333753,
      -0.2638101635217246,
      0.7404637245960485,
      0.7893344839259404,
      -1.097415392409829,
      0.9905991220985148,
      1.0285187168041279,
      1.0320983927831697,
      3.023576035545169,
      1.0116867565942602,
      1,
      -3,
      1,
      0,
      0.01342756389969912,
      -2.9972775489741976,
      -0.02506299843437446,
      0.9692987625740948,
      -3.09285659596282,
      -2.170789364949788,
      0.7654751845249649,
      0.6880425282387754,
      1.6953100597500195,
      0.7293709556653286,
      0.7851986366040743,
      0.7167705422480798,
      -2.3219763689123556,
      -3.224435662953442,
      -0.255439884281095,
      2.699363383213978,
      0.6717064576497918,
      0.730478528871929,
      -2.1533521250087464,
      -1.049478608851732,
      -0.9887283701799213,
      1.016871161046306,
      -2.981448206501889,
      -2.989127106883667,
      2,
      1,
      -2,
      -3,
      -0.0006760862491129473,
      -2.0187468753381204,
      1.9425587862033669,
      0.9161999769922713,
      -0.1250465732184892,
      -0.20929132205241024,
      -2.316155464032675,
      0.5672941361847811,
      2.426435479856463,
      1.3969287998264492,
      -0.5443843969779596,
      1.4881761264580002,
      0.5161038516571637,
      -0.3733504437846821,
      2.605326121681521,
      0.6441364123764001,
      -2.316593778242029,
      0.6873495998728908,
      1.7875167723097056,
      -0.0797687218399009,
      -2.01038517164435,
      3.0217612337116773,
      0.015420067589600042,
      -1.9906003117866091,
      -2,
      -2,
      2,
      2,
      -3.006654552687283,
      1.9671554870223438,
      -2.043570645082019,
      -2.1071496170481923,
      -1.1590062656988585,
      -0.2568897682534538,
      -0.32785822030283074,
      -3.4172840193707987,
      1.4254900859837818,
      1.3384754227687368,
      0.3619037678445329,
      -2.601441220712694,
      2.499948358026676,
      -0.4666780353379595,
      2.543081539983769,
      0.6246398817773658,
      0.7334741330269673,
      -2.2363779986659864,
      1.8128682205706184,
      1.9108897731306889,
      -0.0149778454040148,
      -1.9842251246718028,
      2.0137004209188603,
      2.006000486978078,
      0,
      -1,
      2,
      1,
      0.9962377271408986,
      -2.0203533594682637,
      -0.022636994835354907,
      -1.0747098984787395,
      1.806977907544983,
      -3.3058539377205785,
      0.6522948179907846,
      -0.3839595708368565,
      2.550511256148143,
      0.498361635061075,
      -3.478058926138607,
      -0.47277977635829255,
      -0.41458921336244137,
      1.5753078578029127,
      -3.44776977405441,
      -0.32730224454518525,
      0.7830417460219014,
      1.8029645164072097,
      -3.151868742524651,
      -0.050530702634693656,
      -1.998849275410162,
      0.019946542110812433,
      0.012859060561297025,
      2.002831434941304,
      -3,
      2,
      0,
      2,
      -0.998126953163779,
      1.9974588730107279,
      0.9759245411989849,
      -0.0675013733226545,
      -1.1675653006219184,
      0.7242004622050119,
      1.639545303917137,
      1.605577238000624,
      -0.41083939710449274,
      -3.3793198708480165,
      -1.3411056398017827,
      -2.368311873892774,
      -3.353139488767058,
      1.589924789177171,
      0.6025113124247428,
      2.67955370885417,
      -1.223754839004553,
      1.8353559236945318,
      1.896681478777547,
      -0.03312905523278583,
      0.0035827386551528107,
      2.0196421192551104,
      -2.9855256216229558,
      -2.994023856257995,
      0,
      -1,
      0,
      0,
      1.9984294338576645,
      0.9951036394909836,
      -2.0177714846277004,
      0.9560296378074377,
      -2.1021445850751994,
      -1.192699538252146,
      1.7185386748743459,
      0.659543466791991,
      0.6523002508166535,
      0.679958968469015,
      0.7080040149515267,
      -2.3183847807994806,
      -2.33772154718213,
      -0.34663283472465706,
      -2.3249328091862886,
      -2.2426566384270568,
      0.8524904226294027,
      -0.0848981446198321,
      1.9649699131552134,
      0.0001918029985309472,
      2.995092915453032,
      -1.9908067636456495,
      1.009927697472228,
      -0.9930759849096953,
      1,
      1,
      3,
      -1,
      0.9992733653535845,
      2.9940755223241253,
      0.9862831253991241,
      -0.029914071478721042,
      -1.0469600304790618,
      1.9159685807233713,
      -1.1347217721207583,
      1.793972301951717,
      0.7497548720083221,
      0.7515286076116807,
      -1.2419674461930148,
      -1.258483123621091,
      2.739429651671821,
      -1.2628083397782204,
      2.7786729025442076,
      0.8750417849875486,
      -3.0545343558061617,
      -2.0324985750877187,
      2.0016905495145365,
      3.018932867455932,
      -1.9825044345144671,
      1.007585584470272,
      -0.9966720502378618,
      2.0027085808890086,
      1,
      2,
      2,
      -2,
      -2.0000020656705364,
      1.9976057215656773,
      -1.0105384274880935,
      0.9740324556543729,
      -3.034152028470354,
      -1.0392810088316218,
      -1.0537788784192776,
      1.9121887817857732,
      1.888067755546198,
      1.8765103791716489,
      -1.1230319174204024,
      0.878505382689668,
      2.869171085494074,
      0.8692481047353272,
      1.8931444443289245,
      0.9447817218824157,
      2.9870331862862196,
      -3.0025940656333145,
      -1.9995299835333917,
      0.014136161029982417,
      -1.978886268188356,
      1.0183382404217682,
      -1.9956467337231287,
      -1.9993857017443404,
      3,
      0,
      -1,
      -2,
      2,
      3,
      0.9976871624899716,
      -0.01475359463110245,
      1.9794182737282007,
      0.9820603874718047,
      -0.014770524977468398,
      -0.02790833208016642,
      0.95214374668367,
      2.9553778678371097,
      -0.057861222749218115,
      -2.0558106391532927,
      -0.07377923420894009,
      2.9275799726071483,
      -1.0571929880296531,
      -1.0307750670981435,
      -2.0156942739105768,
      -0.006064880187789497,
      -0.9995109301455073,
      1.006424673649367,
      0.0028662332389670954,
      1.0069010851739912,
      -1.996024191008347,
      -2.997950498964054,
      2,
      2,
      3,
      0,
      1,
      0,
      -1.0004146427460814,
      -2.005589830246895,
      -2.012798476005582,
      -2.015576258649006,
      -1.0141926761791495,
      0.9810789282608364,
      -0.02717527490309483,
      -2.0313952451164994,
      -0.02832436754229336,
      -1.026140210556499,
      -1.0287585615820942,
      0.9773526483813813,
      -1.0201096062828658,
      1.9907171701764095,
      -3.006928195743797,
      1.996051977448033,
      -1.0001010222493893,
      1.0033734398861183,
      3.0042022397857258,
      -0.9973103614625213,
      -1.9969809078329266,
      3.002902078508937
    ],
    [
      2.0313975646967966,
      -1.9700729128564751,
      2.2683284456014206,
      -1.8350404898305557,
      2.0316571817897344,
      1.9942369308644818,
      -1.0375573597429493,
      -0.731425814334208,
      0.03351844005677227,
      -1.988909615522756,
      -0.9485013119025584,
      -0.7814888832185272,
      0.5509469613921325,
      0.3173939312317366,
      0.9993045302222324,
      2.531331230306881,
      -0.008241893326840213,
      2.984701618813465,
      2.9829608455332326,
      -2.016764020835048,
      -0.009628047400105451,
      -3.0029654871249014,
      0,
      0,
      3,
      3,
      3,
      1,
      0,
      0,
      0,
      -1,
      -3,
      -1,
      3,
      0,
      -1,
      0,
      1.0001706489466715,
      3.0016411213776237,
      0.006622778881486559,
      3.0171400352691187,
      -1.9761644864202408,
      -1.9736413532668298,
      -0.9894101269289481,
      0.9928756287358631,
      0.9797089480934735,
      -1.0164634591400532,
      -0.008782263395066802,
      -0.0016360998368799926,
      -1.9975588761349086,
      -1.999611854843644,
      2.000492645775375,
      -1,
      0,
      -2,
      -2,
      1,
      1,
      0,
      1,
      1,
      -3,
      2,
      3,
      -2.9994926959127097,
      2.0084724417820174,
      2.036767020244079,
      1.0746240991484568,
      -2.867142740323165,
      1.1577617424434221,
      2.1372810269191436,
      0.10010906673011873,
      3.0794926665328233,
      -1.9275404806664473,
      0.056173266440111926,
      -0.9759794975652033,
      0.016950722114404838,
      3.0176504845106504,
      2.005554441213484,
      -0.9981115245277292,
      -1,
      0,
      -1,
      1,
      0,
      -2,
      -3,
      -2,
      3,
      -2,
      -3,
      0.0005647154969908089,
      -0.9864096940849116,
      2.077271944961835,
      -2.8199801417363055,
      -2.7427741966234556,
      3.317196951360579,
      0.31082146053315435,
      1.273444555692571,
      3.2625825740520247,
      2.2818320359510786,
      -2.7284121383924567,
      0.1725246840425388,
      0.12643858453842244,
      0.07809575361478015,
      -2.943361065424453,
      -0.9822455117823236,
      2.004186677753666,
      -1,
      2,
      0,
      0,
      0,
      -1,
      -3,
      -1,
      -3,
      1,
      -2,
      0.011797625117630137,
      -1.8905980974897971,
      -0.6926748512753939,
      0.4527666573529542,
      3.5223273530135897,
      0.5337228187544891,
      -1.5054138466386324,
      1.5236733646991412,
      -1.4700738340406057,
      -0.4582732752616772,
      3.4998995512719246,
      -0.6538497182255463,
      -1.7621855692314292,
      0.15621697106363258,
      -0.8871745508029313,
      -0.9644733757352661,
      1.0070786958719942,
      1.0002695999703064,
      2,
      -2,
      -3,
      -1,
      0,
      -1,
      0,
      0,
      -2,
      -1.9955881623069631,
      2.091641767723658,
      1.288335705747777,
      -2.4381574100981758,
      3.760780297760935,
      1.7825971099162876,
      3.7152157342835292,
      0.7240561228674104,
      2.6943637427823397,
      -0.25101092016791504,
      0.7199748145647551,
      -2.3817446043453887,
      -1.593294947948493,
      2.2436404743665905,
      2.1984642156135,
      2.1495493217074926,
      1.055568825017359,
      0.011513660494651818,
      -2.9999466728792172,
      1,
      1,
      2,
      -1,
      0,
      0,
      -2,
      1,
      0.0016623797967993464,
      3.0385893121597674,
      3.199238689986468,
      -2.5385885763496567,
      2.710899290710321,
      -0.19439863455852813,
      3.7915846643580897,
      1.6937045624941343,
      1.6849318932915405,
      1.6486161727731479,
      -1.314630150385059,
      0.6433661784765257,
      0.5098364093543527,
      0.35784879809820275,
      2.2067538002933085,
      3.175046839494759,
      -0.8544391070271127,
      2.0667671784458532,
      2.0171271560535224,
      0.9998345674416589,
      -3,
      -2,
      -2,
      -1,
      -1,
      0,
      1,
      0,
      -1.9874173416689196,
      -1.9088548776820287,
      1.3002704948688384,
      -2.4502933501710125,
      0.6766096932317822,
      3.709456375042514,
      -2.3012137181083565,
      1.6532663813892632,
      0.6855859871375154,
      3.689286074774749,
      2.7101741839484594,
      -1.3475952066217498,
      2.545254682051516,
      0.3496845187822747,
      3.227135535884489,
      -1.8401518596072248,
      3.1428542500284458,
      -0.9183669146608635,
      2.0092000580725293,
      -1.0026718816741729,
      0.9999918031375951,
      -1,
      1,
      2,
      0,
      0,
      0,
      0,
      3.0196896231897314,
      0.12742649526010133,
      -1.644324814669257,
      -0.4721798628824664,
      -0.4554932763120456,
      3.6333743764923145,
      -1.2733475363129387,
      3.861588509660469,
      -0.9521287304445057,
      4.102583809469263,
      -0.9589756107405402,
      0.9988826329289862,
      -0.1140816458853928,
      -1.3454661917398574,
      -0.5879180143925243,
      -1.7545910824592028,
      1.1466561076827984,
      -0.9144376665790448,
      2.9890293678208963,
      -0.009527479620000777,
      1.9987256350490707,
      1.9983847962845736,
      0,
      3,
      0,
      -2,
      -2,
      2,
      3.036340907120729,
      -1.8348623750298507,
      -1.7080247111837985,
      3.3751681298496137,
      -0.7027515027403587,
      -1.494862858391547,
      -0.12499287058631844,
      1.0793163327627995,
      2.1142912275246264,
      3.163232187085735,
      2.2993407936560466,
      2.262845351420446,
      -0.8626687680618202,
      2.8893072489333584,
      -1.367316265252746,
      -0.620826609072262,
      1.1680943749392654,
      -0.9617122867437152,
      -1.02512657044352,
      1.973978833012865,
      2.9839612976358563,
      -2.007654884191996,
      0,
      2,
      2,
      -2,
      2,
      -2.0004137399393036,
      -2.947915890763763,
      1.107463107375403,
      1.1159954955935132,
      -1.8382448997877354,
      -1.9363682060641454,
      1.3336758919851677,
      2.8806180919608684,
      0.9726346063343928,
      3.8193321449340405,
      -0.9838225765106487,
      3.2270508159242177,
      2.237143614345633,
      3.2204838742428943,
      1.0219680184204902,
      -2.2155530909142653,
      -1.5056123626736146,
      1.1999717803828112,
      0.03929960161820164,
      -0.034456485877947245,
      -1.033945378822343,
      0.9797821643690119,
      1.992019116134375,
      0,
      1,
      1,
      -3,
      -3,
      -2.0032946245703047,
      -0.013415041334712427,
      -2.0447814862937617,
      -2.09622895738039,
      2.872453721982481,
      1.9163135091823778,
      -1.72641293719332,
      -0.366078936478759,
      2.631353592162752,
      -0.38045993224802865,
      1.766985026472889,
      3.8229753300160385,
      -1.1221710463085897,
      -0.010608535823221327,
      0.9125311538117381,
      -2.2430855182121086,
      2.4729485487931435,
      2.1902293502531776,
      1.0352384042119895,
      2.955136128898122,
      -0.0400080597983943,
      -2.0175749009148474,
      -0.008994605664150133,
      2,
      1,
      2,
      2,
      2.9989168342577286,
      -2.0169412226420254,
      -2.0661853911899626,
      -2.159048629595479,
      -1.2542790251741693,
      -3.2732327744409067,
      2.8184598625310473,
      3.144972820637542,
      -2.6260628963216397,
      2.492147164283592,
      1.4674758472934446,
      0.5356040444417667,
      -0.49021399619379213,
      -2.440259809847304,
      0.6621668225712886,
      -0.3752642824088107,
      0.6213583844127852,
      2.4346454130478925,
      1.1785613867231768,
      1.9769930897748589,
      0.9382697667365827,
      0.9566610712529887,
      -3.018179890562961,
      -2.0075213533176495,
      -2,
      3,
      2,
      -3,
      -0.0031843826427598327,
      1.9761274867115772,
      -2.1048876016949687,
      1.76488375354142,
      -0.3326183666227706,
      -0.32190289656608456,
      -2.255821180105405,
      -1.9697691601470153,
      0.35943199005845394,
      -0.45658019321540655,
      -0.42203766255144015,
      3.599688915659903,
      0.7073583819668325,
      0.6494441319248613,
      2.585977042849611,
      2.4764396501962147,
      1.445553400577414,
      -0.6542610841739874,
      -0.9001428164333638,
      -1.046424257856134,
      2.9266761447483947,
      -2.038946114668217,
      -0.013971064296671654,
      2.996422276610301,
      -1,
      0,
      -1,
      1,
      -3.003461944978574,
      2.969287812482628,
      -0.10065965214610932,
      -1.1859984500662166,
      -1.297908611827222,
      -2.2710483738826546,
      -0.2942752639523837,
      -1.9665735805080335,
      -1.600415597379013,
      -2.465222091655333,
      2.5435059173142864,
      1.7212200153400008,
      2.006965576669528,
      1.7551234360421248,
      -1.4391548661367872,
      1.3855783644296071,
      -1.6453029610169052,
      -1.7068993306101665,
      2.0227470736326096,
      1.9057340105341312,
      0.9036501737414254,
      -1.0567889595112898,
      1.9812330959526494,
      0.9963883260096513,
      3,
      1,
      2,
      -3,
      2.0020208496235914,
      -3.0245053679658573,
      -1.0652940858121487,
      0.8761707948471229,
      -2.235362628956085,
      -0.28928542104770716,
      0.8810443582146062,
      -2.7843952350769476,
      2.5324947582685287,
      3.481910545303453,
      2.345784995672331,
      -2.440817749478213,
      -0.049520541403230554,
      -1.216885694752642,
      1.5968638203969185,
      -1.5310414981738025,
      0.36093455904145044,
      -1.7792715632505913,
      -1.0093845934013068,
      2.931924616066078,
      0.9261130274338608,
      0.9449210608706096,
      -2.018989550436153,
      -3.0036211803220416,
      -2,
      1,
      -2,
      0,
      2.0044722263891384,
      0.989139055073632,
      1.0145084351930094,
      0.959049295003107,
      1.8063375239612318,
      1.8690580821158445,
      2.025611093072723,
      0.3580643078191261,
      1.5937608858711811,
      -1.5046731013346064,
      2.345467958506061,
      0.6148965470006214,
      0.8829015970809245,
      0.7024024875737204,
      0.5970480198570798,
      -0.4072129996757489,
      0.39436957034305936,
      -0.8320410829172663,
      0.9586471068942983,
      1.949416831079669,
      -2.0529129873870273,
      -1.026076372984878,
      -3.0199625168421385,
      1.9961520015840073,
      2,
      1,
      -1,
      2,
      0.999086685042062,
      -0.972484388504749,
      3.137115562145212,
      1.0978975877184876,
      1.0525785840323727,
      0.122762327466991,
      -1.6966694501171968,
      1.5254945477345678,
      2.7151829996954118,
      1.5706263537968765,
      1.4783668803968713,
      -0.27133918160387094,
      -2.0415837768421605,
      1.6806773321712585,
      -1.3993251766011647,
      2.652232309088726,
      3.486858032060762,
      -1.7621866355688434,
      2.00999286469912,
      -3.0473915094558977,
      0.959373367979864,
      -2.0306307837311612,
      -1.0233435422656936,
      2.990067557425146,
      -1,
      -1,
      3,
      0,
      -0.008054633797839576,
      -1.94927888671857,
      -1.830109981570647,
      0.1974121516082364,
      -0.7583961817982952,
      0.35945150550053384,
      -2.457706323907902,
      -0.18883913197740113,
      3.957144957297717,
      1.8166847337141565,
      -0.4009041591560474,
      2.761053175982391,
      1.8239381291724464,
      3.6792489567764077,
      -2.3341822943384964,
      -0.3801235612532014,
      -0.4795411471029504,
      1.37207779318305,
      -1.8682704447237013,
      0.9947845075701732,
      -1.0291811751176898,
      1.9896788283840001,
      1.9810420806341922,
      -1.0111920536410506,
      0,
      -2,
      3,
      1,
      -0.9894777054743951,
      2.09152548580062,
      2.186979296215085,
      1.2061513590551791,
      3.2157150140946076,
      1.315774112778692,
      2.538361866854091,
      -2.1663567900349108,
      2.130004768338667,
      2.1089197185258532,
      2.9090261094980483,
      1.9003068194065738,
      -1.08529837271718,
      3.8046912500576404,
      1.8464614975200537,
      3.675204518716945,
      0.5420657703670229,
      2.4701600003944217,
      0.2349465739425695,
      -2.966142104387028,
      -0.018453803097913755,
      -0.020470978546645553,
      -3.011929624880525,
      -2.009091114279731,
      2,
      1,
      -1,
      2,
      -1.9754607970645002,
      2.1114580648492454,
      2.146902735122946,
      -0.8034209729920154,
      0.22294517610114978,
      -2.681888604172238,
      0.46529548113487107,
      1.7073351573133848,
      -0.9817417728240091,
      3.11287152217796,
      2.0314817196986787,
      2.0134676289327187,
      1.00599570889304,
      2.009177917781703,
      1.966344315197724,
      -1.1855811105521843,
      2.5334152654927538,
      -1.5836138292042536,
      -1.7597055848418248,
      1.0912718242733273,
      -1.9886464378747,
      -1.0116448528334074,
      -2.0049679295007685,
      -3.0055642391560595,
      1,
      1,
      1,
      2,
      1.0234683979415555,
      -1.9147382590086823,
      -0.8964538638613665,
      -2.8609401176117966,
      -0.7651223453149144,
      -0.6304714277483999,
      -1.4737232102581168,
      1.698973952609936,
      -1.1224656351954283,
      2.9235030231085326,
      1.8518800649673341,
      0.8892126885167361,
      -1.1123945063159673,
      3.950920806560696,
      -0.05686606742765194,
      1.727315924075829,
      1.4617300089616212,
      1.340004564810439,
      2.201480865217065,
      -2.9247639536426133,
      0.011212102670984539,
      -0.006018862175036011,
      3.0011905339381606,
      1.997614902620654,
      -2,
      1,
      -1,
      1,
      1.008466793726522,
      -0.9497026626509499,
      -0.9273890487306736,
      -0.890798334915764,
      -1.8004356045670926,
      -1.6702914353672897,
      1.5219686506168209,
      2.712009743160337,
      -2.195553309161385,
      3.773202752705413,
      3.6916823506388305,
      -2.27779452450908,
      2.714862760111859,
      0.8106048673794184,
      -2.226873323853668,
      3.6239510354754807,
      -0.5711082156785592,
      2.278265427529199,
      -0.8450896779574258,
      -1.9322088550074479,
      -2.9743998644358687,
      -1.9969076070878946,
      -0.9940718031375979,
      -1.99998095580428,
      2,
      -3,
      1,
      1,
      -1.9963952594992693,
      1.0163687168428774,
      1.0387294373282079,
      1.0653549475263544,
      0.12265710967326808,
      3.2190031284906078,
      2.384490589778531,
      0.5562402095025587,
      -2.378222446491367,
      -1.3957365793075398,
      -0.4227136958593707,
      0.5999023358595098,
      -0.3650312433659619,
      0.6801152993185278,
      3.621274933963539,
      0.478533951633496,
      1.3059765380784403,
      -0.8199063951822925,
      0.09562184558629833,
      0.04099358113873006,
      1.0267012002316538,
      -1.995485348214409,
      -0.9943286287700402,
      2.0009666464886977,
      2,
      2,
      -2,
      -1,
      -0.9983601094896642,
      -2.9915633859889437,
      -0.9736293912361026,
      1.0504086358157647,
      0.06964238370774879,
      3.111561029338173,
      -1.8096540242570076,
      1.3384866282115195,
      -1.5796440142182182,
      0.4157579150570815,
      2.405593739722525,
      0.4363134188492129,
      -1.50856322959399,
      1.5189681333999827,
      1.4534501639351771,
      0.2803531587847561,
      0.15214785089637434,
      2.107800426873091,
      3.050114699206579,
      0.0061461553942526006,
      1.986841655481299,
      -0.0003472398524191913,
      2.0046624971912097,
      -0.9971976046920795,
      -2,
      2,
      0,
      1,
      1.0001394436927105,
      2.0046036009257464,
      1.0193026226522386,
      2.0381566247542082,
      0.04913798203201092,
      -1.9362229969438511,
      -1.9044005536530948,
      3.167751445828503,
      -0.7870318556016556,
      2.216060625819811,
      -1.7933461698935425,
      -1.7683003733548899,
      3.2952817404571646,
      1.2890235065930506,
      3.254666527985105,
      -1.8406003372065602,
      -2.924546398245039,
      1.0461682656244597,
      1.0277762715994674,
      -0.013309277692018845,
      0.9741999832213165,
      -1.02096688979395,
      0.9989878082737993,
      -2.9986565950918656,
      1,
      0,
      3,
      1,
      0,
      0,
      3.004711776002722,
      0.02056088273556227,
      1.0307733454674335,
      -0.9660452845152657,
      0.03936568359943864,
      0.07087502255964866,
      -1.9080822771249382,
      0.07763014701095024,
      0.09693063693512151,
      0.1062062756510118,
      3.1446087421301963,
      1.1312496044107876,
      1.1255874573088351,
      -0.9103782877930828,
      2.0488599698833108,
      -1.9803985148950263,
      1.0067938305794322,
      -2.0078258776649407,
      0.9905835007450193,
      -1.0130926177991062,
      -1.0057013141745461,
      1.9976328372923087,
      -2,
      1,
      0,
      -3,
      2,
      0,
      1.0005848926314251,
      2.00658081505898,
      1.0162775552840257,
      2.0206802945852798,
      -2.9753657130255857,
      0.0325593006638547,
      -0.9589338832192829,
      2.0436019845340194,
      -0.9602813770342157,
      -0.9652090361733539,
      2.0398348666476083,
      -0.9714332309976922,
      1.0337312343512421,
      3.0162718310574794,
      -1.9930577822351991,
      -1.99495043514033,
      2.9985387197972364,
      -3.004373381068617,
      0.9951167365283733,
      0.9925005503080447,
      1.9945700042880763,
      -1.0028520086739203
    ],
    [
      -1.031977430728424,
      1.9733828014425818,
      -1.048558043529826,
      -0.7615767855529071,
      3.0054913543466095,
      1.9631562173475339,
      0.20194583149363027,
      -2.6752428048699834,
      1.2584315770920271,
      -1.0064292727223363,
      -0.6541042449979678,
      1.1672573862870663,
      -1.9835530369434713,
      1.7379299452453283,
      -1.7524854048990444,
      -3.021201540640808,
      1.9944375612821061,
      -2.0108838786775394,
      2.9887426906466943,
      0.9900674450140875,
      0.9944705108849207,
      -0.001769542387295143,
      1,
      -1,
      -2,
      1,
      -3,
      2,
      1,
      -1,
      2,
      0,
      1,
      1,
      -2,
      -2,
      -1,
      -1,
      -1.9998733998328821,
      1.0012620139230757,
      1.0032433357009003,
      -2.9944800647700744,
      2.0030102969815475,
      -0.9986706782122567,
      2.990772510049233,
      -1.0178614777924155,
      -0.020113134914807335,
      -1.0128644968445473,
      1.9939959680007817,
      -1.0009606998303806,
      -2.0015603460822775,
      -2.0002360411291793,
      2.9997004093360418,
      1,
      -2,
      -2,
      2,
      3,
      -1,
      -1,
      2,
      -1,
      -2,
      -1,
      2,
      0.00037700421674117553,
      1.004341865393592,
      -0.9850422190862023,
      2.0254738234964953,
      2.0398311021898685,
      -0.9646777711684466,
      0.01923386390457943,
      2.0088790742536706,
      -1.023978865471488,
      -0.04661209731527442,
      -1.0668314859564356,
      -2.0692509169817797,
      0.9653621207876011,
      0.9897908119819807,
      0.9961573950081383,
      1.9988515691214928,
      -2,
      0,
      1,
      1,
      -2,
      0,
      3,
      2,
      -2,
      1,
      -2,
      1.0004202443565353,
      -1.9934189778700897,
      0.023249085950206395,
      2.0388013238528435,
      2.0618778016526753,
      -2.9162384180721417,
      -0.9173586871131848,
      1.015988610009451,
      -1.0716466710625576,
      -0.1333466899989868,
      2.8585952883022148,
      -1.126169313433328,
      -1.123333335577726,
      0.9384639620408414,
      -0.03675526343397038,
      1.98552180957898,
      -3.0037399763648485,
      1,
      1,
      2,
      1,
      -1,
      3,
      0,
      1,
      0,
      -1,
      1,
      1.0068846550862003,
      -0.9686268784675723,
      0.06168920857908218,
      0.09387371311093679,
      1.104709731644396,
      2.060004654496128,
      -0.05838176376246331,
      -1.1983892650713641,
      1.7320513888898712,
      2.6838932374325695,
      -1.2975053183511664,
      -2.2151979928613375,
      -2.1505391423089675,
      -3.077157647989874,
      1.9567256521932164,
      -0.014091669212376944,
      -1.007729294922437,
      -0.00041196242569915197,
      0,
      -3,
      0,
      2,
      0,
      -3,
      -1,
      2,
      1,
      -1.9962804126364042,
      2.0374797553095894,
      -1.9158022029822226,
      1.155189010618917,
      -0.8273722644132052,
      1.0970069628314374,
      0.9017972489549998,
      -1.3065624891085534,
      1.6362504517412575,
      -2.395159046517199,
      0.5777239735536294,
      -2.363362227309742,
      -0.26433084657238987,
      -0.14584876343619696,
      -2.0894863969381374,
      0.9572338276073745,
      -0.0005459852219331525,
      0.9941365343158044,
      -1.0000783459632494,
      2,
      -2,
      2,
      -1,
      -2,
      -1,
      -2,
      1,
      -0.9988616147902906,
      -1.9859214483266125,
      -0.9305376077032425,
      -1.8378956468186314,
      -1.7556603297389055,
      1.2048532340986091,
      0.11120173461892252,
      -2.0245483479086808,
      1.813659264978984,
      -2.25633217858936,
      -3.3981341274459522,
      -1.4183053773331948,
      1.6191384699921347,
      0.7016637464861851,
      1.8295604092811983,
      -1.1014672460053674,
      -0.04407071902976651,
      0.9930927875608818,
      0.9890675635362092,
      2.0004141690422395,
      3,
      3,
      1,
      2,
      -2,
      -1,
      -1,
      -1,
      -1.9961859214131352,
      0.028848945166408766,
      -0.8977891541131762,
      0.2122581358446599,
      -0.6840441376142298,
      -0.6274493796924189,
      -0.7117487158828988,
      0.10168422351531366,
      1.8373249105381018,
      -2.4177361866484746,
      1.457458033019264,
      -1.5820076277326836,
      0.4880595004550732,
      -1.3217215070015949,
      -2.210501991628137,
      -3.110690206745008,
      -0.051685900922223346,
      -1.0225842750095808,
      -0.004623711050661878,
      1.0010975826257362,
      1.999996891425945,
      -3,
      0,
      0,
      -2,
      -2,
      -2,
      -1,
      -0.994238812721536,
      2.0264884514223356,
      -1.8884546660656172,
      0.2229754288136691,
      -2.7037483966169114,
      0.3831871941417648,
      1.247439963865168,
      -1.1147788351755612,
      1.4521611349741308,
      -2.8609399517459795,
      -0.9056454550759103,
      1.218970472949052,
      2.4436293789827563,
      -0.4444593336687035,
      1.5859123243110793,
      0.7580362150696028,
      -2.1091179406082117,
      -1.0412733344081384,
      2.992645685398987,
      -0.9995817925237861,
      -2.000632114979796,
      0.9996808623800738,
      0,
      -2,
      -1,
      -2,
      0,
      3,
      -0.9963244486619676,
      1.0185969671755968,
      3.0780796535922805,
      0.15630886849155098,
      2.1580048075157214,
      2.1118887397567327,
      -1.992123901819207,
      -3.3645948828464003,
      1.1432952965252134,
      -3.000574070498565,
      -2.877359556123769,
      0.25961384203612253,
      1.441101677867889,
      1.5063277710080214,
      2.554433580408137,
      0.7106259884330042,
      -0.11997567645137171,
      1.9541358738328432,
      -2.0140407653155745,
      -1.0042202121785777,
      -2.0028110855428234,
      2.9987967707259093,
      -1,
      1,
      2,
      -1,
      0,
      -0.00022016015360255855,
      1.9916085163138555,
      0.9799672616829005,
      -0.04664061023008492,
      -2.0169753858779083,
      -0.11890120363306303,
      0.7912120730431574,
      -0.3260998786986072,
      0.30097327379595595,
      -1.9986387483065657,
      -2.0915685714521657,
      -1.9643367240476206,
      0.18639964547713603,
      -0.6812096805309319,
      -1.5809075756628774,
      -0.4923702294249948,
      1.6681815845527377,
      -2.1598179446184895,
      -0.0870397484336518,
      -1.022458549871844,
      -2.008551244989399,
      -1.0026571377800833,
      1.9989565414576784,
      2,
      0,
      -3,
      1,
      -1,
      -2.0003842603694815,
      1.9747425387709587,
      -0.09591456562611232,
      -3.2128215263866635,
      -0.33041051369471347,
      -1.520906109257716,
      0.35772582750723936,
      1.262666064079703,
      1.0092951511697725,
      -0.11255565835183555,
      -2.084739529405065,
      -1.9136023358509893,
      -0.7978936779616727,
      -0.7392978948292388,
      -1.604521801432362,
      0.4853741948404051,
      1.601728916118462,
      1.7760347998118233,
      -3.1418399470600162,
      -2.068497941401755,
      -2.017966313638729,
      0.000811845543674033,
      1.99899600137297,
      -3,
      -2,
      3,
      3,
      -2.9986668374819434,
      1.9935291898044583,
      -1.0450098619346588,
      0.8296025860935563,
      -1.3443872085987016,
      -2.5882269760422303,
      2.116265867701888,
      1.014478996106067,
      -1.0193988636794036,
      -0.12516145164568396,
      -1.0325729414524871,
      -2.833415760304455,
      0.38196968944190035,
      0.29011252158852885,
      0.3186358801810053,
      -3.559313680459299,
      -0.49246735450355533,
      0.5962314122483651,
      -0.21524498120711094,
      -0.14624857703792069,
      -3.08194857831905,
      1.975972157533378,
      1.9975687166824139,
      -1.0007684786442475,
      3,
      -2,
      1,
      3,
      -0.9980014996049777,
      1.9964703264235413,
      -0.05870071443216721,
      -0.21762485562203532,
      1.5670907905767444,
      0.2802722377022514,
      0.013737107966938326,
      -0.07545913901607122,
      -2.066255855329429,
      -2.032004326662641,
      0.20130495090490833,
      -0.5029570777974413,
      -0.4404602153243014,
      1.4138761553231927,
      1.3781129487468384,
      -3.5293080794657907,
      1.535281882479285,
      -0.3353621733192379,
      -3.187846400478856,
      0.8821328242207456,
      0.93271198793826,
      2.9751737743264695,
      0.999195783735254,
      0.0015055582930510744,
      0,
      3,
      2,
      -1,
      -1.9960263396466233,
      -0.9934511373358623,
      -3.0482656585722414,
      -2.217022194941154,
      -1.4186990651523448,
      0.25385104289775823,
      2.009466024128921,
      -4.025953173736688,
      -4.049912776233958,
      0.9794496408486765,
      2.156726627642568,
      0.4782375085048721,
      -0.4109157448590144,
      -3.501473620357331,
      -1.5010741203985745,
      -1.4687947990451906,
      -2.4586279157639073,
      -2.376164839048971,
      -0.22566867332476642,
      -3.1186653793962598,
      1.9337695793701644,
      -1.02342959510748,
      -1.0025942392337863,
      -1.9980029435456217,
      -2,
      -2,
      -1,
      -1,
      -2.9886448279420565,
      1.0242753391976864,
      1.994241211298115,
      -0.1353056467199289,
      -2.329051744579535,
      -2.6325324619041086,
      1.1582342956318965,
      -2.017854714831702,
      -2.1129770586137644,
      -0.14062547345268114,
      -2.9813075251882766,
      -3.661216436011346,
      -0.5746815967937972,
      1.455795143110308,
      0.578169922196349,
      2.6532077323927084,
      -3.4044799608504723,
      1.585718500513741,
      -0.238912666295853,
      -0.10409559798880115,
      1.9504857499578783,
      0.9862270680124884,
      -0.0008921865464689167,
      -0.9966751805206064,
      -1,
      -1,
      0,
      0,
      1.0129244001924618,
      2.048684915734374,
      0.016658318199359663,
      2.95777858676688,
      2.761422513532905,
      -0.47115238074302995,
      0.35141649336843694,
      -2.8274037392418894,
      -1.974931122478966,
      0.9505218719559918,
      1.0150118052813504,
      -2.82035675570741,
      -3.714447863002405,
      -0.6416201145388764,
      -2.4521894143827963,
      -1.345609110132308,
      -1.3604307473971453,
      -0.2878926007928697,
      -1.162053926120294,
      -1.0703873089988847,
      -2.025625611678184,
      -0.00419751737646742,
      0.0034555086153228503,
      -0.9955934081797156,
      3,
      -3,
      1,
      3,
      -1.9845179631646823,
      -0.9470339256835087,
      0.05400971426935268,
      1.0061097978969533,
      0.851382045294429,
      -2.323537081771126,
      1.6497198389028553,
      -0.42548716654971247,
      -2.5902227962794124,
      -3.701043816065768,
      0.22906798273162862,
      1.2136789253009532,
      -1.772369743327497,
      -1.698954109328336,
      1.4188342378958523,
      -0.43124040190748614,
      -1.3367987726197026,
      -3.244476756628445,
      0.8767220260847848,
      1.9478838176626452,
      -1.0308112372744496,
      2.9989403365627023,
      1.0101677737537371,
      1.005332042775682,
      -2,
      -2,
      1,
      1,
      0.015729965541532907,
      -1.949184938882688,
      2.070547705775225,
      0.041650173633091994,
      -2.0584653081938775,
      1.8880950156503449,
      -3.091803271470028,
      1.870822189140451,
      0.7661691399393028,
      -2.289627232141635,
      -2.401410038425909,
      1.432520518956212,
      1.4128544479901617,
      -2.682990784685131,
      2.3447385744357976,
      -3.507820566955288,
      1.614745258549785,
      -0.3004586037635791,
      2.8492340854103917,
      0.9398335624571135,
      2.96954164426054,
      1.9934528863876622,
      -1.9937020620855836,
      3.010994905728945,
      2,
      0,
      1,
      0,
      -0.9905181909093018,
      2.0482579597867585,
      1.072856010447236,
      0.0849757264961001,
      2.071215963122593,
      1.0361492201091376,
      1.0652863053532904,
      -1.92053361472693,
      -1.0008860642834585,
      2.9149405439068543,
      0.9117492665087993,
      1.7557386088935927,
      -0.36497543154579365,
      2.4745178913208967,
      -2.5597778333599903,
      -1.4831662272926367,
      -1.4228723960143437,
      1.6825470880595415,
      1.8438267793150045,
      -3.058872286120792,
      -1.0335087803623537,
      1.9787975723965463,
      -0.005441873066692012,
      -2.9927016604454715,
      2,
      1,
      -2,
      2,
      2.0058841052785747,
      -0.9474639889225978,
      2.1010484009541077,
      1.1409687227500191,
      1.157694355279781,
      -1.8102030174845902,
      0.158503456184046,
      1.0845138882746492,
      2.9940389191098222,
      0.9848227411151667,
      -1.0087914124997257,
      1.8764081132337163,
      -2.3129667020566593,
      0.6071407306732088,
      2.5630073162192026,
      1.546050611638272,
      2.624215161274911,
      -3.2082023076513044,
      1.9162451797878022,
      -2.0597771272027074,
      -0.05362611534455035,
      -2.033862099672267,
      -0.012281991768719785,
      1.0021984787521647,
      -2,
      0,
      -2,
      0,
      2.0070739418004373,
      -1.9530214390716578,
      -1.9231504709421667,
      2.1282955435778947,
      -1.8511499066647747,
      0.1790852947934374,
      -0.880059473690848,
      1.9485922623470597,
      -2.139579262835086,
      -1.1601353520041102,
      -0.15804477329380182,
      -0.22448505085720147,
      -1.2925015463004488,
      2.635835353894372,
      -2.3875476571463574,
      -2.4176803412313173,
      2.6968246180074726,
      -0.13280090237637165,
      -3.030049634795668,
      0.9496398926546454,
      2.968763871671022,
      -3.0131242971601915,
      -1.0022939944000415,
      1.002110481548682,
      0,
      1,
      2,
      3,
      1.0064292053666828,
      2.0303009077783685,
      1.046311934907082,
      0.06469773986287415,
      1.0662184577877722,
      -0.8952621721475592,
      3.0507184166070753,
      -0.08320827893588215,
      0.8525942346720298,
      -0.21287314189262438,
      1.7348099824298568,
      -3.3012523966588248,
      -1.3249442951970851,
      -3.3460269394712547,
      -0.36157280145343434,
      -1.3586545507697472,
      0.7381347867111727,
      -0.10298052898540352,
      -0.06781514668711017,
      -1.0565139899618043,
      -2.0244074607841642,
      -0.9908099311302606,
      0.0014176353874840771,
      2.007091974570534,
      -1,
      2,
      2,
      -2,
      2.0013195186812127,
      0.013255197501294298,
      0.02064406129514753,
      1.0288816833440597,
      0.05559651104723233,
      -0.916691614558006,
      -2.9580082303415076,
      -3.039002889833016,
      -3.0839897452749785,
      1.8664178789111798,
      2.7844902954517594,
      1.745379437113679,
      2.7219746323013863,
      -2.324420816384048,
      0.6905222955992615,
      0.7293336016647963,
      -0.1694542190063963,
      -1.077597093396051,
      -2.0738598038657545,
      -0.037706730511685646,
      -3.0092602225125855,
      -1.0050187378223574,
      0.9999369631481256,
      2.006276548823797,
      0,
      -2,
      3,
      2,
      2.000794460655277,
      -2.9931046987594634,
      -0.9911165696040262,
      -1.9876839895129543,
      0.02055904128276297,
      -0.970867536127911,
      -1.9876784232452804,
      -1.0414817308495568,
      0.925638762149731,
      -0.10553637126210415,
      -1.139659143528621,
      -0.17159919331093357,
      -3.2305779512337898,
      -3.251492165174873,
      0.7624192036944533,
      1.8032919309930764,
      -2.132717488249911,
      -2.0842798792699946,
      0.9437041859197497,
      2.9782996519165463,
      -0.9884369683039093,
      -0.9996743836186279,
      0.9978173526185448,
      0.0018693094450602597,
      0,
      2,
      1,
      0,
      -1.9999159030333837,
      2.0030351890176563,
      -0.9953549272070693,
      1.0069662594892428,
      1.001907040913799,
      -1.0101956592819683,
      -0.014055305011566106,
      0.9710801297387972,
      -1.0455720472385095,
      -3.0774608449727237,
      -3.0888917545907346,
      -1.1150599969017354,
      -1.1438573492985329,
      -1.146610524422125,
      2.861851156757394,
      -0.10758225092029304,
      1.912908068307411,
      -2.051728304169099,
      -2.0303289448875446,
      2.994590870849127,
      -0.9794371457752318,
      -0.983474505457164,
      3.0022242272952475,
      2.0019966368747735,
      -3,
      0,
      -1,
      0,
      -2,
      -2,
      0.0007436152338380074,
      -0.9920341339366148,
      1.997000612514859,
      -2.0137927058774063,
      -0.01942019713698775,
      -2.036304070235111,
      -2.0340061565926235,
      2.9496354117451054,
      -0.04839512787848199,
      -0.04629062135422335,
      -2.063244238567847,
      -0.05526578285689283,
      -3.047784726041649,
      -1.0451262553701204,
      -2.0379120982005636,
      -1.0047494013765546,
      -1.9904972655715811,
      -0.9861780159281818,
      -0.9932753975929262,
      -0.9925370288102007,
      0.0035791232815067203,
      2.002990203886946,
      0,
      1,
      -1,
      -1,
      3,
      -1,
      -1.999789325592897,
      -1.9970184407541816,
      0.006421034935358983,
      1.0035952907852004,
      1.99307670272263,
      2.987835570614963,
      -0.009853835406334721,
      2.9883301156023703,
      -0.006127214253369389,
      0.9859243821976251,
      -2.0148582979802256,
      -3.0036850721557338,
      -1.003169980458798,
      0.00408959362433437,
      0.002921730586447246,
      1.009891913897598,
      2.0090149996882616,
      2.0204859167154425,
      -1.981733230932889,
      3.002663331043468,
      -0.9976152249329937,
      -2.996839706959985
    ],
    [
      1.815312929658947,
      0.8446534498449033,
      -1.5039556550775992,
      -1.770473107434271,
      -2.3826446958843808,
      2.504979847570549,
      -0.2283786887442309,
      -1.6040446629683573,
      -0.18487395212361574,
      -2.0418032956287515,
      -0.08996319840506933,
      -0.6825903440145192,
      -2.4152781958090266,
      -0.7520273833898479,
      -2.7009445222906514,
      1.0705205337542658,
      -2.0085257233682325,
      -0.015548134265818053,
      0.9840821412696565,
      -0.015796473189315836,
      -0.009560313614676644,
      -3.002896753266015,
      -2,
      2,
      3,
      -2,
      2,
      2,
      3,
      0,
      1,
      -2,
      0,
      1,
      -2,
      0,
      -3,
      -3,
      1.9998882667328175,
      -0.0011165733142568853,
      -2.0044007334417526,
      -1.014491549677724,
      -2.036082118338932,
      -1.055598722750049,
      1.9193693498732818,
      -3.0902255735984276,
      0.9200934329734082,
      1.9427476514676203,
      -2.034701719292267,
      -1.01232864766915,
      -2.0013009786923335,
      -0.9999129486246777,
      0.00011048828406286484,
      -1,
      1,
      0,
      2,
      2,
      -3,
      -2,
      -2,
      2,
      0,
      3,
      2,
      -2.0003327829306166,
      -2.004737328732522,
      -0.018641324797230276,
      -1.060159522253219,
      0.879800721717477,
      0.8237117481879456,
      1.7820635507236682,
      0.7763583669775572,
      -0.20885320987561995,
      -0.14898978284015651,
      -0.1045661148648159,
      -0.0673057439941985,
      -0.03436236654637352,
      1.9938527398468853,
      -0.0014375780475396798,
      2.000423538422241,
      1,
      -2,
      -2,
      0,
      3,
      0,
      3,
      2,
      1,
      0,
      0,
      -1.0003709963386611,
      1.9923471234889427,
      0.9723907500290719,
      -2.0884698780651227,
      -2.164779812950116,
      1.790388174799893,
      2.7625553489927634,
      0.7389280116093757,
      -0.27150304407468234,
      0.7806761174481189,
      -2.1424676510607132,
      -0.09558058238808508,
      1.9581852371203086,
      0.9631872451123756,
      -1.0190165864445042,
      -3.0052494698698093,
      -1.9980510103628848,
      2,
      0,
      0,
      -1,
      3,
      2,
      2,
      -2,
      -3,
      -3,
      -3,
      0.9934728943636636,
      -1.0174401712448806,
      -2.044001250594037,
      0.931093484235025,
      -1.0692868977535805,
      -1.1016547190651684,
      -3.1961060685949962,
      -0.26119900310569416,
      1.7759971626572992,
      1.8710857534509016,
      -0.044906092672272996,
      2.993699716922268,
      0.03319905513242855,
      -0.9913154346657045,
      1.03645627592471,
      1.0220381038405522,
      -1.9917699968090572,
      -0.9995276841476731,
      1,
      2,
      1,
      -1,
      -3,
      0,
      -3,
      1,
      2,
      -1.0014234718584953,
      -2.0146513738382335,
      1.9595043864719996,
      -0.9808424406492147,
      0.1050579855988246,
      -0.8746223481720873,
      0.00920284873618519,
      0.8698480330512932,
      -2.1796830704468784,
      -1.1164350474873452,
      1.9151498787959258,
      -2.9910953384618315,
      -0.9201589866865362,
      -2.962640679951295,
      2.05252786424627,
      0.07811119353832068,
      -0.9481455110176438,
      -0.9882760878132546,
      1.000067134502456,
      -2,
      -2,
      3,
      0,
      2,
      -2,
      2,
      -2,
      -0.0010133462835807715,
      -0.002469892502585457,
      -1.053847147173659,
      -0.03370239574288602,
      1.0309352389933493,
      1.1024867093953274,
      1.0861178501342506,
      -2.038946847098111,
      -0.21032051163435186,
      -2.3747091382658,
      1.5359361499735698,
      1.5386843192590358,
      -0.2577239474024326,
      -2.1226855246987473,
      -0.1102448881567109,
      0.9872256770637811,
      -1.9079389082366922,
      0.05255450272892119,
      3.0068130373697866,
      3.000338663426099,
      2,
      1,
      -2,
      1,
      -3,
      1,
      -2,
      2,
      -0.0008639547079516998,
      2.9893589960296105,
      -0.06464574932528092,
      -0.11010935996246791,
      2.8750431647714727,
      0.843978983275695,
      -3.314095995665746,
      -1.5074692458418344,
      -1.655189528402502,
      -2.8214051066941925,
      1.1332789312138392,
      1.1914376129037874,
      -0.45873767415169175,
      1.7619406223587826,
      -1.1744873507052924,
      1.9619287149304654,
      1.0710733196638043,
      -1.9396575491063313,
      -1.9932586871928413,
      -1.9989013463593814,
      2.999994467289574,
      -1,
      2,
      -1,
      2,
      0,
      2,
      3,
      -1.0024341158565848,
      -1.0331782982040665,
      -1.1191539928308558,
      1.777978089141208,
      2.621667906049248,
      2.4217697085972714,
      0.31634168492941306,
      2.134176381285294,
      -3.0264404584631133,
      -4.045655926335201,
      1.1446055596833875,
      0.36898101111923226,
      -0.2817229724337218,
      -2.132578594662338,
      1.859401486686801,
      -1.0390980880833363,
      2.05449734633041,
      -1.9489645251174843,
      0.9977049481104654,
      2.9978658687927515,
      1.9988496309243704,
      2.9985954315008354,
      2,
      -2,
      -2,
      1,
      -1,
      0,
      0.9946562612918315,
      -1.0695538576449009,
      -0.21800806184445087,
      -2.393190022907873,
      0.3500266327697901,
      0.05770411205192557,
      -3.862203553020753,
      -0.8342211064584256,
      -3.098637711567149,
      -0.9680049947099483,
      0.4146776631086487,
      -1.4329270798136198,
      2.7559985777500544,
      -1.1692894804950202,
      -1.1403289553885165,
      -1.017455259005817,
      1.0378809077362763,
      -2.9823110816892573,
      1.9788762534395146,
      -2.0185686872898603,
      1.9885315075548617,
      1.9935925466909619,
      -3,
      0,
      -2,
      2,
      2,
      -1.0003067034111421,
      1.9836983979760143,
      -0.12372065742980518,
      -2.3590163168369656,
      2.3978868665489976,
      -2.0640896076061974,
      0.6573672325204412,
      -1.1932006978763026,
      -2.199361179888683,
      0.7112053389832874,
      -2.0580854367306665,
      1.4995702952125998,
      2.6532666047670306,
      0.7580728274568934,
      0.8517825228272299,
      -0.08428651055897451,
      3.0109525132567367,
      1.0334908649024954,
      0.012583316108498133,
      -2.0303600146023624,
      2.9731645469084156,
      -1.015274397536722,
      -3.0063003133802133,
      2,
      2,
      3,
      -2,
      -3,
      -2.0006115010085397,
      -0.05080041986628774,
      -1.2156176931782294,
      -0.5161386726854765,
      -2.9539747842752506,
      -4.516200118375327,
      0.20065647265199346,
      -2.7501615981917418,
      -0.8493942758272128,
      0.23331882294824072,
      1.6597601509522806,
      -2.799165142694405,
      0.44939344841870066,
      1.5656848682751185,
      -1.2999171507125358,
      2.8531780102320705,
      -0.039303664339043545,
      0.9764037493625753,
      -2.0375423710054354,
      -1.0598347792208316,
      1.9577316836071372,
      -1.0123277285810184,
      0.9929387197118011,
      -2,
      3,
      1,
      0,
      1.0018901782416698,
      0.9879980251265824,
      -0.0825604156166875,
      -0.29884356698193026,
      -2.6802761390256475,
      -1.2207559588468202,
      -2.8805284108769125,
      -3.1497441158847757,
      -2.1665664167955216,
      -4.3699170186273,
      -1.187539261851647,
      0.44440597443655105,
      0.048473609911067056,
      0.20122299029525623,
      1.320901819804062,
      -2.5024991823396485,
      1.6740596409191097,
      1.832008277383607,
      1.8850427526983804,
      0.8708214039372547,
      -3.092867685334363,
      -1.0634995837737304,
      -2.017725701225747,
      -0.005855705405598506,
      2,
      0,
      -2,
      0,
      -1.997329764122533,
      -1.009901558803487,
      2.893586937241131,
      -0.36378288856714136,
      -2.798028006201576,
      -2.388684628601868,
      0.04834816288352782,
      -2.205030112989702,
      -0.20935023884484874,
      -0.24267335662541747,
      -4.98333238410161,
      -3.3283827092229084,
      -0.8357456752760333,
      -3.644064748746405,
      1.2960778764603988,
      1.3576096943732954,
      -2.445096728539065,
      -0.23120040470075826,
      -1.214855294723372,
      -0.17830663551262907,
      2.8831932289619386,
      0.9358338401310786,
      2.986240293609307,
      -1.9993147133727052,
      2,
      1,
      0,
      0,
      2.0041736436059168,
      -2.005437539321349,
      -2.1041297287454834,
      1.6211083163814364,
      -3.8011186603158187,
      -1.3937307876761773,
      -2.866170427767116,
      -0.010223835875685774,
      -2.006964978623079,
      -2.976059700752672,
      -0.7091040743234003,
      -2.1855135072075855,
      -0.6946585776478187,
      -1.6239717328200047,
      0.29700178527524385,
      -0.6284239444650324,
      1.4761726819287564,
      -1.4222312836977085,
      -2.362574437420487,
      -2.239634168316809,
      -0.14447380311527874,
      1.9262167362757907,
      -2.0188558380796464,
      1.0008542171481922,
      -3,
      -1,
      2,
      2,
      3.012615556458206,
      -0.996244972927775,
      -2.0683832197805,
      -1.3027323077017672,
      0.3143525542294678,
      1.782047447271198,
      -4.58956103015502,
      -3.729685201084709,
      0.24824260223007502,
      -0.7999026076340754,
      -0.7198155229064283,
      -1.2326384888670083,
      -2.7956029936262614,
      1.2048806936900536,
      1.2813291741513742,
      1.4948186767274039,
      0.506008355634955,
      0.4530115795964571,
      1.5458871141618862,
      1.7255709040307077,
      -1.1387791502439109,
      -2.0729969962649504,
      -0.016352319106684037,
      2.001747290472707,
      -2,
      -2,
      1,
      0,
