{
  "input_neurons": [],
  "layer_one_neurons": [
    0,
    0,
    0,
    1,
    0,
    0,
    0.91,
    0,
    1,
    0,
    0.982,
    1,
    0.737,
    0,
    1,
    1
  ],
  "layer_two_neurons": [
    0.051,
    0.555,
    0.001,
    1,
    1,
    0.028,
    0.485,
    0.002,
    0.063,
    0.015,
    0.001,
    1,
    0.622,
    0.004,
    0.961,
    0.873
  ],
  "layer_one_weights": [
    [
      1.922905778333588,
      -2.0557737302284558,
      0.6835674718804802,
      0.6428458924859285,
      -3.234190698015659,
      1.8495588173769415,
      0.17196115360401193,
      -1.4089037962209507,
      1.1410914212839571,
      -3.023721662467026,
      -0.7780662882629901,
      -2.422309443802693,
      0.9884042846186516,
      -2.517564000428681,
      0.2857716198860849,
      -3.215912139286195,
      -0.992499264147107,
      3.012604771222507,
      -0.9872200801584975,
      -1.9870267078778159,
      0.00956598420707104,
      1.0027887267536357,
      -2,
      0,
      -2,
      2,
      2,
      -1,
      0,
      0,
      -3,
      0,
      -1,
      3,
      -2,
      2,
      1,
      -2,
      2.9998255941058964,
      1.9974141974917075,
      -0.012638402349383557,
      -1.0352243725949914,
      -0.056031596717456354,
      0.9327452823886954,
      -3.0573105859234313,
      0.9685685894555843,
      1.9874273734254198,
      1.0014385451939676,
      -0.9982340914424171,
      -1.0012078443533494,
      -0.00416239759996859,
      1.9987563684534344,
      -2.0008314245977012,
      0,
      1,
      3,
      -2,
      -2,
      0,
      3,
      2,
      1,
      -2,
      0,
      0,
      -0.0006387126509044667,
      1.9864981987545782,
      -1.0619835904160377,
      -1.1333890020724233,
      -2.2354040888545477,
      2.6895747892846273,
      0.6930839784441011,
      -1.2518643267742549,
      1.7825452785067784,
      -3.1895078249071567,
      -1.1412327988171738,
      0.9082643987006354,
      -3.0666569042205,
      0.9556006691032918,
      -0.01667280760964656,
      0.9967746654859314,
      2,
      -1,
      0,
      -1,
      2,
      2,
      -1,
      -2,
      -1,
      -1,
      2,
      -0.0008967701477744227,
      -2.027605347552937,
      2.8859552079116386,
      2.728523228314653,
      1.5535376606534193,
      -1.5773817750136194,
      -3.615163955845662,
      -3.627515515594933,
      -3.653518500892675,
      1.3774702954506104,
      -0.5490286897036661,
      1.6250366814135715,
      0.7200763195256376,
      -2.19283174364924,
      -1.1108256226674158,
      -2.0353850594974974,
      2.9929578119519777,
      0,
      -2,
      2,
      2,
      1,
      -2,
      3,
      0,
      -1,
      1,
      3,
      -0.02750048093700147,
      -1.146619778737909,
      1.612464952265048,
      -1.6302526730725722,
      0.18293990990893955,
      -1.9209846985716996,
      0.035183204529033375,
      -0.06703946588876009,
      -2.1281805573649515,
      -0.01661017981870147,
      -3.8800571873934016,
      -1.6433113394004124,
      0.5331115043546649,
      -1.3057385716047514,
      0.8370011228643748,
      -2.0459383312893347,
      0.9895808279960773,
      2.9998077018887876,
      -2,
      3,
      0,
      -2,
      1,
      -1,
      2,
      1,
      -3,
      -0.013571576053846734,
      0.8777610666466834,
      -1.3576831931869162,
      -3.6984316401010453,
      -2.0119932989747977,
      -1.1861265896283317,
      -3.163435099372294,
      1.8633457724777986,
      1.8405281704103549,
      -1.2412573774833724,
      -4.174494720056817,
      -1.9902818886491394,
      -0.7609415118969092,
      1.4764626312332816,
      -0.35811572260374225,
      -0.1773074298613766,
      0.9570300451127784,
      -2.0174544034936597,
      0.9999260647992082,
      1,
      2,
      1,
      2,
      2,
      3,
      0,
      -1,
      -2.0054934265655446,
      -3.054335340034026,
      -2.2280342348568656,
      -3.5109058658124264,
      -0.9195206078200963,
      -3.1921065028239672,
      -1.2210314358294394,
      -1.9530447136912952,
      1.1563095208107588,
      -0.8855715653810965,
      -2.1072456228819845,
      0.8803596787997136,
      -3.018281606930125,
      -1.9275943481219635,
      -2.643553644331011,
      1.600677079553711,
      -2.182847407834315,
      1.9561414788735476,
      2.9893714269164025,
      2.999290500621973,
      1,
      -1,
      1,
      0,
      2,
      2,
      -2,
      2,
      1.9867532411363722,
      1.8967959651441162,
      -1.2913926908054392,
      -3.6315065888655544,
      0.01211548687868872,
      0.8204073322136816,
      -4.204203899503364,
      0.9507885378859106,
      -1.050801004202432,
      -1.14617236071889,
      -4.329698683743667,
      -3.490289322967398,
      -1.4386045661648468,
      -3.238745839919206,
      0.09094822446632274,
      -1.496513808670521,
      0.7485594529443877,
      1.9321829233837995,
      0.0020285771843083587,
      1.0023160303276621,
      3.0000077114806296,
      3,
      0,
      0,
      3,
      -2,
      1,
      3,
      1.9746059709429356,
      -1.1449486897719605,
      -3.372695661226249,
      -0.755856965829798,
      1.9641964002894023,
      -2.355570722326498,
      -1.4824612312218073,
      0.5084099267770851,
      -0.7010794509485765,
      0.16925889060044555,
      0.09452368359204366,
      -3.0324220524143852,
      0.005108354046706664,
      -1.6895412277851465,
      -2.1857043632738407,
      -0.6924442720202796,
      0.6474803525423354,
      -0.08822379538658381,
      2.0272160877758107,
      0.00900667711949357,
      2.0015504287658086,
      2.002050873554624,
      -3,
      -1,
      1,
      2,
      1,
      1,
      -0.04265528888637344,
      -1.18203209970179,
      -1.3806227440023486,
      -1.692990197116198,
      1.1094981970254059,
      -3.420154064811589,
      -0.6222347838895576,
      -0.48155843486687955,
      -3.627980349496346,
      -0.8362345873997308,
      -1.0679030873591555,
      -3.2502220702922635,
      -0.17936692733204435,
      -1.8212534278021821,
      -3.3341246075815683,
      -1.8835228199969403,
      0.581402258585742,
      1.9174385251698705,
      -2.95270962643146,
      1.0305987621129196,
      -1.984716752057774,
      -0.990959150019302,
      2,
      2,
      -1,
      -1,
      2,
      -0.9992891415662425,
      0.9588195674313293,
      2.8875927423118464,
      -1.2055263942395467,
      -2.4152629779521293,
      -1.624092306610768,
      -3.1457754913597276,
      -2.2557961996181324,
      -0.023736688222063478,
      1.0107980469084528,
      -1.37867439012526,
      -2.725911426866809,
      -4.949309384673097,
      -3.0884226247286937,
      0.2454983638835178,
      1.660329126775659,
      2.0403792854391383,
      1.5349003309511904,
      0.9145940055968855,
      -1.931304107335726,
      2.0469235279498945,
      1.0202010817836,
      -1.9904045827465109,
      1,
      -1,
      -2,
      1,
      -2,
      -2.9940591302154314,
      2.0224857421852684,
      0.05963206007483304,
      1.0953878634490912,
      -0.05502639099965183,
      -0.4421667325465369,
      -1.8355623557560505,
      1.3318060579057827,
      -2.339812704138399,
      -3.4871451525201533,
      -1.746832609806769,
      -0.9591325681975233,
      -1.3534246964796048,
      -2.72933252764861,
      0.4282667250769091,
      -3.2737402407937117,
      -0.9087075615758858,
      -2.4536395162397135,
      -0.08899711572598201,
      -2.9121599573185186,
      0.051871841579948674,
      2.0184707830865447,
      -2.9907251514529705,
      -1,
      1,
      2,
      -1,
      1.0009644818845118,
      2.023939596550588,
      -2.873702142864389,
      2.2835087792165893,
      0.3624261290588138,
      2.1611109149939245,
      1.6208787135153573,
      -2.619446702710769,
      1.7951016182625197,
      0.8183013485231911,
      1.6903147495193969,
      -2.3804952816708607,
      -2.364628709032424,
      -2.764046681580734,
      -1.1927855922389843,
      -3.1801900576745066,
      -3.053498392124459,
      -2.788821022449597,
      -2.4163900726348495,
      -1.0661317631651628,
      -0.8991041770764477,
      -1.9413164387678683,
      1.0255614756176357,
      1.010184030036398,
      2,
      -3,
      -1,
      2,
      0.004308507251047338,
      -1.954358456486162,
      -1.7662246576804053,
      -0.5561223187796088,
      2.4665660604428665,
      -2.7544939579942205,
      -1.256205821461061,
      -1.446401498816888,
      2.743131716088028,
      0.5302532437044273,
      -0.6394260816770837,
      1.4079921490592402,
      0.37057235109400893,
      2.201265850597482,
      -0.07126586171717443,
      1.9433210603375033,
      2.1533196949057305,
      0.3454594504648967,
      -0.35254270734617826,
      2.9076734080611466,
      -0.9259579177893125,
      -1.9434833779135943,
      1.0307403561680086,
      3.0072502093601443,
      2,
      3,
      -3,
      2,
      -1.9971707545574862,
      1.0721578669744736,
      -2.7448350825855212,
      2.3828075680023364,
      1.403923078616719,
      3.1487486210116318,
      1.7482426522200512,
      1.49879309109538,
      -2.5564846653459905,
      2.204235073214134,
      0.9790943636211271,
      0.9179654813061974,
      -2.206194439088201,
      -0.12397859418503432,
      -1.1721364510526773,
      -1.001700988234194,
      -1.7542095715004948,
      0.39915771451841314,
      -3.3425444200774876,
      1.8740591377864286,
      1.0401509836797584,
      2.073651654177381,
      -1.9623172633504549,
      1.0091605882977848,
      2,
      -2,
      3,
      2,
      1.995051333712185,
      1.0731577941225867,
      0.20789553221628249,
      -0.7462647899481323,
      1.2254171029446719,
      -0.00009971968259761392,
      -1.4849927226909314,
      -0.655425130898031,
      -3.7920331609222453,
      -1.837485175847063,
      1.1557112003045338,
      -0.949795019507573,
      0.7611652044168816,
      -1.2146924809836046,
      -2.1369151025298825,
      2.082444998499439,
      -1.639022312145743,
      -2.50643676843859,
      1.6881009042486952,
      -1.1684623675186354,
      0.0076785389594630155,
      -1.9272265798543131,
      3.041707627045197,
      -0.9916227188984224,
      2,
      -1,
      -1,
      1,
      0.0023980592700771283,
      3.054361652267253,
      1.0992722264889105,
      1.0678933178916712,
      -0.9175016282254213,
      1.7704309423262414,
      -1.6138556378144104,
      -2.7443319218571385,
      -1.8312969142847162,
      -1.770749185467354,
      1.2418458216885322,
      -0.9611216881268644,
      0.7754420927840785,
      -3.0886099300889773,
      -1.9369365746388858,
      1.1608687327119913,
      1.4615739203308096,
      -0.38365393196027314,
      2.7468891426773676,
      1.836023852017669,
      -2.0127811722659112,
      -0.9387174129060839,
      0.046443727487624785,
      2.0126068152988394,
      -2,
      3,
      -3,
      -1,
      1.0013832032192085,
      1.017757928705637,
      -1.0327057165860967,
      1.8389977121050307,
      -0.22996695341415596,
      0.47475766515454015,
      2.1847272883863136,
      -2.7823044429776584,
      1.161629836751446,
      -3.8028669306903393,
      2.126098030376686,
      -0.16494212628641236,
      -3.443113860326718,
      0.8988766477280054,
      1.1553361562123772,
      -3.792214844609247,
      -2.579891726739956,
      -3.4353115315323834,
      0.6874518479330263,
      -1.172194141429835,
      0.9791238900540156,
      0.0654180494097686,
      1.0579321852556136,
      1.0230877086029446,
      -1,
      -1,
      -2,
      2,
      2.0096347143512885,
      -2.0055935437101255,
      -3.124352527803418,
      -2.2923500764369784,
      -0.43553738655459917,
      -3.730340528979246,
      1.0604179550829946,
      1.03158466583589,
      -2.986097745376885,
      -0.9636740717449487,
      0.9350736353552421,
      -1.4404135829147091,
      -3.5606636719140154,
      -0.3372470773254826,
      -0.09410893317487275,
      -2.920733669431824,
      -0.7459141193075115,
      -0.6667081418068392,
      -2.482399862032965,
      -1.2399969388547665,
      -3.0527013780100187,
      2.029601022667349,
      -1.9554523783881352,
      -2.9773496066965452,
      2,
      2,
      0,
      1,
      0.001679240886505598,
      -2.0439641985868446,
      -1.2144914500567319,
      -0.38875256979408135,
      -2.4671228880535043,
      2.273398558376021,
      -0.9653123355131294,
      -0.1407383270479289,
      -4.3539564969885465,
      -2.5291653285193263,
      -4.5903558848216495,
      -0.7380434432067484,
      1.1939588947106885,
      -3.6642062445587946,
      0.5427587090484394,
      -3.094263027478754,
      -1.943626280966163,
      -1.8619367722740252,
      0.4112221182276225,
      -2.268859324656417,
      -2.0786631082608884,
      0.02324598415168723,
      0.033233932095284205,
      2.021797825023968,
      0,
      0,
      2,
      0,
      -0.005230886925883901,
      -2.061900343097913,
      -0.21793937656354173,
      -0.4218462170692272,
      -0.5646277987134473,
      -1.8060621717196335,
      -0.05346588919151754,
      -0.31779851217251176,
      -3.6403664114394094,
      -0.9328746565949644,
      -4.935998308121306,
      1.1123688750477359,
      -4.939368448818893,
      -1.8102166417974892,
      -3.540359682892516,
      0.7407912204456163,
      0.0203432791345084,
      0.1821427683952337,
      -3.527637674016775,
      0.7339454555231723,
      1.8936286205974842,
      -2.0058454100855783,
      -0.9802407053550765,
      1.0175957972523975,
      -2,
      -1,
      0,
      -1,
      1.991427745282775,
      0.9372719196454371,
      0.8246535880198529,
      -2.3343535809089855,
      2.409023630295175,
      -3.9315352518538953,
      -0.1837353412351353,
      -0.3914375092378143,
      -0.6039541533552265,
      0.15960710977477974,
      -3.8011824764330586,
      -0.7587961482839382,
      -1.799283169350665,
      -4.766326592541595,
      -3.4934762323486783,
      1.8007309651401544,
      -1.9174821795439922,
      0.33060913001159553,
      -1.4012919380834385,
      2.81241692223353,
      1.9314899757951187,
      -1.0002204392419545,
      0.008798842188282148,
      1.0067076530110763,
      -2,
      0,
      2,
      3,
      -3.0095519972161346,
      -2.0696250987881837,
      -3.160236209216826,
      -1.2614468173423223,
      0.5097659461763094,
      -1.7807934095485738,
      -0.09240912142500304,
      -3.29856144119421,
      0.5796186518763154,
      -1.540888469122059,
      0.49265960744873166,
      -4.504836132014565,
      -3.4809031350993056,
      -2.462320913768426,
      -3.2104585121021403,
      0.02579477435509984,
      -1.7172650767411812,
      1.5228841237652995,
      -3.273616918391083,
      -0.12931698609510503,
      -3.0531633262165774,
      -2.9893314442553574,
      -0.989562280108211,
      -1.9948220564680985,
      0,
      0,
      0,
      0,
      -1.0089909333016773,
      1.95789093113157,
      1.876368483866591,
      -2.185060939354188,
      0.6741286842541224,
      0.48435629678041114,
      -2.758309296168449,
      -1.9896674687365272,
      1.8872236372433155,
      0.8570290392458623,
      -2.179160495905676,
      -1.2123540359012874,
      -1.2180987512106032,
      -2.1683218044544588,
      1.0858984100981752,
      -0.6626094564247015,
      0.5663450240975882,
      -3.279506737885347,
      -2.1545410244937937,
      -1.0679635448030584,
      -0.03891305441739661,
      -2.9944907361695425,
      3.0097195831568886,
      1.0054489979248082,
      0,
      2,
      1,
      -3,
      -0.001730744674869022,
      -1.0167802546751712,
      -3.059221816698206,
      -1.1299965773108,
      -2.2061519278197923,
      1.7058292986877541,
      0.575187657683759,
      -3.6075278692736,
      2.2671565816044024,
      -1.757601333484934,
      -0.7521277491512204,
      -2.831959580860408,
      1.0688161106862666,
      -1.8904289759605482,
      1.3084539300060243,
      -3.45345150061877,
      -1.2765833124170005,
      -0.1732317848287566,
      1.9189495871152067,
      0.9804702941952972,
      0.0030814181648903816,
      -0.0008849898157300193,
      2.0048377163079327,
      2.004122100871816,
      3,
      1,
      -3,
      2,
      -0.00005144384732724733,
      -1.008738668324703,
      1.9671478598008452,
      2.9193498976623737,
      -3.1183592510363063,
      2.8330745883638127,
      1.7589486411270778,
      -0.31328076882321765,
      0.6051905897421671,
      0.5775088840588114,
      -1.4016836837756728,
      -3.4607762633881243,
      1.4473377086705261,
      0.4681742702411401,
      -1.417697510472227,
      1.7086377626826172,
      2.8121536171630983,
      -1.1112895812515753,
      1.9655248899984614,
      0.01781797453214189,
      1.0245976591626844,
      0.015740275334011917,
      -1.9938446428928187,
      -2.9943611410869115,
      0,
      -1,
      0,
      -1,
      -2,
      0.9989371223163597,
      1.9916781669973027,
      1.963101566569176,
      -0.0708763826354847,
      0.9146975775585826,
      0.8945961335053941,
      -2.1580249072661255,
      -3.1896191214072025,
      -0.18789078514089957,
      -3.2158238359797537,
      -1.217303341513308,
      -1.2595719904559226,
      0.7623932410579489,
      -3.2138222915470633,
      -3.1587812588971538,
      1.8897937882626406,
      -1.0490251883498465,
      -1.0175080809985555,
      2.0144597137458815,
      -1.9851604883392002,
      -1.9830884077099795,
      -1.9929445198596583,
      -2.9939401680654925,
      2,
      0,
      0,
      -1,
      1,
      -1.0005119165986514,
      0.9980447709128139,
      0.9865489614689842,
      1.9678123282988778,
      1.952078406180359,
      -3.0571018310982403,
      1.9246462686601353,
      1.9193186795238295,
      -1.0879384163014827,
      -2.085949380732344,
      1.9166312781926655,
      2.9149950573533876,
      -1.0704418312457291,
      2.9310781766635987,
      -0.053022991105149506,
      -1.0409016942141354,
      -0.02944591599363046,
      1.9905559484597328,
      -0.9936335247785619,
      1.015303994099754,
      3.0110008458313207,
      0.008842921560366337,
      -1.995582730219716
    ],
    [
      -0.9985918478456765,
      -0.2222057014697168,
      -1.441841955152443,
      -0.6310683780234704,
      0.7662633390456263,
      -0.10729151671564026,
      -2.368360462599128,
      2.175975437745843,
      -2.6289690083720316,
      2.9896181435100786,
      -2.2476099043632956,
      -1.1230431117685813,
      1.7849186461349857,
      0.11975286665665766,
      -0.29055505284711997,
      -1.902847720497989,
      2.002673403538798,
      -0.0003651364249560463,
      1.9986062388598724,
      2.9970972481220786,
      -3.0022629598502104,
      0.999672121680545,
      -2,
      3,
      -3,
      2,
      0,
      -3,
      0,
      -1,
      -2,
      -2,
      -1,
      3,
      3,
      -1,
      -1,
      0,
      1.000216385317027,
      -1.9957682191059205,
      -1.9817424832821728,
      -2.952571496951309,
      -1.9186669128155889,
      1.1063804847462777,
      -1.8845184521806935,
      -2.9098162136238725,
      1.0606163423343304,
      -0.9632684501654297,
      2.01595634880545,
      -1.9973165527781442,
      -1.9988390019217355,
      -1.0009941252981032,
      -2.0003727758432515,
      1,
      0,
      -1,
      -1,
      3,
      0,
      2,
      0,
      2,
      -2,
      -2,
      -2,
      2.0009067008773846,
      2.0174319647497607,
      1.0710222780711791,
      2.1675345451857915,
      -2.715595051652983,
      2.3795086864303925,
      1.4388824569112082,
      0.4577333912272462,
      -2.6144569262374002,
      0.26477458592471537,
      3.121819581378345,
      1.0250207855545386,
      0.9829773776218279,
      -0.029071958233686183,
      -3.017225385172348,
      -0.001496744758460321,
      -3,
      1,
      2,
      1,
      0,
      1,
      2,
      -1,
      3,
      -1,
      2,
      0.0013885995229445311,
      2.01960058484542,
      2.088286704891195,
      1.2610200536696299,
      -0.506533968460916,
      -0.302990239457988,
      0.8380834035281016,
      -2.173679004766545,
      -0.2818793106613077,
      -0.49328118873258064,
      2.319503868153095,
      -1.8138814933409908,
      -0.9632025327671246,
      -1.0450543125759906,
      0.9054753272864831,
      -1.0570640245934797,
      1.9933191375804828,
      0,
      3,
      -1,
      0,
      1,
      -1,
      -1,
      2,
      2,
      -2,
      -3,
      3.0232222262926003,
      2.095517715537433,
      2.2816355132257344,
      0.6441613383808489,
      1.9966250204292184,
      -0.915522979536394,
      0.8904846640046514,
      2.5999348755845513,
      0.4661888591199892,
      3.2457354266602882,
      -1.8342009885585864,
      -0.8236783420868359,
      -0.8990130372352626,
      -2.0250877925029007,
      -0.11654389270640154,
      1.9324013153965753,
      -0.00840303365846228,
      0.9998988899517107,
      -1,
      -2,
      -2,
      -3,
      1,
      2,
      -2,
      0,
      2,
      2.007053938325347,
      1.0824751800573276,
      2.259519966232066,
      -1.2969138203191455,
      2.192354257044881,
      3.426726554718171,
      3.171369531112197,
      -1.3570699385002774,
      2.3332151039500153,
      1.1277829334354301,
      -3.0414446922030143,
      -0.8983236723801119,
      -2.7476389165032655,
      1.1595965346080586,
      -1.9909244658262728,
      1.8757889916972716,
      1.9368839062478593,
      -1.013685067783032,
      0.999909496040939,
      -1,
      -3,
      0,
      2,
      1,
      2,
      1,
      -1,
      1.0004209142035951,
      1.0345679550274367,
      2.1260017353792517,
      -1.5324657709952871,
      2.127548860051362,
      0.6002682425683811,
      -1.3143383523967478,
      1.2185562618876717,
      0.47372117024860055,
      1.0659103180681426,
      0.8886296436770259,
      -3.2401185104655377,
      -0.000020543125276852514,
      2.262506117736788,
      -1.768379145460234,
      0.0007778104391033206,
      1.9070552751495533,
      -2.0706373519468744,
      0.9617915338493153,
      0.9947681307464008,
      0,
      -1,
      -1,
      0,
      -1,
      2,
      2,
      1,
      -1.9988448699665984,
      2.061646021804711,
      1.1236116341015205,
      1.5947118906302509,
      1.167904024417031,
      2.727355174190864,
      -0.2615521192820208,
      2.086534157785112,
      -1.8792307451848722,
      1.766167359447001,
      1.7902415502888767,
      2.82481065448717,
      3.041471913881814,
      -0.5792208731488128,
      0.3072499305046731,
      0.04237238370563238,
      0.9343012811532209,
      0.9372060284981322,
      -1.0430239067786966,
      0.9887772254322683,
      -3.000005292825381,
      1,
      2,
      2,
      -2,
      1,
      0,
      1,
      -1.979141814672971,
      -2.9799143363168383,
      -1.8702427837484525,
      2.5361999556924415,
      -0.8953244799930434,
      0.558712078661441,
      1.3803640827429426,
      -2.448733225455748,
      -3.0994136306649454,
      1.9186986553343337,
      0.21764939067275643,
      0.4766931510126891,
      1.639715684204382,
      2.512944751581246,
      2.199927571854194,
      0.9720744439025077,
      -1.0948779384814902,
      -1.1062142572409448,
      -3.074730513214185,
      0.9797800909549338,
      -2.002943427782772,
      1.9964348916835712,
      2,
      2,
      2,
      0,
      -1,
      2,
      1.0127893321675716,
      0.9828949008125891,
      -1.0006907943952466,
      2.3076204657205777,
      -2.3299169328619436,
      -1.101688487030532,
      0.644646794283318,
      1.8744328593316524,
      -0.3597862175788748,
      -1.8811810789964436,
      1.7386241266323863,
      -1.0046395705234998,
      -0.030220744269481247,
      0.5567863632483135,
      -1.780676916042399,
      0.02029977774942359,
      2.839311074328565,
      -1.208926472937173,
      -2.1252273803053607,
      -0.04995784770072903,
      0.9807114090268956,
      -1.0125875665538115,
      1,
      -1,
      3,
      1,
      0,
      -3.0009125500473224,
      1.9501133897491056,
      1.800979456547453,
      -1.2979583810773057,
      -2.160296328252713,
      -1.168109394707004,
      0.8017743736589373,
      1.4674551951494625,
      -4.194191693801473,
      1.8266016451522489,
      -0.5045224540948392,
      2.1775381665636506,
      1.6112906799035607,
      -1.2524029079315835,
      -0.4835767557238389,
      1.2211932618786858,
      2.058982446512306,
      0.732356095842109,
      2.660520937751579,
      -2.1888301436621767,
      0.9214748640164583,
      2.977083288560024,
      0.9893313283519098,
      -3,
      -2,
      -2,
      -2,
      -3,
      0.9944027604372191,
      0.8949946607046418,
      1.5848741791775927,
      -0.7434832229016584,
      1.0762333969001998,
      -0.2041263703271249,
      1.5573493988513825,
      -2.7841439204351786,
      -2.359676779002736,
      -0.9549124632822483,
      0.9174751113524205,
      2.5713591775851263,
      -1.9099827979227393,
      -1.5716162909732245,
      -0.6593724111733128,
      -0.851282178281059,
      -0.0389160174027435,
      2.645553259489867,
      1.5275844889041872,
      -2.283427899082099,
      -0.10486447317796788,
      -0.020237915784024,
      2.9909628816074108,
      -1,
      -1,
      -2,
      -1,
      -0.9983659832221449,
      0.967746520026266,
      -3.2204438410860146,
      0.3188281324575757,
      -3.262870842536034,
      -0.750764249156311,
      0.8237767216017315,
      -3.254720422337049,
      -4.450157306421316,
      -2.6993012275300825,
      1.1618493686358047,
      -2.843217444849252,
      0.4973898863832075,
      -0.18511513365890117,
      2.1113234604942077,
      2.0825038372579585,
      1.9097527692247886,
      1.7238672523329726,
      -0.4000100951605325,
      -2.4936992213049214,
      2.664094678787727,
      2.867575542015046,
      -3.034321387538003,
      -0.008532431530144156,
      -2,
      -1,
      0,
      1,
      2.0003999173558817,
      -1.0605877754097675,
      -1.3516847340927332,
      2.046841579668043,
      -2.7159763457618573,
      -5.281037153514154,
      -0.6181622054219372,
      -2.6063536302352115,
      -3.582777517369931,
      0.6900808076929846,
      -3.1290374369744614,
      0.7778235897929624,
      -1.1943918887058385,
      0.9614460749101124,
      -0.9015190592382066,
      2.9632983296156397,
      -2.2787118998974516,
      -2.363563526166038,
      -2.4123174924181225,
      -3.4730392193592916,
      0.6590190744216314,
      1.853797090444062,
      1.9618224756783533,
      -1.002659937627893,
      2,
      2,
      1,
      -1,
      0.9947163005298657,
      0.8909313374912649,
      2.5744696699053438,
      -2.082617817089843,
      -0.7985767645130458,
      -3.3670514205655118,
      0.3422524719593103,
      0.598421224478032,
      -4.273982883233103,
      -4.968775223116372,
      -2.8643190565376067,
      -0.04252497275389693,
      0.161813286884044,
      -0.8019059641879591,
      -0.8860913351801026,
      1.8597517441649245,
      0.5939943606289781,
      -2.495669425216407,
      1.5442351429667975,
      1.5571733804555703,
      -1.3629244889150145,
      -2.1778667459652423,
      -2.0615986134539255,
      -2.0104230625888824,
      3,
      -2,
      -1,
      2,
      -0.011142665365527148,
      -3.1202462184511535,
      -2.3910249143362527,
      0.9490446619083576,
      -4.56727356231158,
      0.06762569655826575,
      -3.08505463684746,
      -3.0348061602937886,
      -1.94777897647277,
      -2.699320751963084,
      0.1397365824964547,
      0.79651180739296,
      0.9212341482126439,
      -2.048843973856137,
      0.8896699377116357,
      -2.327617707005822,
      -2.5758685813020468,
      -3.599364313942292,
      -3.4735881798845374,
      0.6047802587036296,
      -1.3159274808350445,
      -0.18226963255261178,
      -3.067506762745944,
      2.9846436898987974,
      -2,
      0,
      -1,
      2,
      -1.0096011922054484,
      -0.0647592718594982,
      1.6641257150723079,
      -3.817847268050602,
      -0.1808703287679945,
      0.643894831129818,
      -0.5373345484972434,
      -4.544494487222178,
      -2.636067786121502,
      -2.5477074339401393,
      -1.1639168334150238,
      0.2219214567166413,
      -1.5614204892649852,
      1.3904688852378688,
      -0.56231140301901,
      -3.664591859533234,
      0.15335981942883128,
      -2.6284868248007625,
      0.6135752531902954,
      -2.3318553217103144,
      1.7466971528945678,
      -0.15862000959928813,
      -2.065040495356389,
      -1.0130392325423678,
      -1,
      -3,
      1,
      -2,
      2.0003404903413777,
      -2.0253152478712306,
      -1.2255206789750506,
      -1.4820892431002233,
      2.326757559355287,
      0.12740910868575478,
      -1.9460582005175413,
      -1.0162652009315774,
      -4.163226766309261,
      -0.23341127302025622,
      -3.0893276915720898,
      -1.9103784632340346,
      1.144115925326817,
      0.18852157454720442,
      -2.8385394130061776,
      -1.8953941228358955,
      -0.8516973184589235,
      0.3367986870015436,
      -2.4190290142199258,
      -0.3007445640395243,
      -0.24092493502821086,
      -1.1333976848707805,
      1.9524904154341824,
      2.9891000059434423,
      -3,
      1,
      -2,
      0,
      0.005692626611449909,
      -2.000699411699936,
      -1.132714029911517,
      -2.270181086342784,
      1.685095170507224,
      -3.389007781733435,
      0.5091345255541253,
      -3.603672068508107,
      -0.7216177825820111,
      -1.744812615830101,
      0.270153259615296,
      0.34189653088820254,
      -1.5155075023429023,
      0.41639774215369846,
      -0.6992755128990702,
      -0.768541554313423,
      -2.7286358466639764,
      -2.5805198967728633,
      -0.4143369260065291,
      2.704260585065491,
      1.8327758483310377,
      -2.106900521559337,
      -0.021748263166325436,
      2.0076457743016953,
      -2,
      -1,
      2,
      3,
      -2.9919997483800445,
      0.00835220487292168,
      0.93778204388854,
      -0.010056087231967206,
      3.03509423070381,
      -1.099260852198434,
      -1.117193893362286,
      -0.10402085783276108,
      1.8237248471406318,
      -0.2438829784748854,
      -3.21805960936962,
      -0.31679836991176863,
      0.7407238382524982,
      -1.372499406064308,
      2.5279656974696207,
      -0.6027995595087018,
      0.435919913214443,
      -2.495695619448114,
      -3.3829147495715137,
      2.7674426787697257,
      -1.144706776288332,
      0.9059844667163451,
      -1.020743201597314,
      1.0118320945554422,
      -2,
      3,
      -3,
      1,
      -0.005943251468957204,
      1.0151161155536692,
      -0.9528630973148201,
      -1.766892195130141,
      -1.5792199403087388,
      1.3259409197653331,
      2.3072566570665347,
      -0.8373647930922524,
      -0.9294409943432869,
      0.18810877231093384,
      1.1977329802211603,
      -2.0942547816579804,
      2.6314762003330365,
      -0.4960700102907048,
      -1.499952974266385,
      -0.5826403977360054,
      1.5168725804058023,
      -0.3041078601416203,
      -1.2382060135881319,
      -2.183385398215791,
      0.8546395820999444,
      -3.1035803132394464,
      1.9661521568419964,
      3.0102170178899468,
      -2,
      -3,
      -1,
      -1,
      -1.0029960976189252,
      -2.9663233508488696,
      1.0667727378757261,
      0.3268102996789948,
      2.550331588404955,
      -1.3677203423721365,
      1.57156540443351,
      1.3701306784662128,
      1.245988167974058,
      1.3641712493441898,
      1.3628661922544327,
      2.105145909745091,
      1.8382106054878278,
      -1.3185748790966059,
      -1.3316522605419192,
      -2.475471513092651,
      -0.3415995583425739,
      -0.15683920470769736,
      0.9363137816701617,
      0.9141192785244892,
      -1.0663515160360777,
      -3.037817702448603,
      -2.02079502010796,
      0.00469245145279606,
      1,
      -2,
      0,
      -2,
      1.9981025121586946,
      0.026309002742282744,
      1.1043446299776614,
      2.2534188001471827,
      -0.5940863210168821,
      -0.45804082758888276,
      2.608683262019343,
      1.50834602672092,
      0.41667842261092175,
      1.4868811982096646,
      -1.519774519039826,
      -0.6873846989768467,
      -0.85443472940983,
      3.0212648647596083,
      0.8566719101857359,
      1.6546463524159394,
      -0.27178488666852735,
      -0.06080058869980548,
      -0.04597936001979048,
      2.927968690711381,
      0.975475487623217,
      1.0182632202508763,
      0.9988845066539801,
      0.01415189727774666,
      1,
      2,
      1,
      -1,
      -0.002850669774726051,
      -1.97934172672893,
      3.0983756787316263,
      -0.7814632143319565,
      -0.6789195904668456,
      2.4233172783604715,
      -2.549717527335078,
      2.445894686922906,
      -0.6105483801603429,
      -2.6080021089589733,
      2.299852419077259,
      -0.7580513820871857,
      -0.851183832966875,
      0.03806533427447369,
      -3.1308439653892965,
      0.7743248638628064,
      2.8898901368913865,
      -0.995697854653594,
      -0.05255039136958931,
      -0.03684551883299515,
      0.0009622440656977456,
      1.0053629341601467,
      -2.9915044253418532,
      1.0159932151968905,
      -3,
      2,
      -1,
      3,
      -0.9978185632756018,
      2.015520095983085,
      0.05613489438808455,
      0.14053789103395817,
      -0.7739469673403055,
      2.25257145328334,
      -1.7501027279088455,
      2.219616796303297,
      2.1580856080382667,
      0.08690177808596197,
      -1.92508891428001,
      1.0348125074312202,
      -2.9698821809829035,
      0.9378822415446187,
      -1.1788675193677265,
      -3.164140480675253,
      -3.065738542499298,
      -1.9934096257537512,
      0.004477446751871162,
      -0.9957044101249425,
      1.0458610953137897,
      3.0170608318147933,
      2.0090419119282887,
      3.0101979442926767,
      0,
      2,
      -3,
      2,
      -1.9999183965593788,
      -1.9926868831927598,
      1.0153206231769998,
      -0.9279648677917203,
      2.1035634122705567,
      -0.885386523081287,
      1.1359447511860497,
      2.1216048417450604,
      1.0891786219286568,
      0.01510888170248559,
      0.9717646237825743,
      -3.008707603066529,
      -2.0040396819625546,
      0.9525243320578337,
      -0.10952230814345217,
      -1.0892166897253883,
      0.9771736847971411,
      -1.0028781765443622,
      2.025348634673246,
      1.0439611546725804,
      2.0659284234328026,
      -0.955866625868741,
      -1.9922504264355023,
      2.0107921982814285,
      1,
      1,
      -1,
      3,
      2,
      -0.9981534660766269,
      1.0069424013943367,
      1.0332736353164869,
      2.05066946378735,
      -2.9459393744806173,
      -0.9496393210746114,
      2.0539756376039295,
      -1.9469034994551082,
      0.0032067767681605167,
      0.003046463133560142,
      1.0292971918742744,
      -2.9905189170098057,
      -2.003351965565876,
      -2.007951575585794,
      -0.9912053420008006,
      1.0303219249488182,
      -0.9625821688421511,
      3.040810968792646,
      0.04810256797393168,
      -1.9528517785398705,
      1.039982169216484,
      -0.9839051015937834,
      2.00835421247666,
      -3,
      0,
      -1,
      1,
      -1,
      0.0008893510324817109,
      -1.9968758159398976,
      0.011144548127123892,
      -0.9655987854858324,
      0.04326515572743942,
      -0.9585098415221605,
      -1.9544418549333218,
      2.053674083471788,
      2.0536116973045706,
      -0.9414503329788165,
      -1.9479509782070166,
      0.04848630296392343,
      0.05361299968062799,
      -0.9397348921347529,
      -1.9223751546015657,
      -2.933168470978406,
      -0.9420665718910097,
      0.033839682460121215,
      -1.9589161268951736,
      -1.9693337813215985,
      -0.9800525365177074,
      1.017873726791254,
      -2.9902286688146567
    ],
    [
      1.811547677472055,
      1.6599801725776098,
      1.483524458092252,
      -0.27431329006626626,
      -2.558690880048683,
      0.4623756091362736,
      1.0381306075957106,
      -0.6968109639073632,
      -2.127121603164554,
      0.9441751011912901,
      1.48478828950163,
      -0.986695276275929,
      0.3980906659238018,
      0.873584802071143,
      -1.9662327639980122,
      -0.2703930347893242,
      1.0017999171459753,
      -2.996792674231899,
      -0.9965882640796444,
      2.0034616385040334,
      -1.9976922258393324,
      2.0005134880586386,
      0,
      1,
      1,
      -3,
      2,
      0,
      1,
      2,
      2,
      2,
      1,
      3,
      -2,
      -1,
      0,
      0,
      0.9998282903827886,
      0.997451208817334,
      -1.0115869985105117,
      -1.0317491100594292,
      -1.0551951557019792,
      0.928384532437031,
      -0.07723819084860668,
      -1.064841546760114,
      -1.0473621706412948,
      1.9723416529619822,
      -1.0148212774762824,
      0.9934689511592959,
      -2.002028327857074,
      3.00018901969095,
      2.0002163630952356,
      1,
      -2,
      -2,
      -2,
      0,
      0,
      -1,
      3,
      -1,
      2,
      -1,
      -3,
      1.9993545405025583,
      -1.0120770840003877,
      -2.0545626213758914,
      0.8755430576144906,
      -2.2273770531155908,
      1.690183630535096,
      0.6590241093836645,
      1.6634371099824747,
      -0.3053864296178754,
      -2.2419780506986005,
      -1.1615158830050876,
      2.921728510270358,
      -0.043689203889146086,
      -0.021170328040500987,
      -2.002646357694314,
      2.0008250914949044,
      0,
      3,
      2,
      -2,
      -3,
      1,
      3,
      2,
      -2,
      -2,
      -1,
      -1.0009249798242987,
      1.9772438829196066,
      -2.0997726925918467,
      2.7497776702706735,
      2.587457471490956,
      1.4544032831381235,
      -2.6387271839742388,
      0.34624247891630505,
      2.3594242915546535,
      0.4253031575951157,
      -2.496974504664482,
      -0.34075896897914437,
      0.8062312014606882,
      0.8800851635362404,
      -3.0581557937890205,
      1.9927700442756904,
      -2.000531904583099,
      2,
      2,
      -1,
      -2,
      1,
      -2,
      3,
      3,
      -3,
      0,
      2,
      -1.0237948516167483,
      -2.123360362508321,
      -0.34000590885682874,
      -0.5639015181155982,
      0.27147876371698704,
      -3.803147445857106,
      -0.8038257216970949,
      -0.803462684240234,
      -1.7975375019816335,
      -2.714416141003774,
      -2.6644282498140544,
      -1.5217796245565667,
      -2.30976979798588,
      -3.1805975094682606,
      1.9161352848559776,
      -0.005248771237661243,
      0.003685526262729273,
      -0.9998101426406658,
      -3,
      0,
      -1,
      0,
      0,
      2,
      -2,
      -1,
      3,
      -1.0109694633978785,
      1.887237219352767,
      -2.3466261504309833,
      -0.6659325987856357,
      0.08520812488540284,
      -0.013531495077839085,
      -0.9545765881060713,
      1.1985602316548203,
      0.31547978390072484,
      0.3350685526425516,
      -2.614746911448484,
      -3.596408904938163,
      -3.4727230798162037,
      -2.2622445813825403,
      -2.173889135667138,
      -0.06952619088031894,
      -1.9985643290865098,
      -2.9997290697060786,
      -1.9999434054218264,
      -2,
      -1,
      1,
      -2,
      -1,
      -1,
      2,
      0,
      -2.0044823034746915,
      -2.044796027283785,
      -3.234618378330978,
      -3.557628113283371,
      1.0541683017291406,
      -3.201066887631146,
      -1.2253892480810111,
      -3.0398557184261104,
      0.2608679693439423,
      1.433766513654488,
      -0.58097443154463,
      0.41036900437554,
      -2.5680289905323703,
      -2.477238638324764,
      0.6995319673675853,
      -2.1658697131473565,
      2.9640396511700553,
      1.0106803963077315,
      -2.990081737420807,
      2.0012338362006634,
      -2,
      3,
      -2,
      2,
      -2,
      -2,
      0,
      -1,
      -0.011771031817714864,
      -2.0905224526354385,
      0.664895155785298,
      -3.7518897825888735,
      -0.15657086792080732,
      -1.4566034359475877,
      -4.53635743400614,
      0.7210440161737285,
      -1.8959291510495666,
      -0.6973814334796116,
      -1.6673179419241344,
      -2.679678557071614,
      -1.6670960061168874,
      -1.5884765612810756,
      -2.3891359067155964,
      -2.152750520567593,
      -2.0108315334995246,
      1.0314643674270811,
      -1.9795106041818828,
      -1.9940719342345832,
      1.0000065523928061,
      2,
      -2,
      -2,
      -1,
      0,
      -3,
      0,
      -3.0236916919158174,
      0.8641837295690727,
      -1.4175360536724677,
      1.1251964427127155,
      -1.288313375072781,
      -3.637470267062172,
      -1.7091266062433284,
      -1.4597145589702014,
      0.893701566293224,
      -2.8771432054566524,
      0.27189298230834325,
      -0.7835386826641559,
      0.10003098850138227,
      -0.771707657207504,
      0.586875012302488,
      -0.13984656453160568,
      -2.994296378768035,
      1.0601287617652209,
      -0.9520470151862295,
      0.013513516447747247,
      -2.998478920393262,
      -0.9983790962452802,
      -1,
      1,
      -1,
      1,
      0,
      0,
      -0.03642943665590024,
      0.8356323605877924,
      -1.4093802612650492,
      -0.8329214224779558,
      -2.108788761174539,
      -4.515670251743994,
      -4.715102411907684,
      -0.3209237798875221,
      2.119123467153368,
      -3.7055427784221333,
      1.2479695424596753,
      -2.944905650732791,
      -3.0596119154134795,
      1.0674997029080058,
      -1.5819439161154494,
      -0.20043031856531243,
      0.009256819693896762,
      -1.9111997141956762,
      -1.93273720480449,
      -0.9705044279847646,
      -1.9861927977812923,
      -1.9922753198949823,
      1,
      -2,
      -2,
      0,
      0,
      0.0008893994001673352,
      0.9730773668297706,
      1.920599812651522,
      -2.2331259061588513,
      -2.603087387908844,
      -0.814865766333711,
      0.7900454136201472,
      -3.3660576226094663,
      2.1587605862207244,
      -0.349393228373297,
      -0.3164311695014789,
      -1.4663283633227944,
      0.3073203032631312,
      -1.8548239791763612,
      -0.8472532402617677,
      -0.5684766937956313,
      -1.2202506394058104,
      0.048805421347002574,
      0.12677136862578642,
      2.0873128051363627,
      1.040027987438013,
      0.015637140050733796,
      3.0082315070573964,
      0,
      -2,
      2,
      3,
      1,
      1.007562435859847,
      2.035272666260275,
      0.10055222666034963,
      -1.9473273276381269,
      1.8124629499123246,
      -1.4255885691324925,
      -1.831478583016178,
      -0.8147280256877679,
      -2.2913204929091995,
      1.9712020687363754,
      0.9382667472126155,
      -1.1619096111703962,
      0.5981405732195686,
      -0.6102116302508833,
      2.3476065863608486,
      -1.4723561126934623,
      -3.146943156460924,
      2.083505815134116,
      2.18080777146088,
      2.1366424489772107,
      2.0422285685306223,
      1.0106556090043397,
      1.0077298663561898,
      3,
      -2,
      0,
      0,
      -0.998404438079497,
      0.030033445789795773,
      -0.8592654304095155,
      2.3370074668983447,
      -1.6035719883180675,
      0.198938028895161,
      2.9217030139567783,
      -0.40662392417515963,
      -2.35466900533908,
      -1.1681975382506302,
      1.8845161011471474,
      -3.1536196383630952,
      2.901310575374971,
      -2.1588451654674525,
      2.661345880390697,
      -2.377332511071505,
      1.6242124342806252,
      1.8550029752301054,
      1.0186010105140073,
      -1.8117088855528762,
      3.162663116678545,
      -1.954527555440773,
      3.016176421044642,
      3.008101405444461,
      2,
      -1,
      3,
      -1,
      -1.9942858780033064,
      -2.9460124942498047,
      -2.7578578486192202,
      0.5234752945173329,
      -1.3857355649834098,
      -1.5045663510897582,
      1.2324753603504222,
      1.9506073793031102,
      2.8210392827224626,
      -0.23182810836149015,
      -3.353625279344994,
      0.6260615664539728,
      -3.2882380924530272,
      2.814123156809493,
      -1.2609652657123067,
      1.6803935040990938,
      -0.23879956677366104,
      -0.1263178221872339,
      0.9945495471227038,
      0.1550129803512135,
      -0.838881367671264,
      -2.9516386346259162,
      -0.9791365774574843,
      0.006773081420057927,
      0,
      -1,
      -2,
      2,
      -2.9935326881084507,
      1.0701440168585543,
      2.2697873602992718,
      0.5379013058506634,
      3.6743073953461236,
      2.6427257594151112,
      -2.4252619746627597,
      0.291582840466574,
      -1.8702804963993473,
      -0.9855382480060081,
      -3.244956059179091,
      -3.4673592737061223,
      -1.550303126381497,
      1.615521767713972,
      -0.34616266729744843,
      -2.238141266170484,
      -0.1878335195066718,
      1.8391701686615138,
      1.9952868332739462,
      -1.865912311329423,
      2.1569720971032575,
      -1.9267153781231494,
      -2.9707953701707854,
      3.010790404093431,
      -3,
      -3,
      2,
      -1,
      3.0028551431400947,
      2.069031561562213,
      -1.7377585552867338,
      1.4996952454411425,
      1.6522268651512664,
      1.7578473528008511,
      1.604044632041598,
      -1.5323575151511415,
      0.3310065372348378,
      -2.679888553351889,
      3.0923795381439567,
      -1.1555643924511012,
      2.552836373532206,
      -0.48987623057995244,
      1.630421708087421,
      -0.26815548341586903,
      -0.20554921764591927,
      -0.15274320687930024,
      -0.065164661846043,
      -1.9734585444674635,
      -1.891594299806694,
      -1.9192345903993024,
      1.0324347257960522,
      0.009654479386264231,
      0,
      -3,
      -2,
      3,
      0.0066371185675351985,
      -0.9297172119491528,
      -0.8012848956795666,
      -2.626731935749316,
      1.575574495010465,
      -2.4486906402053386,
      0.41518344231912907,
      0.32250631661299195,
      -1.6691783702675385,
      2.446332614293801,
      0.3697747181603019,
      -0.9715094917136035,
      1.750527286106942,
      1.7620745423879023,
      -1.2085615393813562,
      -1.2880656645564974,
      -0.21446563751552047,
      -0.1730214464213043,
      -2.1003595418036856,
      -2.0203117624014335,
      -2.9373174972624008,
      1.0660988384182817,
      1.031716524153484,
      2.009122007992825,
      2,
      2,
      2,
      0,
      0.007886178736566248,
      -1.9591859126893407,
      -1.9083450324905264,
      2.141564523375149,
      3.194945673544278,
      -0.8767063747606976,
      0.9472852957151823,
      -2.045277572983943,
      1.033398088981608,
      1.2307650941521655,
      -2.779739872960864,
      2.008475457992392,
      1.7465861400584792,
      -0.11453867077775493,
      2.932037751605497,
      -0.2586904800278901,
      0.6888906669140936,
      0.7221306777783969,
      -1.1537438337681414,
      0.9942105611442601,
      1.0578305925000542,
      1.0610870548865226,
      3.0377099598744435,
      1.0172376927514266,
      1,
      -3,
      1,
      0,
      0.012285547611757217,
      -2.985889606939043,
      -0.0009025924377598924,
      0.956485519376176,
      -3.150047774913734,
      -2.290369857542901,
      0.5721281999352659,
      0.5561731562591117,
      1.6389735330129336,
      0.7073228212856418,
      0.7608923169444636,
      0.5974803826303154,
      -2.434646282661717,
      -3.170368422156745,
      -0.17287800845079734,
      2.688989294672667,
      0.6043401436642172,
      0.5887595252708229,
      -2.2556094232287394,
      -1.0652256927390764,
      -0.9695144171128819,
      1.0376288932247193,
      -2.9701538420399536,
      -2.9803457722695454,
      2,
      1,
      -2,
      -3,
      0.0021818357035972833,
      -2.018131333503903,
      1.9219055103739782,
      0.837084227470262,
      -0.2383117995568745,
      -0.4320576300282483,
      -2.5884775933711586,
      0.32370485751081113,
      2.2037483451365976,
      1.104535909949455,
      -0.9025445803659425,
      1.1413735570400252,
      0.2296094711979115,
      -0.5592003616470199,
      2.4670512343641398,
      0.543576105763392,
      -2.4478601665720494,
      0.4961879159528525,
      1.6552721433286408,
      -0.1148211572286297,
      -2.0156899666781523,
      3.0301571726110477,
      0.029790080849209432,
      -1.9769167038177669,
      -2,
      -2,
      2,
      2,
      -3.0044364842610425,
      1.9624557995477527,
      -2.0871574141053824,
      -2.2168280683559773,
      -1.3400951132211194,
      -0.5176304746448971,
      -0.6598707005404341,
      -3.724797913835039,
      1.0837771354576888,
      0.8523191291374065,
      -0.14852347169914976,
      -3.0116251698733767,
      2.1605693988234456,
      -0.7632879135173014,
      2.2949733364063,
      0.46716288641246073,
      0.574645846408204,
      -2.4456556806295517,
      1.6758200852349585,
      1.8579220680300015,
      -0.038522338856373066,
      -1.9918929201226288,
      2.020055450082362,
      2.019535530994709,
      0,
      -1,
      2,
      1,
      0.9978497413386566,
      -2.023015520647491,
      -0.06194953293941872,
      -1.1746598444966978,
      1.6149871921742605,
      -3.6331569438064166,
      0.27786132599871427,
      -0.7181549286714917,
      2.212567968591833,
      0.09589849583618767,
      -3.894666285385828,
      -0.8425481834416487,
      -0.7684543099201806,
      1.2420442015112874,
      -3.699455460492231,
      -0.4836457974499387,
      0.6324762182408565,
      1.6442378397502704,
      -3.2582684559569963,
      -0.0896155632055045,
      -2.0030672430495686,
      0.025932323751104738,
      0.01459796078852214,
      2.0073864299725397,
      -3,
      2,
      0,
      2,
      -0.9988791286743339,
      1.9834955465040005,
      0.9233266841347414,
      -0.15885734648111852,
      -1.347321624680793,
      0.44951382668909545,
      1.2939447838721654,
      1.2893216378740522,
      -0.7204869738248934,
      -3.703159262911036,
      -1.6447579810571318,
      -2.6662019630523064,
      -3.678196651098213,
      1.271261287299964,
      0.34219594030645445,
      2.5432559817922105,
      -1.3368630070093597,
      1.7260300654532914,
      1.8123061153406501,
      -0.06531567738319043,
      0.004406573673952872,
      2.043847618889583,
      -2.9683992257955443,
      -2.983985332482445,
      0,
      -1,
      0,
      0,
      1.9966458257105413,
      0.9829448886637467,
      -2.077997091693413,
      0.8646394747059356,
      -2.2440441785860274,
      -1.4170062014638238,
      1.4447649133104452,
      0.3538757864646552,
      0.33837693513023703,
      0.3657768234844521,
      0.422983234192342,
      -2.587622881448454,
      -2.585926983274119,
      -0.5958827857437469,
      -2.5030399248218163,
      -2.3317154388057113,
      0.7746002218188772,
      -0.16904740761390308,
      1.9149316146005804,
      -0.005875410374063971,
      3.0018698633611516,
      -1.9714092745614789,
      1.0313210725389304,
      -0.9794079284823426,
      1,
      1,
      3,
      -1,
      0.9991508601779392,
      2.9898587985518765,
      0.9608568069302267,
      -0.0875718995224456,
      -1.1564437084416432,
      1.770554512455443,
      -1.3089550112682597,
      1.5890643623063416,
      0.5290059111859294,
      0.534975466491079,
      -1.4494485082911437,
      -1.448992188660743,
      2.5371497447307507,
      -1.4432593523914352,
      2.650538589486712,
      0.807152231245072,
      -3.104302731144852,
      -2.0660885736519248,
      1.9915099843949582,
      3.036340084560182,
      -1.9661826942119642,
      1.016198749126178,
      -0.9839160738370186,
      2.0126947688381187,
      1,
      2,
      2,
      -2,
      -1.999992694909021,
      1.9947460639435224,
      -1.0180197366408672,
      0.9467296559179327,
      -3.077821673345557,
      -1.10690880731079,
      -1.1503115638119759,
      1.8007724616169423,
      1.7648057240028472,
      1.7567907062074128,
      -1.2394964534021646,
      0.744257327120414,
      2.7263386828994327,
      0.7450573444997107,
      1.806566697591081,
      0.8872402209487984,
      2.95563506692449,
      -3.00755740177402,
      -1.9796894289989464,
      0.04259233737754433,
      -1.9675116152919871,
      1.0225597514451745,
      -1.9880766983693512,
      -1.9906614962259694,
      3,
      0,
      -1,
      -2,
      2,
      2.998890041430368,
      0.9946020779661034,
      -0.025703343438062253,
      1.9542416753905367,
      0.9472340237286868,
      -0.055339403056536146,
      -0.08350293877371565,
      0.8869780430864745,
      2.9031532705581893,
      -0.11471901415656903,
      -2.1196095773913752,
      -0.1360004885496105,
      2.879768547656497,
      -1.0950084742142714,
      -1.0556884160058522,
      -2.028574523220486,
      -0.005933504430217657,
      -0.9909395723027866,
      1.0198705536889932,
      0.0122451090249092,
      1.0151994031561937,
      -1.992128874052596,
      -2.9936992971402003,
      2,
      2,
      3,
      0,
      1,
      -0.0005345922906800221,
      -1.0018300197131114,
      -2.0086494005424096,
      -2.024199244316637,
      -2.03254836500707,
      -1.034973993131714,
      0.9542879225281469,
      -0.05454042857917593,
      -2.059454614893296,
      -0.05794428859908502,
      -1.0580476457220143,
      -1.0568567619323523,
      0.9546673272897769,
      -1.0412198427112616,
      1.9731365742213005,
      -3.02000437513853,
      1.9862684690935124,
      -1.0042580630849696,
      1.00175008366712,
      3.007823494058052,
      -0.9917120076876511,
      -1.9917676921808747,
      3.0051234204719117
    ],
    [
      2.0373761126721477,
      -2.002650995954691,
      2.228122755101881,
      -1.7686314387307274,
      2.1334995635094094,
      1.9470228648752754,
      -1.1649921897071822,
      -0.9904135229965424,
      0.06835109000833058,
      -1.9871042403383268,
      -0.7135104338232767,
      -0.6996203751452528,
      1.1968923059857925,
      0.07061060426855723,
      0.9442080806254104,
      2.1009432602504727,
      -0.01892934375441191,
      2.973246621276037,
      2.9749964909525133,
      -2.025499479741902,
      -0.019689669135480026,
      -3.005638409441748,
      0,
      0,
      3,
      3,
      3,
      1,
      0,
      0,
      0,
      -1,
      -3,
      -1,
      3,
      0,
      -1,
      0,
      1.0001706489466715,
      3.0023173096436904,
      0.010982378168281024,
      3.0295562897677186,
      -1.9615195498942684,
      -1.9620563332908856,
      -0.9920687437311909,
      0.9756769147955282,
      0.9666797964431517,
      -1.043000553368703,
      -0.03000614506781656,
      -0.007814515714051094,
      -1.9974288683287322,
      -1.9987303310580333,
      2.0009420044667126,
      -1,
      0,
      -2,
      -2,
      1,
      1,
      0,
      1,
      1,
      -3,
      2,
      3,
      -2.9993814132096,
      2.012075712786101,
      2.0573732832075744,
      1.112709778049083,
      -2.8085381298043335,
      1.2268122340459915,
      2.185832839627579,
      0.11811050210782528,
      3.0809686258607587,
      -1.915010997198985,
      0.06222432471865222,
      -0.9624296443411634,
      0.04136751320529183,
      3.042126819964956,
      2.0195796311847243,
      -0.9963438628170501,
      -1,
      0,
      -1,
      1,
      0,
      -2,
      -3,
      -2,
      3,
      -2,
      -3,
      0.0008735671174705534,
      -0.9640341694082754,
      2.132079812479754,
      -2.727608177377946,
      -2.604363618370163,
      3.4566170043134834,
      0.4053016730538126,
      1.3259427156539436,
      3.3266757991841893,
      2.3688923162375852,
      -2.602205593661352,
      0.2728862555886016,
      0.20808770767891802,
      0.14133600715633374,
      -2.8928261935165316,
      -0.9538246074395372,
      2.011002070959563,
      -1,
      2,
      0,
      0,
      0,
      -1,
      -3,
      -1,
      -3,
      1,
      -2,
      0.03511885080438205,
      -1.8135101881744844,
      -0.5171706495336634,
      0.7048099245329004,
      3.7792963277695546,
      0.7192161536722086,
      -1.4181971052385425,
      1.5630382972966943,
      -1.4171867601985644,
      -0.3517682095901769,
      3.7021699456844077,
      -0.46744100268721267,
      -1.615655247770815,
      0.27558588339117857,
      -0.7967921025400433,
      -0.9316577459764308,
      1.0182332920245223,
      1.0003495340681827,
      2,
      -2,
      -3,
      -1,
      0,
      -1,
      0,
      0,
      -2,
      -1.9791505539237335,
      2.150313913935218,
      1.4511566367918103,
      -2.1525393410103777,
      4.113199851261945,
      2.072336292713277,
      3.841250693642891,
      0.6678527410648705,
      2.6244312937457948,
      -0.28889460370675346,
      0.7135976190446025,
      -2.241306032245961,
      -1.3926109329877838,
      2.368599010841712,
      2.3406552515247334,
      2.25907941847205,
      1.0821673739983313,
      0.02661913061032507,
      -2.99988199659214,
      1,
      1,
      2,
      -1,
      0,
      0,
      -2,
      1,
      0.01055651693730726,
      3.0824895368687706,
      3.2941912173431462,
      -2.338829483097638,
      2.988216724427217,
      0.13598686694752718,
      3.9976321104710983,
      1.6863278587033748,
      1.550002085400757,
      1.4831439481112003,
      -1.4060834239248872,
      0.4969966134236945,
      0.535379380403321,
      0.5309266183046203,
      2.299763970536702,
      3.259769980537114,
      -0.7763194297922212,
      2.077223112744598,
      2.0169079772626275,
      1.0011005049048283,
      -3,
      -2,
      -2,
      -1,
      -1,
      0,
      1,
      0,
      -1.971743584815612,
      -1.8438442973225158,
      1.4441298388428931,
      -2.261852879815466,
      0.9205754947074373,
      3.909586250519032,
      -2.123562431770075,
      1.6932731636859184,
      0.6940189299745602,
      3.709310314446321,
      2.6282327847086973,
      -1.4215509068342669,
      2.668276597069732,
      0.6242504867185634,
      3.401348134975233,
      -1.786912231408142,
      3.1635285193589033,
      -0.9211085144368238,
      1.9990811865681897,
      -1.003050741854094,
      0.9999918031375951,
      -1,
      1,
      2,
      0,
      0,
      0,
      0,
      3.0446869872161106,
      0.2387485147901774,
      -1.4841358093265749,
      -0.21257783656374676,
      -0.21947180122692078,
      3.807547670319583,
      -1.0359771675019247,
      4.03931934105959,
      -0.7396428410468576,
      4.3095497944628525,
      -0.9163833622422376,
      1.0578554430134377,
      0.14478736724912056,
      -0.9242565542355916,
      -0.34678003972990185,
      -1.6813976911751016,
      1.1575950858407478,
      -0.9497260004193795,
      2.9580950923461216,
      -0.011827748738495283,
      1.9975694278918377,
      1.9962902853280198,
      0,
      3,
      0,
      -2,
      -2,
      2,
      3.072121307294774,
      -1.7254670441039013,
      -1.5493973015013485,
      3.560259300153114,
      -0.6430666941591545,
      -1.4609292315581492,
      0.02070776977223147,
      1.1247512887907982,
      2.1396572470890045,
      3.168770943223906,
      2.2894484938854145,
      2.3745619555941646,
      -0.6258650308367558,
      3.3045745701502005,
      -1.1161957740276842,
      -0.4871100038171059,
      1.1822828631456392,
      -1.0330698013525281,
      -1.0840015467180557,
      1.955291354134308,
      2.9765425893354354,
      -2.0146545068241712,
      0,
      2,
      2,
      -2,
      2,
      -2.0009512429014062,
      -2.9217950242791786,
      1.1809508208877102,
      1.1397625397143833,
      -1.8973211857558532,
      -2.1547564634344956,
      1.1740139858284036,
      2.6851979865053086,
      0.6069875541609476,
      3.376826992960601,
      -1.2901481651873925,
      3.114675243094346,
      2.3361662620137604,
      3.4228635541717862,
      1.3209005466792074,
      -1.9937056876790666,
      -1.3978436841245339,
      1.1811236682421302,
      -0.06757683718723295,
      -0.12445787003917085,
      -1.0695606877850918,
      0.9688441234461324,
      1.9856969191561122,
      0,
      1,
      1,
      -3,
      -3,
      -2.0075957082709386,
      -0.006615053432993563,
      -2.0567456474261423,
      -2.296035888690264,
      2.518957728170246,
      1.4337239693646626,
      -2.12120612030474,
      -0.8560805280467347,
      1.8748938313954848,
      -1.0379762943439583,
      1.3200045241228464,
      3.5315155589866443,
      -1.185643590792931,
      0.07250735458682842,
      1.0783187149020492,
      -2.045622241276483,
      2.5664854745583616,
      2.1339713583147293,
      0.8832030660699023,
      2.823982298734271,
      -0.0829597253330101,
      -2.0262385143940604,
      -0.013546819502125286,
      2,
      1,
      2,
      2,
      2.9989168342577286,
      -2.0310037406855703,
      -2.134578388727891,
      -2.3950618074889594,
      -1.6940457746576771,
      -3.793723796844814,
      2.3105379786845988,
      2.741281913712783,
      -3.2429033423427334,
      1.7180110716573227,
      0.7654073843638661,
      0.05179195106974116,
      -0.9301601752183893,
      -2.733198209595155,
      0.4612896192453992,
      -0.4600653840586732,
      0.6776315709390506,
      2.4225950284110755,
      1.073734151446659,
      1.77889444554388,
      0.7739322060460334,
      0.8956579333694423,
      -3.036453167027813,
      -2.0145660476005194,
      -2,
      3,
      2,
      -3,
      -0.004769468349114814,
      1.9612846670441961,
      -2.239237435116931,
      1.413952931000279,
      -0.7844579572773827,
      -0.8823150533461181,
      -2.7388945876835487,
      -2.3767215582959103,
      -0.1735402220732923,
      -0.986151650495443,
      -0.8471848648970287,
      3.3350046267027658,
      0.43074892596589437,
      0.4864318187071091,
      2.376677140028893,
      2.3408151682271843,
      1.379986261820682,
      -0.7491537512457715,
      -1.078661076260911,
      -1.2710596671847918,
      2.7444616220311304,
      -2.111943544654464,
      -0.043753175936906946,
      2.9902273252978144,
      -1,
      0,
      -1,
      1,
      -2.9982820708452915,
      2.970040768390173,
      -0.2140062653015993,
      -1.4702774234650957,
      -1.676906059692527,
      -2.790192606689176,
      -0.7613147810719088,
      -2.37654911543475,
      -2.030398265013217,
      -2.8332196045411973,
      2.368600558673279,
      1.710940455653863,
      1.98289506488499,
      1.7542834345446527,
      -1.5484027613700182,
      1.2447969864917177,
      -1.7692873709214487,
      -1.8643137381022161,
      1.8178089934456565,
      1.7087036109459275,
      0.734467475095138,
      -1.1453455853590178,
      1.9475593600292707,
      0.986852416748108,
      3,
      1,
      2,
      -3,
      2.0224714590627766,
      -3.010541843441881,
      -1.162750734877104,
      0.7032751013168069,
      -2.4991302151649966,
      -0.716676203805454,
      0.5591159213721684,
      -3.145545533502449,
      2.2231740244736238,
      3.1621818310621883,
      2.0891727049464133,
      -2.5662949034241023,
      -0.053347816554237606,
      -1.2143469922003727,
      1.4719432958448975,
      -1.7040439475740692,
      0.17549845289333063,
      -1.9595371186389308,
      -1.209581778398546,
      2.762894624496767,
      0.7870376252577697,
      0.8525555105517412,
      -2.0538147748268774,
      -3.00837875873748,
      -2,
      1,
      -2,
      0,
      2.0162813632474323,
      0.9975469428250392,
      0.9494380673364706,
      0.909171319016397,
      1.6120736566563612,
      1.5508051383128627,
      1.874753755275389,
      0.17433875755570732,
      1.4160253277663228,
      -1.8388460597896232,
      1.9840718700378006,
      0.41614741828488,
      0.8772763684216874,
      0.6134672948734432,
      0.4212884024919333,
      -0.5645304109463695,
      0.2048285590073183,
      -1.0152716388363758,
      0.7636028424042665,
      1.8091351052635072,
      -2.157059360876195,
      -1.1154180031364678,
      -3.051166242316176,
      1.9955001782955921,
      2,
      1,
      -1,
      2,
      1.014591324131685,
      -0.9627513196242281,
      3.1121682116983043,
      1.1687987036333856,
      0.9747171786734891,
      0.02025710584845622,
      -1.6441617027465918,
      1.5325297318188242,
      2.7279649850208987,
      1.4317626848776126,
      1.2763501450572754,
      -0.314726647890406,
      -1.9218988036385447,
      1.6023993772686087,
      -1.6321128993760317,
      2.455956483971204,
      3.295163475169869,
      -1.9390255057891113,
      1.8484481383359752,
      -3.165760230641297,
      0.8698216003376236,
      -2.107786322833223,
      -1.0568922110122192,
      2.983325167412986,
      -1,
      -1,
      3,
      0,
      0.010374107526895101,
      -1.9270492365776248,
      -1.7602349824839403,
      0.3462804228628534,
      -0.7241581039415805,
      0.4589424152284494,
      -2.23889812169295,
      0.023193548094451583,
      4.209158586445173,
      1.9580431021208295,
      -0.33296393357640097,
      2.984401913620439,
      2.113094290888165,
      3.658866156382724,
      -2.5010632616514066,
      -0.5167486053460484,
      -0.6465471631998362,
      1.2994325872795414,
      -1.9596855345569328,
      0.8990245523397696,
      -1.1117591453323208,
      1.9295877050553745,
      1.9471696388823354,
      -1.0228962699360145,
      0,
      -2,
      3,
      1,
      -0.9845273934864095,
      2.123928691142602,
      2.3338777314715995,
      1.401982303299339,
      3.2706684330074154,
      1.478678772528391,
      2.7705396163903364,
      -1.888745436163353,
      2.5383791608592405,
      2.5932662736576506,
      3.3690648055247303,
      2.3387458992783854,
      -0.6459003655186483,
      4.014123005296424,
      1.9588363099864174,
      3.688791927245062,
      0.4907466665019712,
      2.513001174499643,
      0.23831121521982987,
      -3.031101397654213,
      -0.0660008603242802,
      -0.0668704803707446,
      -3.0472679938041902,
      -2.0271205165489836,
      2,
      1,
      -1,
      2,
      -1.9733134208820646,
      2.1499791317591175,
      2.3224800422016587,
      -0.6154927834995471,
      0.32744369334989265,
      -2.457539581206358,
      0.7682018768456749,
      2.0482848335985007,
      -0.4991751332801405,
      3.7843311116520484,
      2.6830429544883674,
      2.5375320585345778,
      1.5147888935217777,
      2.428605865649196,
      2.2958112578131895,
      -0.9930087455511246,
      2.60860667149667,
      -1.4808015830302022,
      -1.7127568637727437,
      1.0761456502501658,
      -1.997822546556811,
      -1.0241129166926295,
      -2.026668651080943,
      -3.0247147720894407,
      1,
      1,
      1,
      2,
      1.025853654794147,
      -1.8754312828784867,
      -0.7494138003387646,
      -2.7427517835288024,
      -0.6427068706411178,
      -0.3573179220538319,
      -1.1043432632983265,
      2.0960383821313138,
      -0.6810765777158777,
      3.4029271762583866,
      2.2797523911990933,
      1.260216062705083,
      -0.6372418466228459,
      4.4663564604522055,
      0.3489087984883181,
      1.9745200807543215,
      1.5818996027274197,
      1.4345069636879892,
      2.241857864865852,
      -2.9340901692662955,
      -0.008895140333058169,
      -0.0269971429506513,
      2.993588741806229,
      1.9923700437365175,
      -2,
      1,
      -1,
      1,
      1.0231237700088192,
      -0.8768613988589293,
      -0.8116841953618488,
      -0.8178030014211792,
      -1.6800422666755719,
      -1.446608872645017,
      1.8304660318108301,
      3.0574229674291393,
      -1.8384655654901347,
      4.096368227657156,
      3.92857589916762,
      -2.069417101696685,
      3.059199282318525,
      1.2451071647902732,
      -1.8934682254751143,
      3.8233072773374617,
      -0.46410271217923116,
      2.3610754958379694,
      -0.8008365435050936,
      -1.934949985059933,
      -2.98712312930801,
      -2.025154906994417,
      -1.0142981131102826,
      -2.0109327949729754,
      2,
      -3,
      1,
      1,
      -1.9770458574214653,
      1.0701562138496554,
      1.138119242688761,
      1.1427612684661785,
      0.23711250994255284,
      3.3942505791380055,
      2.6288220224908327,
      0.8663840202407006,
      -2.021185332154131,
      -1.0719187422751988,
      -0.1829511753445667,
      0.8008107905260401,
      -0.12109775743622103,
      0.9711718700652323,
      3.8331666340931876,
      0.5957546970051408,
      1.37853988470102,
      -0.7573788646935755,
      0.10866181900257736,
      0.016536413779359715,
      1.0214104594709101,
      -2.010792653523976,
      -1.016560674428366,
      1.988884600449352,
      2,
      2,
      -2,
      -1,
      -0.9954877780898527,
      -2.969219048843746,
      -0.9407530834243313,
      1.102183079744838,
      0.16625697231830713,
      3.2474097694770423,
      -1.6385398998651663,
      1.565023576173102,
      -1.303383188425842,
      0.6726260212335419,
      2.6066182819420343,
      0.6217089033989515,
      -1.279491216688797,
      1.7533642504932645,
      1.636057385906372,
      0.3683158318387354,
      0.16949204128715892,
      2.101511537335559,
      3.0160566588382816,
      -0.032556998835073465,
      1.9670970293859866,
      -0.0028944762922227035,
      1.9948471732176434,
      -1.0043354572044394,
      -2,
      2,
      0,
      1,
      1.000153815213337,
      2.0146486971241098,
      1.029103160595394,
      2.063439240968142,
      0.08851787582909074,
      -1.8715303053390278,
      -1.8022182841618102,
      3.30018029279673,
      -0.6178246986848555,
      2.3829712788790904,
      -1.6482646394262987,
      -1.6033471898860936,
      3.4956617769221023,
      1.4915430533806422,
      3.3924135332385337,
      -1.7503853084027652,
      -2.890673554133398,
      1.0396707160659502,
      0.9841097291773443,
      -0.0587070653943559,
      0.953763789668775,
      -1.0241279394810905,
      0.9937009428295308,
      -3.004975021948223,
      1,
      0,
      3,
      1,
      0,
      0.0009404565586576644,
      3.007850462537045,
      0.031742453560973424,
      1.0540942698135662,
      -0.9329815033878492,
      0.08677238117064581,
      0.13721436238539889,
      -1.8297054462027098,
      0.15347488890787264,
      0.18041445872742354,
      0.18980827432331482,
      3.226118806512431,
      1.2058202745572149,
      1.1900304342795573,
      -0.8805128718808739,
      2.05415161182612,
      -1.9949198795268872,
      0.9923935411591241,
      -2.0317258305799055,
      0.9728310861013922,
      -1.0267716793389758,
      -1.0105079422234189,
      1.9935508606432384,
      -2,
      1,
      0,
      -3,
      2,
      0.00045295458743511996,
      1.0017863928815636,
      2.0102042363221524,
      1.0284945364297302,
      2.0383398280610994,
      -2.951093703632016,
      0.06589674617622551,
      -0.9277621774931744,
      2.0759032566706965,
      -0.92253451604317,
      -0.9322131962542833,
      2.07271040589679,
      -0.9427693198753304,
      1.0529511725795881,
      3.0295423473302625,
      -1.9868675248090222,
      -1.9906380328367053,
      3.0005185072610283,
      -3.0101464455335534,
      0.982161671382635,
      0.9805598355133043,
      1.987059200411974,
      -1.0060335991863034
    ],
    [
      -1.0302534801679493,
      2.088740570536767,
      -0.9532133432942924,
      -0.7549516264588627,
      3.0721902377703496,
      1.9918504830897834,
      0.0963078597208044,
      -2.3315614117676033,
      1.317813034953184,
      -1.0045089918359549,
      -0.4219554867215082,
      1.0669525348734457,
      -1.933645125915361,
      1.6166114590906295,
      -1.7588019394345757,
      -3.0352378399018938,
      1.987572285181495,
      -2.0179917388864452,
      2.9838505790319862,
      0.9842313361426439,
      0.9878442923675335,
      -0.003490837088114328,
      1,
      -1,
      -2,
      1,
      -3,
      2,
      1,
      -1,
      2,
      0,
      1,
      1,
      -2,
      -2,
      -1,
      -1,
      -1.9998733998328821,
      1.0019506926324262,
      1.0075155582161357,
      -2.982642958997874,
      2.019356507940057,
      -0.9821134539883527,
      3.00015290805684,
      -1.0197900572452694,
      -0.020821145368500018,
      -1.024022352554537,
      1.9823878366120335,
      -1.0048086681818473,
      -2.001032254894687,
      -2.0013334554625333,
      2.999379411008197,
      1,
      -2,
      -2,
      2,
      3,
      -1,
      -1,
      2,
      -1,
      -2,
      -1,
      2,
      0.0004982772032443574,
      1.0077871024633247,
      -0.9668689350071479,
      2.062284783228094,
      2.0995895547225514,
      -0.8843671111723781,
      0.10791433041450887,
      2.0924006814434732,
      -0.9609656019502228,
      -0.007964383901073752,
      -1.063127245410198,
      -2.0886044941317476,
      0.944786829791618,
      0.969812551889863,
      0.9866599331577599,
      1.9975636819942724,
      -2,
      0,
      1,
      1,
      -2,
      0,
      3,
      2,
      -2,
      1,
      -2,
      1.0007366283928878,
      -1.987093216927898,
      0.0546864724753687,
      2.1165793320731168,
      2.1919429684802214,
      -2.736824957668863,
      -0.716438652083606,
      1.1997960971895203,
      -0.9240621429563952,
      -0.060293282858139584,
      2.8619683956647823,
      -1.1506934003612166,
      -1.174858993277387,
      0.8817757079515649,
      -0.07993196020705196,
      1.9603106236934005,
      -3.00625710469361,
      1,
      1,
      2,
      1,
      -1,
      3,
      0,
      1,
      0,
      -1,
      1,
      1.0149745495820195,
      -0.93326070337793,
      0.1583784243066376,
      0.2969911137556737,
      1.3641546406194338,
      2.299499720611522,
      0.12458660297835081,
      -1.1114242657188265,
      1.7482747958741076,
      2.651450605071542,
      -1.3701005886410318,
      -2.278530528936027,
      -2.202410064741034,
      -3.1335140255945775,
      1.9063871399848404,
      -0.04238931817510469,
      -1.015032309662914,
      -0.0004312924197709576,
      0,
      -3,
      0,
      2,
      0,
      -3,
      -1,
      2,
      1,
      -1.9924796020475077,
      2.0735619924715247,
      -1.8004213096809685,
      1.4230854353149036,
      -0.45181458389921103,
      1.4601306902521636,
      1.1731460700041119,
      -1.1912548308927071,
      1.565534720417782,
      -2.601940455932465,
      0.3251021865680725,
      -2.5311900927491386,
      -0.3666140728168071,
      -0.24761031842760292,
      -2.1336018253893188,
      0.9175276273152719,
      -0.024066468618240033,
      0.9942338265449435,
      -1.0001495513925232,
      2,
      -2,
      2,
      -1,
      -2,
      -1,
      -2,
      1,
      -0.9976486681227149,
      -1.9677562970622546,
      -0.8441542995181401,
      -1.5854312563015542,
      -1.3021469172491593,
      1.7690091156309526,
      0.622348590675478,
      -1.5733882580716951,
      2.009090551297265,
      -2.3381405379699944,
      -3.587270076391518,
      -1.6749280777353825,
      1.4537989042695147,
      0.6127521649999192,
      1.7706409484327226,
      -1.1316676222662043,
      -0.08539640523012905,
      0.9731437529138693,
      0.989281717736209,
      2.0006120863150496,
      3,
      3,
      1,
      2,
      -2,
      -1,
      -1,
      -1,
      -1.9923761922429135,
      0.0674342504072402,
      -0.7523456993929267,
      0.585016765207119,
      -0.13836313558383947,
      0.06659636221158557,
      0.046999549430159625,
      0.7830560914494203,
      2.1701811534627162,
      -2.324232559879058,
      1.398074866099337,
      -1.779465441725732,
      0.2876708489499972,
      -1.3577637398051172,
      -2.233686894660114,
      -3.1388197222026775,
      -0.10279482682443467,
      -1.0524744202654523,
      -0.001410153961423962,
      1.0022794387126068,
      1.999996891425945,
      -3,
      0,
      0,
      -2,
      -2,
      -2,
      -1,
      -0.9828749449339025,
      2.0779900806802476,
      -1.713584109249149,
      0.6377028777599316,
      -2.1219849692033605,
      1.1027366820163782,
      2.1398889452938037,
      -0.40559219081120323,
      1.7978640933772303,
      -2.6718006289012752,
      -0.8800316724997758,
      1.1308456116399421,
      2.333602128288804,
      -0.428821364419451,
      1.5819574621202874,
      0.7100094847733446,
      -2.1819910942865564,
      -1.0859532106663539,
      2.9878201101478963,
      -0.9986654837671523,
      -2.001217210945576,
      0.9986686520857884,
      0,
      -2,
      -1,
      -2,
      0,
      3,
      -0.9845241015701289,
      1.0638135888802562,
      3.214587565545135,
      0.4973020370710461,
      2.6412987449742222,
      2.735777394858614,
      -1.2581629613857614,
      -2.8768866511548707,
      1.3207286787805257,
      -2.8480490511054706,
      -2.7611975756884295,
      0.3435367319586733,
      1.458365390328675,
      1.5637227018962614,
      2.6195573796049345,
      0.6399624843920401,
      -0.24813443625704465,
      1.879702560480878,
      -2.0298681903893216,
      -1.0067896066696778,
      -2.0061912027574555,
      2.9958501165697706,
      -1,
      1,
      2,
      -1,
      0,
      -0.0005409759565910604,
      1.991600893369813,
      0.976196897909321,
      -0.012314438552463971,
      -1.809638906560743,
      0.12525502799688637,
      1.0699418561010894,
      -0.04215474851912243,
      0.3588909402045654,
      -2.152716542604347,
      -2.2064083569077644,
      -2.0618113392463053,
      0.12576761867200228,
      -0.7769119640961535,
      -1.4666619917585415,
      -0.388102034029034,
      1.612735231397154,
      -2.3338706526146087,
      -0.20531609722639918,
      -1.0550584639935685,
      -2.0155684747752636,
      -1.0070768410868427,
      1.9963411636018151,
      2,
      0,
      -3,
      1,
      -1,
      -2.0029592599398436,
      1.9622006053638632,
      -0.1696457926174633,
      -3.2974312075857632,
      -0.360905375528324,
      -1.6429804351683437,
      0.18392115116116495,
      1.122316991558475,
      0.6710700226599725,
      -0.49586195433118363,
      -2.372381142611636,
      -2.121059894923113,
      -1.0648724982468298,
      -0.950736583539707,
      -1.5547021662854075,
      0.5090210529810427,
      1.5081202695019749,
      1.632007389603717,
      -3.2942197808918574,
      -2.1267707487704777,
      -2.0311988003463743,
      -0.0033406757889660075,
      1.996615538803534,
      -3,
      -2,
      3,
      3,
      -2.9986668374819434,
      1.9896854655504357,
      -1.0834178417060891,
      0.6794010230119537,
      -1.5899454114348768,
      -2.8892560018721545,
      1.6325229696475856,
      0.5265117045602867,
      -1.4475509947235825,
      -0.6452368347969666,
      -1.475046183155058,
      -3.027803130620911,
      0.21377846621702656,
      0.049279882202833705,
      0.14091896613381547,
      -3.570624656396007,
      -0.5431848609809679,
      0.4758799403639139,
      -0.31594660145242703,
      -0.2802721103275677,
      -3.1510052546147937,
      1.9515907659294291,
      1.9897614043678786,
      -1.0026259781638478,
      3,
      -2,
      1,
      3,
      -0.9960812452554846,
      1.9992008675318662,
      -0.11346329876966199,
      -0.38878474318966855,
      1.2646303272745092,
      -0.1606516408393168,
      -0.5639982104365631,
      -0.624445071145678,
      -2.4439093200446314,
      -2.426431572805291,
      -0.007445825274428306,
      -0.5104136559048433,
      -0.45985113536199795,
      1.298722253109439,
      1.3345445235258233,
      -3.4787055479706788,
      1.5024598256003527,
      -0.4276260085999405,
      -3.2602564284610023,
      0.7654848560574213,
      0.8533364117896907,
      2.948551956681901,
      0.9896253562126976,
      0.00008471588991345684,
      0,
      3,
      2,
      -1,
      -1.9895661319026088,
      -0.9800864830987036,
      -3.0606548513163494,
      -2.3373989638928236,
      -1.675843185968325,
      -0.20270582129185025,
      1.4002500805460953,
      -4.505755468540071,
      -4.354435043983679,
      0.6825742206673255,
      2.0479557955841132,
      0.5484938935783842,
      -0.252180396933688,
      -3.4384857496272905,
      -1.472015144079582,
      -1.3898391330728221,
      -2.4279910653174057,
      -2.421277174204097,
      -0.3048550046118662,
      -3.2213781527903254,
      1.8471059016691067,
      -1.0559711240724714,
      -1.0160004368252806,
      -1.999686150750851,
      -2,
      -2,
      -1,
      -1,
      -2.977043297612062,
      1.0569777744280318,
      2.030086016052406,
      -0.1940604499715484,
      -2.519548320226813,
      -3.042213381536266,
      0.6536396030304977,
      -2.4193289630154005,
      -2.405468183369878,
      -0.4876406000742933,
      -3.162947653695119,
      -3.691949029101562,
      -0.5077366364068141,
      1.4981427659387787,
      0.5851877642884955,
      2.756521260908749,
      -3.368372949477282,
      1.5573581873986855,
      -0.2853562566879831,
      -0.17530583634775754,
      1.887884517922661,
      0.951033631376337,
      -0.009293283964898985,
      -0.9948660594222458,
      -1,
      -1,
      0,
      0,
      1.0268337980119118,
      2.0980835107033022,
      0.08258215104628293,
      2.965366379417221,
      2.677573887637919,
      -0.6969020681109804,
      0.0872421746333574,
      -2.9258675603465636,
      -2.03614749392377,
      0.6973233514495979,
      0.72742403519761,
      -3.007065782056767,
      -3.810784309795863,
      -0.8252889838447408,
      -2.5545050605036157,
      -1.296444240813829,
      -1.383885114065437,
      -0.33006933366159696,
      -1.1685477636473895,
      -1.0930929995160439,
      -2.045840582959924,
      -0.007648372390392864,
      0.0022756427939873607,
      -0.9893449171935598,
      3,
      -3,
      1,
      3,
      -1.9716247211541271,
      -0.9045437307216367,
      0.1377151693978251,
      1.0945989071198392,
      0.8944929777894016,
      -2.365802515311976,
      1.6994175861498684,
      -0.15474218836854206,
      -2.3101933281704987,
      -3.6856406061178477,
      0.1212284800896434,
      1.0547934386018842,
      -1.8962356061433443,
      -1.9219192058189936,
      1.2289053053359342,
      -0.4770667743292724,
      -1.3947960704043973,
      -3.311204988872086,
      0.8539405962703556,
      1.9230883179446479,
      -1.034242351525303,
      3.02250847882549,
      1.0295759189602383,
      1.0143007572534677,
      -2,
      -2,
      1,
      1,
      0.031165775772844285,
      -1.8892944537179324,
      2.181322547490042,
      0.1915093410908389,
      -1.9120109671803378,
      2.001660158738403,
      -2.833535962926938,
      2.293326311414617,
      1.1925339338033538,
      -1.9775743280819253,
      -2.237060566029182,
      1.5540182876919946,
      1.4806557814525805,
      -2.8083778239538715,
      2.1611508450946895,
      -3.609315011812861,
      1.5324143080659438,
      -0.36142217387722336,
      2.8239146558417962,
      0.9120427560854625,
      2.986083828495174,
      2.0166025490386073,
      -1.9655461248547854,
      3.0201623404629925,
      2,
      0,
      1,
      0,
      -0.9750873326297745,
      2.1016895007377845,
      1.1833889305063783,
      0.27220210076568147,
      2.287190080709538,
      1.2864265925434963,
      1.469127341888605,
      -1.4106761850705292,
      -0.48102437075184873,
      3.4185726091314064,
      1.367415243122285,
      2.0464651909293288,
      -0.18258024715989424,
      2.5113267816887808,
      -2.563116555555188,
      -1.5315496015053403,
      -1.4521744138821298,
      1.6692062076218155,
      1.8144799747131435,
      -3.079230740567135,
      -1.028947926903792,
      2.0003144981613876,
      0.0181705404534942,
      -2.9790561654025853,
      2,
      1,
      -2,
      2,
      2.01560880416292,
      -0.8953611064739885,
      2.219397484573951,
      1.3591559891408187,
      1.4715577355219829,
      -1.4882309174462327,
      0.5872869126293723,
      1.513627853258233,
      3.4565884504939883,
      1.5128592114056976,
      -0.5414218794645688,
      2.179009381158233,
      -2.193089989587778,
      0.6425484390325421,
      2.584032953439675,
      1.5361373729219177,
      2.641075850975803,
      -3.1586549216532944,
      1.9370523498388663,
      -2.0694362081200257,
      -0.06409647194909973,
      -2.0352763281750184,
      -0.003937168013484452,
      1.0150202583291814,
      -2,
      0,
      -2,
      0,
      2.0145517741957693,
      -1.907154628490164,
      -1.8097552073473102,
      2.332093874138004,
      -1.5808524257733432,
      0.5200190194338785,
      -0.5002943841320877,
      2.28612580674641,
      -1.8300036608499837,
      -0.8239883033001925,
      0.1097817998180883,
      -0.0425253257328418,
      -1.2456016601888047,
      2.625140470858496,
      -2.3932664060368065,
      -2.5022935404249838,
      2.696245724266693,
      -0.09600910554658694,
      -2.983369176500518,
      0.9815770033522043,
      2.991831082963041,
      -2.997434092951895,
      -0.9988398256905754,
      1.0064220723747446,
      0,
      1,
      2,
      3,
      1.0106435417520354,
      2.0681425437425487,
      1.1344213871217403,
      0.1986496086952906,
      1.2564722663633257,
      -0.6562993236967627,
      3.3387760007805443,
      0.17438982362287841,
      1.0583542284547625,
      -0.012840477109075436,
      1.925987132260822,
      -3.160074752757984,
      -1.2468376018490759,
      -3.283136422928717,
      -0.3203495460088167,
      -1.4541933170351724,
      0.6993755613875965,
      -0.07273842851350518,
      -0.02069963599224399,
      -1.0409411129484345,
      -1.9990271642137152,
      -0.949739633564038,
      0.024587935318639825,
      2.0175858379157674,
      -1,
      2,
      2,
      -2,
      2.0054489791734302,
      0.03314140214803636,
      0.08226106046111006,
      1.1380161622173752,
      0.19176285645373414,
      -0.7414300839404758,
      -2.7878701636238103,
      -2.85948887359238,
      -2.9343433914658736,
      2.018902593011285,
      2.9117254862962763,
      1.8633737187938046,
      2.753848661566591,
      -2.296670604882904,
      0.713902455142179,
      0.6827717303774311,
      -0.1780932083998318,
      -1.0375837436572426,
      -2.044759559519558,
      -0.03311275458052988,
      -2.9945964387205657,
      -0.9740218180535527,
      1.0282644104942829,
      2.0246196609565112,
      0,
      -2,
      3,
      2,
      2.002456416973115,
      -2.9839958766706784,
      -0.9630952679994393,
      -1.9220908497172402,
      0.1214545487672812,
      -0.8617219792834454,
      -1.8874820361192082,
      -0.9506589394730887,
      0.9841288773525739,
      -0.0620437470079655,
      -1.0780515556141126,
      -0.15724014853072443,
      -3.257327275804666,
      -3.295188349800275,
      0.7162101252851478,
      1.742653225222518,
      -2.144346854766762,
      -2.0560525016842353,
      0.9792008793109132,
      2.9896720395577963,
      -0.9750469616896729,
      -0.9802938873548648,
      1.019863711635142,
      0.01598998133969415,
      0,
      2,
      1,
      0,
      -1.9998556445765452,
      2.006081927858521,
      -0.9927649004379873,
      1.0337038848158173,
      1.0443314462189184,
      -0.961975769625909,
      0.03232284818570397,
      1.0285681287012582,
      -1.0250913983699648,
      -3.0959358179176926,
      -3.089191204079075,
      -1.0966121346546374,
      -1.1475544273246248,
      -1.168720993595876,
      2.834212724686746,
      -0.141955287482814,
      1.8984067696410518,
      -2.0510128023157477,
      -2.006640465469817,
      3.0173888792691703,
      -0.9575941959810614,
      -0.9669512428008014,
      3.014393942491823,
      2.0154435165946816,
      -3,
      0,
      -1,
      0,
      -2,
      -1.9993337764257932,
      0.0020073353260464974,
      -0.9838466784111227,
      2.0183723051337883,
      -1.9851181378997163,
      -0.0015327031373601491,
      -2.0206791899021423,
      -2.0204775988765227,
      2.9395953654421647,
      -0.05985819148959179,
      -0.042168400139388926,
      -2.0621122828771985,
      -0.054327515966687855,
      -3.0505778648626336,
      -1.0545287689174858,
      -2.0451421101759615,
      -1.0152147371795477,
      -1.9884516087984823,
      -0.9694534768002369,
      -0.9704862493767832,
      -0.9713992052469955,
      0.013775702845474812,
      2.0091618719940674,
      0,
      1,
      -1,
      -1,
      3,
      -0.999679124972423,
      -1.9989184819215402,
      -1.9972201094490651,
      0.013643409435252912,
      1.0143765072616986,
      2.0037685841650745,
      3.0005212211398145,
      0.0037072226417361152,
      2.9981939301387404,
      0.00395859501594531,
      0.9945669162242021,
      -2.012377511471305,
      -2.9954829832944583,
      -0.9892316789274361,
      0.019378844728982915,
      0.011856661123187923,
      1.0149412910378437,
      2.017244847668631,
      2.032018198444594,
      -1.9734074423932333,
      3.011339044947525,
      -0.9849839323300452,
      -2.9911489614119375
    ],
    [
      1.814311641626625,
      0.8517296199972823,
      -1.5742347633643963,
      -1.6979580146393052,
      -2.361417373191386,
      2.422201269201395,
      -0.18665540202602424,
      -2.0236280313003947,
      -0.19877697088820723,
      -2.045864388868672,
      0.11016390393082719,
      -0.6047841730483259,
      -2.479795793597177,
      -1.233969478830537,
      -2.8510832066218423,
      0.8985817707843406,
      -2.019752015860607,
      -0.02685724471404905,
      0.976244245661566,
      -0.024623706274543217,
      -0.01987222514356529,
      -3.006050600432267,
      -2,
      2,
      3,
      -2,
      2,
      2,
      3,
      0,
      1,
      -2,
      0,
      1,
      -2,
      0,
      -3,
      -3,
      1.9998882667328175,
      -0.0017286204524959623,
      -2.008481090752907,
      -1.0267696697270705,
      -2.064375213214469,
      -1.1004988179707087,
      1.8500215390659505,
      -3.1664527848811166,
      0.8567073819809118,
      1.8854809732716236,
      -2.0759280608384794,
      -1.0285990623851209,
      -2.004285973968074,
      -1.0002524605807388,
      0.00018620932042351216,
      -1,
      1,
      0,
      2,
      2,
      -3,
      -2,
      -2,
      2,
      0,
      3,
      2,
      -2.000424031476993,
      -2.008194571836928,
      -0.03771659384000131,
      -1.1098261507203542,
      0.7822429683647301,
      0.6698924548523244,
      1.586628861244621,
      0.5617779278261187,
      -0.4120535688805868,
      -0.31021386136329165,
      -0.23488640357260687,
      -0.15855622698323082,
      -0.0824809311980337,
      1.963554081422376,
      -0.004806700669763909,
      2.0006856052853803,
      1,
      -2,
      -2,
      0,
      3,
      0,
      3,
      2,
      1,
      0,
      0,
      -1.000608508683515,
      1.9888330274287005,
      0.9465277668562077,
      -2.1618287097665547,
      -2.302019912186534,
      1.5910864796331665,
      2.491736455218199,
      0.4283497758520172,
      -0.569348997106701,
      0.5269768223650599,
      -2.3567473169958717,
      -0.24527381609580484,
      1.8412366033905225,
      0.8745227449382956,
      -1.0723685658943563,
      -3.017701226981348,
      -1.996087409453811,
      2,
      0,
      0,
      -1,
      3,
      2,
      2,
      -2,
      -3,
      -3,
      -3,
      0.9877223861830835,
      -1.0433733612394431,
      -2.0691648876364286,
      0.909445028347404,
      -1.1506740806749483,
      -1.2826998973941126,
      -3.4609483040565894,
      -0.593969014263685,
      1.4313004949778532,
      1.5562495315131901,
      -0.272831939944056,
      2.86097817475784,
      -0.007743333294534376,
      -1.0274920050001684,
      1.0016856856952956,
      1.0157869447774488,
      -1.9857263123599456,
      -0.9994900918214705,
      1,
      2,
      1,
      -1,
      -3,
      0,
      -3,
      1,
      2,
      -1.0039551303370486,
      -2.0441576143631512,
      1.9460388350441917,
      -0.9190924211646666,
      0.24211175533695523,
      -0.7854600760700097,
      0.007207285844267721,
      0.7712814175943747,
      -2.3829943726267016,
      -1.4177426235428863,
      1.6301602327696472,
      -3.1190497233314955,
      -0.9344283084241599,
      -2.95484780331915,
      2.083626767293509,
      0.09960852594312938,
      -0.9364521127868489,
      -0.9757683260861051,
      1.0001229550275823,
      -2,
      -2,
      3,
      0,
      2,
      -2,
      2,
      -2,
      -0.0012889082136297953,
      -0.016991110366424183,
      -1.0966555009012855,
      -0.03552706366841049,
      1.1331572876658398,
      1.2753334995402146,
      1.2818161506904229,
      -1.8262539815137173,
      -0.16360764192709473,
      -2.552958450295417,
      1.3105786719104322,
      1.2036053578845973,
      -0.4424769333878145,
      -2.1256747091720833,
      -0.10480082557137485,
      0.9997536637448541,
      -1.8706770852032912,
      0.07363067436412732,
      3.01434125700056,
      3.001636659162729,
      2,
      1,
      -2,
      1,
      -3,
      1,
      -2,
      2,
      -0.0014342576229959532,
      2.966453713744461,
      -0.11263194807448655,
      -0.15983477394989096,
      2.8697404026763786,
      0.914077912681138,
      -3.1103933081837045,
      -1.2623646877434578,
      -1.5960972312912312,
      -2.8739099243250505,
      0.9607084831311005,
      0.9024685954831523,
      -0.6106999851707301,
      1.8767403795499764,
      -1.130389193874675,
      1.979038113208969,
      1.1157116229878525,
      -1.904415736399752,
      -1.9871342558887464,
      -1.997033131796809,
      2.999994467289574,
      -1,
      2,
      -1,
      2,
      0,
      2,
      3,
      -1.0042728500083276,
      -1.0587159628051124,
      -1.2232032105942394,
      1.6590576111873159,
      2.4792540890405372,
      2.3666616105404543,
      0.5558694342258198,
      2.356746012195119,
      -2.929478679932506,
      -3.979604795011134,
      1.0804326332618999,
      0.28131984070706456,
      -0.22498544244108765,
      -1.8475953073970177,
      1.9813196393765924,
      -0.991100152450734,
      2.1107906089397965,
      -1.9246987701083078,
      0.9908110197923898,
      2.999159011202288,
      1.997430133061295,
      2.9960309364988493,
      2,
      -2,
      -2,
      1,
      -1,
      0,
      0.9881830574146265,
      -1.137327260085885,
      -0.4242855739777385,
      -2.66748328555593,
      0.11017735780666361,
      -0.08608904507566786,
      -3.710117031570667,
      -0.6925183017038874,
      -3.092919295523966,
      -0.972001190090382,
      0.4774634520694512,
      -1.2964107436343149,
      2.943180430953954,
      -0.8888764872421399,
      -0.9820250642006628,
      -0.8999625553359843,
      1.095084603898654,
      -3.0058410694678295,
      1.9533761512295535,
      -2.0299133439527526,
      1.9794773558867516,
      1.9847749211430792,
      -3,
      0,
      -2,
      2,
      2,
      -1.000721833834305,
      1.9638677592381233,
      -0.24343159134913664,
      -2.6833204714232815,
      1.9860385676916263,
      -2.59242642044999,
      0.12957429555918565,
      -1.518940303647138,
      -2.55870145322887,
      0.25338312000604024,
      -2.2604971395166342,
      1.5422182009452523,
      2.936401746017798,
      1.0509478681277793,
      1.1660994651789576,
      0.12874752933843264,
      3.141787668923092,
      1.0335380914099035,
      -0.05811507186022475,
      -2.079026303702206,
      2.9511181907205093,
      -1.0277898759404331,
      -3.0144721168400017,
      2,
      2,
      3,
      -2,
      -3,
      -2.004020917503991,
      -0.08681825585707369,
      -1.3958046486022362,
      -0.9132536683030752,
      -3.609463131937475,
      -5.532511689547009,
      -0.9860905554099022,
      -3.822504760133351,
      -2.0220975144388937,
      -0.8097624868804472,
      1.0542492790331757,
      -3.0431795038109026,
      0.3714794957737096,
      1.6857211873491447,
      -1.027490287027863,
      3.0699083285010382,
      0.0988293456293613,
      0.9674792421453771,
      -2.1469979556901206,
      -1.1357855177938572,
      1.925745045799816,
      -1.0224079680106353,
      0.9865060462703571,
      -2,
      3,
      1,
      0,
      1.0018901782416698,
      0.9827653202170045,
      -0.1531787668046343,
      -0.5579446978847465,
      -3.20594037246927,
      -2.072486811343295,
      -4.215352793892468,
      -4.6427449608567075,
      -3.6086401610020618,
      -5.914617062456815,
      -2.5890512974071394,
      -0.4290555857035833,
      -0.4867399333170733,
      -0.07251743677042194,
      1.160622468857856,
      -2.4845015341559717,
      1.7099580324483745,
      1.8294670508581574,
      1.8277470957920112,
      0.7401288234846106,
      -3.196928010320175,
      -1.1155921535720683,
      -2.0349276510652348,
      -0.011722508197993826,
      2,
      0,
      -2,
      0,
      -1.9943473959526792,
      -1.0068759526304258,
      2.796431399997348,
      -0.6526904847500568,
      -3.342588677987871,
      -3.287032223794759,
      -1.2919338013986361,
      -3.716596883378461,
      -1.5984429930230104,
      -1.6110571573737584,
      -6.035269992973476,
      -3.927828720737636,
      -1.156556320052024,
      -3.805673319499541,
      1.135102529258444,
      1.1843037982310847,
      -2.6108674340205247,
      -0.3851324350905502,
      -1.3727714345517452,
      -0.3635624331361935,
      2.7482798670222928,
      0.865933248879303,
      2.962128463789653,
      -2.003066913653333,
      2,
      1,
      0,
      0,
      2.0131625160378195,
      -1.9976455615129742,
      -2.1549275946074746,
      1.392470364719483,
      -4.283101900593234,
      -2.2625595465429043,
      -4.135136357062585,
      -1.307372678568195,
      -3.1145465430625605,
      -3.9992544797074436,
      -1.4708863175942124,
      -2.492255210324553,
      -0.6944386871358431,
      -1.5613472228588243,
      0.23733497217708954,
      -0.7831432311703215,
      1.2760163621115466,
      -1.6518238847167186,
      -2.5975918024408866,
      -2.4447723712049108,
      -0.3185674384731682,
      1.8350128147124425,
      -2.0510450309394646,
      0.996327252700973,
      -3,
      -1,
      2,
      2,
      3.02667353914616,
      -0.9730116363903699,
      -2.075600693923323,
      -1.4601487960757744,
      -0.09217904687610633,
      0.989125159605234,
      -5.6171990897217805,
      -4.7463724503262625,
      -0.6423794540057199,
      -1.7295374475351153,
      -1.4699314484311516,
      -1.618729068997326,
      -2.869694986927615,
      1.2062248663074984,
      1.1808538009314484,
      1.3946889967846106,
      0.29870953889422586,
      0.19410277253167998,
      1.2673581261456548,
      1.4979185631424052,
      -1.3016285861650494,
      -2.172352223431499,
      -0.043821389805307066,
      2.0019390737298304,
      -2,
      -2,
      1,
