{
  "input_neurons": [],
  "layer_one_neurons": [
    0,
    0.009,
    0,
    1,
    0,
    0,
    0.321,
    0,
    1,
    0,
    0.002,
    1,
    1,
    0,
    1,
    0
  ],
  "layer_two_neurons": [
    0.01,
    0.609,
    0.014,
    0.999,
    0.997,
    0.19,
    0.912,
    0.001,
    0.519,
    0.038,
    0.022,
    0.995,
    0.044,
    0.179,
    0.992,
    0.902
  ],
  "layer_one_weights": [
    [
      1.9229187382290729,
      -1.9526944188112725,
      0.7367788124564552,
      0.623876229625273,
      -3.232453319883065,
      1.8626433686025343,
      0.4998832314095768,
      -1.1705318200293144,
      1.186186339563519,
      -3.023721662467026,
      -0.8141403004057607,
      -2.5643463700071503,
      0.7580520191514947,
      -2.6476781380728944,
      0.25649180898015717,
      -2.969929705362968,
      -0.9816064435186252,
      3.016671116363707,
      -0.9872200801584975,
      -1.9870267078778159,
      0.00956598420707104,
      1.0027887267536357,
      -2,
      0,
      -2,
      2,
      2,
      -1,
      0,
      0,
      -3,
      0,
      -1,
      3,
      -2,
      2,
      1,
      -2,
      2.9998255941058964,
      1.9974141974917075,
      -0.014568940795374312,
      -1.050391287276414,
      -0.07810837188650752,
      0.9039495967361362,
      -3.0829199181861444,
      0.9344027436850573,
      1.9482458848341289,
      0.9613311107363759,
      -1.0334543163550698,
      -1.0208609228448196,
      -0.020985532928113546,
      1.9987563684534344,
      -2.0008314245977012,
      0,
      1,
      3,
      -2,
      -2,
      0,
      3,
      2,
      1,
      -2,
      0,
      0,
      -0.000972157401015764,
      1.9698259612490132,
      -1.1118310698360012,
      -1.1939839146348832,
      -2.3475261428500676,
      2.5309483185450232,
      0.5258612039424864,
      -1.4005845692039938,
      1.658775435650379,
      -3.3057506408337898,
      -1.2312338195563923,
      0.839509767706232,
      -3.115011920207224,
      0.9282119709976232,
      -0.027513254191451925,
      0.9967746654859314,
      2,
      -1,
      0,
      -1,
      2,
      2,
      -1,
      -2,
      -1,
      -1,
      2,
      -0.011789298651410172,
      -2.055614706562286,
      2.8229765896089476,
      2.5980320565662964,
      1.3630993757735235,
      -1.8014101154239235,
      -3.9359867784784077,
      -4.016771164599238,
      -4.047147712596109,
      0.9699706607587176,
      -0.9419739743562751,
      1.362940138049307,
      0.5404087276549725,
      -2.3086790045800045,
      -1.1567986195908986,
      -2.037411311195031,
      2.9929578119519777,
      0,
      -2,
      2,
      2,
      1,
      -2,
      3,
      0,
      -1,
      1,
      2.977325756992432,
      -0.055398691696313444,
      -1.2214256114513278,
      1.4322990517577474,
      -1.8994467492942695,
      -0.26533222926933014,
      -2.4374028891574078,
      -0.5770524467231123,
      -0.7785295333543109,
      -2.9211602820189975,
      -0.8211303487712691,
      -4.603610276719649,
      -2.131509413684822,
      0.23492641135437003,
      -1.4839956424216443,
      0.7648733850482832,
      -2.0756231274801107,
      0.9870410931851694,
      2.9998077018887876,
      -2,
      3,
      0,
      -2,
      1,
      -1,
      2,
      1,
      -3.016005348005342,
      -0.04202986912244596,
      0.8241431483546129,
      -1.5564117271847855,
      -3.967757614393611,
      -2.485868396970482,
      -1.8626147342626505,
      -3.7635321025505957,
      1.2899469703661373,
      1.2747822273581153,
      -1.9453923044400407,
      -4.940088303072861,
      -2.6683933459678357,
      -1.2713895367456902,
      1.1737088263864113,
      -0.6006430034761389,
      -0.3272774724177673,
      0.9124343443039431,
      -2.0362964327094115,
      0.9999260647992082,
      1,
      2,
      1,
      2,
      2,
      3,
      0,
      -1,
      -2.0332804890748193,
      -3.1012755206524827,
      -2.381159993386768,
      -3.7135076900295863,
      -1.2403720307499955,
      -3.7712307066526,
      -1.7620962425448665,
      -2.1603306413704364,
      0.9387537258220463,
      -1.1848724278674168,
      -2.4692387282099166,
      0.2874168255864553,
      -3.635668679586818,
      -2.355841111812637,
      -2.9153627484090787,
      1.4108531624131873,
      -2.321765716201585,
      1.9148946293607767,
      2.9715413953020535,
      2.9990447198338206,
      1,
      -1,
      1,
      0,
      2,
      2,
      -2,
      2,
      1.958521585626949,
      1.7996480988069485,
      -1.4377185543889317,
      -3.8409084728203355,
      -0.4332643657182128,
      0.2924438191193382,
      -4.605968347486949,
      0.7586659377626751,
      -1.3040820726047957,
      -1.4615153518239792,
      -4.888469262767795,
      -4.305143023216905,
      -2.1172528650054634,
      -3.691400930591554,
      -0.271839463262535,
      -1.6495797971352655,
      0.6668050437497387,
      1.88911351498996,
      -0.002904901267129704,
      1.0023160303276621,
      3.0000077114806296,
      3,
      0,
      0,
      3,
      -2,
      1,
      3,
      1.9578780085191938,
      -1.2350680014203013,
      -3.5673895234429187,
      -1.045550114251914,
      1.5241377760205002,
      -2.7642146950680795,
      -1.8650293274285958,
      0.10865497360304545,
      -0.9539754320571325,
      -0.1939340984358796,
      -0.7181634918198986,
      -4.07855084988834,
      -0.7032647458889298,
      -2.3278401008102776,
      -2.6709633592860813,
      -0.9152184270780729,
      0.5152931539531319,
      -0.14114537696885526,
      2.055284328971435,
      0.010803558843327472,
      2.0015504287658086,
      2.002050873554624,
      -3,
      -1,
      1,
      2,
      1,
      1,
      -0.0496953950155302,
      -1.2497234386835752,
      -1.5397879676929527,
      -1.9821553491353257,
      0.6894948532094767,
      -3.8482352924860446,
      -0.9863543739049481,
      -0.6522439366586538,
      -3.6211618949648128,
      -1.129748461603023,
      -1.873878291243675,
      -4.048156152310635,
      -0.68920699607972,
      -2.4685751076359703,
      -3.8060005607580525,
      -2.245213774802343,
      0.3569249440727901,
      1.8044103787542236,
      -2.939985002836996,
      1.0320483641814304,
      -1.984716752057774,
      -0.990959150019302,
      2,
      2,
      -1,
      -1,
      2,
      -0.9992891415662425,
      0.9768918131147925,
      2.84945057550291,
      -1.312326650787476,
      -2.609208087081891,
      -1.8929207921599804,
      -3.43977761775244,
      -2.4176729301785795,
      -0.09849868238771899,
      1.1628202746906227,
      -1.6098292175726472,
      -3.404794963599751,
      -5.503948721120903,
      -3.537730655019833,
      -0.18465034762448965,
      1.283397105481354,
      1.6646685140147828,
      1.2776436210361661,
      0.8299355326330463,
      -1.8988002289305228,
      2.0587070425739578,
      1.0402445494670731,
      -1.9901780323027136,
      1,
      -1,
      -2,
      1,
      -2,
      -2.9936586832562777,
      2.0566104041228868,
      0.06981509719357554,
      1.0265194498632415,
      -0.01369987676097808,
      -0.5867573528627948,
      -1.9242587823202706,
      1.6031032687299538,
      -1.9622808673083618,
      -3.2496842432374984,
      -2.073260781155272,
      -1.4937736237569315,
      -1.7904143928435428,
      -3.2100220552770815,
      0.032099410451379644,
      -3.51902225185712,
      -1.2314265803498494,
      -2.6818158673861325,
      -0.0961472212538419,
      -2.83790270420722,
      0.09706212726496642,
      2.0515803100533105,
      -2.9765279903083464,
      -1,
      1,
      2,
      -1,
      1.0009644818845118,
      2.03924714619978,
      -2.8246866890019326,
      2.338387110185085,
      0.4495618854997495,
      2.202186792865884,
      1.576738323199129,
      -2.533233919934425,
      2.3491169717562546,
      1.1438867427405903,
      1.840292504287489,
      -2.5938729004364016,
      -2.5845284238515136,
      -2.995152257245697,
      -1.4982787780778992,
      -3.366343969011289,
      -3.2280955768179584,
      -3.0047401564185923,
      -2.6133110434313536,
      -1.0847352040820046,
      -0.8549244095006052,
      -1.9108319156065443,
      1.0243358679217922,
      1.0104105804801953,
      2,
      -3,
      -1,
      2,
      0.004766160918651576,
      -1.9167519213758586,
      -1.726264981014799,
      -0.4367830341436848,
      2.591494245003708,
      -2.6527214561816086,
      -1.3308442994273528,
      -1.237748529662568,
      3.2291398865447096,
      0.8687335439834191,
      -0.47027937734290076,
      1.3631425095954852,
      0.3065020100330917,
      1.9949510261733885,
      -0.30518013704511343,
      1.7654036153917965,
      1.9190198437417534,
      0.19533478106898491,
      -0.5458851664269689,
      2.803466085730763,
      -0.8612839180622841,
      -1.9147423378152069,
      1.0372214285096286,
      3.022319531207557,
      2,
      3,
      -3,
      2,
      -1.9971707545574862,
      1.0936449557793888,
      -2.716844788677368,
      2.518816853712835,
      1.5303028581652358,
      3.369692117158212,
      1.7715567391174412,
      1.7491325340590183,
      -2.284862721136405,
      2.334280216509138,
      1.1613327311470507,
      0.8306904857502986,
      -2.4097451129170953,
      -0.3156805354619563,
      -1.3165537046434532,
      -1.1710445036484725,
      -1.991056241196849,
      0.3051354257015581,
      -3.529922539459708,
      1.7228732245328824,
      1.121691738648279,
      2.116406734499886,
      -1.9558956523013258,
      1.0230271943170002,
      2,
      -2,
      3,
      2,
      1.995051333712185,
      1.089877585248558,
      0.24113125715913017,
      -0.62793022839254,
      1.2810090071675748,
      0.07973402014572217,
      -1.6117915171452295,
      -0.6972185761202223,
      -3.6412718364585968,
      -1.8978574367671863,
      1.136845838151983,
      -1.174699037087675,
      0.3743548085983892,
      -1.4853009808887825,
      -2.332600475092005,
      1.800768155370308,
      -1.8721400749121493,
      -2.634140394032237,
      1.5628414019654164,
      -1.2788574715514938,
      0.039472456367784896,
      -1.8968654242519682,
      3.0395144610481446,
      -0.9916227188984224,
      2,
      -1,
      -1,
      1,
      0.0023980592700771283,
      3.049370856307664,
      1.1799642836960926,
      1.145833494845342,
      -0.9777749938562535,
      1.7200009525720563,
      -1.8273957810322143,
      -2.844631906175001,
      -1.8975005044826978,
      -1.9800551450440589,
      1.1000873879457111,
      -1.2382516003592303,
      0.39181882697444864,
      -3.336326008944422,
      -2.1105387408010685,
      0.9822195385294138,
      1.2331253960367943,
      -0.5397862149803379,
      2.6943751747026936,
      1.7538297415110753,
      -2.034900295536891,
      -0.9088061975149344,
      0.05594014768267284,
      2.016018067546411,
      -2,
      3,
      -3,
      -1,
      1.009254119493961,
      1.0294557364645611,
      -0.9807725944210133,
      1.8486658025612248,
      -0.36044424441066675,
      0.38713044786310424,
      1.9836647291614,
      -2.7805286245248233,
      1.1598071730492718,
      -3.941715368970711,
      1.9954345409497112,
      -0.47993711338411266,
      -3.856019446855321,
      0.6039873040245289,
      1.1327647605518816,
      -3.7776117906292654,
      -2.6686257538735876,
      -3.6347184483240396,
      0.6216295190637108,
      -1.2329055780276312,
      0.9415058912489667,
      0.10532014522731215,
      1.082356074976748,
      1.0261508973766718,
      -1,
      -1,
      -2,
      2,
      2.02767457775839,
      -2.012619239337424,
      -3.1315789118600397,
      -2.3729959492362633,
      -0.5717927141580005,
      -3.8953379698930233,
      0.8252857666612383,
      0.8429501148324172,
      -3.2625140509849953,
      -1.1289136031875,
      0.7759974303338165,
      -1.8293840562384691,
      -3.9940141208070123,
      -0.6508198729663414,
      -0.1813243623329301,
      -2.8714747056936276,
      -0.7049946893088543,
      -0.8166622546498181,
      -2.59014698416439,
      -1.2886217766619306,
      -3.0390517899496516,
      2.0834996670937023,
      -1.9001012227620948,
      -2.950695611840009,
      2,
      2,
      0,
      1,
      -0.0057456538824810005,
      -2.104019917186722,
      -1.2885873692954188,
      -0.48783976979225163,
      -2.6331866219110065,
      1.9871440985927735,
      -1.3551501144208324,
      -0.6033953814046756,
      -4.875894743566931,
      -2.816916143721864,
      -4.908460018053161,
      -1.3494724808335525,
      0.6988849414189391,
      -4.0882597691834714,
      0.23520997348625622,
      -3.1738514570016854,
      -1.9366874707828954,
      -2.001160537998887,
      0.24014661634134898,
      -2.351830819830847,
      -2.1116230067894945,
      0.06566277691366779,
      0.0858096970502926,
      2.0527396075027506,
      0,
      0,
      2,
      0,
      -0.03888147042088699,
      -2.1265244270160326,
      -0.28896160109459723,
      -0.5097723508604263,
      -0.7279083343253795,
      -2.0996534086632703,
      -0.4655828518436779,
      -0.8708749598241898,
      -4.092728617403826,
      -1.2027716662685366,
      -5.285934160466886,
      0.6420114109850753,
      -5.5015246610867985,
      -2.3616922428168645,
      -3.9048777534853416,
      0.5259812969773171,
      -0.11620764152863675,
      -0.12181625677415044,
      -3.7174251231952686,
      0.6109587170657982,
      1.8337236971593975,
      -2.016239702272628,
      -0.9749114043910008,
      1.0245617628374546,
      -2,
      -1,
      0,
      -1,
      1.9740021121527158,
      0.878124126693418,
      0.7610720371583366,
      -2.4609970930859664,
      2.19057168623152,
      -4.197119610157658,
      -0.5417262374164368,
      -0.8181687276762059,
      -0.8338735310788136,
      -0.034090306711306126,
      -4.02307406715654,
      -1.0830458070574784,
      -2.1934460135428275,
      -5.337022963878298,
      -3.8436179732135747,
      1.525631185667994,
      -2.2119032782820236,
      0.056146428903607215,
      -1.5707188560675824,
      2.783688824077081,
      1.8909095434345466,
      -1.0016930703261857,
      0.008798842188282148,
      1.0067076530110763,
      -2,
      0,
      2,
      3,
      -3.011173393084396,
      -2.08858726111474,
      -3.2418543981172756,
      -1.3811887623723405,
      0.35755985461801854,
      -1.97249465755763,
      -0.3464326198129346,
      -3.6165718877157937,
      0.3452432012057442,
      -1.6911417906625719,
      0.27252218895844516,
      -4.642184371002797,
      -3.792771376987137,
      -2.902557382516201,
      -3.6560694818986863,
      -0.32443719843717606,
      -2.031610702248315,
      1.3695716513090765,
      -3.3538677999528757,
      -0.13073117342087698,
      -3.0627507589421863,
      -2.962165311203594,
      -0.9796251562400757,
      -1.9948220564680985,
      0,
      0,
      0,
      0,
      -1.0089909333016773,
      1.952142345780461,
      1.8391290225396015,
      -2.255706943902711,
      0.5877562910663878,
      0.3541373980837842,
      -2.8824986651365627,
      -2.2108990113142344,
      1.6360466397061126,
      0.6402073129612492,
      -2.337475290365558,
      -1.3911257540177848,
      -1.4861922353096242,
      -2.4997486170391094,
      0.8103582788615548,
      -0.948550252628699,
      0.3435082803420499,
      -3.284840515573117,
      -2.0891868129403286,
      -1.0225635905882586,
      -0.019935767897274026,
      -2.981593055521816,
      3.0238060078263724,
      1.012891454777092,
      0,
      2,
      1,
      -3,
      -0.001730744674869022,
      -1.0114677643669967,
      -3.0577299130600917,
      -1.1429439216557598,
      -2.2577970290946987,
      1.5876032927495183,
      0.4469502480839696,
      -3.7376177916335696,
      2.079359191514483,
      -1.9348144559221037,
      -0.8994569722309533,
      -2.9971454732151277,
      0.8433640627836092,
      -2.073204917821776,
      1.1752701105494352,
      -3.585312611153523,
      -1.387615730887317,
      -0.1820812915617415,
      1.9468375868785703,
      1.017729848431408,
      0.036244832312516365,
      0.025307772368776606,
      2.0191697972297726,
      2.011683162614176,
      3,
      1,
      -3,
      2,
      0.003776188921295361,
      -1.0003244756005758,
      1.97552905569076,
      2.921265657903642,
      -3.1284025670167654,
      2.7790037259091576,
      1.6716169034463897,
      -0.381436084588222,
      0.5507954357950782,
      0.4974351439096802,
      -1.5154294096742782,
      -3.5807653972426063,
      1.2945131324666463,
      0.35748663120584445,
      -1.5144111417561268,
      1.6283332036686948,
      2.7400154197717113,
      -1.123754379894619,
      1.976822014323136,
      0.008313887895175235,
      1.0497687266688043,
      0.03717512219006423,
      -1.9815435324124997,
      -2.9920090008181788,
      0,
      -1,
      0,
      -1,
      -1.9991750791446934,
      1.0071203372010011,
      1.9940539390605858,
      1.963233553906025,
      -0.0708763826354847,
      0.9025007391536667,
      0.8637681824926864,
      -2.1832042980983415,
      -3.2162418912456783,
      -0.21524919247413746,
      -3.2604890006307263,
      -1.300223026351758,
      -1.352745368004698,
      0.6820843584579545,
      -3.254781872605415,
      -3.22454065551426,
      1.840313711314694,
      -1.0782437846024562,
      -1.0003222956146178,
      2.0337328846134546,
      -1.9851604883392002,
      -1.9830884077099795,
      -1.986598708897589,
      -2.9939401680654925,
      2,
      0,
      0,
      -1,
      1,
      -1.0005119165986514,
      0.9980447709128139,
      0.9865489614689842,
      1.9678123282988778,
      1.9424659289321746,
      -3.070862614035666,
      1.8962306687440837,
      1.8928364024434665,
      -1.1205045074327518,
      -2.131859441437445,
      1.8796241384833248,
      2.886257472970987,
      -1.1029886830228683,
      2.9006646774004654,
      -0.0719247033803651,
      -1.0589135722846064,
      -0.032509015093188064,
      1.9975138740829892,
      -0.9801395392982207,
      1.015303994099754,
      3.0110008458313207,
      0.008842921560366337,
      -1.995582730219716
    ],
    [
      -0.9986119050123894,
      -0.23107813966316523,
      -1.6676526027457839,
      -0.7095492849337087,
      0.5611344722835804,
      -0.1505710840921607,
      -2.41812750026166,
      1.5609668152272504,
      -2.6308797886991684,
      2.9896181435100786,
      -2.4758763613600787,
      -1.014428243843955,
      1.4756443462636817,
      0.40587558769984206,
      -0.40338266367148734,
      -2.7364040294702634,
      2.000958327887281,
      -0.0012160343195908555,
      1.9986062388598724,
      2.9970972481220786,
      -3.0022629598502104,
      0.999672121680545,
      -2,
      3,
      -3,
      2,
      0,
      -3,
      0,
      -1,
      -2,
      -2,
      -1,
      3,
      3,
      -1,
      -1,
      0,
      1.000216385317027,
      -1.9957682191059205,
      -1.9784025081213203,
      -2.9234294639275054,
      -1.8625413656766756,
      1.172470351756145,
      -1.8306326225971614,
      -2.8659272098801782,
      1.0924530656641362,
      -0.9324126701670212,
      2.0409148863065014,
      -1.994287585920345,
      -1.9971330690813693,
      -1.0009941252981032,
      -2.0003727758432515,
      1,
      0,
      -1,
      -1,
      3,
      0,
      2,
      0,
      2,
      -2,
      -2,
      -2,
      2.0010448160517136,
      2.0243377234662088,
      1.120708143772554,
      2.249748885433794,
      -2.5445781001373406,
      2.6224670658292455,
      1.710302329710891,
      0.6879185388226654,
      -2.438661983374764,
      0.37218302894940464,
      3.1505593588828575,
      1.0360143959804426,
      0.9561973394274381,
      -0.048746858396008855,
      -3.0347119242169707,
      -0.001496744758460321,
      -3,
      1,
      2,
      1,
      0,
      1,
      2,
      -1,
      3,
      -1,
      2,
      0.005900361884357345,
      2.0312022594890533,
      2.1345257899729577,
      1.4308337001491453,
      -0.13902318028484098,
      0.07192637438356449,
      1.200454187447492,
      -1.8438754384493778,
      -0.08058727223086742,
      -0.432491568082186,
      2.276150762741779,
      -1.923293593561844,
      -0.9916494029434401,
      -1.0965514484596324,
      0.8635500984387136,
      -1.0603325365644372,
      1.9933191375804828,
      0,
      3,
      -1,
      0,
      1,
      -1,
      -1,
      2,
      2,
      -2,
      -2.9906081681456307,
      3.0347778625447903,
      2.1546138754917084,
      2.486475203297604,
      1.0145585999438826,
      2.550106141000569,
      -0.3710788619608561,
      1.2449317238373956,
      2.805471431712268,
      0.5080399225388009,
      3.187667826240715,
      -1.8712698496355682,
      -0.89074569394456,
      -0.8764058305538949,
      -2.0471397887697664,
      -0.12192533439115853,
      1.946081824705176,
      -0.002659327977323004,
      0.9998988899517107,
      -1,
      -2,
      -2,
      -3,
      1,
      2,
      -2,
      0,
      2.00662952836779,
      2.0188976416409825,
      1.117997126406664,
      2.5130932127311203,
      -0.8238088034996002,
      2.755285569881538,
      3.9665633610873745,
      3.639336907358912,
      -1.0339638627462153,
      2.5570809683941054,
      1.3595657870409732,
      -2.7074511537874058,
      -0.741868191093476,
      -2.61101097297038,
      1.2673653797289834,
      -1.9175716989782194,
      1.9143348046064887,
      2.0120250468754772,
      -0.9900548334402701,
      0.999909496040939,
      -1,
      -3,
      0,
      2,
      1,
      2,
      1,
      -1,
      1.011930512064342,
      1.05178051513376,
      2.2646788992693367,
      -1.070632905734672,
      2.7533061583067044,
      0.9987620322775155,
      -0.7995314420821059,
      1.8193302089379688,
      0.9022934969079817,
      1.2212116405734421,
      1.051995154104235,
      -2.917497256331499,
      0.13861486434968004,
      2.3999221108800453,
      -1.7312313285642291,
      0.044562767954546154,
      1.9560828372790207,
      -1.9927208264632488,
      0.9941020121930967,
      0.9953239732316723,
      0,
      -1,
      -1,
      0,
      -1,
      2,
      2,
      1,
      -1.9871511185400794,
      2.09075069163264,
      1.3491168138342058,
      2.0802292817535166,
      1.6738838294828788,
      3.3112292625390514,
      0.5130853447625269,
      2.76886672753785,
      -1.4492386113956368,
      2.0192602942275175,
      1.9428251900092088,
      2.9833088215176278,
      3.0949144460541786,
      -0.5007092023382678,
      0.3096194295516019,
      0.12102683088766641,
      0.9907088184969066,
      0.9583658190341241,
      -1.0119811440650865,
      0.9887772254322683,
      -3.000005292825381,
      1,
      2,
      2,
      -2,
      1,
      0,
      1,
      -1.9870514677577105,
      -2.9172709546870492,
      -1.5678639830925256,
      2.9796491064875257,
      -0.2908330096101111,
      1.2721249817225098,
      2.036481439241737,
      -1.8102479786125056,
      -2.5556450823346837,
      2.45457317227019,
      0.7935239837419142,
      0.674131766767601,
      1.7329884487246763,
      2.3536213834199686,
      2.1050977498292847,
      0.9957342666786152,
      -1.1312222217368633,
      -1.1654188619434,
      -3.0956498252357214,
      0.9816832198914207,
      -2.002943427782772,
      1.9964348916835712,
      2,
      2,
      2,
      0,
      -1,
      2,
      1.003018433942409,
      1.0918612241294388,
      -0.804612843956774,
      2.5667042250917786,
      -1.876217503455164,
      -0.7232437653809508,
      1.2793785180367683,
      2.3570390801478207,
      0.10608989654370259,
      -1.3590393959922822,
      2.284999321301815,
      -0.678444100378505,
      0.19524397789537623,
      0.7730845253615727,
      -1.6264398605763601,
      0.11339542181774803,
      2.762613653202334,
      -1.3277508223020218,
      -2.1653645384987072,
      -0.053194486577739925,
      0.9807114090268956,
      -1.0125875665538115,
      1,
      -1,
      3,
      1,
      0,
      -3.0009125500473224,
      1.949626556589506,
      1.867465582760488,
      -1.2251138761854585,
      -2.056130556785262,
      -1.0772371262681957,
      1.0448972462038213,
      1.7997121127983438,
      -3.9960992671695372,
      1.9819992575076335,
      -0.12603010080817892,
      2.4531074649417124,
      1.966330379332769,
      -0.742704707446578,
      0.006065748376263688,
      1.5431773718096946,
      2.2322748025130728,
      0.6461131640537354,
      2.544215585323078,
      -2.265768515200376,
      0.8823814644530739,
      2.955418911697357,
      0.9890736934396065,
      -3,
      -2,
      -2,
      -2,
      -3,
      0.9941323069581381,
      0.879167889250976,
      1.5483673128332738,
      -0.7847393983105274,
      0.823906091456451,
      -0.3539029767216505,
      1.5419741566149576,
      -2.991353841356918,
      -2.7512233410117384,
      -1.0063988196956888,
      1.160606920303301,
      2.910749697555518,
      -1.4538351930856477,
      -1.0476830125046093,
      -0.26802479036337545,
      -0.572303858271959,
      -0.0031607025662347965,
      2.4196472281060886,
      1.3871537088880823,
      -2.4044206619480195,
      -0.1753764674964796,
      -0.06601982900436276,
      2.9748177604363977,
      -1,
      -1,
      -2,
      -1,
      -0.9983659832221449,
      0.9573477048940217,
      -3.262816524520723,
      0.20510850071837405,
      -3.5013351547726086,
      -1.1210566104248478,
      0.40988482169266743,
      -3.466298315972255,
      -4.824739349952361,
      -3.1818281867906104,
      1.0245856320954922,
      -2.605166742482758,
      0.7551223789696824,
      0.00763207409229111,
      2.16370562935327,
      2.1499039610167645,
      2.0306528282550445,
      1.576156351917922,
      -0.6824269197565954,
      -2.65200550231105,
      2.6381700105505277,
      2.8188951176379,
      -3.0607962650409832,
      -0.008790066442447555,
      -2,
      -1,
      0,
      1,
      2.0000908276655034,
      -1.0873961055685173,
      -1.4361768000550375,
      1.8087934550642135,
      -3.0287137484477737,
      -5.662797951633856,
      -1.106174771036535,
      -2.899943392931362,
      -3.681977062150331,
      0.17028377872784678,
      -3.3789400148122617,
      1.0271109696517433,
      -0.7777912005967025,
      1.134952980990685,
      -0.6827062853853887,
      3.0895277071542475,
      -2.26135827675834,
      -2.6066905480593077,
      -2.699772238725584,
      -3.5859296028394776,
      0.683639679913681,
      1.8392457922816807,
      1.9337528870078127,
      -1.011353429161816,
      2,
      2,
      1,
      -1,
      0.9947163005298657,
      0.8763577895051697,
      2.5005322756977355,
      -2.2865818743011848,
      -1.1602521812817104,
      -3.7542074236679523,
      -0.23179164240451683,
      0.2898094637586626,
      -4.290569110465786,
      -5.377274379669491,
      -3.00836660171751,
      0.32105122774929035,
      0.4794863281583533,
      -0.6342334408329064,
      -0.551597058197357,
      2.1815603508256074,
      0.6376678964258201,
      -2.7183278561321242,
      1.261834221413419,
      1.4337973580398578,
      -1.390546389346708,
      -2.2013497815421186,
      -2.0888227755000304,
      -2.0184227073806613,
      3,
      -2,
      -1,
      2,
      -0.011142665365527148,
      -3.1321723042382783,
      -2.4720045536828663,
      0.8023837450857786,
      -4.8767244207335585,
      -0.3140501141557752,
      -3.5005970275958673,
      -3.202774425437494,
      -1.976354416341414,
      -2.788844716303019,
      0.1409775340423125,
      1.1660465989364197,
      1.1601202645331727,
      -1.882546914829742,
      1.2171810336260287,
      -2.233382239756131,
      -2.537423482282561,
      -3.733440936750881,
      -3.7478152014306607,
      0.5204306157274571,
      -1.3103630976700453,
      -0.22833474301864032,
      -3.0894258725458412,
      2.9846436898987974,
      -2,
      0,
      -1,
      2,
      -1.0096011922054484,
      -0.09818185379876536,
      1.5751672316738523,
      -3.796035906130402,
      -0.245420942047761,
      0.5042278390029701,
      -0.7936625910391019,
      -4.73039306023791,
      -2.5264693169764616,
      -2.667402570162813,
      -1.2930078822027713,
      0.4900381987089615,
      -1.2345185600077346,
      1.497351031827671,
      -0.6083324449829791,
      -3.873265504225274,
      -0.0068095241125560885,
      -2.681183140480201,
      0.47092054732257427,
      -2.3699816329119625,
      1.741660942069481,
      -0.19416136325889533,
      -2.0949883712170303,
      -1.0096679544076985,
      -1,
      -3,
      1,
      -2,
      2.009541744162757,
      -2.049605992834644,
      -1.2549374973479015,
      -1.4525341091573896,
      2.2689941045295474,
      -0.04095231220659287,
      -2.1543139775157147,
      -1.070965783985438,
      -3.9321161268302305,
      -0.17236199512168368,
      -3.1019383136710132,
      -1.7107810914147046,
      1.4154694026290975,
      0.2841114870940267,
      -2.8771255161012053,
      -1.811482145232932,
      -0.748383823258312,
      0.4162400928638932,
      -2.461964991100851,
      -0.37813442422621446,
      -0.33442464293516005,
      -1.2014130931010196,
      1.906084395538671,
      2.991545206527825,
      -3,
      1,
      -2,
      0,
      0.023461371432004805,
      -1.9836419851497213,
      -1.1188077538177625,
      -2.316522914039177,
      1.6136995048276237,
      -3.411937941546533,
      0.3901779280451273,
      -3.6834298601686406,
      -0.47661407433404046,
      -1.5458701801175343,
      0.509841108292032,
      0.617880999518914,
      -1.2281961691485965,
      0.6489544100770344,
      -0.42257410884108343,
      -0.4629962888122607,
      -2.634195274918124,
      -2.565873206727104,
      -0.46084854525370644,
      2.5514198931800696,
      1.7074365468221842,
      -2.190209616984009,
      -0.039842371556343015,
      2.0131444551875775,
      -2,
      -1,
      2,
      3,
      -2.983049961420778,
      0.01996231137588162,
      0.9832074453701128,
      0.015512939503035866,
      3.0522864318759675,
      -1.1369203552201868,
      -1.1425692822528237,
      0.07249791722255663,
      2.0321079244024425,
      0.021482063971092702,
      -3.1128326778318507,
      -0.40876786225493766,
      0.7696173319816748,
      -1.4030219068702965,
      2.647662008386162,
      -0.32280106731932645,
      0.3181262269248086,
      -2.5666362626373003,
      -3.5016680152907007,
      2.547422581651548,
      -1.2684197515216171,
      0.8522585181673297,
      -1.0307097493703017,
      1.0149464621030568,
      -2,
      3,
      -3,
      1,
      0.025034871783172097,
      1.0420548052384007,
      -0.8828355972067328,
      -1.670626135423815,
      -1.514424207169401,
      1.4228762961019508,
      2.3871595095804348,
      -0.7415991457211293,
      -0.8255386358056592,
      0.35749185120090143,
      1.2353176768197427,
      -2.215340622871204,
      2.3939031757473828,
      -0.7538514680696181,
      -1.6231406680771039,
      -0.5276569846427388,
      1.4755492531510177,
      -0.5272740751041822,
      -1.3829137801601583,
      -2.3287167223677994,
      0.8009567197953565,
      -3.1247526006458135,
      1.961178142382093,
      3.00655213325447,
      -2,
      -3,
      -1,
      -1,
      -0.9877680614758996,
      -2.9081130122761003,
      1.1677502379457079,
      0.47508645446203784,
      2.6496127874378588,
      -1.3104599222135782,
      1.7617177160501818,
      1.5911327966064341,
      1.465978371493665,
      1.7174076949984198,
      1.7633624726239396,
      2.0824209719569744,
      1.7620829973640335,
      -1.5500641629662513,
      -1.5780754020288588,
      -2.4668144280730795,
      -0.45352506762792316,
      -0.4062966711099949,
      0.7938090538725794,
      0.8155561197774299,
      -1.1047242214029263,
      -3.0399659499080407,
      -2.02079502010796,
      0.00469245145279606,
      1,
      -2,
      0,
      -2,
      2.000167342607722,
      0.04467977928135853,
      1.160453592259807,
      2.2895111281515472,
      -0.5540765746993304,
      -0.4199232590191876,
      2.803234473276075,
      1.8911895309590872,
      0.8432926938300394,
      1.9540923396866312,
      -0.8879298216492957,
      -0.26589029525488955,
      -0.778133541666312,
      2.886480964257211,
      0.6640175735984881,
      1.6926776680532756,
      -0.234889531369334,
      -0.15980343734670388,
      -0.16217695890277573,
      2.8644123432553332,
      0.9795868300250153,
      1.0663525856411418,
      1.0139061727532834,
      0.01415189727774666,
      1,
      2,
      1,
      -1,
      -0.002850669774726051,
      -1.972020964227833,
      3.0855236755223943,
      -0.7489328475758579,
      -0.5804633669408071,
      2.5742659763761218,
      -2.3410262624029037,
      2.6285362791709246,
      -0.3915087001060734,
      -2.2906769136634892,
      2.70417197046948,
      -0.3163970958202843,
      -0.5332318299211034,
      0.18637987038478543,
      -3.0454189371913,
      0.9190204797053071,
      3.0650139519652706,
      -0.9426529154291285,
      -0.11008306733458433,
      -0.02781725033571876,
      0.04337669179758888,
      1.0424354058981138,
      -2.9754464017208275,
      1.0212454654106364,
      -3,
      2,
      -1,
      3,
      -0.9978185632756018,
      2.0256508891342797,
      0.06674166274900853,
      0.15668461111674167,
      -0.7170635872468278,
      2.3612480444364663,
      -1.6208671460897575,
      2.2589690510978793,
      2.1489604491762604,
      0.11566872398124758,
      -1.859008829261588,
      1.1117471453011611,
      -2.7677215466798653,
      1.3155116397228417,
      -0.8919076620985413,
      -2.896787521829544,
      -2.8623040919098415,
      -1.9537699637522115,
      0.00605450316950023,
      -0.9546531401181867,
      1.071091534601279,
      3.031621394866953,
      2.0206778309176854,
      3.0155338957050484,
      0,
      2,
      -3,
      2,
      -1.9926191915560336,
      -1.976641217021613,
      1.0313033651670833,
      -0.9186720786469564,
      2.097367661551306,
      -0.8315400698523451,
      1.2209024312476873,
      2.1940170195729305,
      1.1613818711038832,
      0.07547999496235704,
      0.9586002303089447,
      -3.0073641864796548,
      -1.806716796942331,
      1.1624667470200936,
      0.030007546302750456,
      -0.972547567499045,
      1.0703488355432247,
      -0.9411124698878973,
      2.069251791223731,
      1.062815397756983,
      2.061676664902895,
      -0.9496410633847262,
      -1.9809430981096727,
      2.012796052339315,
      1,
      1,
      -1,
      3,
      2.001573104526583,
      -0.9825482691729234,
      1.0114729424308957,
      1.03352533204074,
      2.05066946378735,
      -2.9225428960845954,
      -0.8957261793810397,
      2.1038232352415394,
      -1.8782116074596138,
      0.09273654292660208,
      0.08923392702490772,
      1.0904992760380408,
      -2.8890845399317615,
      -1.9163372412886626,
      -1.9623590515606006,
      -0.9748321112294762,
      1.072558850109325,
      -0.9349267977260797,
      3.069119838986137,
      0.07025439407826801,
      -1.9528517785398705,
      1.039982169216484,
      -0.9780719560288714,
      2.00835421247666,
      -3,
      0,
      -1,
      1,
      -1,
      0.0008893510324817109,
      -1.9968758159398976,
      0.011144548127123892,
      -0.9655987854858324,
      0.06160503372143946,
      -0.9330741315815717,
      -1.9112307579971684,
      2.0958925942952322,
      2.1326109711987593,
      -0.8347396810065632,
      -1.860064992190199,
      0.11225093215807598,
      0.06227048604029184,
      -0.9328331810980762,
      -1.9115144475271562,
      -2.9161504349013487,
      -0.9196819478865058,
      0.043114104829133734,
      -1.9402263355591713,
      -1.9693337813215985,
      -0.9800525365177074,
      1.017873726791254,
      -2.9902286688146567
    ],
    [
      1.8115746752361923,
      1.063555466824573,
      1.5208296505877625,
      -0.39942503796144935,
      -2.6687982034506,
      0.48459207189667797,
      1.6936017769139637,
      -0.47393374598821875,
      -2.3219433357245656,
      0.9441751011912901,
      1.0879939733114627,
      -0.9626870640432076,
      0.5141517425576766,
      0.722781432424208,
      -2.1588566007714554,
      -0.32049687307832153,
      1.0033705835626714,
      -2.995942205890498,
      -0.9965882640796444,
      2.0034616385040334,
      -1.9976922258393324,
      2.0005134880586386,
      0,
      1,
      1,
      -3,
      2,
      0,
      1,
      2,
      2,
      2,
      1,
      3,
      -2,
      -1,
      0,
      0,
      0.9998282903827886,
      0.997451208817334,
      -1.0135888341540236,
      -1.0488240882082576,
      -1.0879432445438286,
      0.8882718013103066,
      -0.11548842472020948,
      -1.1063546564702456,
      -1.08510815913766,
      1.934828056022515,
      -1.0482533219250971,
      0.9774005481639929,
      -2.0154048204675465,
      3.00018901969095,
      2.0002163630952356,
      1,
      -2,
      -2,
      -2,
      0,
      0,
      -1,
      3,
      -1,
      2,
      -1,
      -3,
      1.9991338710601394,
      -1.0231105561213338,
      -2.0958056126719353,
      0.8163334230363783,
      -2.3459429173332604,
      1.5112982068667224,
      0.4487615531381946,
      1.4630813717312585,
      -0.48496642766581066,
      -2.374210480078925,
      -1.2452711665864304,
      2.8541928290338934,
      -0.0981410322018558,
      -0.034385207209093535,
      -2.0011200637768827,
      2.0008250914949044,
      0,
      3,
      2,
      -2,
      -3,
      1,
      3,
      2,
      -2,
      -2,
      -1,
      -1.008133514943317,
      1.9587076497564169,
      -2.1471767856377983,
      2.6228826684734217,
      2.3491977585467074,
      1.1724019538281303,
      -2.980367906170473,
      -0.061582505289652846,
      1.9572966183566876,
      0.07945278012286701,
      -2.7762107550453425,
      -0.48735443884198665,
      0.6780659167994484,
      0.7826809658822569,
      -3.084442611528694,
      1.9930553328583878,
      -2.000531904583099,
      2,
      2,
      -1,
      -2,
      1,
      -2,
      3,
      3,
      -3,
      0,
      1.984994477915513,
      -1.0422575282991318,
      -2.181306189010956,
      -0.5049947770363604,
      -0.8752472252849959,
      -0.22291132770636857,
      -4.331986703146105,
      -1.3365751793347844,
      -1.2950531888500216,
      -2.259446161772481,
      -3.158623859298483,
      -3.0432706730956998,
      -1.7288391161971564,
      -2.515507107056714,
      -3.294041865293775,
      1.8350361101952424,
      -0.033415589291552146,
      0.00019279702108086294,
      -0.9998101426406658,
      -3,
      0,
      -1,
      0,
      0,
      2,
      -2,
      -1,
      2.9894078667638917,
      -1.0298128506481412,
      1.8447962645596288,
      -2.5626739784469845,
      -0.9983418016094593,
      -0.43280871521821196,
      -0.5937201595781576,
      -1.4479802400897366,
      0.8588512551753141,
      0.08577398613644756,
      0.029577371450086366,
      -3.0475860009787894,
      -3.9400126743869315,
      -3.785356586156849,
      -2.4762005457863445,
      -2.3523315151598814,
      -0.18562612564156167,
      -2.0443721990750494,
      -3.011615696498836,
      -1.9999434054218264,
      -2,
      -1,
      1,
      -2,
      -1,
      -1,
      2,
      0,
      -2.0228714236762686,
      -2.074652381253688,
      -3.3883270979057825,
      -3.83306254484941,
      0.6337702831832491,
      -3.6727419867864506,
      -1.6330333976953075,
      -3.2434291155543415,
      0.1293427451867008,
      1.385318583481439,
      -0.668192082602827,
      0.11353942462987084,
      -2.8587964120944247,
      -2.717172941338862,
      0.5801405197687972,
      -2.2574396749479644,
      2.8831442971583057,
      0.9691715754161497,
      -3.0067653681281614,
      2.00089583014502,
      -2,
      3,
      -2,
      2,
      -2,
      -2,
      0,
      -1,
      -0.030454377942517243,
      -2.150801836320507,
      0.49386351648465265,
      -4.050133556071841,
      -0.5140109849012039,
      -1.8652680449694878,
      -5.020633328622969,
      0.4365343392905317,
      -2.086808518506098,
      -0.7671310750209027,
      -1.8224670581691607,
      -2.971458502331042,
      -1.9571843317657216,
      -1.7980517048501865,
      -2.5251522126509283,
      -2.233233327315547,
      -2.0517887676413937,
      1.0374173015875114,
      -1.988341917878878,
      -1.9940719342345832,
      1.0000065523928061,
      2,
      -2,
      -2,
      -1,
      0,
      -3,
      0,
      -3.0300772386657644,
      0.7856438049524272,
      -1.6486482149874795,
      0.8031219780526487,
      -1.7267309362853345,
      -4.164830602719878,
      -2.324722740028157,
      -2.057761692029707,
      0.6218974994330747,
      -3.1352046451807447,
      -0.1784012076237734,
      -1.2206243093306768,
      -0.2409155295837765,
      -0.9610970065201996,
      0.44557952852388166,
      -0.23732377466416876,
      -3.0423228588456643,
      1.0814142696452043,
      -0.9110060054601075,
      0.014781396716934873,
      -2.998478920393262,
      -0.9983790962452802,
      -1,
      1,
      -1,
      1,
      0,
      0,
      -0.03722173341220841,
      0.7424413961814179,
      -1.5990423514823768,
      -1.1770883718676517,
      -2.612663306367918,
      -5.18539296589795,
      -5.572057317108492,
      -0.9058631436643222,
      1.8704790750149813,
      -3.984942973476735,
      0.7437373438706455,
      -3.4184342727681356,
      -3.3128929853569145,
      0.812295082142747,
      -1.7865362893193018,
      -0.35657666336178123,
      -0.06585341706512372,
      -1.930212695137682,
      -1.9159058310493844,
      -0.9636976337125365,
      -1.9861927977812923,
      -1.9922753198949823,
      1,
      -2,
      -2,
      0,
      0,
      0.0008893994001673352,
      0.9806932622464275,
      1.8679689520841252,
      -2.376217348462584,
      -2.9010224461408773,
      -1.2134984491082803,
      0.1612658981830984,
      -4.024248573253768,
      1.760036679496537,
      -0.38420747968338886,
      -0.4722410458243088,
      -1.8219560688855614,
      -0.021663342591489682,
      -2.08791360881195,
      -0.9958283228959837,
      -0.7112312874731689,
      -1.3089769643565705,
      -0.03535057323365111,
      0.09410722575798097,
      2.1219538233300295,
      1.0549673455978665,
      0.033565847978254806,
      3.008448915786336,
      0,
      -2,
      2,
      3,
      1,
      1.0080502400652938,
      2.0585901823753594,
      0.11936010136372101,
      -2.030097645647514,
      1.837794694781112,
      -1.6043517940009675,
      -2.2602732071970824,
      -0.9512068346357119,
      -2.013549974273262,
      2.1862471751171104,
      0.8353331482717029,
      -1.4516877811136184,
      0.3570906829118963,
      -0.8564796413991317,
      2.215123256398583,
      -1.4631836003728385,
      -3.140237165949623,
      2.11978380974723,
      2.2304491350476106,
      2.205175757045541,
      2.0779277896211528,
      1.0432732442127155,
      1.0213541467030822,
      3,
      -2,
      0,
      0,
      -0.998404438079497,
      0.048721748914847735,
      -0.8054217092834487,
      2.441924210414478,
      -1.4501725050776202,
      0.38458300168539633,
      3.034564112922653,
      -0.520255321294007,
      -2.1525614069965955,
      -0.9444101734031759,
      1.993243239810602,
      -3.2390757968461763,
      2.8008920468898855,
      -2.238848677976467,
      2.560506269269277,
      -2.293906176714453,
      1.6900817646233448,
      1.9306577865355592,
      1.0482973631806471,
      -1.771233233727288,
      3.1670130332816187,
      -1.9339760754474389,
      3.024999018379838,
      3.0083188141734007,
      2,
      -1,
      3,
      -1,
      -1.9937283874827958,
      -2.9056239444108902,
      -2.6841663198640577,
      0.7162539583090706,
      -1.1751810647109326,
      -1.2292366278916789,
      1.4161841518449114,
      2.06856080803856,
      2.968858396063776,
      0.1551686297509305,
      -3.0761637568605673,
      0.6428654840346947,
      -3.270978926263169,
      2.819531935196291,
      -1.396636971213841,
      1.6573058506750278,
      -0.18417004327130773,
      -0.05332945859561882,
      0.9826844676304705,
      0.10004033123150911,
      -0.85507934405903,
      -2.938791911912234,
      -0.9621937672900733,
      0.021254264270748637,
      0,
      -1,
      -2,
      2,
      -2.9935326881084507,
      1.0824784981492905,
      2.328687064396808,
      0.7169366565329237,
      3.9107421964836715,
      2.951869127811465,
      -2.169539318025977,
      0.5308875530271991,
      -1.8218796648493165,
      -0.7692855457217673,
      -2.98554831591222,
      -3.47968305839058,
      -1.5669176247314895,
      1.5852553243311502,
      -0.47752772248843,
      -2.3228678717141795,
      -0.17494307268109596,
      1.9106705405217284,
      1.972435845204334,
      -1.973977155793807,
      2.1833764991071143,
      -1.891936594349956,
      -2.963003505974819,
      3.024115811787024,
      -3,
      -3,
      2,
      -1,
      3.0028551431400947,
      2.079104370132806,
      -1.6757481012243258,
      1.6408450032670807,
      1.8650499848394975,
      1.9848040328381507,
      1.6738806541237927,
      -1.543426982929182,
      0.3762108359339697,
      -2.6145490291121942,
      3.0587943260508474,
      -1.4369421317378015,
      2.317617910720472,
      -0.6934300624364457,
      1.4040922756636967,
      -0.30814766031619334,
      -0.17879325215125005,
      -0.10198492224128695,
      -0.04578452548020699,
      -2.013842308436747,
      -1.902258133899564,
      -1.877108448573608,
      1.0317586243777057,
      0.009654479386264231,
      0,
      -3,
      -2,
      3,
      0.0066371185675351985,
      -0.9225681828097049,
      -0.7235240183778934,
      -2.547010370660055,
      1.668729606806129,
      -2.3882928331039635,
      0.3606137922638652,
      0.2855560314649493,
      -1.7712048889665906,
      2.3965274844412403,
      0.3274540783530815,
      -1.2085717632513817,
      1.3830061724710576,
      1.5442851466960668,
      -1.3218966635500924,
      -1.2975488357965645,
      -0.21254997415975307,
      -0.1400941306527703,
      -2.0150757151004703,
      -2.016193614412261,
      -2.953906788237195,
      1.0948468551845045,
      1.0431469116554208,
      2.0103776730681187,
      2,
      2,
      2,
      0,
      0.014813464484395055,
      -1.9292160329525505,
      -1.832582205915871,
      2.208050935299097,
      3.2536791322937977,
      -0.7757202547476391,
      0.9558050430722175,
      -2.0505686457186574,
      0.9817789389859831,
      1.250635834321291,
      -2.634645506399899,
      1.904072623689752,
      1.4034806268622078,
      -0.26761434407943485,
      3.0295816140376552,
      -0.21467554821239596,
      0.6345052557455994,
      0.6099425747190665,
      -1.112691392282244,
      1.048955440224861,
      1.0766008859083247,
      1.1073796176919597,
      3.0615918150721613,
      1.0197323413625519,
      1,
      -3,
      1,
      0,
      0.026773002972682192,
      -2.973386353367616,
      0.027130206489358627,
      0.9816527211054442,
      -3.1203646303006236,
      -2.2697460084307544,
      0.5414808156728368,
      0.5438769381717886,
      1.4939599279324185,
      0.6594937978410359,
      0.7124191679372652,
      0.39753645227031625,
      -2.74813334444331,
      -3.386661569326506,
      -0.19349174071045644,
      2.729111024056856,
      0.6673923495124006,
      0.4356054001077432,
      -2.3513344250850854,
      -1.0121259560033462,
      -0.8912492169277159,
      1.101453776880358,
      -2.9336715676959577,
      -2.957379016308756,
      2,
      1,
      -2,
      -3,
      -0.003849438663294444,
      -2.0458300909315668,
      1.8876012910980655,
      0.8292335633566285,
      -0.25142218866687366,
      -0.5225035297175477,
      -2.774807707741794,
      0.10444874083530481,
      1.9589928663602008,
      0.9160907457166401,
      -1.0897578773394176,
      0.77755047504836,
      -0.1858226047876111,
      -0.8550753580619281,
      2.327086242359005,
      0.43120307286686854,
      -2.4374100784557586,
      0.26427683076397757,
      1.4607010655175794,
      -0.04060356448933879,
      -1.9829679696700726,
      3.073308718914552,
      0.07503240863359749,
      -1.9495081766470217,
      -2,
      -2,
      2,
      2,
      -3.0286978012531014,
      1.9312261126814887,
      -2.1271461711918405,
      -2.2462768801306408,
      -1.4009127755859676,
      -0.7001748480479082,
      -0.9068775542577857,
      -3.97540665493045,
      0.8899185018221398,
      0.6783799095156461,
      -0.3701455348941634,
      -3.302297380312995,
      1.8437765938854207,
      -1.027805928543346,
      2.1919019798552575,
      0.3085626862885534,
      0.42739250418367386,
      -2.641186845518168,
      1.5104747103566245,
      1.859081947282706,
      -0.025372722379433905,
      -1.9964019773421284,
      2.0260640001525227,
      2.026555450566167,
      0,
      -1,
      2,
      1,
      0.9853433149563184,
      -2.0601972396349826,
      -0.09739337088198789,
      -1.252537506904905,
      1.507888218431765,
      -3.7656098415083528,
      0.02595419867966275,
      -0.9649315495455053,
      2.083326847348496,
      -0.1238708048976152,
      -4.1471897447356385,
      -1.0088874134889942,
      -0.9969860640179179,
      1.0144326681906481,
      -3.72950973654663,
      -0.5861394940714529,
      0.560512273650131,
      1.5725601888129848,
      -3.3914721185404213,
      -0.07464178223932268,
      -1.9912652332047143,
      0.027823719245558775,
      0.01459796078852214,
      2.0073864299725397,
      -3,
      2,
      0,
      2,
      -1.0004504373149137,
      1.9678987295620625,
      0.8796474324921492,
      -0.2529419468368044,
      -1.448599736724094,
      0.33508741876705006,
      1.112365473630161,
      0.9755713424046764,
      -0.9901489330757308,
      -3.9375267695891427,
      -2.013303086534961,
      -2.934025218488211,
      -3.871636518601315,
      1.1266879344263134,
      0.23009854562088883,
      2.424171467431901,
      -1.4647800278487473,
      1.6512988563152176,
      1.7350886158541723,
      -0.0466434069750182,
      0.03270257790091514,
      2.0580111148012086,
      -2.9642485020326452,
      -2.983985332482445,
      0,
      -1,
      0,
      0,
      1.9966458257105413,
      0.9773738853016914,
      -2.0867940553231064,
      0.8002261664144447,
      -2.379721953666338,
      -1.5679521798348517,
      1.2957498990664318,
      0.1522655881888763,
      0.08664165408669981,
      0.08297299477782094,
      0.1941424015686322,
      -2.923495804129791,
      -2.919654860464635,
      -0.9039998467608085,
      -2.7056047325288954,
      -2.5240932179704165,
      0.6294189889253974,
      -0.20902581584614432,
      1.9262071884159084,
      0.02316951649320304,
      3.0188759678696604,
      -1.9589197198284767,
      1.0426448245887792,
      -0.9700673990265196,
      1,
      1,
      3,
      -1,
      0.9991508601779392,
      2.9911286884794284,
      0.9622926423808578,
      -0.09274990637010096,
      -1.21487802351824,
      1.6544006096270238,
      -1.4380034165386686,
      1.4925097957506657,
      0.4151218222302674,
      0.4037374419450239,
      -1.5660020109042818,
      -1.5511629700833938,
      2.3398857620510287,
      -1.71060796064589,
      2.4597918428663714,
      0.6724251437045485,
      -3.2104828520773925,
      -2.0833110409070006,
      1.9859970987222864,
      3.03660860521605,
      -1.9530952379632616,
      1.0379032446370071,
      -0.9704224202117934,
      2.022184151352999,
      1,
      2,
      2,
      -2,
      -1.9990777431599775,
      1.9967573802884027,
      -1.016016307811065,
      0.9490533683846021,
      -3.074619319021238,
      -1.1395922024678453,
      -1.235551016827398,
      1.7195778420969041,
      1.6796906099991264,
      1.679730291454006,
      -1.3052280578222288,
      0.6612994498439806,
      2.5559982627901165,
      0.5983300746452175,
      1.7092708727934658,
      0.8085510492993838,
      2.897357199626831,
      -3.0207397171116512,
      -2.0008874547331956,
      0.017990207140151294,
      -1.9548281436758026,
      1.039504426153158,
      -1.9803944433525424,
      -1.9887251550213292,
      3,
      0,
      -1,
      -2,
      2.000197187876949,
      3.000846145169702,
      0.9951699790517167,
      -0.025671793377750406,
      1.9542416753905367,
      0.9336883349983629,
      -0.09292240090103285,
      -0.11719226542633346,
      0.8372695451724753,
      2.842005314618386,
      -0.18514064658414703,
      -2.1887827456832496,
      -0.22327627701878355,
      2.8027136029022426,
      -1.1080480425124208,
      -1.0925756146308427,
      -2.069350449637418,
      -0.009144083599726224,
      -0.9812822931422852,
      1.029784955475668,
      0.0122451090249092,
      1.0151994031561937,
      -1.9881658059883693,
      -2.9936992971402003,
      2,
      2,
      3,
      0,
      1,
      -0.0005345922906800221,
      -1.0018300197131114,
      -2.0086494005424096,
      -2.024199244316637,
      -2.0432162601326898,
      -1.0499192450907038,
      0.9263447583110769,
      -0.08684839025712145,
      -2.105288190471633,
      -0.11840171778618747,
      -1.1092304010007625,
      -1.0921785506427757,
      0.942976485696461,
      -1.046558448616684,
      1.9719250532501522,
      -3.02158212470338,
      1.9882010679897486,
      -0.9985238649730791,
      1.011089595248557,
      3.007823494058052,
      -0.9917120076876511,
      -1.9917676921808747,
      3.0051234204719117
    ],
    [
      2.037381149735272,
      -1.8363931540383691,
      2.185468122973352,
      -1.876257409414409,
      2.2587971778214264,
      1.9285159604180158,
      -1.3470082400063912,
      -1.214026127580109,
      -0.02423535216302563,
      -1.9871042403383268,
      -0.6510111744957469,
      -0.7266081830995706,
      1.3878391276213222,
      -0.286351893197245,
      0.9349090718401295,
      1.2497157444036842,
      -0.04553231126039734,
      2.960936961178878,
      2.9749964909525133,
      -2.025499479741902,
      -0.019689669135480026,
      -3.005638409441748,
      0,
      0,
      3,
      3,
      3,
      1,
      0,
      0,
      0,
      -1,
      -3,
      -1,
      3,
      0,
      -1,
      0,
      1.0001706489466715,
      3.0023173096436904,
      0.012434534831465845,
      3.040128312342785,
      -1.959233972237726,
      -1.9536760553621801,
      -0.9970912126874584,
      0.9794756567050513,
      0.9987703607331149,
      -1.0067025019896372,
      -0.002192078134126642,
      0.007072829949308248,
      -1.984579772435498,
      -1.9987303310580333,
      2.0009420044667126,
      -1,
      0,
      -2,
      -2,
      1,
      1,
      0,
      1,
      1,
      -3,
      2,
      3,
      -2.9986348634254263,
      2.0494032019947888,
      2.13705470629948,
      1.1929828205281037,
      -2.7029971832163877,
      1.3215087124930056,
      2.228816731880015,
      0.12849887111430516,
      3.0863785549764655,
      -1.8507109028960498,
      0.14089625960267047,
      -0.9108534277633485,
      0.07176650708751445,
      3.0666290772975113,
      2.0391338972945925,
      -0.9963438628170501,
      -1,
      0,
      -1,
      1,
      0,
      -2,
      -3,
      -2,
      3,
      -2,
      -3,
      0.02526086006714645,
      -0.9013239875376802,
      2.2668231005600448,
      -2.546393202274762,
      -2.462063576375136,
      3.5866529358791794,
      0.5574034198168158,
      1.5133346991499208,
      3.510993165191036,
      2.5618840687898774,
      -2.3472383285886713,
      0.448335565192175,
      0.34852609616586955,
      0.2769101432935593,
      -2.846318697224819,
      -0.9501696044283469,
      2.011002070959563,
      -1,
      2,
      0,
      0,
      0,
      -1,
      -3,
      -1,
      -3,
      1,
      -1.9492346146761848,
      0.0975801827469193,
      -1.677750854665112,
      -0.2565169751602903,
      0.9562887152008622,
      4.069086017197077,
      1.0725824804425599,
      -1.0156666988256198,
      1.9295051676911743,
      -1.042457837695753,
      0.16235784763389957,
      4.234381473660459,
      -0.09890887641487943,
      -1.3759455618427157,
      0.46596611006569927,
      -0.694031702039164,
      -0.881994926171013,
      1.020808264355237,
      1.0003495340681827,
      2,
      -2,
      -3,
      -1,
      0,
      -1,
      0,
      0,
      -1.9641656103596599,
      -1.9156364509151937,
      2.2430138110280904,
      1.7199162130853274,
      -1.8692323062734224,
      4.472330029974421,
      2.6064846239205495,
      4.321910382063573,
      0.8633424077582716,
      2.631133554382587,
      -0.2308737357355151,
      1.0302078649575444,
      -1.8244276376977488,
      -1.0419875513303918,
      2.594014975036698,
      2.588680928804694,
      2.4089992978889065,
      1.1462574183344354,
      0.049720645758190435,
      -2.99988199659214,
      1,
      1,
      2,
      -1,
      0,
      0,
      -2,
      1,
      0.0727689989517866,
      3.1762254974134794,
      3.5500033126194683,
      -2.0996116581437323,
      3.2654566938417062,
      0.5321792962266099,
      4.4017290230687705,
      1.7052887003509034,
      1.331852442317404,
      1.2503736368947889,
      -1.806675842579101,
      0.40225651846230254,
      0.6324469789100483,
      0.6331080565139844,
      2.438318738466968,
      3.3813619451592105,
      -0.6914782171853364,
      2.1195292003542185,
      2.0376384675332906,
      1.0013496957755426,
      -3,
      -2,
      -2,
      -1,
      -1,
      0,
      1,
      0,
      -1.908535703088901,
      -1.6077193741465383,
      1.7377464702362506,
      -2.0435892148215045,
      1.2304850294940364,
      4.281457121928271,
      -1.833517865117611,
      1.7012468879447848,
      0.6273601677109037,
      3.5749902321772926,
      2.536351451102029,
      -1.2333413938672595,
      2.7796419019754888,
      0.755194962124635,
      3.620256763796942,
      -1.7520459015850056,
      3.154688797955163,
      -0.9305146247887319,
      1.9946968745230373,
      -1.003050741854094,
      0.9999918031375951,
      -1,
      1,
      2,
      0,
      0,
      0,
      0,
      3.096314821450844,
      0.4390039533466417,
      -1.171365059957435,
      0.034339445708356425,
      0.06985811902998897,
      4.096116713657719,
      -0.7387221210407767,
      4.311899626430679,
      -0.5945715088319927,
      4.29003946382371,
      -0.6328210020687726,
      1.4560621263891351,
      0.35683782713692,
      -0.5579260530241417,
      -0.10047552005369093,
      -1.613972823982438,
      1.166327011538943,
      -0.9789607221577263,
      2.907090330596829,
      -0.014535593732083189,
      1.9975694278918377,
      1.9962902853280198,
      0,
      3,
      0,
      -2,
      -2,
      2,
      3.10081959817477,
      -1.6077379253402255,
      -1.2944967476398759,
      3.823805749672656,
      -0.4688185399662681,
      -1.2364106701686357,
      0.36273965754303283,
      1.1843045235781222,
      1.8449399772518527,
      2.9507997397314947,
      2.6783537117214307,
      2.632885684485996,
      -0.5776469213585806,
      3.659720762096269,
      -0.8313391272582612,
      -0.3164001193829219,
      1.2795819380316251,
      -0.9433634249514922,
      -1.1148453395001823,
      1.941504437695482,
      2.9765425893354354,
      -2.0146545068241712,
      0,
      2,
      2,
      -2,
      2,
      -2.0009512429014062,
      -2.9511545920467706,
      1.2581363914204617,
      1.3220979787136007,
      -1.9094925072619562,
      -2.308819225817458,
      1.2040729419145864,
      2.6855130937716836,
      0.39551277539547125,
      2.7305629571014767,
      -1.519346964743083,
      3.447561974438847,
      2.3567369147158757,
      3.3094744945293955,
      1.4647140086725425,
      -1.8520953684045125,
      -1.309696938786987,
      1.2236683376705806,
      -0.005894087629524543,
      -0.1757384187033962,
      -1.1010631993686633,
      0.9404275100450991,
      1.985373424018344,
      0,
      1,
      1,
      -3,
      -3,
      -2.0081408641118066,
      -0.03997896643158629,
      -2.0138963872079154,
      -2.308682159823109,
      2.011719166025607,
      0.9997164918458689,
      -2.4297230100903016,
      -1.509034954458205,
      0.8628354309696202,
      -1.6919205153425123,
      1.38209674543259,
      3.8881967886902635,
      -1.1509399682626535,
      0.004568814812786212,
      1.1293738762338132,
      -2.034719681846735,
      2.4999932244854737,
      2.0127896102597593,
      0.8056877804955608,
      2.7067592646711436,
      -0.16302056253333724,
      -2.077219668886821,
      -0.03381918146892726,
      2,
      1,
      2,
      2,
      2.9989168342577286,
      -2.0519865204164884,
      -2.1545270200821633,
      -2.4104773942348032,
      -2.0776549161776354,
      -4.338511362516841,
      1.8371338754342295,
      2.3616219288390217,
      -4.095435824075612,
      0.9719815764221509,
      0.3974971826482831,
      0.06183144139163298,
      -0.9528997375179763,
      -2.830723384587837,
      0.27628551665306633,
      -0.6951157478773143,
      0.5464584548448772,
      2.2122023213036623,
      0.8968782856238362,
      1.6192955092493906,
      0.711056619684598,
      0.8379687033245268,
      -3.0504681930811484,
      -2.0148895427382874,
      -2,
      3,
      2,
      -3,
      -0.005392503595821002,
      1.915400778465618,
      -2.1996697842716917,
      1.3326448616837703,
      -1.215211160712995,
      -1.411319169230041,
      -3.0995813648149255,
      -2.822089178172242,
      -0.75983625961267,
      -1.7512356880200872,
      -1.2457025334362437,
      3.038522643802457,
      0.2961746905333005,
      0.4528540923624708,
      2.2433726905554763,
      2.153860457153172,
      1.246458486070201,
      -1.0436747808009423,
      -1.2765391635042487,
      -1.3691149232380033,
      2.6604096071424146,
      -2.16227099872607,
      -0.06787759003006957,
      2.973183786800788,
      -1,
      0,
      -1,
      1,
      -2.9982820708452915,
      2.9600217913632805,
      -0.15029311619447858,
      -1.5682662537902288,
      -2.045224913298111,
      -3.404193948868226,
      -1.2132452441422008,
      -2.8569750093971207,
      -2.38396115236812,
      -3.316506167333349,
      1.8794314116712592,
      1.5196590181353125,
      2.0621040301466596,
      1.830625486862357,
      -1.7560850775046477,
      1.0397347725043224,
      -1.9158372720862804,
      -2.221420164612726,
      1.561287923497427,
      1.6631257752256803,
      0.6162204561585234,
      -1.2171959487393675,
      1.9228950232450368,
      0.9711691606663374,
      3,
      1,
      2,
      -3,
      2.0224714590627766,
      -3.0133630101068567,
      -1.1101486228702002,
      0.5806169155770994,
      -2.8006309200684587,
      -1.0788924549580694,
      0.39033125507993316,
      -3.220297482286652,
      2.05722184870262,
      3.031207571668909,
      1.7602947407792786,
      -2.6848774770098984,
      0.25769009867269493,
      -0.9890331572265679,
      1.448452463949795,
      -1.7170853466480924,
      0.10434082946232785,
      -2.3072079792693136,
      -1.5281207743045653,
      2.6767368313876423,
      0.7338676639046076,
      0.7952842205087954,
      -2.0690653814673396,
      -3.00837875873748,
      -2,
      1,
      -2,
      0,
      2.0162813632474323,
      1.048381063466769,
      0.9053997505949846,
      0.7095646644851626,
      1.346917116318719,
      1.3100892045184265,
      1.8165910592776153,
      0.11941813366488502,
      1.5043172469909922,
      -1.8524450093370795,
      1.6229368638621302,
      0.20130874085490785,
      1.1327983055824062,
      0.7226512451449384,
      0.28051244110623197,
      -0.7105544680669615,
      0.10898233201001775,
      -1.241876600493161,
      0.41814765204651855,
      1.7592807255618457,
      -2.1821037280163607,
      -1.1656397323775327,
      -3.066524318212839,
      2.0025168402595415,
      2,
      1,
      -1,
      2,
      0.9989435441065424,
      -0.9204919405167441,
      3.095604710800488,
      1.0464726831156146,
      0.8184055986186972,
      -0.11386320907320727,
      -1.6502298306049492,
      1.4475663652804625,
      2.7251839359550254,
      1.2912706914411176,
      0.8936140588648885,
      -0.47430535700964954,
      -1.7014606941509183,
      1.569271782384512,
      -2.1118708504209756,
      2.11479297527725,
      3.0708875214768807,
      -2.0551314936796925,
      1.5391985999989186,
      -3.277642975636091,
      0.8304775009491282,
      -2.187153273858428,
      -1.0848552107417666,
      2.989165465385436,
      -1,
      -1,
      3,
      0,
      -0.023965330330797008,
      -1.8957976477920135,
      -1.7427609756423144,
      0.34929508402629933,
      -0.7962412503726132,
      0.4257484465875845,
      -2.1573129613975603,
      0.06417811250365403,
      4.382021976299696,
      1.955114448524967,
      -0.42114147259466933,
      2.965427482900778,
      2.228834758274204,
      3.664108898975601,
      -2.77869638262075,
      -0.7902121265282819,
      -1.0010007773051086,
      1.1878118968991034,
      -2.1555561143667235,
      0.7146308901354828,
      -1.2129068166971124,
      1.821578811013375,
      1.8710777834539907,
      -1.0627626720277683,
      0,
      -2,
      3,
      1,
      -0.9757798455294662,
      2.2343700944408504,
      2.405679744329559,
      1.4052204791545058,
      3.226723990163475,
      1.6035074577988286,
      3.0780413966728863,
      -1.5561634698792925,
      2.9360427292144693,
      3.0683115471507936,
      3.736339089181983,
      2.5765595229155944,
      -0.41272864502602996,
      4.193377721193763,
      2.0728652652843254,
      3.599456800936759,
      0.17320099564374838,
      2.4579165839461874,
      0.17233840298792383,
      -3.1899853859186598,
      -0.11012720952542729,
      -0.1562487134437739,
      -3.12286506379433,
      -2.0734927408868886,
      2,
      1,
      -1,
      2,
      -1.9137932899092223,
      2.261154668695451,
      2.3672161586937115,
      -0.5929941366059784,
      0.38345784152693196,
      -2.2026455321129954,
      1.1624882559095584,
      2.4923443180702636,
      -0.08476732235305205,
      4.285465261801903,
      3.1061123501415238,
      2.6782012368530195,
      1.7095765548452828,
      2.71664616720902,
      2.5356150474221084,
      -0.8703422126619559,
      2.584783704141285,
      -1.3983864234683976,
      -1.6955537230379825,
      1.015887458610803,
      -1.9972982763124396,
      -1.0306314554083762,
      -2.0349149279649343,
      -3.0351347891929334,
      1,
      1,
      1,
      2,
      1.0621065918524724,
      -1.813016623092397,
      -0.7347404087527808,
      -2.6631485706943243,
      -0.4650079036912677,
      -0.06575100218053467,
      -0.7533393246595576,
      2.3961055291308724,
      -0.5176667552734476,
      3.6498000413008103,
      2.4435473708218316,
      1.1496379798778267,
      -0.6131830661141585,
      4.725914807206973,
      0.591949294669097,
      2.1370688811525165,
      1.6196377617702358,
      1.4625257628227641,
      2.2661471936372615,
      -3.009063700324581,
      -0.022381234393789022,
      -0.038902847868658295,
      2.993588741806229,
      1.9923700437365175,
      -2,
      1,
      -1,
      1,
      1.0245704325260159,
      -0.8606935493014594,
      -0.7739939026181903,
      -0.7349990948559759,
      -1.5740727937097942,
      -1.2321494948743261,
      2.0329259807196007,
      3.263787991577639,
      -1.7107057293337136,
      4.176163621526121,
      4.022485717155442,
      -2.262174894019968,
      2.9468251142231385,
      1.3847102724766773,
      -1.6398372136623736,
      3.936454908352809,
      -0.43833299366910977,
      2.2865432467179527,
      -0.8346261309449796,
      -1.998179915665772,
      -3.026041925269662,
      -2.0670105240748824,
      -1.0245307574686213,
      -2.0109327949729754,
      2,
      -3,
      1,
      1,
      -1.9770458574214653,
      1.075285290046989,
      1.146977226935272,
      1.1739222996528005,
      0.2757802073082761,
      3.4938898317093097,
      2.696236493570392,
      0.8999539547047113,
      -1.952716534883688,
      -1.0007320554537011,
      -0.14284960357064316,
      0.7975029040399569,
      -0.11981577868573777,
      1.0916908371159428,
      4.04476038437343,
      0.7337525245358871,
      1.4595659123013405,
      -0.8647243278818691,
      -0.060367441711816364,
      -0.10083445732042956,
      0.9769890778420104,
      -2.0272138319216677,
      -1.0327979451745015,
      1.9792367427845028,
      2,
      2,
      -2,
      -1,
      -0.9954877780898527,
      -2.9725143185977427,
      -0.9443160650782494,
      1.098192924597123,
      0.19473452320681706,
      3.3670925415206923,
      -1.5447842275822719,
      1.5831277680421785,
      -1.274230331868174,
      0.7022114303032742,
      2.6882878507624595,
      0.6733330759994826,
      -1.232264743918964,
      1.8439471827050335,
      1.7280034482435542,
      0.4737851818318398,
      0.24264669968451788,
      2.04981290118695,
      2.9109450025742833,
      -0.0898550330054089,
      1.9224572580032315,
      -0.04136638724852702,
      1.9749411629691835,
      -1.0141370655890471,
      -2,
      2,
      0,
      1,
      0.9977795835893393,
      2.009429481054115,
      1.0239044120393992,
      2.05908640378732,
      0.08568300203344278,
      -1.8153153097313952,
      -1.7042149719688102,
      3.3687396492887047,
      -0.5790057477003461,
      2.456503766303353,
      -1.5829764065544676,
      -1.5320721377489224,
      3.6095471499429856,
      1.5565426603719323,
      3.4777169546621667,
      -1.6776094676361937,
      -2.865756350240724,
      0.9963494133249822,
      0.918952099477879,
      -0.056361571192030356,
      0.9277192877014795,
      -1.0560264243247004,
      0.9754643345156391,
      -3.008324091225914,
      1,
      0,
      3,
      1,
      -0.000511687849999487,
      -0.004135486913337247,
      3.0063768015290466,
      0.03166058350497351,
      1.0540942698135662,
      -0.9182258050808397,
      0.12396988565419949,
      0.17396544670009503,
      -1.786006373285553,
      0.20917380674196132,
      0.24919126741448147,
      0.2817655490305096,
      3.290635104033647,
      1.2545508900620728,
      1.1857220930179269,
      -0.8614196126785685,
      2.0620707671678717,
      -2.001715078179672,
      0.9418751367347608,
      -2.0685307205624555,
      0.9728310861013922,
      -1.0267716793389758,
      -1.0199157163536012,
      1.9935508606432384,
      -2,
      1,
      0,
      -3,
      2,
      0.00045295458743511996,
      1.0017863928815636,
      2.0102042363221524,
      1.0284945364297302,
      2.0499792317778023,
      -2.9347369084698567,
      0.09657848016812276,
      -0.8960434724020427,
      2.1158435814633623,
      -0.8692647855739681,
      -0.8877282246690442,
      2.0950930633369125,
      -0.9419357475464797,
      1.053315738722445,
      3.0222549477434426,
      -1.995483446222107,
      -2.0041333815602114,
      2.9889620869258646,
      -3.030935744164719,
      0.982161671382635,
      0.9805598355133043,
      1.987059200411974,
      -1.0060335991863034
    ],
    [
      -1.0302451952654235,
      2.4176271631356334,
      -0.8846106949627047,
      -0.7830008548176258,
      3.231987500684602,
      2.0010571021820023,
      -0.041699307976113896,
      -2.1997471126719406,
      1.2925707545067324,
      -1.0045089918359549,
      -0.23959319220949457,
      0.9110989075678707,
      -2.009361167643483,
      1.454036120436047,
      -1.7860177180595933,
      -2.925674617924723,
      1.9716838978993165,
      -2.027205569961567,
      2.9838505790319862,
      0.9842313361426439,
      0.9878442923675335,
      -0.003490837088114328,
      1,
      -1,
      -2,
      1,
      -3,
      2,
      1,
      -1,
      2,
      0,
      1,
      1,
      -2,
      -2,
      -1,
      -1,
      -1.9998733998328821,
      1.0019506926324262,
      1.0091095888797512,
      -2.970218099012082,
      2.0329987044383855,
      -0.9615278778722134,
      3.005558179865883,
      -1.021081777811098,
      -0.007518914082071348,
      -1.0076579924753384,
      1.992787166336274,
      -1.005077336907195,
      -2.001337034545543,
      -2.0013334554625333,
      2.999379411008197,
      1,
      -2,
      -2,
      2,
      3,
      -1,
      -1,
      2,
      -1,
      -2,
      -1,
      2,
      0.0007869292518756526,
      1.0222197048948896,
      -0.9251575427968304,
      2.1155533332716754,
      2.1851762463319284,
      -0.8155965947244173,
      0.15661119166738474,
      2.1180746362223775,
      -0.9445729366974789,
      0.025504698653664778,
      -1.0683170434806326,
      -2.1253316401477313,
      0.8987126431337644,
      0.9408751082268283,
      0.9707318508490672,
      1.9975636819942724,
      -2,
      0,
      1,
      1,
      -2,
      0,
      3,
      2,
      -2,
      1,
      -2,
      1.0101659286481768,
      -1.9628464448428693,
      0.11892218615608662,
      2.228101705037611,
      2.353334157859263,
      -2.5961627731777277,
      -0.6007821501810796,
      1.3168038274427283,
      -0.892085345493119,
      -0.1779890890367826,
      2.7439764003737825,
      -1.3014962657533358,
      -1.266412163224782,
      0.8091806299997191,
      -0.1308734171723769,
      1.957333412046916,
      -3.00625710469361,
      1,
      1,
      2,
      1,
      -1,
      3,
      0,
      1,
      0,
      -1,
      1.019628339306928,
      1.0391251043175047,
      -0.8698315333597522,
      0.2925779192900791,
      0.4631547138044786,
      1.5868232096112156,
      2.602029034897724,
      0.34229280136889567,
      -1.0172157977366119,
      1.6201406079666703,
      2.400071916695858,
      -1.575523456104981,
      -2.4593753999291295,
      -2.2349559852579155,
      -3.2078153389411495,
      1.8941654110480965,
      -0.03822466111457734,
      -1.0102935228565786,
      -0.0004312924197709576,
      0,
      -3,
      0,
      2,
      0,
      -3,
      -1,
      2,
      1.0138552983343023,
      -1.9679142709990598,
      2.1153484399700737,
      -1.6249145048730713,
      1.6997894026738416,
      -0.08824431377376307,
      1.8098326171416035,
      1.571478651130287,
      -1.036002791037279,
      1.5198875907558484,
      -2.8201344900234573,
      0.22439542544571636,
      -2.687855459618238,
      -0.4143625796175165,
      -0.2919878816943063,
      -2.137803456200223,
      0.9323914399481388,
      0.022778812601349382,
      1.0000609660130855,
      -1.0001495513925232,
      2,
      -2,
      2,
      -1,
      -2,
      -1,
      -2,
      1,
      -0.9735943307367736,
      -1.9341530521531627,
      -0.71034297462662,
      -1.2772172714090804,
      -0.8930844886173261,
      2.0788176613383675,
      0.9521855980568357,
      -1.3343485061490734,
      1.9477635104275015,
      -2.6989076040995483,
      -4.03739843024378,
      -1.9790767382258385,
      1.236506790598527,
      0.5549210977644327,
      1.6096910337309538,
      -1.202543441800258,
      -0.06916210915738262,
      1.0556216605682585,
      1.0067059398450573,
      2.0010706785866303,
      3,
      3,
      1,
      2,
      -2,
      -1,
      -1,
      -1,
      -1.9679369854587971,
      0.14552954091814904,
      -0.5398164476613826,
      0.8905516785927371,
      0.09389974280632866,
      0.37381413373320244,
      0.38052329273814134,
      0.9284821446952874,
      2.0889033032606767,
      -2.567630812144221,
      0.9487551895412965,
      -2.141317679353538,
      0.11809336979708535,
      -1.4135360879571883,
      -2.3960370258855637,
      -3.139537262799127,
      -0.061002485383304474,
      -1.013331119616764,
      0.03714728100060524,
      1.0022794387126068,
      1.999996891425945,
      -3,
      0,
      0,
      -2,
      -2,
      -2,
      -1,
      -0.9734853049276558,
      2.149816196841022,
      -1.4972261279536054,
      0.9326790481338554,
      -1.7945207626367066,
      1.4869525284873237,
      2.4400100481743716,
      -0.14717764156042115,
      1.9652750991425059,
      -2.6626635926247317,
      -1.0408591089112817,
      0.7523463359053862,
      2.197835766983184,
      -0.7365565393509583,
      1.3464685382714057,
      0.6556195764414611,
      -2.2046522049772084,
      -1.0871759012725954,
      2.9926460993344604,
      -0.9966151193548382,
      -2.001217210945576,
      0.9986686520857884,
      0,
      -2,
      -1,
      -2,
      0,
      3,
      -0.9832448742394323,
      1.1297988337182836,
      3.371042228597934,
      0.6485538577184491,
      2.7693551911783847,
      2.933018659177689,
      -0.716768577930459,
      -2.5357120636605885,
      1.5156528703249843,
      -2.8556408732595098,
      -2.9027731479243775,
      0.13259329174680823,
      1.1071672650495108,
      1.3469245481537586,
      2.521215303387146,
      0.5938179372322491,
      -0.3601614688387688,
      1.8285448170689125,
      -2.019609960752122,
      -1.0023191648297127,
      -2.0061912027574555,
      2.9958501165697706,
      -1,
      1,
      2,
      -1,
      0,
      -0.0005409759565910604,
      1.9756232736675352,
      1.003313306802379,
      0.07546875675779592,
      -1.8395375326766992,
      0.022839106177668426,
      1.1829418693741318,
      0.31824172545236473,
      0.4156483112262668,
      -2.236293441017892,
      -2.4076085754734082,
      -2.4283388032686486,
      -0.1265977466816566,
      -1.1324588994992937,
      -1.6903106445828002,
      -0.333236504325176,
      1.557713963544476,
      -2.4137134843496466,
      -0.22962986876584104,
      -1.060545386898391,
      -2.0139849497623925,
      -1.0169873054816172,
      1.99620518848998,
      2,
      0,
      -3,
      1,
      -1,
      -2.0031611499414788,
      1.9440263758415268,
      -0.194776420086238,
      -3.3501240948810773,
      -0.6658927821105426,
      -1.8733948397418065,
      0.1294598349964562,
      0.9199538941191633,
      0.22133862599264964,
      -0.6968091555420731,
      -2.56809773132447,
      -2.2681908587253106,
      -1.2300518843140205,
      -1.2131753321913492,
      -1.7424023811823055,
      0.44478063243345933,
      1.306290889508558,
      1.4078082000286487,
      -3.328429925827926,
      -2.1476242778185206,
      -2.0473342857412855,
      -0.024623580109923812,
      1.9880944317952036,
      -3,
      -2,
      3,
      3,
      -2.9986668374819434,
      1.981846353845114,
      -1.1049166147462592,
      0.6317588697155158,
      -1.8335765824907406,
      -3.2864460313848194,
      1.228706003054018,
      0.24291317590199415,
      -1.8730724359491677,
      -1.1237099200157312,
      -1.755529583918919,
      -3.156311164840408,
      0.16675556327802737,
      -0.1845273394893113,
      -0.24996117816686655,
      -3.86358921210122,
      -0.656220914303948,
      0.1685569459242723,
      -0.585104559051371,
      -0.33831028730163853,
      -3.094543340424606,
      1.9454159742040316,
      1.9760319394680017,
      -1.0027619532756828,
      3,
      -2,
      1,
      3,
      -0.9963119766859247,
      1.979952253211876,
      -0.11305264737584922,
      -0.4545788731474695,
      0.9967529184871268,
      -0.6104957435392696,
      -1.1236170823153897,
      -1.0785220864201481,
      -2.795654124688822,
      -3.178132565421016,
      -0.6134984814382819,
      -0.8092779751726727,
      -0.4362091653496664,
      1.061315100975739,
      1.1474523112883135,
      -3.6280536819022347,
      1.3855551647281223,
      -0.7135607531201804,
      -3.45726734404263,
      0.7543980849843649,
      0.9565500007562489,
      2.96829848028005,
      0.970468586522338,
      -0.005174656904072177,
      0,
      3,
      2,
      -1,
      -1.9895661319026088,
      -0.9854649343917619,
      -3.0298179816727004,
      -2.3419881775606273,
      -1.9001705662361879,
      -0.5862187283278459,
      0.810053277223374,
      -4.932116736184851,
      -4.690492964459848,
      -0.07264654890003104,
      1.4228505155698064,
      0.3050062013434808,
      -0.37340246566088753,
      -3.5260957264308144,
      -1.4770777697098212,
      -1.416257249015903,
      -2.5439687102748607,
      -2.613350457380491,
      -0.47181070906241307,
      -3.224384762032959,
      1.906380010707822,
      -1.0380678998250243,
      -1.0313432971633507,
      -2.00452576139696,
      -2,
      -2,
      -1,
      -1,
      -2.977043297612062,
      1.0567939170370806,
      2.063478061808669,
      -0.18239318155274536,
      -2.6911421291841546,
      -3.329686101273572,
      0.2921976977046725,
      -2.6436351570461185,
      -2.50221594540619,
      -0.7713188584718089,
      -3.4742839183168277,
      -3.7639773605695934,
      -0.5308460579819647,
      1.5492723772367065,
      0.6383252903099434,
      2.526942881255677,
      -3.5322595145107303,
      1.3974453484433909,
      -0.47833171331895824,
      -0.22726150082607463,
      1.9579094123279135,
      0.9443153870717944,
      -0.020703960051381323,
      -0.9948660594222458,
      -1,
      -1,
      0,
      0,
      1.0268337980119118,
      2.0987142257473996,
      0.1378506651915428,
      3.0878277189609284,
      2.6867457157559853,
      -0.7850529846003625,
      -0.10151930817792416,
      -3.039865980131581,
      -2.0244317726462095,
      0.5154579401351942,
      0.5336318236408651,
      -3.0535863746393352,
      -3.756442259398927,
      -0.8360556735011536,
      -2.825510362389039,
      -1.698013942426659,
      -1.738381780801466,
      -0.5333689630733073,
      -1.3158105313832278,
      -1.1574102014730319,
      -2.0018862536272386,
      0.012585060158046384,
      0.0032892022366809125,
      -0.9704456393915705,
      3,
      -3,
      1,
      3,
      -1.9620543015518408,
      -0.8655747430266423,
      0.22996535662675574,
      1.1857644834123533,
      0.8743134651730159,
      -2.4612874567265464,
      1.5610857737936263,
      -0.1475678772420833,
      -2.233766640669639,
      -3.781167568314781,
      -0.02436276224260847,
      0.8683598204473058,
      -1.8548100248667725,
      -2.0413146033634386,
      0.8998477270101403,
      -0.6877967876092718,
      -1.5677608140714219,
      -3.4609408807549484,
      0.7454939692629607,
      1.821754883468082,
      -1.0655572532218003,
      3.009633470102957,
      1.0196363546967653,
      1.0300801724544058,
      -2,
      -2,
      1,
      1,
      0.05158338602445483,
      -1.847808801950673,
      2.236537604035554,
      0.17552033156357177,
      -1.9349615560370141,
      2.029628315719964,
      -2.8387382705101647,
      2.2434013866782183,
      1.2406083480673187,
      -1.811163592656554,
      -2.0664577104505484,
      1.6058103161960628,
      1.6741510794200551,
      -2.770043780403293,
      2.0644207010613274,
      -3.624867946437181,
      1.4183297573445754,
      -0.45807889953390973,
      2.7588930811165415,
      0.7873375999857039,
      2.919890136772426,
      1.991500922942894,
      -1.956096172051994,
      3.029065133630471,
      2,
      0,
      1,
      0,
      -0.97099748147626,
      2.1306036605452188,
      1.2403495368423192,
      0.32346312018879464,
      2.344405549010862,
      1.3086707847686911,
      1.5411139102227671,
      -1.2853044379321805,
      -0.40246243569791995,
      3.7194928404920238,
      1.534788948764314,
      1.9705942565883527,
      -0.12694592102173824,
      2.3968551713396096,
      -2.7237312564011353,
      -1.4576013088983053,
      -1.6796330718102175,
      1.5892403841098366,
      1.7490023845831795,
      -3.2647660042268942,
      -1.1105116079636872,
      1.9825083397685337,
      0.024271447600116652,
      -2.9720766815180912,
      2,
      1,
      -2,
      2,
      2.0381849648880874,
      -0.8485972161898648,
      2.289066882265047,
      1.4737255758365528,
      1.575547841894298,
      -1.3613469014933641,
      0.739233267933858,
      1.6357085095496693,
      3.607905544489176,
      1.7987355211157854,
      -0.35623306046300185,
      2.1392629353328636,
      -2.331114722447016,
      0.33355267974103103,
      2.2608538176167214,
      1.406984274653129,
      2.453698937042447,
      -3.3822366513167177,
      1.8311678218737686,
      -2.203079157314992,
      -0.1239089877930939,
      -2.0591285978191887,
      -0.0076216098170828,
      1.0123727886184386,
      -2,
      0,
      -2,
      0,
      2.028144342802114,
      -1.861402719718714,
      -1.7406261793678568,
      2.449324248653709,
      -1.4950804871235437,
      0.6159400617728108,
      -0.2725567280029197,
      2.5436293028168033,
      -1.5248433726164665,
      -0.37397759057267915,
      0.5340207040542371,
      -0.05811982029154463,
      -1.3074767267233245,
      2.3872013866657933,
      -2.788315833061017,
      -2.6828881271964784,
      2.420124926801374,
      -0.3721075414578663,
      -3.09398955009928,
      0.890284117488485,
      2.9387407298983224,
      -3.0164029965730434,
      -0.9988398256905754,
      1.0064220723747446,
      0,
      1,
      2,
      3,
      1.0112776846336622,
      2.0736856841338214,
      1.1484324986887693,
      0.23780514579591064,
      1.3116687234920807,
      -0.5640565491371405,
      3.513775560981281,
      0.4434131697376455,
      1.3720856856315384,
      0.40265655124807676,
      2.4050715697062577,
      -2.8538736075194597,
      -1.2575821005853254,
      -3.4599957553874057,
      -0.5735345722838464,
      -1.5512304691434706,
      0.5467176052902022,
      -0.2550500128678789,
      -0.14494570432943482,
      -1.1010765912213716,
      -2.003786175287359,
      -0.9130593077776272,
      0.04478360806113623,
      2.0175858379157674,
      -1,
      2,
      2,
      -2,
      2.0054489791734302,
      0.03538972691016741,
      0.06291876308608128,
      1.1510018575137397,
      0.28181146301294796,
      -0.5985416762361347,
      -2.5946176923135167,
      -2.7786240858555846,
      -2.8803238752654297,
      2.20192685342982,
      3.2115352839603517,
      2.225381143024979,
      2.9304152318229333,
      -2.222878557224587,
      0.7705961402356762,
      0.724620260344049,
      -0.19267273526892226,
      -1.1113630734943805,
      -2.1377643326394757,
      -0.035792228129160504,
      -2.9485192169518415,
      -0.9352509829524713,
      1.0546743197031403,
      2.0372037417295004,
      0,
      -2,
      3,
      2,
      2.002456416973115,
      -2.9718436053736297,
      -0.9491249497646147,
      -1.9068953885713518,
      0.16543224273732382,
      -0.7804288780363292,
      -1.7841217669400213,
      -0.9445217972226291,
      0.8879480535521643,
      -0.09826494117265251,
      -1.085555716028853,
      -0.17406796099045457,
      -3.232042224140286,
      -3.10767183692383,
      0.8669711129738841,
      1.8589116232648673,
      -2.1013076116492155,
      -2.1298050470107373,
      0.9435440583185746,
      3.038074321733347,
      -0.9428259961190909,
      -0.9633215526526984,
      1.039609423261508,
      0.028774605232571426,
      0,
      2,
      1,
      0,
      -1.9910999708469945,
      2.025329314074344,
      -0.973592994168109,
      1.047277156865625,
      1.0429731676917366,
      -0.9202919383601535,
      0.08979310642259541,
      1.054908599891474,
      -0.9829328647201441,
      -3.09344551775154,
      -3.1512798884946442,
      -1.1535794894131375,
      -1.1059428452431908,
      -1.0645772393741388,
      2.8917676236344,
      -0.088893339083254,
      1.9108648770228749,
      -2.059179339070851,
      -1.9855525029228571,
      3.02828353949319,
      -0.9557674169831606,
      -0.9576369972048403,
      3.027447399392335,
      2.018406292354765,
      -3,
      0,
      -1,
      0,
      -1.99811300135139,
      -1.9806147498315814,
      0.007441891434043498,
      -0.9835447586273451,
      2.0183723051337883,
      -1.9711687522891752,
      0.0328691861520084,
      -1.9902328704039667,
      -1.9718570149733172,
      3.005655205258849,
      -0.004921260644225546,
      -0.03715834146825739,
      -2.064989237377796,
      -0.025185047109135064,
      -3.023569282603949,
      -1.0443795548743469,
      -2.040427163047677,
      -1.0290467309591638,
      -1.962443295685046,
      -0.9544966030065036,
      -0.9704862493767832,
      -0.9713992052469955,
      0.02050962902431049,
      2.0091618719940674,
      0,
      1,
      -1,
      -1,
      3,
      -0.999679124972423,
      -1.9989184819215402,
      -1.9972201094490651,
      0.013643409435252912,
      1.0252882743173464,
      2.018667617226897,
      3.023529128079421,
      0.030179945414411772,
      3.0544431640369023,
      0.07432811196859457,
      1.0451107830593929,
      -1.9993742763336206,
      -3.009304481612185,
      -0.9898146160347111,
      0.025486877286898295,
      0.023242225046158548,
      1.0331677745344106,
      2.0278850674003275,
      2.051878606997254,
      -1.9734074423932333,
      3.011339044947525,
      -0.9849839323300452,
      -2.9911489614119375
    ],
    [
      1.8143405454564234,
      0.9034329660120874,
      -1.607566005198093,
      -1.6716052424413843,
      -2.2249417761913945,
      2.415815563056906,
      0.041234682396019656,
      -2.0652013100884816,
      -0.18868307939473467,
      -2.045864388868672,
      0.23846033990413606,
      -0.5688235085492924,
      -2.3224353455806526,
      -1.911477020724572,
      -2.9037814552754675,
      0.8089053250860219,
      -2.0494109959956477,
      -0.042315225863105016,
      0.976244245661566,
      -0.024623706274543217,
      -0.01987222514356529,
      -3.006050600432267,
      -2,
      2,
      3,
      -2,
      2,
      2,
      3,
      0,
      1,
      -2,
      0,
      1,
      -2,
      0,
      -3,
      -3,
      1.9998882667328175,
      -0.0017286204524959623,
      -2.0101642888284634,
      -1.043789228985002,
      -2.1196349129915313,
      -1.1619856263359545,
      1.7646510070427048,
      -3.26153927158276,
      0.8029587115686478,
      1.8382295154733514,
      -2.1265173345292654,
      -1.0577584748333826,
      -2.028390241029149,
      -1.0002524605807388,
      0.00018620932042351216,
      -1,
      1,
      0,
      2,
      2,
      -3,
      -2,
      -2,
      2,
      0,
      3,
      2,
      -2.0002786577370655,
      -2.000925884840545,
      -0.04456818544046782,
      -1.1378092076338013,
      0.680652844812149,
      0.41261247496201464,
      1.238570849947269,
      0.2023542647658803,
      -0.7393588175597303,
      -0.5036106660598855,
      -0.34955093042617236,
      -0.29231949337298563,
      -0.20550888174485693,
      1.9099705424934352,
      -0.009577031774413696,
      2.0006856052853803,
      1,
      -2,
      -2,
      0,
      3,
      0,
      3,
      2,
      1,
      0,
      0,
      -0.9958596331792116,
      2.0010444215826237,
      0.9646902986444204,
      -2.2201674776114664,
      -2.525373644504482,
      1.2501062362982536,
      2.077768277114469,
      0.007337095161322568,
      -1.044113058672658,
      0.03575148994587128,
      -2.7054626269063444,
      -0.4768692282716142,
      1.677645838959376,
      0.7380437169056724,
      -1.1652473035653763,
      -3.0185928776551143,
      -1.996087409453811,
      2,
      0,
      0,
      -1,
      3,
      2,
      2,
      -2,
      -3,
      -3,
      -2.9901145856849194,
      0.9998853224236977,
      -1.0382565139526037,
      -2.102613426283488,
      0.7123347666038856,
      -1.4837812567023398,
      -1.5550077980853494,
      -3.800411421167438,
      -1.0418880928078638,
      0.8388786319430187,
      1.018385583817363,
      -0.6000477942809229,
      2.7182440391860765,
      -0.11124744778256569,
      -1.1013777595417789,
      0.951380448980116,
      1.0482069980832989,
      -1.9826848491281241,
      -0.9994900918214705,
      1,
      2,
      1,
      -1,
      -3,
      0,
      -3,
      1,
      2.0069779395165277,
      -0.9916932022912781,
      -2.0442845715208002,
      1.9173281983995427,
      -0.9595408854834497,
      0.17222856129011177,
      -0.915585297571489,
      -0.009568324395234428,
      0.5723509287746384,
      -2.7653252782491036,
      -1.9634920495958577,
      1.3015791992533718,
      -3.3212872174419736,
      -0.9762954716308966,
      -3.060460894823567,
      2.094745433757777,
      0.1039179824064328,
      -0.8697361614576032,
      -0.9541616430849986,
      1.0001229550275823,
      -2,
      -2,
      3,
      0,
      2,
      -2,
      2,
      -2,
      0.010825570113675121,
      -0.004360966309245339,
      -1.096018833809256,
      -0.041972412691809624,
      1.2200075515858186,
      1.300049443677273,
      1.4101554495721333,
      -1.6884824395486284,
      -0.3415835377438703,
      -3.028780348594227,
      0.6961642471500096,
      0.8038917249791292,
      -0.7478023821797405,
      -2.294953612349841,
      -0.2297323720653664,
      0.9143229048361731,
      -1.8517381074327106,
      0.1718755420487223,
      3.0372212337008127,
      3.001930994314195,
      2,
      1,
      -2,
      1,
      -3,
      1,
      -2,
      2,
      0.010874052357545844,
      3.0146003687479763,
      -0.1185269028417641,
      -0.25149883848297216,
      2.9159176168285392,
      1.0332936263407657,
      -3.078639583493062,
      -1.347102830782346,
      -1.9504387437606296,
      -3.316767092597645,
      0.34585707898651435,
      0.5354058171520895,
      -0.9049624587593599,
      1.8048659952605484,
      -1.236294511726142,
      1.9289059951572654,
      1.1420824332912898,
      -1.8038365751712333,
      -1.9516837750328069,
      -1.997033131796809,
      2.999994467289574,
      -1,
      2,
      -1,
      2,
      0,
      2,
      3,
      -0.9867167894389083,
      -1.064381249840091,
      -1.363228831185175,
      1.4517551253435192,
      2.236017311276464,
      2.1233132745497376,
      0.23933056965853383,
      2.155104846191717,
      -2.993475180637509,
      -4.287435729895163,
      0.7583746511556991,
      -0.16297571324646126,
      -0.6436215891802504,
      -2.042013661042803,
      1.9129162401218809,
      -1.0154690065130783,
      2.1162676653473484,
      -1.8749368512768998,
      1.005407085722974,
      3.001813107307623,
      1.997430133061295,
      2.9960309364988493,
      2,
      -2,
      -2,
      1,
      -1,
      0,
      0.9993843999624568,
      -1.2012011132660847,
      -0.5898744345041493,
      -2.9924915920319086,
      -0.41735163951810217,
      -0.6694653975268873,
      -3.9926857606932398,
      -0.8214253329600752,
      -3.204723666117783,
      -1.2603972961864653,
      0.20431797943948504,
      -1.8019190959990052,
      2.474739506794187,
      -0.8248111145183485,
      -0.8392846142375495,
      -0.8194066114859349,
      1.1293421820614524,
      -2.9693246254025,
      1.967713175689739,
      -2.016671088699396,
      1.9794773558867516,
      1.9847749211430792,
      -3,
      0,
      -2,
      2,
      2,
      -1.000721833834305,
      1.9373975218912802,
      -0.3811672881278882,
      -2.908025389078895,
      1.5118899554134673,
      -3.2558773416605074,
      -0.5850035360798097,
      -1.9309221533996113,
      -3.0222827563005867,
      -0.19669857813095987,
      -2.591618379462121,
      1.1605395643231133,
      2.543144900222543,
      0.8481757644883177,
      1.2960272862578106,
      0.3416443409877805,
      3.2925806433326104,
      1.016541415092392,
      -0.0859624109808449,
      -2.081224731192438,
      2.9530350991862004,
      -1.048056287789609,
      -3.0147102212336696,
      2,
      2,
      3,
      -2,
      -3,
      -2.0042775428554704,
      -0.13460720857088035,
      -1.5461090745116817,
      -1.2711713924286927,
      -4.333336430482369,
      -6.573113587195654,
      -2.0660530498750993,
      -4.840612750051151,
      -3.0278798918676175,
      -1.5066293610346717,
      0.49688941571349565,
      -3.392496744540223,
      0.07591857830332185,
      1.4624837365838657,
      -0.9439606857209164,
      3.29758490371565,
      0.12100811147273277,
      0.8194696549350249,
      -2.2219111562499068,
      -1.1770801654401413,
      1.8878539905781158,
      -1.0597033370473803,
      0.9715848376005001,
      -2,
      3,
      1,
      0,
      1.0018901782416698,
      0.9726638519072106,
      -0.2086879574326247,
      -0.6348866003847106,
      -3.617998710891562,
      -2.7386202829130872,
      -5.187029542284988,
      -5.865649755340536,
      -4.926755925495159,
      -7.168156438721612,
      -3.499742879778774,
      -1.0816571963588146,
      -1.132580923630394,
      -0.6418393147668474,
      0.5639266969507043,
      -2.6379388204204153,
      1.7319096554862756,
      1.5448187565778364,
      1.5718844220311803,
      0.599868031122777,
      -3.180624324435464,
      -1.135836500240628,
      -2.0450925918031424,
      -0.011960612591661757,
      2,
      0,
      -2,
      0,
      -1.9946406820686555,
      -1.0369283493842838,
      2.804543308356969,
      -0.6917953580724167,
      -3.718858562774134,
      -4.031160234324589,
      -2.3344607489153417,
      -4.8938848496157785,
      -2.8107872409755927,
      -2.9349353397464624,
      -6.8312933720149935,
      -4.71835958655432,
      -1.6099341199012522,
      -4.21170542640981,
      0.6720345691047388,
      0.8463242052339021,
      -2.6713900462871942,
      -0.7375331208114093,
      -1.6918158947297022,
      -0.502671501287623,
      2.753249905681456,
      0.8714610871388232,
      2.946765660355978,
      -2.010987904482526,
      2,
      1,
      0,
      0,
      2.0131625160378195,
      -2.0112097697227393,
      -2.0859851052272957,
      1.4073607060002034,
      -4.6228334165223695,
      -3.010285620136631,
      -5.160237578659719,
      -2.263209794722513,
      -4.208210794947563,
      -5.113681693385198,
      -2.1306760571721592,
      -2.967881342151711,
      -0.9401983079766475,
      -1.7168046751958022,
      -0.159742508559123,
      -1.0035525301784953,
      1.1153395637231698,
      -1.9656549257781384,
      -2.9403716035716587,
      -2.599869850396536,
      -0.35051877275666815,
      1.837077005867796,
      -2.068109355698574,
      0.9890384536281008,
      -3,
      -1,
      2,
      2,
      3.02667353914616,
      -0.975473929000333,
      -1.9877745169422656,
      -1.5146407193321507,
      -0.4624179773080621,
      0.34362821442910424,
      -6.532132928679931,
      -5.483224017576906,
      -1.2145660665048035,
      -2.2594627702944456,
      -2.077613739692465,
      -2.138016368714859,
      -3.051588829177097,
      0.9188747607076589,
