{
  "input_neurons": [],
  "layer_one_neurons": [
    0,
    0.003,
    0,
    0,
    1,
    0,
    0,
    0,
    0,
    0,
    1,
    0,
    1,
    0,
    1,
    0
  ],
  "layer_two_neurons": [
    0.061,
    1,
    0.819,
    0.999,
    0.852,
    0.105,
    0.292,
    0,
    0.999,
    0.477,
    0.508,
    0.056,
    0,
    0.999,
    0.616,
    0.013
  ],
  "layer_one_weights": [
    [
      2,
      0,
      -3,
      0,
      2,
      0,
      0,
      2,
      2,
      3,
      2,
      3,
      -3,
      2,
      -4,
      -3.0032717707008665,
      3.967146519957036,
      -1.027816123462886,
      -3.033090775845056,
      -0.048353664425357115,
      -3.02266740299789,
      2.9932078860625166,
      -1,
      2,
      -3,
      3,
      -4,
      0,
      4,
      -3,
      2,
      1,
      1,
      3,
      -1,
      -3,
      2,
      -3,
      1.996374693540591,
      2.9795541716587084,
      -3.07024547711033,
      3.848285755344048,
      -1.2990877286052371,
      -3.4661033856580445,
      1.48225491827119,
      -4.46195499099006,
      -2.3968711315152387,
      -2.2860557847450176,
      1.8464972048951025,
      1.9815715236436446,
      0.99868657635915,
      1,
      -2,
      -4,
      -4,
      4,
      -2,
      -2,
      -1,
      3,
      2,
      2,
      -3,
      -2,
      4,
      2.9892682926078358,
      -0.07511243033988431,
      0.8196347322847287,
      -4.630161084215426,
      1.8614601317159007,
      -0.4810108467356488,
      0.37028276203703414,
      -3.659461953124455,
      -3.1861348819725595,
      0.25296679661889704,
      1.773604977738866,
      -2.019975040850119,
      -0.9235442199926933,
      -0.97177820295388,
      -1.9815883412193067,
      -3.0004725692856717,
      -4,
      -2,
      -4,
      0,
      -1,
      4,
      3,
      0,
      0,
      -1,
      1,
      0.9882486791096222,
      2.9231891012561535,
      2.675875838542726,
      2.9060019161617556,
      -2.72485600975588,
      -5.0317545418627505,
      -1.1033549816594346,
      -0.8417720057665058,
      -1.562210254807063,
      -0.593436374265738,
      -2.8631053819840084,
      4.6015296023571555,
      1.6572824634068681,
      3.4349783220354415,
      4.134998560763454,
      4.02656446941232,
      -1.0023213122575545,
      1.9997541102903822,
      -1,
      -4,
      1,
      4,
      -2,
      -2,
      0,
      -2,
      2,
      2.000025043616598,
      -3.0365612518089726,
      0.8480569763565136,
      3.2611848581697487,
      -2.2312449286821674,
      -3.5412956271194056,
      0.7238975646182415,
      3.295214916915757,
      2.927205636593938,
      -1.0048003653698354,
      -2.4157815931699673,
      2.356542218717841,
      4.722139704025934,
      -2.0552185982737012,
      1.6947952970888713,
      -1.7054456079209275,
      2.1799346556372616,
      -2.990761164295367,
      -3,
      2,
      1,
      0,
      4,
      3,
      3,
      0,
      0,
      -3,
      2.0199592432670164,
      -3.090294990463254,
      -0.3361202685767334,
      1.224506323596842,
      -0.13729198748470503,
      4.765648454825784,
      -1.329945546881293,
      1.611100598581772,
      -1.8427650329231544,
      0.5730734346600765,
      -0.38361495558792513,
      1.2301496817981232,
      0.39786201720302933,
      -3.1770115230450267,
      -0.38376995716400236,
      1.5688933908512754,
      0.21978365240826975,
      0.04530746024306226,
      -1.00299374438088,
      -1,
      0,
      2,
      -2,
      4,
      2,
      -2,
      1,
      1.9950987605509432,
      -2.0573845552358727,
      -2.3378859826117018,
      2.140854312115528,
      -2.327608240126392,
      -0.12608087852958616,
      -2.75403285750497,
      1.8768945387709821,
      -2.4105764054744543,
      -0.89840393566158,
      -1.5666373282150121,
      -0.4176138456193413,
      -2.129209709534408,
      0.4618979346012454,
      0.6190016583675493,
      -0.59481575150758,
      -0.5877170470746591,
      3.117928418230072,
      4.022133699680447,
      1.9913020893620943,
      1,
      2,
      -4,
      -1,
      1,
      1,
      3,
      -1,
      -0.010765325367474632,
      -1.3006600357514961,
      1.1650567517266999,
      -2.086396350626165,
      -3.02366350006778,
      2.3497660393101896,
      1.1348166786915117,
      -1.1465791394104228,
      -0.6043887920023099,
      -0.19383337282819918,
      0.9515701201306369,
      -0.4751022895119895,
      2.156656994730189,
      -2.592584650866436,
      4.418427608276779,
      1.2886076026994175,
      -0.7323153825831981,
      0.9788955806405609,
      -2.0719738553804223,
      -1.0242091626579335,
      0,
      -1,
      2,
      -4,
      -1,
      1,
      -3,
      -1,
      0.9249282298708564,
      -2.477374630282207,
      -5.002115118707322,
      2.9346644946052867,
      0.48296890769150214,
      -3.0410396675552023,
      -4.965496812810063,
      -1.5835847298529546,
      -0.25165946391796673,
      0.30380829323645786,
      1.8303373564349934,
      -3.366985916281167,
      2.9762262993378497,
      -1.3502830807222828,
      0.1869841016117863,
      -1.759550152887395,
      3.119502461772951,
      2.926940252367884,
      -0.1427396251511316,
      -0.051724557971294105,
      -0.008968104124367115,
      -3.003920939093916,
      0,
      -2,
      1,
      2,
      3,
      0,
      0.8787970821646022,
      2.4380723751574362,
      -0.20020679582756162,
      -1.9456419426331344,
      -0.6916419425199695,
      -3.394250135078081,
      3.8053116942917136,
      -0.5470979285455478,
      0.7290913359305863,
      1.9165322343904223,
      0.07276423575744292,
      -2.439782124080184,
      0.8006618978604033,
      4.625530122420579,
      -0.15872983681946623,
      -2.089095865791569,
      -0.9662470512340067,
      -1.9295075816721758,
      -0.11653453676263283,
      1.9067094327337566,
      -2.0255481968374736,
      2.992822738845619,
      4,
      2,
      -4,
      2,
      -4,
      -1,
      0.7992797649123138,
      3.2719313934997203,
      0.23242104106031927,
      3.584519301806052,
      2.52830697633,
      0.6317592541270407,
      3.6511915985095036,
      2.0016627237570646,
      -0.7577791527823863,
      1.5412093177817372,
      -0.27788201534083745,
      -1.5980672235399271,
      0.7355780975383996,
      1.2226737580111469,
      -0.49945412254840643,
      3.212500241839135,
      1.211558519564196,
      -1.8098510016809046,
      -2.0529497665962633,
      -1.1114026663151606,
      1.9666662454186044,
      -3.008547629265333,
      -1,
      -2,
      2,
      -3,
      1,
      1.0261355208462288,
      1.8557610753339482,
      1.337723967074086,
      -2.4618542849643243,
      -0.11059222714731946,
      0.44154107907148493,
      -1.817291580030244,
      -0.5921308831530909,
      3.0905030314271746,
      -2.1197590307705343,
      -1.9150453374195353,
      -4.347800179407802,
      2.4562423418268295,
      1.6832192651302709,
      4.59045943359274,
      1.1540435479524271,
      2.357577836635133,
      -2.793934433392273,
      0.11915956633631748,
      2.808744042281638,
      2.875775857327266,
      -0.042612983043386427,
      -1.0147449551598462,
      0,
      2,
      -3,
      2,
      -3.943316179507105,
      -0.9743834589132637,
      2.8332285446347782,
      1.5463117912321243,
      0.6827110254978968,
      2.333945015319828,
      -0.39880832386122866,
      -1.3112118821877554,
      -3.180529267209594,
      -5.4267780179472345,
      -0.48348414504571635,
      -1.1164842886006288,
      -0.8871267924578609,
      -2.54047083811232,
      -1.6523186521800293,
      -1.8841700296150758,
      1.46232525677549,
      1.2195542957873582,
      1.159710546865423,
      0.8264244116248876,
      2.940878469198251,
      -3.076319673570384,
      -4.057262736417207,
      -0.015327337957412954,
      -2,
      3,
      0,
      3,
      -1.9350157503279304,
      0.04407132361207515,
      -1.3636919771089462,
      0.38824073904370826,
      -1.4350035746358394,
      2.8536271776155746,
      -3.6956462144782494,
      -1.1114554225236792,
      -0.9322960864065594,
      -3.1235066281750794,
      -0.41621960417718756,
      -5.668120978657363,
      -3.5884517540491885,
      -2.599450465125271,
      -4.3739635388070965,
      3.296166364346161,
      1.722151376380699,
      1.8840042697773434,
      1.9231468771564608,
      0.014662363372321532,
      0.04914157511739225,
      0.017869046427121383,
      -0.06047088557961021,
      -2.029378384059867,
      -2,
      3,
      0,
      -3,
      -3.982949572493231,
      -3.0612493155518306,
      1.5186898528498918,
      -2.6829220362745785,
      -3.9859123642617504,
      2.5102085332570874,
      -4.605568003107454,
      -4.961600170728322,
      -0.6110579836404204,
      -5.640647368342167,
      -0.347872045009037,
      -2.271492162087717,
      2.7685405032834107,
      1.5272646961839906,
      -1.010474446505052,
      -2.8401231498445574,
      -0.2572271858748544,
      -4.382010239342449,
      1.8788626574263132,
      2.235314385994009,
      4.313081569924633,
      2.105409345020715,
      -4.0798602430089295,
      -2.0420657053258373,
      1,
      -4,
      -4,
      -2,
      3.012500310332425,
      -2.063844274418131,
      0.6305423383515684,
      0.4798948389117423,
      -4.0442537139528705,
      -0.7525365941136894,
      -3.0384807588459544,
      -2.5369379212011327,
      -4.060186077396558,
      -3.9086780895641335,
      -2.8496118766313754,
      -1.7113939251522576,
      2.6999516894740467,
      -2.7264090372430223,
      1.968621932143928,
      3.822716648950318,
      0.5412913471029629,
      1.6574255884633908,
      1.6568677973028962,
      -1.7103035043473562,
      0.3555099579024002,
      0.157487484925429,
      1.9192563478718252,
      1.9477769476450908,
      -2,
      0,
      -2,
      1,
      2.007879421072177,
      -1.1063464200099913,
      1.6010671247912047,
      -4.599702455179282,
      -4.218840597327709,
      -4.105984629802026,
      -5.377560600234675,
      -2.1966644105917252,
      -2.3018686851974497,
      -5.204881385556588,
      -0.25141041634168043,
      0.7261347882101923,
      0.31863566452527753,
      -2.7751366204744947,
      -1.1693546812208677,
      -2.7842468274447247,
      4.01190115355365,
      -1.8750438659359654,
      2.9204155906708373,
      4.1116066067202475,
      -2.8284092148746396,
      1.0525523612260308,
      -3.088463897217876,
      1.9364352636429307,
      -1,
      -1,
      0,
      4,
      -0.0625080732138309,
      3.7303998728370487,
      2.623053868714098,
      2.1661191834447973,
      1.405816655608823,
      -2.0128607690901927,
      -3.18836745605161,
      -3.8132386972661267,
      -5.3900131603023125,
      -3.510727436835209,
      -1.33169937508678,
      1.6829397452721981,
      3.1057547018831677,
      -1.8951315429996014,
      1.3707415137307613,
      -2.275177198596661,
      -2.5875660478752547,
      2.520447390873741,
      2.350156564460746,
      0.7902475085164248,
      2.8273814365203855,
      1.0069926875173258,
      -3.1326000166976113,
      -3.1123905859907617,
      2,
      3,
      0,
      2,
      2.870199789908135,
      -0.32198688649723084,
      1.376376698021198,
      -0.9686574011982173,
      0.36386461498315226,
      -3.7779574673987457,
      -2.306052527953838,
      -4.037560290146773,
      -3.7645273707024414,
      -1.0282383461198197,
      -1.2842252481173124,
      -1.8192348260243112,
      1.9257494990359594,
      -0.37965831639903036,
      2.5539953807934506,
      3.269159606154812,
      0.5000660608996962,
      0.6974077931621314,
      -1.9595176050746692,
      0.5531421106643818,
      -2.18293026863326,
      3.001607647544747,
      -2.143260209542273,
      -3.112182577895357,
      1,
      2,
      3,
      3,
      2.9780664935615397,
      -3.3511671597246506,
      2.3679014533581317,
      -1.9946323222171316,
      -4.313190609328936,
      -3.8087033186776376,
      -1.218019627807366,
      -0.25966880619356375,
      -4.653123576601852,
      0.34743123552801525,
      1.5763218240310493,
      -4.361410309755106,
      -0.3100987981290447,
      -1.366859900071585,
      -1.0144139205430045,
      -3.085400336053852,
      1.3533021061979158,
      4.300793727161477,
      0.16469951253444468,
      0.5992303646938928,
      1.9820555599311795,
      0.05876094836980951,
      -3.027561443164704,
      -0.047945434479573126,
      3,
      1,
      -1,
      2,
      -0.016794469136843335,
      3.7027200692857334,
      -2.306402491680473,
      0.5795162994491668,
      -0.9175484661454067,
      0.5174961929498489,
      -1.9252808617761465,
      -3.595831580875164,
      0.12309547262998871,
      2.586035326072814,
      -0.1602833760905856,
      -0.3427907453014302,
      0.14865735452777137,
      -4.661709317792941,
      -2.457897407579781,
      -2.6257147490195996,
      0.511368343462423,
      -0.3610501469834407,
      3.089339910694518,
      -3.1591463532415744,
      2.1019387087205263,
      -3.820800276241472,
      -1.000573734745409,
      -1.0131725104938776,
      3,
      3,
      -3,
      -4,
      0.9585952324218936,
      -0.33798035018866446,
      -1.0219273709839025,
      -1.827743965372887,
      -1.2390470022710158,
      3.2638470025619313,
      3.2438278863403185,
      -1.3565382818519538,
      -3.3853900507268238,
      -1.842923617561111,
      -2.388308631663538,
      -0.9095731575354327,
      2.047369668115624,
      -1.104236124414983,
      3.3498016029883635,
      -1.324715366116053,
      3.8533260229221384,
      0.6676251591183627,
      -3.8194561425810325,
      1.9940477693522576,
      -0.8011760784976923,
      -1.9179159784591542,
      -1.9408017588440616,
      -1.9853803794671425,
      1,
      3,
      3,
      -3,
      -3.037230682609778,
      -1.1041358871950517,
      0.0613051954810245,
      -0.6735250432879095,
      -2.763499909981835,
      -1.9938586466949402,
      -3.877653770465069,
      -2.8483739343166654,
      -1.2999363013282124,
      1.5699515880171457,
      -2.125352069810946,
      -2.6306412605267573,
      1.558480755099557,
      -0.42985983693424046,
      -2.429341400871817,
      0.561359731234443,
      -2.7443614245622956,
      -0.6033335123663145,
      -0.9181754951351354,
      -1.0553883911902269,
      0.2125047064102755,
      3.1170302834250676,
      -2.932154939822796,
      -0.9831825513169296,
      -2,
      3,
      -1,
      0,
      -1.016756057284574,
      3.9743732579345314,
      -1.9944389249871735,
      -0.8855516175180616,
      0.21702609910422543,
      1.09861691376931,
      -1.6126368206691224,
      -0.17396454415345652,
      -2.6743714325984977,
      -0.754505656131355,
      0.31777110124874725,
      3.2181587097315973,
      0.4825004898407631,
      -2.1958239705979636,
      4.5357632398566645,
      -3.8219352604545307,
      2.823047422251821,
      -1.1873189335607601,
      -2.2569818425331265,
      -2.0563488733899353,
      1.186453211503978,
      -1.888158404752842,
      -1.9600411407409613,
      -3.996467621402321,
      3,
      2,
      -3,
      -4,
      -3.0046608184463666,
      -3.0026463724769337,
      -1.9906110395351904,
      -1.935543640611027,
      1.0751853649210048,
      0.13600363930789494,
      -3.4724800270091953,
      -1.4023865151295776,
      0.7119109688021462,
      -3.3585604823077544,
      0.269358900258349,
      1.1175433350598065,
      -0.9411926206418769,
      1.8878335552963066,
      0.730346247962841,
      -0.3498368010735404,
      -1.427036304914778,
      -1.3975501470099652,
      1.767030234291556,
      1.8826033783399065,
      0.05227535166897621,
      3.040414626832201,
      -2.0395376870988153,
      1.996807517180385,
      -3,
      -4,
      -1,
      -1,
      3.000648115529567,
      3.013814940328319,
      -3.0192394462403636,
      -0.07062705511573311,
      2.9163744351710283,
      3.036171510997319,
      -1.88429958248509,
      -3.0438083356293104,
      3.0102544695668656,
      2.3447734862278042,
      2.9349071100744903,
      -0.12660856615941407,
      0.6621594900897163,
      -3.483623321396781,
      -3.653841567459279,
      -1.5864491614368272,
      -0.42646510110193575,
      -3.197950024273638,
      -1.0750429288781593,
      -0.09469454703138215,
      -2.97746477532375,
      -3.019173837825784,
      -4.033084909431671,
      -2.0057942552095054,
      0,
      1,
      2,
      4,
      -2,
      2.014258541650468,
      -0.04151761085544273,
      -1.0708617225039734,
      2.9258556068156385,
      -1.1598186147219163,
      2.8699089138206815,
      2.7940884332996005,
      0.6653329482768154,
      -0.36118259428667193,
      1.6537222668809788,
      -2.409281413508691,
      2.7289142089883933,
      2.597379690721228,
      1.437924885185322,
      1.42816359979014,
      -4.426074717403494,
      -3.1616933474261275,
      -1.9893572517796687,
      -0.05131756931799658,
      -0.07554254126905047,
      2.925755667132152,
      1.987128166466555,
      2.0028429497900415,
      2,
      -2,
      2,
      0,
      -3,
      3,
      -3.004749516175613,
      -3.0869249098277933,
      0.9059626799907985,
      0.8021342689357407,
      -0.2009899637179055,
      3.8025987512461144,
      -1.3053117919899546,
      1.6248940145307096,
      1.6217131457956804,
      2.720912244846147,
      3.797677604049304,
      -3.1585624454924797,
      -3.1891314994697963,
      3.787473446674016,
      -1.1270893085387286,
      -0.10963289885529819,
      -2.023378993491994,
      0.9890689018213361,
      -3.0075866039415438,
      3.9440391713212106,
      -3.057828290924865,
      4.0074598674118045
    ],
    [
      -1,
      -1,
      -1,
      4,
      -3,
      -3,
      0,
      4,
      1,
      -3,
      1,
      0,
      0,
      3,
      -4,
      -3.0038440450863897,
      -0.06873209880248068,
      1.9368679060524485,
      -3.0432819154270807,
      0.9566498936162443,
      -0.01408258999575531,
      2.992547826331482,
      -1,
      2,
      1,
      -4,
      -3,
      3,
      3,
      1,
      -3,
      -4,
      -1,
      -2,
      -4,
      0,
      -2,
      -1,
      -1.0074882953106277,
      -3.06595942316352,
      -2.2354293034352697,
      0.5663499307409886,
      -2.8034198718172814,
      -1.1072780816978671,
      -4.106578895909915,
      2.11411792635294,
      0.32440836715448035,
      -2.419826272791141,
      -0.12237633693633546,
      2.969241651679845,
      1.9812047844030347,
      -2,
      0,
      1,
      0,
      2,
      -2,
      -3,
      3,
      -4,
      1,
      1,
      2,
      4,
      -3,
      -3.022473325661079,
      2.764818434302182,
      -3.658888366949029,
      -4.7594664995355975,
      -4.885318109791928,
      -0.8826466414630729,
      -2.414841883408862,
      -5.259850797939299,
      -6.47136088245292,
      -4.35575712593217,
      -5.14702699744638,
      3.5837807740574483,
      -4.08839680189952,
      -0.9811743123822299,
      0.9912188942147144,
      -2.9979889895329883,
      1,
      -2,
      3,
      2,
      2,
      4,
      -1,
      2,
      3,
      2,
      -3,
      -0.024630453659913537,
      1.6732069285359061,
      1.8929972514461815,
      -0.04705719190147974,
      -8.029395763712527,
      -9.708940040274513,
      -11.469918040989322,
      -9.674611022291954,
      -9.713547786427144,
      -7.94278754983773,
      -0.13504699600087453,
      -1.8216461337314915,
      -1.8740010480029055,
      -2.9673905885186107,
      2.180875069332496,
      -1.9925902378458078,
      -0.0019008371409068546,
      -0.9989536205700102,
      2,
      -3,
      1,
      1,
      -3,
      -1,
      1,
      -3,
      -2,
      2.99990551973923,
      -2.2928178834131576,
      -4.245586096773632,
      -3.4451918255891734,
      -5.125928118374417,
      -7.7454930615662425,
      -3.7186914241580302,
      -9.526226333382125,
      -8.735251666027928,
      -5.955099953355702,
      -3.7867089618866423,
      -3.405813824674708,
      -0.7476801487347525,
      -3.944508090126145,
      2.5229671102060824,
      3.1248336598723476,
      -1.0160618521629097,
      1.003580702918395,
      -4,
      3,
      -2,
      1,
      -2,
      3,
      -1,
      3,
      -1,
      -1,
      -1.1366457778893482,
      3.011660597264006,
      -0.2621963743780879,
      -3.032225213002027,
      -11.559274379284467,
      -3.8308414724120547,
      -10.586691382019898,
      -3.6938440075675376,
      -5.148854119113808,
      -3.751115399163238,
      -3.1251644294444896,
      -6.046395078568011,
      -7.5419895637941865,
      -3.9312229279283564,
      -4.363535573934899,
      -1.259994442690255,
      2.7854815858606794,
      1.8868266891801913,
      3.0112587091253085,
      1,
      -3,
      -2,
      2,
      2,
      0,
      -4,
      -2,
      2.9679367758246564,
      2.5233323931062226,
      -3.0924225844324917,
      -5.3949369809277075,
      -4.218523183804495,
      -5.698741565980425,
      -9.08091154791082,
      -3.9449555154410674,
      -9.412528136057194,
      -5.183387677696782,
      -3.347686018540773,
      -2.811836535908835,
      -2.2662794574034275,
      -2.4277991355518984,
      -6.507599882439384,
      -1.1729343896776616,
      -0.6758403748929772,
      2.7403347386162706,
      -3.080457637192249,
      2.003592054735054,
      -1,
      -2,
      -2,
      0,
      2,
      3,
      -4,
      -1,
      3.9152116705601547,
      0.04042609631518736,
      -6.471290197673548,
      -9.550190711342585,
      -6.065826206610683,
      -11.868700928851572,
      -10.02210103226754,
      -6.724121626521995,
      -6.7977167842853685,
      -8.2828385715949,
      -4.593665246617625,
      -2.7123052430100145,
      -3.8300833611641507,
      -3.515812652007624,
      -4.426884630078722,
      -2.3333852123940115,
      0.14312933905781874,
      1.7441527365483045,
      -0.9893241570922028,
      -1.976814180906091,
      4,
      -4,
      -1,
      3,
      2,
      -1,
      3,
      -1,
      -2.2114486729587712,
      -2.340328238708358,
      -6.702118996109376,
      -10.59187578476899,
      -5.591895169410868,
      -6.102728460661693,
      -9.089414193888976,
      -7.169686897385681,
      -2.512701348853316,
      -6.363821381208015,
      -6.033673773254687,
      -4.104040912217122,
      -5.749536062071498,
      -4.133409897689486,
      -3.044651013396614,
      -6.211820309838302,
      -0.04732240399192525,
      -2.9107473875798275,
      2.1428640327649964,
      -0.942587032638915,
      2.016268933339667,
      -0.9856981957018792,
      3,
      3,
      2,
      -2,
      1,
      -2,
      2.7679895312335407,
      0.7524517790804562,
      -6.556787922013153,
      -1.0496761243137955,
      -3.0354774988118196,
      -5.44082474151564,
      0.14643875907309917,
      -6.668006445829298,
      -1.451836905454684,
      0.16190291754012248,
      -4.236567685895143,
      -3.8573393732944345,
      -4.765402784196608,
      -3.2963633239623005,
      -4.846207740893646,
      1.789897747571102,
      2.9805753470152303,
      -1.7184589439409346,
      4.3977609550356815,
      -0.8181705050456337,
      4.068350518579914,
      0.02519447511111675,
      -4,
      3,
      -3,
      4,
      0,
      -4,
      2.841518880931851,
      -1.2736382289919193,
      -4.687730894223733,
      -4.699042162414193,
      -2.2951667100570563,
      -0.22781760386829414,
      0.6776866515743548,
      -0.47005302710762653,
      -0.491868019163648,
      2.5715996993505974,
      0.7701126777147382,
      -2.387565726284049,
      -0.23851372145031774,
      0.45344162165589086,
      0.9271829461000891,
      -5.484726768719402,
      1.426151976198194,
      1.6007881219438225,
      2.727740926604047,
      1.3174395460854231,
      -2.8779328109583036,
      3.030666959778356,
      2,
      -3,
      -4,
      -2,
      2,
      1.0536590004872453,
      4.271190029241177,
      1.066279475837653,
      3.2362121248808746,
      3.6093260771837565,
      4.455850808283627,
      3.955168582959352,
      0.052034466955636974,
      0.8075793165948932,
      1.3313589044122645,
      1.252690800338603,
      -0.20240438244686323,
      -6.604054366682278,
      -3.894861564661281,
      -1.1563312774481795,
      1.3333419308269594,
      -4.829211255544025,
      -1.3820476216834987,
      -2.3027735549283066,
      -1.8999778585123002,
      0.5499205581462422,
      -2.814830960110919,
      -3.944656800143667,
      -3,
      -3,
      4,
      -1,
      2.0072333028975167,
      -2.8379837293227763,
      1.8297674809906928,
      1.4929405754574911,
      8.033740977415043,
      6.755387985979715,
      3.06402852246252,
      6.852282371860445,
      6.308531078557409,
      1.157329030198254,
      -2.6172916778380757,
      1.4685621452833648,
      -3.8859684731652178,
      -5.135869796726205,
      -1.9526162304745978,
      -5.097064541476225,
      -5.0269768820288085,
      -1.4093595903294114,
      -2.4704441460540094,
      1.5667160279296173,
      -0.6395029846309417,
      0.7256634532532128,
      -1.6762693737445136,
      2.0957046045363166,
      -1,
      -1,
      0,
      1,
      2.032002680658919,
      -0.801906527022419,
      4.3987310488974325,
      1.2155998800519008,
      5.017595259753077,
      6.701115802958847,
      1.059503033597287,
      5.063791196296248,
      6.002685435119139,
      4.380598350455353,
      -2.7725165012349358,
      -3.666805292016391,
      -3.5537550784238956,
      -4.097999756920948,
      -2.230101102331262,
      -2.026412431724821,
      0.7533935243152197,
      1.4000870959647544,
      -0.11605656372330193,
      1.926290900536855,
      5.2558089475062495,
      0.7482174968656037,
      0.29864180843507393,
      -0.8561750908250988,
      2,
      -2,
      -2,
      -2,
      0.9554197405606035,
      4.178628509684953,
      1.1035037954745812,
      -1.4623344920381431,
      6.750053835419334,
      3.5120061609534496,
      7.0685296864714315,
      0.4751926294387196,
      3.548006762125567,
      -0.12337044349165666,
      0.3931922284734602,
      1.1581885091349835,
      -2.952179367842058,
      1.2978674470066822,
      -5.366469451290888,
      -0.26340861971639046,
      1.0993328195382523,
      -2.9850859843755564,
      0.5858768342526313,
      4.036771205649137,
      4.238285131554556,
      3.718584931188954,
      1.3053492355173348,
      2.147811831603957,
      3,
      -3,
      2,
      -3,
      2.949463554092385,
      -0.11686083660138832,
      -2.3140786277700376,
      0.4380350303891548,
      3.357271296618653,
      3.099287430846613,
      -2.6553836222916365,
      4.118994722508307,
      -3.3961790108043,
      -0.9628593874296523,
      1.2149740693563482,
      1.9065869201444379,
      -1.2026387137308927,
      0.10737648419674992,
      2.515733982236234,
      -0.4217980261634334,
      1.319233142971797,
      -0.6587857359117574,
      -0.7305476940606471,
      1.060915139557541,
      -2.896426175572583,
      -2.3885590739858853,
      1.3156840396387015,
      -2.839917351155928,
      3,
      -2,
      3,
      4,
      -3.1388836271784943,
      -0.2579534822529055,
      -1.6970518017106733,
      -3.745822162980324,
      1.04746026588245,
      -3.5045361144369047,
      -1.543010979897788,
      0.4920593274667375,
      0.7490542553612578,
      -0.9005303979612269,
      -1.2965217976123926,
      0.5609905922055785,
      1.2882085797658978,
      1.4485203890317842,
      -0.5247256081801346,
      1.1945786390760134,
      -1.996090051587461,
      0.4896411976238464,
      -2.853389357717151,
      -0.3423657795249638,
      3.8318496393137114,
      2.484512379475613,
      -3.64098534677335,
      2.1888549062429687,
      -1,
      3,
      -3,
      -3,
      3.722641003819136,
      -0.3563993207551125,
      -1.870612620421259,
      -0.5012929254722632,
      -3.7927555873778984,
      -0.3710133109834377,
      0.4543846826792201,
      -3.98691923491912,
      -3.002557680702167,
      1.731596407748761,
      2.5198093544186935,
      0.6135229176501208,
      1.3204673873342418,
      2.994886534859934,
      3.1899070468652995,
      1.6342942631855117,
      0.4677821422521317,
      3.7951555464048883,
      -1.366602719169119,
      3.594767667373971,
      -1.3611763368873926,
      3.582759735321276,
      -3.740089372130943,
      3.126079550623155,
      -2,
      2,
      -3,
      4,
      -3.270541527755313,
      0.3187219727757355,
      -5.5676163146377675,
      -4.788019927010857,
      -5.534916152644019,
      -3.092166465781336,
      -3.48817451946142,
      -2.0158686678749307,
      1.2861170828232698,
      -5.287692851436566,
      -3.421561220334696,
      -0.4735406764727308,
      -1.1283816958507642,
      1.6632708535691134,
      0.31217477663032916,
      0.4657173162242439,
      2.135601966391146,
      -3.584370535838552,
      0.6047474610925705,
      -3.736302410575692,
      1.773513562805663,
      1.6342032310278485,
      -0.6717804763991292,
      -0.8972705683013574,
      1,
      0,
      3,
      1,
      1.8924132178110176,
      -1.4715380918109258,
      0.3838885045682168,
      -6.776833991662832,
      -1.8153246024813054,
      -6.466724125060701,
      -3.320149544558692,
      -5.996374608717831,
      -2.8807849697667947,
      0.06388223500878898,
      0.07973220460993001,
      -4.249687864151108,
      0.20363203827537085,
      1.4601613841916565,
      -1.313135711243077,
      -0.03295117936927891,
      2.128134680568346,
      -3.044327403697255,
      -3.483362894327486,
      4.216171546169226,
      0.4770727649096501,
      -2.5795888269185654,
      3.219866703515926,
      -1.8905391942060286,
      3,
      -1,
      4,
      -2,
      -3.0769892788651023,
      -4.484816234053624,
      -2.42202270792304,
      -4.433875756656742,
      -0.3153676534580797,
      -4.843973004229213,
      -3.3272591308249835,
      -3.3235462671446703,
      -2.4761353836479696,
      -0.12896632374014969,
      -4.154526455182255,
      -4.3855789938879814,
      -2.0023639116352863,
      -0.2510782186866826,
      3.085064038052954,
      -0.21902703057851633,
      0.3969360636918709,
      -2.1970975595972417,
      3.395232083291577,
      1.3472893888507922,
      1.3674762409136412,
      3.466861231589854,
      2.0796764456088233,
      2.0106602598862198,
      -1,
      1,
      0,
      4,
      -2.006670849751204,
      -2.286156960356266,
      -1.112892473357975,
      -2.1134250787043545,
      -1.775566254746775,
      -2.3349679948892983,
      -2.3290374304318875,
      0.23074653797357075,
      -1.7766611131422017,
      -1.6958262109670537,
      -4.604251431544265,
      0.18303306598252195,
      0.6262586757250692,
      -0.5576914282947094,
      -4.026003223902295,
      0.8193591949840351,
      3.42356622372934,
      -0.29960325803115784,
      3.009568568350754,
      1.0761533334967581,
      0.25524403828525966,
      -1.8196613465863944,
      3.024208166869318,
      -3.086733267094428,
      -2,
      4,
      -1,
      -2,
      -0.9911075736766282,
      -1.1715197646578714,
      -1.739550370521067,
      -5.816729783610795,
      0.5531674455828265,
      -6.744771237815367,
      1.145475230196852,
      -1.7774625481216593,
      -6.5186604092820986,
      1.2107420482877602,
      0.9472889209459853,
      0.7309903772701036,
      -4.2808329630518775,
      -1.1482867845139193,
      -1.9901509560433213,
      0.9828702337623765,
      -1.9925755825604898,
      -1.064631095989585,
      1.0038265068368997,
      1.9426139558038729,
      2.7580085030941968,
      3.8589759343526473,
      -1.0920006655040861,
      -2.125087200369646,
      1,
      3,
      2,
      2,
      -1.0027643469968741,
      -0.20265456154119177,
      -2.636648177400857,
      -4.618895110149616,
      -0.10800678069012704,
      -2.4685430036263667,
      -3.4978429721189737,
      -1.2395034439879367,
      0.6325950894971807,
      -4.234604392005541,
      -1.2988752864006547,
      -5.045209102015181,
      -1.1743197012315696,
      1.801751074058594,
      -1.7058536466432255,
      -1.50655678609254,
      -3.3055438701646693,
      0.2874226713241139,
      -1.991780586468738,
      1.9750229893244493,
      -2.214626126163882,
      -0.24673991184609395,
      -2.213867408366979,
      -1.1224284900022163,
      3,
      -1,
      0,
      1,
      2.991409607175238,
      -2.193078708541714,
      3.5389438302865446,
      1.0034571891643773,
      -5.6937307783808695,
      -1.8908831597389326,
      1.4604189056490722,
      -1.516662236010665,
      2.191801252538985,
      -0.5221737691329513,
      0.4439503261850121,
      0.583767288330627,
      -1.4322652546791403,
      -3.920588821040021,
      -1.5808911975268751,
      -1.3414954018877232,
      -1.6337855945851059,
      -3.777177166880093,
      -2.1391037770837085,
      3.785518014199085,
      -2.1624914994586275,
      -2.210042323770786,
      0.85174097838448,
      -2.0812281445324214,
      1,
      0,
      -2,
      2,
      -1.0018280530224946,
      -3.086913620510822,
      2.7456424182609656,
      -3.6016272553037347,
      -2.923530286648936,
      0.9261579514157705,
      -4.016384556606932,
      0.8900309915764182,
      -3.1369331323787097,
      3.224517681884316,
      2.0828083063522573,
      0.8013275213622506,
      -1.0455121849508853,
      2.25972427107377,
      -2.425586846447829,
      -1.1573689902717168,
      -1.2215014014710632,
      -2.974503530458122,
      -0.09936867208410202,
      -3.1784712235301553,
      0.8815673987826507,
      1.845548993809107,
      3.983692274398761,
      -1.0459497585279496,
      -4,
      -1,
      -2,
      -3,
      -2,
      -2.040217166494881,
      -3.162493367575118,
      -4.335580102686806,
      -4.555605496164689,
      2.147345584607035,
      -1.8391912601661518,
      0.17177353226017647,
      -4.764408701828172,
      1.4076500847857794,
      0.4325983234381946,
      -4.8035119002914906,
      -3.7848241472468445,
      -2.7811342925910405,
      -1.630011755296518,
      -0.40614452926818784,
      2.6232228053495548,
      -0.1588624839939175,
      -1.0846817130040618,
      1.8742394533764537,
      -2.084380480222038,
      0.8687793974847807,
      -2.03836458152485,
      0.9684977878393173,
      0,
      1,
      -1,
      -3,
      2,
      -3,
      -3.00819708620038,
      -3.1190828518665614,
      -0.20168668944636756,
      1.5694861413553163,
      3.580851122816888,
      -1.3945998050701343,
      1.5008871338404466,
      -3.53725086266372,
      -2.535334894382217,
      -0.5186530401814584,
      2.537858594960241,
      -3.454764801849315,
      -2.433384739011719,
      3.578887439344534,
      -0.3448859604602528,
      0.6643481805409991,
      2.785298834671237,
      -0.12537434345661191,
      -3.094270482613549,
      -1.0614453708943488,
      -4.049348511020479,
      2.979279346716441
    ],
    [
      -1,
      -2,
      0,
      -1,
      3,
      -2,
      2,
      1,
      -1,
      1,
      2,
      -2,
      -2,
      1,
      -2,
      0.0008370978944391711,
      -2.9959168257562996,
      3.036850482593782,
      1.027241075140417,
      -3.958223975084903,
      3.0284947215821942,
      -2.9892319752051724,
      -2,
      0,
      0,
      -2,
      -3,
      3,
      -4,
      1,
      0,
      1,
      4,
      -1,
      1,
      2,
      1,
      4,
      2.997955241887393,
      -0.029456050383279562,
      -3.134286378404616,
      -1.263886211922404,
      -1.4748297399334913,
      1.4351360211783637,
      0.499832629711208,
      -1.383929640891134,
      0.7532454735066116,
      -3.0910531481067367,
      1.994894466249869,
      0.9904033109508874,
      -3.01348987466287,
      1,
      -1,
      0,
      4,
      1,
      -1,
      3,
      -2,
      -1,
      -3,
      4,
      -1,
      -1,
      2,
      -2.006437108372074,
      -3.151641609743537,
      -3.420902088691439,
      0.9890880659129883,
      -3.499953584181012,
      -0.8936933203820321,
      -5.012228380513875,
      -1.0051705512632974,
      -3.7246741937050523,
      1.5266583799457616,
      -0.9104824779927977,
      -2.685142597210689,
      -1.5718712227718834,
      -4.215312406695438,
      1.9218668692024468,
      -1.0095825933552645,
      1,
      1,
      3,
      2,
      2,
      2,
      3,
      3,
      3,
      -3,
      3,
      0.9929237768019212,
      -3.227093912836039,
      -0.6668446836084725,
      -3.6423417621890395,
      -3.5762000107844925,
      -3.1794578653797516,
      -1.0763899388932696,
      -0.19148257673532926,
      -1.3092572471448949,
      -5.5467257328665776,
      -3.295194746450922,
      -3.5488248606967634,
      1.9865036776013745,
      -5.655015530665004,
      -1.8132262223156685,
      2.7434068963161407,
      -3.042587820298376,
      -1.0049860648352595,
      3,
      -3,
      2,
      -2,
      1,
      -2,
      -4,
      2,
      1,
      2.9998979885765733,
      -4.229762650565625,
      0.26537845074518945,
      -3.7126431449245354,
      -4.866170119161898,
      0.32711875678352786,
      -5.252290439198544,
      -4.6608190841147215,
      0.6497593421195902,
      0.4410030623016348,
      -5.541347255202093,
      -0.9933612008347151,
      -1.5307078976856137,
      -4.410329377849829,
      -0.2885536249836637,
      2.8139435225878024,
      3.6287269539247906,
      -0.10052988631518082,
      2,
      -1,
      -3,
      -2,
      -3,
      3,
      -4,
      2,
      4,
      -3,
      -3.099403669718059,
      0.39172626031932783,
      -0.6050992293868517,
      -0.3553550090997153,
      -1.3188933145595534,
      -5.500244329399377,
      0.3867530470712994,
      -3.8356369152028065,
      2.0961374255682883,
      -4.209280075659503,
      -2.7657836324549714,
      -4.249179520863593,
      -1.5621768215374612,
      0.23582072316663105,
      -1.2008543686471012,
      1.7003922735521038,
      0.6242151372775632,
      3.937424251737354,
      -3.0075736379483256,
      -3,
      -1,
      1,
      4,
      1,
      2,
      -2,
      -1,
      1.9806223628070803,
      2.67878473491585,
      -4.094519632462556,
      -0.8833330453106739,
      -1.9288035521922162,
      3.6386358114517248,
      3.3405174954160506,
      1.822634944551486,
      0.021296293148523625,
      -3.4048465554351304,
      -6.133469413984548,
      0.3767040600959656,
      -4.981652747596199,
      -2.2269642989359664,
      -1.3690889636862058,
      -3.7582560771733635,
      -4.330795024601795,
      -2.470622564997122,
      2.9714294576402986,
      -0.9872498122331599,
      -1,
      1,
      0,
      0,
      1,
      1,
      1,
      0,
      0.9108188168583841,
      -0.6248776728293673,
      -1.456000235338179,
      -2.7652582340673355,
      -2.8828821921442307,
      -2.8813006360726097,
      -2.283032719247454,
      -0.7760887444852768,
      -1.7806076483535431,
      -3.0363247335855195,
      -2.120782277861739,
      -7.451964881263408,
      -3.0771128060224426,
      -6.168478953198978,
      -5.034990742681169,
      -4.875133516912073,
      1.7504462063812196,
      0.5177349482049248,
      1.9432831429654214,
      0.9968549211097216,
      1,
      -3,
      0,
      -2,
      -4,
      3,
      1,
      0,
      1.8463601148781075,
      1.1984056669523504,
      1.719568118778526,
      0.20707855996310792,
      -0.19751006687335648,
      -2.0934998198939287,
      -1.4503175713268577,
      -1.146440894126527,
      0.12148931823104725,
      -3.101636065240071,
      -7.396921385225189,
      -0.9206276269059426,
      -3.3424966167054904,
      -7.854690560322018,
      -1.6924970925317782,
      -4.674389803638852,
      -4.407013559147908,
      1.0854176110643983,
      -2.3064938375869644,
      -0.11979006002524914,
      -1.0247861682166124,
      -0.011221346531673254,
      -3,
      0,
      -2,
      -1,
      2,
      3,
      -1.1698026951402527,
      0.1716256266576856,
      -4.941613100745648,
      -3.5037942469622876,
      -0.9497454974700968,
      0.9346343032474091,
      0.3741542656286916,
      -1.1843541575015208,
      -3.772987156254352,
      -5.638920046665385,
      -3.289734309190305,
      -2.1505177250067886,
      -7.117335794162075,
      -2.9887209685306413,
      -0.1667258287660846,
      -4.111055834401059,
      -5.513009022807386,
      2.9327143566231006,
      -0.31481887919834556,
      3.86078025915511,
      -1.0749072798304746,
      1.9788542417169308,
      0,
      -3,
      -3,
      2,
      -3,
      4,
      0.6595627194349788,
      2.0994085994456144,
      -2.078215987695868,
      -6.198759783579778,
      -3.5229230187060865,
      -5.059565648932487,
      -5.508696936784067,
      -1.0012347832227824,
      -3.6800756871907843,
      -8.013561315154616,
      -5.942828250086473,
      -7.234276178718802,
      -3.323569096292465,
      -2.551021801383232,
      -6.40455978869333,
      -1.437196037368348,
      -0.4271402910876084,
      -2.0282066928522213,
      -0.4572037428564205,
      -2.199791735933792,
      -2.0946325436801123,
      3.9859577654499665,
      3,
      3,
      -2,
      -2,
      -2,
      -3.0132985038326,
      -0.5326618663031403,
      -5.200089670215884,
      -5.50321713702747,
      -4.122693951294889,
      -3.24479993458262,
      -4.747971742307723,
      -1.298926121443738,
      -4.52602703688897,
      -6.527218338119425,
      -4.56336861305572,
      -5.683337709617027,
      -6.497919914992023,
      -9.350382301472823,
      -7.050740110613923,
      -3.804433211021759,
      -1.0045807965739455,
      0.6097434784506174,
      -3.9268682990903017,
      1.5155643685402966,
      -1.2805302391356863,
      2.8544026283363646,
      1.9782903178432396,
      0,
      0,
      -4,
      -4,
      -2.9649263135781028,
      -2.123578094610884,
      -4.584451547716399,
      -3.6115194520216924,
      0.8403949653196363,
      -4.988904204296461,
      -2.186964591418223,
      -3.979277843928821,
      -6.593435908034018,
      -9.06529583627516,
      -8.910494960608245,
      -5.46528694339892,
      -6.710200478317908,
      -6.283278451524387,
      -8.33598091705976,
      -2.9496137110608287,
      -5.9036545801582125,
      0.4925087918438562,
      -1.1919750510319276,
      -1.565650613522222,
      -0.6490186836122485,
      -1.3646565224998188,
      2.774307017395283,
      -3.0466537681195107,
      0,
      0,
      -2,
      -2,
      -0.9743046565690966,
      -4.110437816930946,
      2.2291065532733034,
      0.1463336729855905,
      0.021998849294273468,
      -7.577646285747024,
      -7.608526528062768,
      -2.1410611040344745,
      -6.678307160943007,
      -8.454481936275059,
      -5.315299508864184,
      -5.885337393704133,
      -6.881512613650536,
      -8.92391150383018,
      -5.959892277552923,
      -3.4135342841023424,
      -0.7442614557151049,
      0.8876416385689653,
      -4.029840916281185,
      -0.3671663492283539,
      -3.646767444310304,
      1.6037940569783629,
      -4.243172726883704,
      -2.0877622333360355,
      3,
      3,
      3,
      -3,
      1.0705523719620629,
      -3.179933552451612,
      1.5705407165175531,
      -0.1433705849613435,
      0.5013067305833288,
      -6.565268649367291,
      -6.655737403261525,
      -9.62745916680562,
      -3.654215350320984,
      -7.484104441620625,
      -5.421910004565905,
      -0.8952242220381393,
      -0.5151303687549007,
      -0.8510992789651414,
      0.757126704443172,
      0.5649048810456849,
      -0.5922987439527746,
      -6.200114467817939,
      -1.0131041302316974,
      2.8102822286238296,
      3.792667092132091,
      1.873391102413836,
      -4.13391542195841,
      -1.0725755344685348,
      1,
      4,
      -4,
      -4,
      -0.8729748847359714,
      -2.603586743249806,
      -2.5574341078647893,
      -2.722811362009818,
      -1.2494640853457113,
      -5.387320440276007,
      -4.800842790308516,
      -2.375874046021511,
      -4.202644425434584,
      -1.3320908125331896,
      -6.509022822540812,
      -1.9588444293851708,
      -4.268755460258295,
      -2.143048323390906,
      -0.9257443875258549,
      -1.7914466382021295,
      -3.720858822967653,
      -3.234866544776344,
      -1.382301986492014,
      -3.903131833551511,
      4.222765948711733,
      0.17612227158905985,
      -0.019592557817063483,
      -0.06430755151821863,
      0,
      0,
      -4,
      -3,
      -0.7073324889131241,
      -2.337004145895363,
      3.6901326760217983,
      -3.337397844434686,
      0.8002492892580643,
      -1.5038842435783655,
      -4.216735764071032,
      1.9415325077185805,
      0.24520850103138409,
      -1.2858403767955182,
      -3.428013277292901,
      -4.437601523138299,
      -0.5298288123367839,
      -0.6799512028390852,
      1.7245386428802676,
      -0.00989013751745164,
      -2.656280949730549,
      1.4938460151668271,
      3.092741814677197,
      -3.0474646076063574,
      2.7088383337816238,
      -3.400301996431685,
      -0.8051077525831165,
      0.9688481651678591,
      -2,
      1,
      3,
      0,
      3.2327413276284966,
      -1.3097634357246202,
      -0.9026795072040232,
      0.16696352581471932,
      2.082963058688273,
      1.9930452969004708,
      1.7113258651196397,
      0.09049455969308826,
      -3.1037707183379646,
      1.6642484258895511,
      -2.9416493011874345,
      -3.168093693619366,
      2.072792918840505,
      1.3435015525730214,
      -0.982530950613712,
      5.23841668230332,
      -1.302432215228937,
      3.690988234122473,
      -0.22053574278179103,
      0.2319596364952053,
      3.383458357297657,
      -2.3711906395747575,
      -2.6462219650293406,
      1.0474347953974381,
      -2,
      -2,
      0,
      1,
      -2.764227161201337,
      4.735921020053807,
      2.748321555686601,
      1.2168222350651112,
      -2.420595745566762,
      0.6692611442657217,
      -0.9459480546057075,
      -2.7166045444460054,
      -2.6403322924374835,
      -0.49037162804307227,
      1.651856057936945,
      -5.21486893657074,
      1.103445359141291,
      0.9240362872359881,
      5.127707939312904,
      3.031770621258668,
      -0.7255774197908033,
      2.357361099794393,
      -2.1217611609394353,
      0.03824839020179304,
      4.647757934704256,
      3.8231066556237727,
      1.232231822700618,
      1.973406180603112,
      -3,
      -3,
      3,
      0,
      3.272597919227248,
      3.631178036444901,
      3.6655059667544503,
      -2.0263620504015427,
      3.905918033873423,
      -3.8975013299835615,
      0.8148146913194907,
      -2.2436804134467967,
      -0.29561457886416925,
      -1.8395305158978685,
      2.8217395610946387,
      -2.7153869623467566,
      0.08736893287048736,
      1.3555823181465523,
      -0.435431409839814,
      3.2333546264474062,
      -0.6294709933920715,
      2.3115631720778755,
      5.936218584783984,
      2.1235905493990597,
      0.6533007693200781,
      0.003585108138865674,
      3.282827778294102,
      1.9167454387977725,
      -2,
      3,
      1,
      -1,
      -0.8490146646208211,
      -1.3506930513892659,
      -0.40614431769294435,
      -0.07525601335936119,
      -2.214271422250303,
      3.778733038629979,
      1.8779730669820185,
      0.73274898459366,
      -5.288233970626234,
      -1.976862097723442,
      2.713322746822947,
      1.246843918048518,
      4.342848542855403,
      0.80834209493375,
      -0.7398664684633162,
      -2.2868145363318897,
      3.460608875074152,
      -0.836839764706631,
      -0.4852112677781461,
      -0.6882477520035186,
      2.0546922536685166,
      -0.19338049030429882,
      -2.5033349652915953,
      1.0963949248744047,
      -2,
      3,
      2,
      4,
      3.114218465212611,
      -1.5228295975555104,
      1.4149094755951608,
      -0.21986275237521385,
      -0.3840973051358913,
      1.7705904571201958,
      0.6933166399856334,
      3.295578737943128,
      2.1718868350724265,
      0.9397616130618709,
      3.0202686017255926,
      4.358678301959491,
      3.8013496660326083,
      0.9178979328960245,
      -0.4123165113444054,
      -2.0642611986084134,
      -1.7113657581120834,
      -0.11617391148738498,
      5.773769606278672,
      1.7319962327246718,
      -2.81337323889265,
      3.969125666611676,
      1.4787005828418984,
      -1.7061232266060933,
      -3,
      -3,
      3,
      3,
      2.077601614078325,
      -0.8131084665741635,
      1.1573030430119788,
      3.164023759907589,
      -3.004670265922526,
      -3.8760852381799134,
      -1.9606592868738995,
      -1.4028391932119975,
      -1.5345195855589426,
      -3.617975144095787,
      -1.7408407174745568,
      -2.591530179709896,
      -3.3715206345096322,
      0.09820052226927517,
      1.9615366886889547,
      1.23704930314717,
      0.026015931505556006,
      -2.311231455653319,
      4.700495656810232,
      0.8959223208584615,
      1.7672636597577924,
      2.015644350040515,
      -0.5904100522733056,
      1.2885461442978858,
      -4,
      1,
      0,
      3,
      -1.972580938756791,
      1.020676266516015,
      2.0553115537302955,
      3.077965144948216,
      -2.056684014449315,
      -4.458935976692297,
      1.6997749025612967,
      -1.48841568347842,
      -0.5514980479321223,
      -2.6443382509741005,
      -0.7913563756431382,
      -2.9026455144834182,
      -3.8059695880825233,
      -0.3952978105917697,
      1.6421800701769103,
      -4.341724821673438,
      -0.5567317389356246,
      1.3087184688899371,
      -0.26336503663833033,
      5.700921977791644,
      -0.5799127515326254,
      0.011959433926030527,
      1.5883309960680556,
      -1.7446121473951914,
      -3,
      1,
      3,
      3,
      -1.997485405972768,
      -2.060350065528416,
      -0.14379040403108717,
      -0.03355589137950906,
      2.9517262014872707,
      -2.245791104729163,
      0.7391698143576247,
      1.4233790944212406,
      -4.671256946137826,
      0.0981327382327416,
      -1.7039139025186674,
      -5.292028529474672,
      -0.9345601283946133,
      -2.319632243749826,
      -4.265706751257713,
      1.9377256170175194,
      2.0870034906992903,
      -2.6191464954294066,
      -3.034177475331925,
      2.263475478613924,
      -0.05302813035652186,
      -0.3102462803400882,
      2.50733350004405,
      1.204127080873709,
      0,
      -3,
      0,
      3,
      -2.000495250786385,
      2.960406013152131,
      -2.118140537692667,
      2.8309834812019923,
      -0.250958778806883,
      -0.3700517392170784,
      -4.485778910614848,
      0.0885945439570292,
      -4.87720914199751,
      -4.851838538735243,
      -1.851683763171408,
      -1.839264514951873,
      -3.8667288362777805,
      -2.2522424885280135,
      2.015857242506975,
      3.281167499390966,
      2.1420137306019447,
      -3.575466111365016,
      -2.64919699788056,
      4.436955441443259,
      0.5968979420003757,
      3.4249087033862002,
      1.1244774244249867,
      2.147572321690004,
      -3,
      0,
      1,
      0,
      4,
      -1.0108955173004648,
      -0.1001691694148269,
      -3.127591706912698,
      -1.1830954268027094,
      -0.5068303996470456,
      -2.548468341761208,
      -2.621027148393446,
      0.23186626923100917,
      2.2212042499285216,
      0.3440301443000779,
      2.312982008503635,
      1.4381352224537212,
      2.733560750499154,
      -0.8694189400015321,
      3.2908171924781837,
      3.3568441545840377,
      0.4257081254047994,
      -2.804972600107611,
      0.30162314715626426,
      1.2363007193384075,
      2.2707081075116857,
      4.099767499952872,
      -2.9349025113283638,
      -2,
      -2,
      -1,
      -1,
      0,
      4,
      -2.005078560606619,
      -4.061000041366483,
      1.9043489327015337,
      2.7887401660622166,
      -4.2409186614525245,
      2.7513344884166226,
      2.6458618756264958,
      2.5911608608576406,
      -2.4103141288593606,
      0.6604456329629437,
      1.774520128441118,
      -2.067092616857369,
      -1.9322981419029175,
      4.313152571495668,
      -0.4930224096869397,
      0.37928435339334815,
      1.1903484609202,
      0.2054864176702466,
      2.2372998432993443,
      -2.8758949352575343,
      3.1212624328829435,
      -3.95641121744986
    ],
    [
      0,
      -4,
      4,
      2,
      0,
      2,
      2,
      2,
      -3,
      3,
      4,
      4,
      1,
      -1,
      2,
      -2.001583786635613,
      0.01772352671466928,
      0.00046942366480980753,
      0.0030735213341354303,
      -0.9997177960911979,
      -3.013858532526832,
      0.9917607400722765,
      -1,
      2,
      2,
      4,
      2,
      -2,
      -3,
      0,
      -2,
      -4,
      1,
      -4,
      -2,
      2,
      -4,
      4,
      -2.9991947501112985,
      1.986742125803183,
      -1.0898813861761993,
      3.8445585240729976,
      -2.266800977723486,
      -3.34414994331794,
      0.7132440427338879,
      -1.233825632510167,
      1.777049451354374,
      -0.14344988662429742,
      -2.0300102625563348,
      1.9912543998484393,
      4.000602778705292,
      1,
      -3,
      -3,
      0,
      1,
      -1,
      2,
      -2,
      0,
      -1,
      -1,
      1,
      1,
      0,
      1.0017255901871325,
      -1.0814117606293001,
      -3.281535916918176,
      2.5065878359985185,
      -3.8765106865600987,
      -2.266199063235904,
      -4.532787829026454,
      0.6814533301388249,
      -3.9936653097239194,
      -3.534100764988009,
      -2.1514460759165774,
      -0.9448482417989869,
      3.1167704800127076,
      2.119909401800766,
      1.0538549099257233,
      -1.9879368006471334,
      0,
      -3,
      2,
      3,
      4,
      0,
      1,
      -2,
      2,
      -2,
      -2,
      4.0018423779692025,
      1.8894470193890929,
      2.595537992283605,
      1.3290535031267348,
      -2.4559457056648895,
      -1.1205763439500085,
      -4.7063206123130925,
      -1.9965740501489222,
      -3.5162320352915257,
      -1.7202274438845748,
      1.8079342921110437,
      1.6150689662569975,
      2.165619066747117,
      3.603454826619578,
      -3.390495492008134,
      -0.7266407865158789,
      3.032993718879213,
      3.00627678665515,
      2,
      -1,
      1,
      2,
      2,
      1,
      -3,
      0,
      0,
      2.000030932424331,
      -0.10780283746763741,
      -2.4336421423536443,
      -2.5248423473228923,
      -2.2959531247205787,
      -1.193990294970414,
      -4.902881539743871,
      -2.004763497727637,
      -3.9574103048263405,
      -6.314268580371587,
      -3.959001623743188,
      -0.14189954729956153,
      -0.5211509116297921,
      -0.6891390658543975,
      3.516119406016132,
      -1.2785427370969906,
      0.21992265422717747,
      -2.9309273864495093,
      3,
      -3,
      2,
      0,
      2,
      3,
      -4,
      2,
      1,
      -1,
      0.927109930836066,
      3.5360705276147084,
      1.0305666536626983,
      -5.526480790278003,
      -4.738785974675402,
      -0.8734819652235667,
      -4.799018334399247,
      -0.8255857538628023,
      -3.7518498388117227,
      -2.3126716763850768,
      -5.144303708001357,
      -4.29531950854733,
      -4.450874498129483,
      0.7164584461733475,
      -3.909206993007388,
      -1.3290237583896065,
      -0.8508679154104783,
      -0.047512587098223646,
      0.007618045594047813,
      -2,
      -2,
      0,
      0,
      2,
      -3,
      1,
      3,
      -3.008486135110288,
      -1.2443102477330872,
      0.10301582706468204,
      -0.8191882521188638,
      -4.141069068296543,
      -2.205313304707228,
      -2.0184116414710904,
      -6.381867491947621,
      -2.556747007532804,
      -6.393100424646606,
      -4.766013821460653,
      1.098069268491588,
      0.9491757318052758,
      1.7213237792054004,
      -3.7723535683849696,
      1.0073903019768804,
      2.5107428078807876,
      -2.646886396318566,
      -1.0693976589991179,
      -1.0203789190785721,
      -3,
      1,
      -4,
      0,
      0,
      -2,
      0,
      -3,
      -2.0174521097781186,
      -2.4110471043350548,
      -4.360362947072513,
      0.13679649079878559,
      -8.892238638922297,
      -10.31602442865641,
      -5.33215499703781,
      -5.474951624532057,
      -4.658664970802985,
      -1.7322190820128194,
      -3.6195994203815496,
      -4.91464623294845,
      -1.2208974929512555,
      0.28720639204667037,
      -0.44043214959400584,
      2.0886942436555396,
      3.089536630590617,
      3.259090086544244,
      1.0528692533064976,
      -2.021523909166707,
      -2,
      1,
      -4,
      -3,
      2,
      0,
      -4,
      -4,
      -3.0811789562026917,
      0.5169375248785234,
      -2.6595650855131354,
      -3.0986415255826807,
      -5.115659659581677,
      -3.2202843249122544,
      -2.6511278612320486,
      -8.562269157828437,
      -4.402858759231221,
      -2.4525222896740364,
      0.2523300365965017,
      -1.126238443594036,
      -4.410414614177872,
      -3.5544091529372044,
      -1.6788516774234699,
      -3.7919166488536287,
      -1.057661802913663,
      0.27183135581420104,
      3.228531999502818,
      -4.007673506699347,
      -0.9791508943060372,
      3.0080088202234028,
      -4,
      2,
      -3,
      3,
      0,
      -4,
      1.9067065683239384,
      -1.2760481122525555,
      -5.294168280120171,
      -4.051460539359202,
      -1.4923861607634334,
      -7.344415883409585,
      -7.001732673799852,
      -6.459194609316666,
      0.4164052146762516,
      -3.749367655766135,
      0.2997469311164627,
      -1.3999412311497215,
      -2.8542503359162374,
      2.7644651682439343,
      3.511383280794799,
      -3.306489532959649,
      -1.2391697016135836,
      2.3270994002273655,
      -1.7128802804309404,
      0.0714014035487699,
      1.0506136478026382,
      -0.9846442065989056,
      -4,
      -3,
      -1,
      -4,
      4,
      2,
      -0.9985135355713906,
      -3.8243633371676453,
      0.11055906558177427,
      -5.267235685516346,
      -5.416412897568564,
      -2.224798103381805,
      -0.4475297065588812,
      1.5619648298347275,
      -3.3792896076291568,
      0.2506273494974283,
      1.0134426043243487,
      -1.9109209525152726,
      2.7034451338019116,
      -4.459541079579052,
      2.6788375204189823,
      -0.3681536945442948,
      0.793289864216691,
      3.2630629616243048,
      -1.6748326745354922,
      -2.853120482936566,
      4.03926290459228,
      3.0134757755110093,
      -3,
      -3,
      3,
      -4,
      -2,
      1.033136064593088,
      -0.7544245427399189,
      0.47953329967454134,
      0.39310689400741033,
      0.3440977555539282,
      -4.768150122218791,
      0.6904047091631169,
      -2.3046256872739614,
      -3.799023933951858,
      3.0919854255585784,
      2.9639922737056024,
      -2.434803313252175,
      -3.0949364595022013,
      1.9797071263924226,
      2.126268409187814,
      -3.7709033965594125,
      -3.7524440469669296,
      -1.3616096007189697,
      -3.828559366850761,
      -1.6695656066288804,
      -1.7712844008642699,
      0.06745260906951712,
      -1.9754519930208927,
      -1,
      -3,
      2,
      0,
      2.9738554856080692,
      -0.9001766438066193,
      4.456791804779208,
      -1.9974739383686213,
      2.349156543829014,
      -0.3229820704200304,
      1.0516937180313979,
      1.6260797617951959,
      2.513775411089967,
      -2.6606483006002444,
      -2.0976778303144026,
      -2.6082944655551676,
      -1.8441240304184685,
      -0.17846347345254135,
      1.4220179270534135,
      -0.5889462408026466,
      -0.8071567639135174,
      0.9288879140989846,
      -2.1200356755258816,
      -3.3269499533989118,
      1.4844260137187706,
      0.231733978798781,
      2.1217282893963882,
      3.0391772186631227,
      3,
      -1,
      -2,
      1,
      1.0009534733701104,
      3.0425846601758386,
      -3.401452711116175,
      -1.7713401297372824,
      -1.7165018724909433,
      4.551979026666412,
      -2.328866682390222,
      0.16041768273210358,
      0.11830181149944115,
      2.6556928439155842,
      3.530521872871643,
      -0.9028458109084722,
      3.2631475072156393,
      4.1435846239251495,
      -3.077862879290363,
      -4.215749124909851,
      -0.26902065895413724,
      -5.829555428062223,
      -0.7973898322400839,
      -3.313791468707111,
      0.2751921273520173,
      2.213770543623504,
      2.1075957899119317,
      -1.9318460965075324,
      -1,
      1,
      1,
      3,
      -3.039647884024241,
      4.010776177149707,
      4.165166873465223,
      2.3537767050990217,
      1.3343781966978165,
      2.006335195434664,
      -2.1532749135313516,
      -1.4177937714671502,
      3.5692443994664695,
      1.6469926535655466,
      0.2601943931196,
      2.8147635838063847,
      2.831901709814315,
      2.460279114244851,
      -4.330809821011886,
      -4.474494798160633,
      -2.121892964518757,
      -3.352498242873635,
      -4.553032198303741,
      -2.672379557618923,
      -4.372941619524811,
      4.066336215034799,
      1.0617817893293349,
      3.04126950964015,
      -1,
      3,
      -2,
      -2,
      -1.0816052549696067,
      -0.3146394595255059,
      1.614762421334627,
      -1.3687348029541684,
      2.6690179954921707,
      -3.511409114648127,
      -2.8386930638075407,
      -3.3198285162583288,
      -1.2928279756737509,
      3.2032099252724415,
      4.9793961200582215,
      1.4311729810748264,
      0.9324535435468936,
      2.049668043073339,
      0.5819845781681418,
      -2.84162687933271,
      0.8634775061546895,
      -2.705985896245487,
      -2.366705635720975,
      -4.0930494307681515,
      0.42664778446646967,
      0.8341867279203408,
      -2.9691107250849877,
      3.008275857495801,
      0,
      1,
      -2,
      4,
      1.8634996037340308,
      -1.418782005224605,
      -2.5374183396959515,
      -2.830047418231622,
      0.8210114047037714,
      -3.8675168470097474,
      -3.6838429383953737,
      -1.5699724480693906,
      -4.385242324908911,
      2.702895825422678,
      0.8363296259077346,
      0.5882158079307305,
      -0.9783004888403382,
      1.3132029470589615,
      -3.000694917745562,
      -4.613374984275615,
      -5.51051756427035,
      -1.5372270153869554,
      0.012425608413529703,
      -3.735890413777253,
      0.41962896473557687,
      1.7292536837109465,
      1.9966765004310951,
      -2.979539984308304,
      -1,
      1,
      -3,
      -3,
      -1.1725006405250284,
      0.585877715052275,
      -0.13331312554519048,
      -2.4813145750251224,
      -3.91428169566046,
      0.08011490385244327,
      1.132714956795287,
      2.554541156773443,
      -4.41812597580875,
      -2.2270232248400212,
      -2.5468377589350952,
      0.5939908796712265,
      -2.210765734269392,
      2.9703384396862766,
      -3.2357431761885813,
      1.5246128454205299,
      -5.302790142956328,
      -3.2632692028776176,
      0.913552511456431,
      0.7981667744345505,
      -4.815333811915571,
      -3.2199612053922566,
      2.988080664814881,
      0.07893058472800404,
      1,
      -3,
      -3,
      -4,
      -1.1619250964719245,
      -3.491670569521124,
      -5.11418205841792,
      -2.9906144703655486,
      -5.880105250392586,
      -3.7861611553646535,
      0.4979309379888101,
      -2.2622669046093917,
      -4.716732310012373,
      -4.8454157033742336,
      0.1229827239932666,
      0.8668311691913189,
      -2.837014561285524,
      -0.5240112299666205,
      -3.267705530401917,
      1.0976561780609175,
      -5.5393324569614215,
      0.09460381822634453,
      -3.3732966328316962,
      0.5651624650833068,
      -3.826719016502173,
      -3.3534409142794677,
      -0.9680782515015472,
      -0.9337189823413515,
      -3,
      0,
      -1,
      1,
      -3.118146426747457,
      2.6149754383737975,
      -2.109876916102569,
      -0.11627311111728716,
      -3.3211847616881345,
      0.018190256924943977,
      -5.6053221802829425,
      -6.303248103791594,
      -2.917053064221228,
      -0.5501475553121632,
      -0.5643285577573429,
      -4.261063394086921,
      -6.765611501985901,
      0.7578643761834216,
      -1.9763357089234914,
      -1.4207650022046003,
      -5.876174184732072,
      -1.5930766611006846,
      0.17919397274954196,
      -5.102853600582562,
      -2.891324634489135,
      -2.4735047197342936,
      -2.1136926478994247,
      2.064712576368996,
      3,
      2,
      -2,
      -1,
      -2.074852568550924,
      0.6477565855877786,
      -5.005212904953286,
      -2.2798591635503858,
      -1.4603800280912358,
      -2.0453515535347426,
      -1.9490186438191819,
      -1.000640885561104,
      -2.263015222574386,
      -1.2665378465126464,
      -0.7220443524899786,
      -3.382782379261956,
      -7.384054969736903,
      -1.6969640255290617,
      -1.7444185501881189,
      -4.782296609419771,
      -2.317007376734972,
      -6.690205726247733,
      -1.5387015567953062,
      -2.5056903971221987,
      2.2776320829741747,
      -1.4283433729330928,
      -4.27481694888099,
      -3.0249226239106592,
      1,
      0,
      1,
      1,
      -2.023687520132671,
      1.8816982792416548,
      -0.8882891624687123,
      -2.1014777405411547,
      0.8041905576507293,
      -4.68321878931159,
      -2.720588299218163,
      -4.684919444330684,
      -6.1750656225684715,
      -2.8078784552393836,
      -6.348924620953196,
      -8.61757821925927,
      -6.687089497008772,
      -5.431420008906225,
      -5.921606545185398,
      -1.893871930749063,
      -0.5260847700830504,
      -4.778894960777019,
      -6.247619565709638,
      1.481734149225671,
      2.282923251361005,
      2.4669116045302064,
      -2.3292611647341452,
      0.8270091704595994,
      -2,
      2,
      -3,
      -3,
      -3.985069232899584,
      3.0099407428500706,
      -2.604584086005993,
      1.2752321788972407,
      -0.5165186759412331,
      -2.132430334132542,
      -1.1720424472120101,
      -1.3451034109953635,
      -1.6277165763776535,
      -5.618228041907247,
      -5.070332040805759,
      -0.7698984149557739,
      -2.970578188918335,
      0.6330486542227137,
      -2.7972932804978887,
      -5.075451123245449,
      -0.13997522714461857,
      -5.570151079603813,
      -3.7757300988230265,
      -4.4180306652417265,
      -2.0793076949741605,
      -2.580486128542755,
      3.6677703253935516,
      0.8079558510667016,
      -2,
      -1,
      -2,
      -2,
      -3.9884528451856807,
      -2.040985007986151,
      0.5443927350547416,
      0.7828272929460075,
      0.02741547972513535,
      -2.3931349682212195,
      -3.489317110154551,
      -5.6474743209048395,
      -4.921929937540568,
      0.1499133677371241,
      -2.583681451025191,
      -6.19614189023285,
      -4.481567052106525,
      -0.7444810748959237,
      1.5379739050117112,
      0.09558013734772533,
      -2.684669731290882,
      -4.719954672299421,
      1.9834980610871673,
      -0.005312553263400749,
      1.1856770019927156,
      1.4216536673145703,
      0.5837393207941152,
      -0.15707574379954245,
      -1,
      0,
      -2,
      -4,
      -0.9961549339559486,
      -0.04117729022403159,
      0.7139511453607474,
      -3.7416715305741715,
      0.6683870602790815,
      2.320367838401215,
      0.3850555036255129,
      -4.885709682542367,
      0.7050715945011743,
      -3.0808574844027286,
      -1.1878364489042916,
      -0.6825746256811083,
      -2.3271056614351,
      2.561021058724549,
      -3.0457126091625306,
      -3.2985372914241187,
      -4.189217787810218,
      3.777599534456327,
      -2.4751315326652987,
      3.383394185936167,
      1.5418211438511265,
      -0.42984939509874703,
      0.6996171187921307,
      -0.14419019970060398,
      4,
      3,
      -1,
      3,
      -2.0005006427980447,
      -2.024703524731581,
      2.85504394767124,
      2.6212010368502154,
      -1.630812358761539,
      -4.900585489922965,
      2.1724626587063707,
      0.022889483838673362,
      -1.26548131795072,
      -4.06055234492106,
      -1.1383503542693776,
      -4.37063257873081,
      -4.080506281622177,
      2.037721187282989,
      -0.7583331309178141,
      -2.3994213021391704,
      2.718642908754603,
      -1.236492639394327,
      -1.1515836572866205,
      -0.09210074835400466,
      -1.228200768518551,
      -3.2313885246358534,
      -1.0526770945842026,
      -3.091776604241001,
      2,
      3,
      -2,
      3,
      -2,
      -3.0110141415569838,
      3.910666641411237,
      2.8422936427716077,
      -3.3238658237684375,
      3.504633250350084,
      -3.521539652333031,
      1.4067180846349658,
      1.451110923190811,
      -1.497188934689683,
      0.56117748684047,
      1.5693767773544476,
      -4.334395432541775,
      -0.5194066481261795,
      -0.5339622922759389,
      1.6066533907369658,
      3.7239106952366567,
      0.7550611403561731,
      -1.127498955644769,
      -1.123616672811024,
      -3.044391459630396,
      -2.107365145258669,
      -0.04665758491572667,
      -1.0354725354879808,
      -2,
      4,
      3,
      -3,
      -1,
      0,
      1.995614115532499,
      1.958850876077889,
      0.9181836036426956,
      2.8082006711806264,
      -3.2507423877319495,
      -3.2435528115359356,
      -2.3297168076000143,
      -0.3059448591009093,
      2.7465578257558976,
      -4.232824261744278,
      1.77754640665657,
      1.7271189441990438,
      1.716349336083225,
      -4.221302043616638,
      -2.2468584207328446,
      2.7894659619588587,
      -3.1468102817389285,
      -1.1161823333789418,
      1.8545660844119547,
      1.964519868753547,
      2.9687264638210884,
      -4.027115462480184
    ],
    [
      4,
      1,
      -1,
      2,
      -2,
      2,
      3,
      -4,
      2,
      -1,
      4,
      -2,
      3,
      1,
      0,
      -2.997373189783997,
      -1.9400843452454961,
      2.087102385388135,
      1.054929589879048,
      -2.929843195032954,
      -0.972165350239114,
      4.010547396013373,
      0,
      -2,
      -1,
      0,
      0,
      -4,
      4,
      4,
      -4,
      -2,
      -1,
      -3,
      1,
      3,
      1,
      2,
      -3.000137155606369,
      0.0018830716736938386,
      1.0190912174062814,
      3.0405547883642527,
      1.1113556738033017,
      0.25367717346045404,
      -1.653359794750511,
      2.344022938021389,
      0.2902112097398539,
      -3.785571647031523,
      2.1543828701425976,
      2.0525464853910806,
      0.02487260036983535,
      2,
      3,
      2,
      2,
      -2,
      4,
      2,
      2,
      -3,
      0,
      2,
      2,
      1,
      1,
      -2.000431680827144,
      1.0283718358509308,
      2.0611254428043413,
      3.2331779789827513,
      4.443902228406956,
      3.7213209786874044,
      3.9033748398912143,
      -1.764456056979447,
      0.3646596822791587,
      3.1878861872731368,
      3.9534185030471662,
      3.7108166524069266,
      1.4315779439891136,
      2.1769108776764914,
      3.0581774637254493,
      -3.9919390905079033,
      2,
      -3,
      4,
      0,
      1,
      -3,
      -4,
      1,
      -2,
      -3,
      3,
      2.999525465981804,
      4.0485973058761555,
      3.1398511720046516,
      4.406597909213012,
      0.864477026238342,
      -1.548255998030067,
      1.6451937643311356,
      -0.1863207838718446,
      -2.0102414899468446,
      0.2784484443884243,
      -0.002047943341556495,
      0.7736253680269332,
      3.392209519782569,
      3.0603389152882294,
      2.6275724564762086,
      -0.7751268017439157,
      4.026456058518751,
      -3.9958057056301284,
      1,
      1,
      0,
      -3,
      2,
      2,
      4,
      1,
      1,
      -3.999937125317852,
      1.054545451291827,
      -0.8202104887833508,
      1.6236920627222826,
      3.2359365561924616,
      3.9563015599923896,
      2.495777726029267,
      3.222088654223756,
      3.315579699923573,
      1.6049959018698745,
      -2.313919635228759,
      0.6954357727229765,
      3.5022363046871883,
      0.32164314339762917,
      4.330797422112023,
      0.8687039518282091,
      -1.7688230948919916,
      -1.9402276327978758,
      -2,
      4,
      3,
      0,
      -1,
      1,
      -2,
      4,
      3,
      -3,
      4.020321301605487,
      2.104047728532219,
      -1.6057171688495224,
      4.869294263219877,
      2.383559603490054,
      -2.358724875193939,
      0.15932303110925958,
      1.4541475139884226,
      -2.445003740389109,
      -0.9771884776723111,
      0.023860820078151348,
      1.2642478328915048,
      -1.396218894415307,
      5.450262628398226,
      3.322817602951518,
      -0.046018136058714534,
      -2.7491021171391994,
      -3.9987066087675496,
      4.001959508658889,
      1,
      1,
      0,
      -4,
      -3,
      2,
      -1,
      2,
      -1.9962810104530746,
      3.049058042116676,
      -1.8656489663096416,
      -1.7648185159457677,
      -2.265390093081872,
      0.9098594230165449,
      -1.2109364113793775,
      -2.700747354917157,
      3.503168744079284,
      -1.312241417016731,
      5.231156416246282,
      -0.9505691596068453,
      1.4419766755198073,
      3.513299536186437,
      5.439791353901115,
      -0.15642806901654252,
      -2.9060463815432542,
      -1.62068405776409,
      3.9607697096962733,
      -3.028903756698568,
      -2,
      2,
      0,
      0,
      1,
      -2,
      -3,
      2,
      -3.9926175503944146,
      0.07624238363904301,
      1.1222212728655199,
      -3.0347126825260853,
      -2.4402604250752176,
      1.503920384942172,
      -1.3196830609237262,
      1.2144348365779039,
      -1.9823034951833398,
      -1.6915912262697221,
      0.9677498467414126,
      4.295864783080552,
      4.861775145511216,
      1.673789542426775,
      3.208496432009517,
      -0.6738219719012978,
      5.001638788848153,
      -2.6625808375056326,
      -2.003050718795519,
      -1.0321522292018115,
      2,
      2,
      3,
      -1,
      -1,
      0,
      0,
      -2,
      1.9982433022511223,
      0.11198726381311379,
      2.9316441762114187,
      3.3996922353629007,
      2.5450074987111875,
      -1.097547120359904,
      2.758803519647174,
      2.9969644391019297,
      -1.1560264497358637,
      4.637046655368655,
      -0.2599484169960702,
      1.9643816959699851,
      3.347966942465292,
      4.416480481222287,
      0.26746928386815555,
      5.63994213264987,
      2.225320771392306,
      1.5946233538267445,
      -2.8498598725568756,
      4.02983911743568,
      1.0084769043060906,
      2.0003972654749753,
      -2,
      3,
      3,
      -4,
      -4,
      -2,
      -1.9832312373192635,
      0.2811529419163882,
      -2.6060167820255984,
      -1.4064495789631573,
      -1.8568182267727307,
      0.0769609468154297,
      -3.216269594862535,
      1.0479922787270939,
      -1.2515046570846373,
      1.1689717473725576,
      4.049929404636589,
      1.7474154337713488,
      8.88101042942097,
      3.791175116320816,
      6.278231524959938,
      0.32552118576513756,
      3.2683199550830677,
      2.733260095942334,
      2.0960148795988545,
      3.0179503135617023,
      -2.9750760051585075,
      3.001739472765046,
      3,
      0,
      -2,
      3,
      -3,
      3,
      1.150587407502757,
      4.519916917908269,
      4.9080009123072,
      -0.03947920837618117,
      3.958922082779013,
      0.43349920401419056,
      3.2321881430390533,
      -0.06600725468048718,
      3.298794005250666,
      4.236799031333568,
      0.31371197081923013,
      3.1387001959141942,
      5.203912048521645,
      8.768676461267027,
      6.94826416833183,
      0.416483186689244,
      -2.7303613736302905,
      1.651784893254117,
      0.10748906291161173,
      -3.957650009888321,
      2.0282895997417683,
      0.002106378287839779,
      2,
      3,
      3,
      2,
      2,
      1.0201628241849023,
      4.330273457253844,
      2.938237311188414,
      -0.3732079044442209,
      2.066429320527749,
      -0.34396095656479386,
      0.1397990428622785,
      -1.6004486453464497,
      0.181323644032418,
      1.0222954593613793,
      -1.0119882463793977,
      4.721990903071878,
      0.49502219084166854,
      6.126700019699808,
      4.54196414426075,
      0.7151552697003423,
      5.693159895448425,
      5.462118438534158,
      -0.300853527112716,
      -3.8974842575280704,
      4.044665142176688,
      0.03367893148136265,
      0.0038339631177635343,
      -2,
      3,
      -3,
      4,
      -3.018528374840459,
      -2.908328776205931,
      -1.5783669286577677,
      -1.747663679952906,
      3.347071702640184,
      1.9313529085344139,
      6.280411473313018,
      3.7554664070936736,
      3.807429777499884,
      -1.2282821341445445,
      2.8570366443369175,
      3.859210111467976,
      5.7731528873836915,
      5.048208353253774,
      8.792775436226199,
      3.4397944306988384,
      5.829187570997739,
      5.650522364756201,
      3.9029067553084222,
      -1.7531041996491097,
      -1.7473185826305606,
      -0.9642412100183911,
      0.07425277057675529,
      -3.9702692389201806,
      3,
      2,
      0,
      -2,
      1.9966506082584219,
      2.0416116526992183,
      3.3616239364670024,
      1.2652305762644198,
      2.978622486681603,
      -1.5682094490752938,
      3.5101306002596124,
      1.2254830070839615,
      6.270816708262661,
      0.442592033730917,
      1.310155587570507,
      1.9720755739175826,
      3.784305787194047,
      3.2818477883346926,
      0.686660200003667,
      -0.6882124654411542,
      -1.401750023709203,
      -3.1916435114486466,
      2.0384514400534175,
      -0.9379308352788908,
      -1.7775316443222235,
      2.041260384103507,
      1.0934364727407575,
      -2.9411816107231115,
      0,
      0,
      -1,
      3,
      -3.039577811052572,
      -2.9787968175780417,
      1.0854806272033908,
      2.3983328131637953,
      1.0328593437505025,
      3.6017933990380695,
      1.4334938063340963,
      0.3345587170584971,
      4.62539424033328,
      4.542792951121226,
      4.4404662377674775,
      2.8935474036240643,
      -0.3365562697732613,
      2.2097320545142143,
      5.418873370592769,
      -0.6427270028191067,
      0.39385050375854147,
      -3.154268484745818,
      2.9316129751911597,
      -0.15219373098919456,
      -2.336181427978953,
      2.800691353858513,
      1.9706301531683554,
      -1.9923892175943596,
      3,
      0,
      2,
      3,
      2.9195374458952,
      0.5826223958734063,
      -0.5594389354617978,
      -0.1236517242073341,
      -2.4630055479458886,
      2.5875886252447318,
      1.9666084963116435,
      -1.688725092899107,
      0.08247636850213871,
      -0.6082520693818274,
      0.33906318826355936,
      -0.9372819374017608,
      3.5440101506974786,
      -1.2087553064287817,
      -1.3696013305827832,
      5.321397663837262,
      3.5550427816993304,
      -1.109934298111358,
      -1.7261215645506527,
      -1.472933038860292,
      -0.439263865844154,
      -3.350028929578333,
      1.8935197350975979,
      -3.0098360013073524,
      2,
      2,
      0,
      -4,
      -4.1754048221298765,
      -0.49918334160574396,
      -1.6417231808330324,
      1.6088754601629722,
      -0.10127116182971263,
      0.6554999387935863,
      1.3827817801830458,
      0.6249525781800831,
      1.9641097763623798,
      -0.12222472571316695,
      -2.860995745101137,
      -1.3027513278651996,
      0.8043665985980266,
      0.7656553200917213,
      -1.1262373817241267,
      -2.014005902766197,
      0.25352271822306827,
      -1.8269800749488427,
      1.5435882221432542,
      -5.288227477577483,
      1.3673274407522749,
      1.5223867962832112,
      0.8100966274730135,
      2.9979191574179027,
      0,
      1,
      3,
      -1,
      1.798459521021392,
      3.4081522854050217,
      0.955158494520806,
      -2.040649568862269,
      -4.652114880494741,
      -3.978989902629394,
      -4.814957071691297,
      -4.789008167662253,
      -1.709430102092483,
      0.6925867584588946,
      2.381504401994197,
      -0.251017372203762,
      -5.233360319365398,
      -2.6290464090868513,
      -0.8345672977085484,
      0.39169891896008296,
      -2.2522488639238563,
      0.8471696621322782,
      -1.9167244331774493,
      -4.707976668218808,
      -2.1738356714216853,
      1.4700701797826934,
      3.7423349159615955,
      -2.0019181589928507,
      3,
      1,
      -1,
      2,
      -2.2236695238799316,
      3.289066402183647,
      -1.19199183531001,
      -1.5680825447094247,
      -1.5766884963791232,
      -3.9282196540916114,
      1.511377409595405,
      -3.1965210769432217,
      -1.5653180880514812,
      -2.407071298768361,
      -2.7143018152937906,
      1.0202868054306193,
      -2.639190164499864,
      -5.567060020619545,
      -0.9332954949569393,
      -3.395020025623166,
      -2.288584941529754,
      -0.41150359648072043,
      -0.6525898945821996,
      -1.145662772956043,
      1.6945703942957533,
      1.2964972683929203,
      -3.1684797166617713,
      3.03332672590428,
      1,
      -3,
      2,
      -3,
      0.7821194018858846,
      1.2255734540225478,
      -3.2992929420548323,
      1.3889284339469885,
      -1.096749689006111,
      -1.7267043525761232,
      -0.9710421358272187,
      -4.877213508499619,
      -1.1415564241285352,
      -5.89775093726275,
      -1.200807698506023,
      -5.608249912935908,
      -0.9610854946233301,
      -0.8595094977956346,
      2.197254044784263,
      -3.914921854188981,
      -1.110971704286867,
      0.08585634466518906,
      -2.1771303572340237,
      -2.831491124320869,
      1.7808136412985527,
      -2.7887102676216213,
      1.8066847535141735,
      2.059886391465012,
      0,
      -1,
      -1,
      0,
      -2.1417849543200913,
      3.225459402899206,
      0.761301157365878,
      -1.6534549602274295,
      -4.238311120379426,
      -1.8524604109037164,
      -1.9988449053272457,
      -4.025708553494319,
      0.08100727255899508,
      -4.872865279829822,
      0.8750146402863602,
      -4.319871865545967,
      -0.6412628038578579,
      -0.9131446910246425,
      -2.3243981297544494,
      -0.6557088289100756,
      0.6633138141304359,
      2.4808840517603743,
      -0.8333968260887833,
      -4.062517411404967,
      0.3282700947716326,
      0.4232606597852758,
      -1.3423400927321918,
      -2.0647896726907797,
      3,
      1,
      3,
      -4,
      -0.10614951390732962,
      -3.572301866968317,
      -2.9561107748818256,
      0.7305061675813653,
      0.9017783493306305,
      0.392624157735059,
      0.19335062862325245,
      -4.616564177088866,
      -1.5828610689091756,
      -1.325231183240938,
      1.3553319615881532,
      1.5414930968345002,
      0.6143688908504139,
      -5.488660945725511,
      1.555030378307476,
      -0.5432931500079154,
      -0.6853377200586489,
      -0.9350486726315969,
      -2.7870632643779314,
      1.681206289253067,
      -3.7234578644619756,
      3.389226002876054,
      0.6883666450031461,
      -0.19312256823527946,
      1,
      -2,
      0,
      0,
      -0.06557927423490184,
      -3.2337271381096406,
      -1.4561270238145354,
      -0.8778155199159581,
      -4.5555108552205095,
      -4.069164266097558,
      0.21219466304505083,
      -0.593406647754101,
      2.373595081887647,
      -1.2812293329648738,
      -1.0727151472945176,
      -1.6009103203435477,
      0.35139115815362804,
      -4.757586918673232,
      -3.3292469675647087,
      3.3506270110623597,
      1.8767482427358255,
      -0.278837356460708,
      1.5095044413734642,
      -0.4822148005787678,
      2.8342665362113384,
      1.3405226125956482,
      1.7368164337703578,
      1.8214765339452366,
      -4,
      -3,
      3,
      4,
      0.9834228543165491,
      2.982398921214089,
      3.8525773037273203,
      -0.45517227209423705,
      -0.8260713267400839,
      1.1141755693600588,
      -1.848003854943062,
      -1.705249891188441,
      -1.7670949273535168,
      2.5480416379650737,
      -1.243272758422661,
      -1.948636254250952,
      2.0150426932771444,
      2.675097085343775,
      -0.9872756042024399,
      -3.7413288109266287,
      -1.2484042223932048,
      -1.768584767190856,
      0.8284911795480046,
      -3.1990705222541918,
      -2.9957874135096456,
      -3.6795367556292913,
      -3.4048680347383464,
      0.8459210487889459,
      1,
      -4,
      1,
      -4,
      -3.0002465597821697,
      -0.9268075224628853,
      -3.9401006328928867,
      2.868003585646618,
      2.5730712337160737,
      0.528315262432554,
      2.6213924568716114,
      -0.22540738950899336,
      2.899722035796863,
      0.046946276912784024,
      0.7911726516689362,
      3.399527416903067,
      -0.7775278647598404,
      1.8462724452788897,
      -3.780456560676797,
      1.2889202411551732,
      -1.842984792447722,
      0.8262672714036713,
      -1.5549125622215776,
      -3.7464010089539648,
      -0.5898593364340263,
      3.544487804658135,
      -1.3463543256923494,
      0.8693202221692068,
      -3,
      1,
      1,
      -1,
      -0.9990268363879022,
      2.0489700621330575,
      -2.9207687371803117,
      -1.9479792408607612,
      -4.060368108484593,
      -1.0690218620269434,
      -0.9504418145633499,
      4.123176852796967,
      -0.9021809793675942,
      1.3464338818599464,
      0.3016835546736304,
      4.358115352773717,
      1.449090644390369,
      2.006283143003956,
      2.8296805515070886,
      0.7053960136617917,
      1.8924341491031573,
      -3.1794345258690915,
      3.9009389754312074,
      -0.13291621039552148,
      -0.3373071448870586,
      -1.2644852256119317,
      -2.058167354672988,
      0.911281231501947,
      0,
      2,
      2,
      3,
      1,
      -0.9785904005338504,
      -0.936559479868844,
      -0.9445909571727993,
      2.0598749622110675,
      1.1562001520419583,
      2.1977795234397495,
      2.1904650570056066,
      4.204289350323849,
      -2.7364819979765174,
      3.2948469756707452,
      -2.6389728288816494,
      -3.5584079278565692,
      3.1446232897243207,
      0.8343227172787036,
      -1.2867884619163892,
      0.7215884628973788,
      -0.26176868936566394,
      -2.05947429974761,
      -1.0899862236963629,
      2.900234917666212,
      -4.1419471861624615,
      -0.04363426449983465,
      2.9618624518758057,
      -3,
      1,
      2,
      -2,
      -2,
      0,
      4.002108111744231,
      -1.9787496748019102,
      3.0250104538722673,
      -0.9570759754231781,
      3.060548411390278,
      4.061357776303889,
      0.07368723531571442,
      -2.908020030996327,
      3.1053784574693406,
      2.0865471528868924,
      3.093852597628585,
      3.0158370502802696,
      -3.028875041259441,
      -4.138355067776557,
      -4.267474234278575,
      2.807433092136469,
      -2.097279728863317,
      -3.072862337639015,
      -1.132315160756327,
      0.9361350921635867,
      -3.0584822668331184,
      -2.0254090002827962
    ],
    [
      -1,
      -2,
      -2,
      -1,
      0,
      -2,
      -2,
      2,
      -4,
      2,
      -1,
      -1,
      2,
      4,
      -3,
      1.995973637599442,
      -2.0518642461973626,
      0.8885499470188796,
      -3.0783845380194825,
      0.9081301081728604,
      -0.04122006519850502,
      -3.015739747770061,
      3,
      -2,
      -3,
      0,
      1,
      -3,
      -3,
      4,
      4,
      2,
      -4,
      3,
      -2,
      -2,
      2,
      -1,
      0.005011222156017974,
      2.035637955812655,
      3.1237933137661376,
      3.2486312482720763,
      0.43068160242413855,
      1.4676025853945858,
      0.3402986594373821,
      -0.8065455924478042,
      3.0030766629236227,
      1.8968323018121696,
      1.821278755353842,
      -2.0756603085109515,
      -2.0330936816482925,
      -3,
      -1,
      3,
      -3,
      0,
      -3,
      3,
      3,
      -3,
      -1,
      2,
      -2,
      0,
      0,
      -2.9852616214781755,
      -2.876303475692391,
      1.3201650536575888,
      2.0227055026083307,
      -2.562121463970777,
      0.5276025465336516,
      1.256606041559165,
      -0.22413984506207607,
      1.2253037889760328,
      1.883753484270394,
      -4.42839351309979,
      -4.316524171714707,
      1.8211636696476465,
      -3.1276673551174565,
      -0.006621718713715624,
      -2.999553157989244,
      -1,
      1,
      -3,
      4,
      3,
      -4,
      -4,
      -1,
      4,
      3,
      -4,
      -3.9838682115758144,
      3.160508152042235,
      0.5236152080315102,
      0.6528783607981803,
      -1.8713122231735198,
      3.1977542487231676,
      2.37773197962658,
      -0.5514530458811708,
      -1.0219685908424503,
      -1.504693884189357,
      -2.975271106701175,
      -0.9799521576212158,
      -3.6157840612560492,
      0.6691792802095591,
      -0.07087128676463678,
      3.001653579829041,
      -2.998770726320064,
      0.0002325031600681636,
      0,
      3,
      -3,
      3,
      1,
      2,
      -3,
      0,
      2,
      4.000040233599859,
      -1.8626534470316314,
      0.5574081148153808,
      -0.26979564840058656,
      2.6540179740386756,
      2.487968897241458,
      -1.607671141597032,
      0.7740704978490854,
      1.4240654658798972,
      -1.7832203051363624,
      0.9702098602865816,
      0.6324712880525007,
      0.9476970579462187,
      -0.3756997126168429,
      -1.6594864448113553,
      -1.1401551432096662,
      0.889832024626108,
      -3.996845826510186,
      4,
      -2,
      -3,
      1,
      4,
      3,
      4,
      0,
      3,
      -3,
      2.0414257624292134,
      -1.6416946311217004,
      2.4311259882143483,
      1.0892705499035127,
      3.9469129887141303,
      4.597774182423479,
      3.256685287109548,
      1.7159630114085054,
      -2.3568989467573846,
      -2.4818834994272914,
      -3.4917220153287354,
      -2.851482163148271,
      1.1255612681071532,
      -5.022045900051527,
      -2.8236646754260897,
      -0.14152658050955397,
      2.8497775573164756,
      -2.0752604793043763,
      -0.9995910070348397,
      0,
      2,
      -3,
      1,
      -1,
      -3,
      -1,
      -1,
      -0.9854990086134712,
      0.17220549728489384,
      2.9846533837800715,
      4.870364257220969,
      4.44330083553573,
      0.27196472436574437,
      0.9940419228875896,
      0.5818227651745393,
      -0.3023156601165758,
      2.5969134896981223,
      1.5048794082507835,
      -5.446955892257762,
      -1.4645076742139929,
      -6.021654470856447,
      -1.4754107481988126,
      -2.3122038580570283,
      3.575070753248302,
      1.8161792566226567,
      -3.092598189103353,
      -0.9989411748798833,
      3,
      1,
      -4,
      1,
      -1,
      2,
      3,
      -2,
      -1.9710228265373848,
      1.5649872022051563,
      -0.06822533467965743,
      2.665873333259354,
      5.142630127747761,
      0.5075192067214992,
      0.18926206743645674,
      -2.5618571721732386,
      -0.8826573382149058,
      -2.858040350557954,
      -0.03848231701666296,
      -3.1439215752465866,
      0.14512916603030493,
      -1.6583772117569773,
      -2.8423321643370376,
      -1.7604003543389457,
      2.0621023754069974,
      1.6368432010051308,
      -2.077674322886149,
      -2.0050706324827976,
      -2,
      -1,
      -4,
      -1,
      0,
      -1,
      -2,
      -3,
      -1.8933232397568471,
      3.7971869442676645,
      5.385946202600202,
      5.966853933187237,
      1.5476260878599828,
      0.6383310244812063,
      5.9951339539405275,
      -1.6292643725414864,
      -2.282135176870117,
      -2.589376588308762,
      1.2850901406734137,
      0.6213255776817698,
      -6.564194147244696,
      -8.173390796121465,
      -1.7844686878593037,
      -3.8800231901622926,
      0.8113634589684503,
      0.41408707992044186,
      -2.071134599750849,
      -3.056456303985106,
      -1.0051388409801252,
      -0.0012969104809427477,
      1,
      -3,
      -1,
      -4,
      -4,
      -2,
      -3.858618588025287,
      3.758765078909429,
      -0.692975086899938,
      5.206462169447494,
      3.591456852023453,
      1.4851391623797052,
      1.98926850822881,
      1.9318522760166115,
      -0.18290142284576635,
      -5.614252436411949,
      -0.44110106665101073,
      -2.7745100565839094,
      -2.5648462625730692,
      -8.459950645154626,
      -7.124713035219602,
      0.5095835770386485,
      -1.6084605779320493,
      -3.825951984351762,
      -3.1512552346178846,
      -1.064731070109652,
      2.98579203587118,
      1.9973800754356141,
      2,
      3,
      -3,
      4,
      -3,
      2,
      4.099023361165298,
      0.41092514279973097,
      -0.6739819937643842,
      0.5810786847435389,
      0.871640083040595,
      2.6755089384885067,
      -3.8129253025690564,
      -3.6291550924559917,
      -3.4744305205884927,
      -4.841934089148274,
      -5.55733518432814,
      -4.09881593041418,
      -2.7574925642602746,
      -3.9111987614259367,
      -0.6348300262311077,
      -2.1757343760646797,
      -4.09243697805567,
      0.8565568002948412,
      -2.291308971365092,
      -1.0767487760253347,
      0.966585786039048,
      -2.003275583863317,
      -3,
      -1,
      -3,
      3,
      1,
      -3.041105547622082,
      2.858990252243814,
      -1.2628565913171295,
      -0.2864774806652187,
      2.5679602962412362,
      -3.1671943146102945,
      -5.062525001137807,
      -0.3777107156738748,
      -1.241639158796633,
      2.8208946874073235,
      2.2018831852454124,
      -2.2944625413804505,
      0.9643961283509849,
      -7.4264203966228735,
      -6.0220088500633375,
      -1.7913417960896072,
      -1.6058425388582689,
      -5.641961554546037,
      -3.3763015924753708,
      -1.4362093584290572,
      -4.1385924433459955,
      -1.063538708385124,
      -3.0071206187688806,
      3,
      -3,
      2,
      3,
      -2.024855713050121,
      -4.138427271503384,
      1.5821944198155904,
      2.227748795191855,
      -5.646130590405629,
      0.8109620652336732,
      -4.20956713298532,
      0.01981904687945106,
      -4.854808100304107,
      -1.7380357184587785,
      1.380374484609507,
      0.8735744830534075,
      1.2646990294164597,
      2.310063032281172,
      0.11666990421958919,
      -1.1291035553915447,
      -7.157766732406914,
      -4.330501652743152,
      -6.16616366579246,
      0.4758155079312691,
      1.3878360578827889,
      -1.2196232173252388,
      2.8892753886527704,
      -2.0139033892081177,
      -4,
      -1,
      -2,
      3,
      2.9479644684914126,
      -0.18923863789529216,
      -4.475599871764036,
      -2.0143632439141204,
      -0.17611817359655885,
      -2.899587511688531,
      -2.909709293317518,
      -2.7733005460143265,
      -2.8458074348978366,
      -2.5044801881627996,
      -0.22126695969827886,
      -1.05567872575187,
      2.492621487249507,
      -1.50525161056084,
      -5.062614235336173,
      -4.902092080976368,
      -6.404847686062396,
      -4.162866226705723,
      -4.613505571242892,
      -3.775324500412583,
      1.058123420886825,
      -3.2890426942271125,
      2.871888023221003,
      -0.03246656988050593,
      4,
      -1,
      -2,
      -1,
      2.984416790621211,
      -2.1360148815652766,
      1.7152889253521695,
      0.05836362662817098,
      -2.9125278472067837,
      -3.0844827571533484,
      -2.070630264189996,
      -4.57417870225281,
      1.5927742591447354,
      -3.359464272636128,
      -2.036741701073848,
      -1.2368422738267497,
      -3.210190254117371,
      -2.985738345800089,
      -1.9280375599721746,
      -2.9517542004885096,
      -2.5838177964527733,
      -5.037557557317995,
      -3.533540651988479,
      -4.21634281580837,
      -0.040879623430266014,
      -2.361729595274806,
      1.914513094606069,
      0.9664885039661837,
      0,
      2,
      3,
      1,
      3.0150414190299633,
      -3.9793597439287773,
      -0.0842331095208461,
      0.18270083737361248,
      -0.6323759132166188,
      -5.0105022707733395,
      -3.993009094397177,
      0.6124857768890002,
      -1.493425562416586,
      -2.9947663392328123,
      0.9420439431212076,
      0.4379267476899987,
      -0.6034767435415613,
      -2.8865802785195345,
      0.18393620653340553,
      -0.6592847314108085,
      -1.4396018386778586,
      -6.481718648235758,
      -4.634126302690196,
      -3.4029899244252277,
      0.938001226689453,
      2.684136907755808,
      -2.101138818628235,
      2.9568119826494543,
      1,
      -1,
      4,
      -4,
      2.005735327507505,
      -3.8349000818184997,
      0.22653258680710286,
      3.710459459716378,
      -0.22599053237254332,
      -0.1725770264405045,
      -4.2086340142486725,
      -2.5703887276222805,
      -2.3116801916586147,
      -1.8957488453305236,
      -3.1220141088251596,
      -0.9510443719967041,
      -0.7724980993763575,
      -2.6194633809320083,
      -2.2783888769158023,
      -3.700481941194337,
      -8.462109661817193,
      -5.084783844188038,
      -3.4920298937956202,
      -4.552175417608316,
      -3.9327201171227837,
      0.7675777642508068,
      0.9059522747452964,
      -2.0392888333577828,
      -4,
      0,
      -2,
      -4,
      1.0312516139746724,
      -1.738632929039745,
      4.408145674524305,
      3.1462209521326145,
      -3.112217562282705,
      -2.0008500869977923,
      0.9554650346348511,
      -0.059378045595314274,
      2.90035274383655,
      0.650176848169998,
      -2.82033662079855,
      -1.8060192617961512,
      -2.204141758750728,
      -1.4358408257332114,
      0.6309744530175831,
      -2.836593702058079,
      -1.064170837547568,
      -4.5734879080655135,
      -0.446267562516827,
      -2.690122487721142,
      -3.89505758346185,
      -3.16945942372769,
      1.9714770328254172,
      3.9808604684809064,
      3,
      2,
      1,
      1,
      4.0680906565751505,
      -2.607647409980212,
      -1.419775316942559,
      0.15135175429751946,
      3.1155588598548323,
      -1.8615055683838333,
      0.23989095893591286,
      -2.4128102470798263,
      2.789251791380852,
      0.12236899582077934,
      -0.7782875931992022,
      -1.8050663879728084,
      0.9951260229865915,
      -5.475906084793434,
      -5.286689860042216,
      -6.498227292554252,
      -3.475652374263052,
      -4.504708282628474,
      -6.488814558483921,
      -1.4566457218188722,
      -3.8978296390504283,
      -3.0792521652868214,
      -2.9934311343382607,
      0.987000599194254,
      1,
      -3,
      2,
      4,
      -0.9516369026881124,
      3.3808986780624464,
      3.5949570355366034,
      2.919932796369196,
      -4.277861413605083,
      -3.027644122649528,
      -1.5966597835419463,
      1.7942723930193325,
      0.30972200932281213,
      -0.6998011936744241,
      2.3672974657172396,
      -3.844724667852086,
      -0.1653932119408054,
      -1.5098276371747474,
      -1.3473765289203743,
      -3.4890971321463793,
