{
  "input_neurons": [],
  "layer_one_neurons": [
    0,
    0,
    0,
    1,
    0.997,
    0,
    1,
    0.995,
    0,
    0,
    0.999,
    0.918,
    0.985,
    0.993,
    1,
    1
  ],
  "layer_two_neurons": [
    0.05,
    0.002,
    0.032,
    1,
    1,
    0,
    0.119,
    0.001,
    0.855,
    0.576,
    0.001,
    0.998,
    0.998,
    0.095,
    0.998,
    0.827
  ],
  "layer_one_weights": [
    [
      1.923242573718685,
      -2.0820907267432434,
      0.6146464791840713,
      0.6257221133356831,
      -3.203563621447143,
      1.8449343830055371,
      0.003589467223892701,
      -1.7145789320630282,
      1.167271157065431,
      -3.0225357800512884,
      -0.8236493354065877,
      -2.406484901933367,
      1.154470770097218,
      -2.3530878045346357,
      0.21381615219846903,
      -3.3836153539288585,
      -0.9953209269431041,
      3.0087154915028758,
      -0.990512998141777,
      -1.9889278457666146,
      0.007766363923945274,
      1.0027619665761098,
      -2,
      0,
      -2,
      2,
      2,
      -1,
      0,
      0,
      -3,
      0,
      -1,
      3,
      -2,
      2,
      1,
      -2,
      2.9998255941058964,
      1.9979215537747328,
      -0.009346977694923745,
      -1.0260038914896232,
      -0.04266915528828686,
      0.9498190137109581,
      -3.0421258955596158,
      0.9777399919938506,
      1.9943569527716754,
      0.9970868080109355,
      -1.0028421351005716,
      -1.001527152124703,
      -0.004230025740233725,
      1.9993449381957504,
      -2.0008314245977012,
      0,
      1,
      3,
      -2,
      -2,
      0,
      3,
      2,
      1,
      -2,
      0,
      0,
      -0.0005243788406452032,
      1.988989369338509,
      -1.046228442662108,
      -1.1034762988683422,
      -2.1788088249096007,
      2.773147238188411,
      0.7755409011341083,
      -1.1884366134010593,
      1.8392114365195955,
      -3.1370699400744693,
      -1.109813191311381,
      0.9298039335301787,
      -3.050718807527738,
      0.9688732100396257,
      -0.009969299104041787,
      0.9967902912313026,
      2,
      -1,
      0,
      -1,
      2,
      2,
      -1,
      -2,
      -1,
      -1,
      2,
      -0.0005966438958438561,
      -2.0215091880015166,
      2.9180886603313514,
      2.798407900136844,
      1.6747328572657858,
      -1.4198537058199252,
      -3.450746453817893,
      -3.45969750934075,
      -3.4889304616446974,
      1.5279527515888847,
      -0.4038268412218485,
      1.7273617694936851,
      0.7953693898641164,
      -2.1505766889576208,
      -1.0849077750786837,
      -2.0224330174382104,
      2.993275919415438,
      0,
      -2,
      2,
      2,
      1,
      -2,
      3,
      0,
      -1,
      1,
      3,
      -0.019963826143220603,
      -1.1012497499071665,
      1.7113832252935677,
      -1.4704781900930897,
      0.39435779115841096,
      -1.6994773635942138,
      0.25550429394931296,
      0.18071827018452413,
      -1.8728747213372798,
      0.2077787337295529,
      -3.653302205579935,
      -1.4762711223450098,
      0.6457683210348527,
      -1.2321193377603221,
      0.8790272056989328,
      -2.0318690900972496,
      0.9940043054923058,
      2.99982045263078,
      -2,
      3,
      0,
      -2,
      1,
      -1,
      2,
      1,
      -3,
      -0.008396110116259112,
      0.9137926967553169,
      -1.2632477007471923,
      -3.53954516108555,
      -1.7838838500457157,
      -0.930473506407333,
      -2.941880952340515,
      2.0380539710886105,
      2.0759626858416347,
      -1.0009450222799787,
      -3.94790915317652,
      -1.767996801168444,
      -0.5882754662048133,
      1.6007701292212326,
      -0.2655795104150692,
      -0.1319740120150193,
      0.9634032262815321,
      -2.0095162617923483,
      0.9999473160358622,
      1,
      2,
      1,
      2,
      2,
      3,
      0,
      -1,
      -2.0041763805334485,
      -3.0344745033208835,
      -2.17459224179137,
      -3.405753903457511,
      -0.7284513220029926,
      -2.9333078900200023,
      -0.9892004369545533,
      -1.8463639078441776,
      1.255881503746269,
      -0.7518380871295516,
      -1.9317786588540342,
      1.0555278886881936,
      -2.785341378971682,
      -1.7064520241610048,
      -2.498512200251939,
      1.7081965114683186,
      -2.138530799475416,
      1.960385233708847,
      2.992157721442213,
      2.9998402937297874,
      1,
      -1,
      1,
      0,
      2,
      2,
      -2,
      2,
      1.9904156969313205,
      1.9283385141429226,
      -1.236749945451716,
      -3.51185692390759,
      0.22879447806692582,
      1.0623539896767844,
      -3.99467450270711,
      1.0625938259950878,
      -0.9634953460538557,
      -1.0197726803755927,
      -4.162087105169855,
      -3.2537003503157718,
      -1.1511651232067224,
      -2.965474270374285,
      0.30968693539045183,
      -1.370365177930223,
      0.8105438879824732,
      1.9367720038930607,
      -0.0009172733614583547,
      1.0027121920144795,
      3.0000077114806296,
      3,
      0,
      0,
      3,
      -2,
      1,
      3,
      1.9851570872926902,
      -1.1016856117512963,
      -3.295631483453568,
      -0.5922924081177343,
      2.1762097072026014,
      -2.098704577662471,
      -1.2768412316830702,
      0.613107941675592,
      -0.5768820203673548,
      0.3147772034050686,
      0.31054812673033283,
      -2.7495314013276433,
      0.34639689415475544,
      -1.3789035174478372,
      -1.9763441046078567,
      -0.5523469420683801,
      0.7297313679130223,
      -0.08247562513609333,
      2.015767249835522,
      0.009172206515159228,
      2.0010543444581845,
      2.001142158374303,
      -3,
      -1,
      1,
      2,
      1,
      1,
      -0.028966347119935832,
      -1.1449541059753907,
      -1.2941503291454666,
      -1.5334392943660378,
      1.2814731463700513,
      -3.189263510717945,
      -0.49128313168809845,
      -0.47653476528594313,
      -3.600582093823252,
      -0.7382728606453787,
      -0.8626072979683378,
      -2.9618853601635,
      0.18220742773877252,
      -1.4823399878305663,
      -3.1264613735405624,
      -1.7322780871348098,
      0.6716416577914827,
      1.936066115533479,
      -2.97198177570694,
      1.0250365888278887,
      -1.987186549913299,
      -0.993357456712407,
      2,
      2,
      -1,
      -1,
      2,
      -0.9996572942023468,
      0.9652925526511762,
      2.9113596875487784,
      -1.1531411098428026,
      -2.332316647341261,
      -1.5590537145896612,
      -3.0182889612712827,
      -2.2280183802641855,
      -0.14235199731689305,
      0.9313273293290308,
      -1.335990865217893,
      -2.5506048614672343,
      -4.667199201229415,
      -2.7430857825361254,
      0.551674225997545,
      1.8433592045668965,
      2.171249272036582,
      1.6199920022229959,
      0.9336678891218718,
      -1.9569079329509678,
      2.03383477387912,
      1.0157943330114894,
      -1.9929685239895971,
      1,
      -1,
      -2,
      1,
      -2,
      -2.9971555949124933,
      2.0160759379404567,
      0.055403269563527556,
      1.0733249066058919,
      -0.08904607737011541,
      -0.46196310969402016,
      -1.7917464452751066,
      1.2290899029287157,
      -2.5674933461689005,
      -3.607697051785586,
      -1.7777751048677033,
      -0.9106035211889959,
      -1.1752856713765847,
      -2.4601700318667055,
      0.6650652975991003,
      -3.1292997397341265,
      -0.8102163138719468,
      -2.3932613380624725,
      -0.08567857675906848,
      -2.94905355327329,
      0.029930764259238383,
      2.0130970555987107,
      -2.994105791987506,
      -1,
      1,
      2,
      -1,
      1.0009644818845118,
      2.01606412871714,
      -2.9038935929359027,
      2.216715820019461,
      0.24920659286638341,
      2.0528003312343195,
      1.5925983989065904,
      -2.6135988674919126,
      1.5673571724238962,
      0.523356576659851,
      1.5218403655761434,
      -2.5145497527290748,
      -2.4669590966822863,
      -2.7458674293863305,
      -1.0913552954954875,
      -3.0522642288610147,
      -2.946543717882046,
      -2.7244797597428407,
      -2.386906828914082,
      -1.0727899130718552,
      -0.9439799603964516,
      -1.968886310359865,
      1.0197431691184422,
      1.0068192183759643,
      2,
      -3,
      -1,
      2,
      0.003940138396278334,
      -1.9676981133214073,
      -1.8221077636870557,
      -0.6455229291034549,
      2.3173078935177354,
      -2.899661164276101,
      -1.2781584176472238,
      -1.48300403284853,
      2.4988363309809247,
      0.31612058681943456,
      -0.7601331087039531,
      1.301948973465211,
      0.2943744645886047,
      2.216581306933387,
      -0.013200198014770992,
      2.0428260972293244,
      2.242051896566831,
      0.397327261745547,
      -0.3221050288945552,
      2.909569233586339,
      -0.958878045061987,
      -1.9685503945834946,
      1.0239818292161775,
      3.0062150816277433,
      2,
      3,
      -3,
      2,
      -1.9967502948937859,
      1.058744797733527,
      -2.7856304667381293,
      2.301212163359649,
      1.274516543176971,
      3.0378842417563527,
      1.731552073917027,
      1.4572912878610533,
      -2.689719630967957,
      2.1147786509811324,
      1.0219656610463728,
      0.9514608097099041,
      -2.18193966735833,
      -0.06226394531087153,
      -1.0689281451197525,
      -0.9007401379970587,
      -1.680479914050742,
      0.43362758445658656,
      -3.317848438062601,
      1.8916183152862427,
      1.0186085840352779,
      2.0455088524916705,
      -1.972245367658275,
      1.0065458844836006,
      2,
      -2,
      3,
      2,
      2.0019392682048576,
      1.064571133650112,
      0.17787820012310313,
      -0.797354969295344,
      1.1749002345781554,
      -0.02588162436914894,
      -1.4559953870096285,
      -0.7112047596449823,
      -3.893232713061026,
      -1.870748994688423,
      1.189390809493526,
      -0.9204858796929394,
      0.8024673243472683,
      -1.16192482004224,
      -2.0441330164120397,
      2.142823329616034,
      -1.6294974828711508,
      -2.5015170759879037,
      1.6967487441618447,
      -1.152205136024125,
      -0.015147788327293733,
      -1.9605569713108186,
      3.0286163559013746,
      -0.9931574162681004,
      2,
      -1,
      -1,
      1,
      0.0009002410162982247,
      3.0525491720714677,
      1.0878021002005687,
      1.0732514371853725,
      -0.9114496085179484,
      1.7802408833914372,
      -1.5476703647945746,
      -2.7646224645184687,
      -1.884914568258596,
      -1.7861827661976093,
      1.279215557061434,
      -0.9110469094538494,
      0.8436391880480338,
      -3.0275248429808617,
      -1.8544921966822787,
      1.2065656966158702,
      1.4465121701340633,
      -0.3780244288968622,
      2.75331134402384,
      1.8408256291854692,
      -2.034945005657156,
      -0.9783539062551768,
      0.02971118827647124,
      2.0107555831066164,
      -2,
      3,
      -3,
      -1,
      1.0040211551325422,
      1.022996536579775,
      -1.037863183678304,
      1.894762712554367,
      -0.19569415321509048,
      0.5376314711914928,
      2.306805079307833,
      -2.744292011523061,
      1.1553515168159714,
      -3.7718350810505914,
      2.2006804677257024,
      -0.04450751031539582,
      -3.29330570572831,
      1.013321751277829,
      1.2502849300692276,
      -3.7252074041133287,
      -2.573139694922591,
      -3.4196017525607605,
      0.7229157937862801,
      -1.1566458447970893,
      0.9645160967756072,
      0.027462856054879005,
      1.0354199758855591,
      1.0183354783670049,
      -1,
      -1,
      -2,
      2,
      2.0131628418562064,
      -2.000906878788067,
      -3.1030737338353127,
      -2.219565424777663,
      -0.3624944334247145,
      -3.597907063143689,
      1.2413364992988842,
      1.124813720667069,
      -2.933863928628784,
      -0.8840731506949479,
      1.0775830506471666,
      -1.2556150530301025,
      -3.3611175951869527,
      -0.18683069190748067,
      0.006248353174000675,
      -2.835842220042556,
      -0.7067366470246491,
      -0.6245792947200327,
      -2.429313402654128,
      -1.2044347101235466,
      -3.0594737079054997,
      2.0023020538280862,
      -1.9761804556052456,
      -2.980802571077638,
      2,
      2,
      0,
      1,
      0.0030722371751394826,
      -2.036404886719713,
      -1.1646424010731897,
      -0.2942108830568954,
      -2.3719105220612224,
      2.427058373439016,
      -0.7918556797567515,
      0.006561206895056304,
      -4.210212551902191,
      -2.3111895016562727,
      -4.331983201369912,
      -0.478488349904788,
      1.4405087760276118,
      -3.423830652343483,
      0.726137306699902,
      -2.9851987330976506,
      -1.8708275596955408,
      -1.7670289265146375,
      0.485250407860516,
      -2.2333285425705713,
      -2.0747719202301913,
      0.0003175774735194732,
      0.014113543543307582,
      2.0135616030370156,
      0,
      0,
      2,
      0,
      -0.005110186511573094,
      -2.0561674953549023,
      -0.16613710086344977,
      -0.32494972687379275,
      -0.4498450421500495,
      -1.6264220269767822,
      0.15437404830179757,
      -0.08785759957111167,
      -3.383472762740358,
      -0.6146495484189298,
      -4.600640177450109,
      1.4048847968430804,
      -4.644770966440892,
      -1.5093439711097807,
      -3.3077004075451018,
      0.8782859904257562,
      0.11685515753999179,
      0.2942576359044348,
      -3.444574104856004,
      0.7667863583834084,
      1.9009514405061265,
      -2.01629373601281,
      -0.9945494817725202,
      1.008429355781545,
      -2,
      -1,
      0,
      -1,
      1.9956052747917732,
      0.945496282163295,
      0.8663922680909651,
      -2.2559496424322285,
      2.5242006948316544,
      -3.738751449537279,
      0.0614009755841808,
      -0.12418460456848998,
      -0.3257395332294662,
      0.4553706264047634,
      -3.4967989764100555,
      -0.4850339938480704,
      -1.4890987197587227,
      -4.429495893921883,
      -3.2275978291553713,
      1.9852773052740014,
      -1.7726048481343826,
      0.43299821119201704,
      -1.3448809084176652,
      2.8305645310942698,
      1.9216952881658695,
      -1.0145363521291997,
      0.0004559853588476431,
      1.0044756103916022,
      -2,
      0,
      2,
      3,
      -3.0043806329158422,
      -2.0533438966066844,
      -3.11080047350448,
      -1.1875431757625785,
      0.6191876908841741,
      -1.6226718380004252,
      0.10810876539270653,
      -3.069333673094487,
      0.8177473823157729,
      -1.2862398327437652,
      0.7162072344460448,
      -4.289310953073355,
      -3.222476046603909,
      -2.194328778334156,
      -3.00534691340584,
      0.1615309482877777,
      -1.612752035814344,
      1.5981426878947882,
      -3.2436500761379556,
      -0.12406002468069237,
      -3.0630641350349976,
      -3.010695281017761,
      -1.0031225142072515,
      -1.9989765215545023,
      0,
      0,
      0,
      0,
      -1.0050250977078357,
      1.9666826990738189,
      1.9150604099632071,
      -2.1302845226647396,
      0.7610256170407215,
      0.5992866106155363,
      -2.608044541440873,
      -1.8131350519524663,
      2.085173002648494,
      1.0686829499578527,
      -1.9775734198592667,
      -1.0244197914588549,
      -1.0112041940800203,
      -1.9690813346477354,
      1.2246895483718954,
      -0.585059032729474,
      0.6133150991240327,
      -3.245700840083106,
      -2.1416277918790665,
      -1.0684003388965462,
      -0.04088409330837903,
      -3.0097069709737325,
      2.996110527980079,
      1.0001178378044702,
      0,
      2,
      1,
      -3,
      -0.0011836675159293928,
      -1.0137147755126208,
      -3.0474679143183145,
      -1.098778358813428,
      -2.1463845065130593,
      1.7832065442236402,
      0.668022593705428,
      -3.4952452690801077,
      2.398326279185383,
      -1.6092327868677558,
      -0.6104347836311724,
      -2.6796448460671303,
      1.2459810700734482,
      -1.729363625580731,
      1.4278157742126634,
      -3.372289860344166,
      -1.2470757795044456,
      -0.16350560149849483,
      1.9135940187724378,
      0.973253339170967,
      0.001353587490912162,
      -0.0051140665876983115,
      1.9979730510744225,
      1.998807314580663,
      3,
      1,
      -3,
      2,
      -0.00005144384732724733,
      -1.007671452364803,
      1.9694540865597858,
      2.9303091691199117,
      -3.096670236650729,
      2.8658512628274293,
      1.808888005714755,
      -0.2563467665983471,
      0.6905175838355796,
      0.6790941470332643,
      -1.3129675102667704,
      -3.3681851538537706,
      1.5600640684274294,
      0.5781731784066625,
      -1.3334786694842928,
      1.7661708823300581,
      2.8381457190368553,
      -1.1058714392345812,
      1.95533590450034,
      0.010843419798590277,
      1.0206601206739243,
      0.01226044704738515,
      -1.996913350148471,
      -2.998990113486388,
      0,
      -1,
      0,
      -1,
      -2,
      1,
      1.9927823584683662,
      1.9668448262906915,
      -0.06058146330513325,
      0.926297703834812,
      0.9136946499271671,
      -2.127279872571478,
      -3.1515627003041913,
      -0.14424672160800936,
      -3.1674060514639404,
      -1.1720393974714947,
      -1.20409103652309,
      0.812538669440742,
      -3.171209071218801,
      -3.129114395168166,
      1.9014209378891338,
      -1.0482685144434676,
      -1.0180948349271295,
      2.0107918626154877,
      -1.9886085692793798,
      -1.9883961652888853,
      -1.9950379320156633,
      -2.996456872441037,
      2,
      0,
      0,
      -1,
      1,
      -1,
      0.9991466930827919,
      0.9877257462333668,
      1.973990498383497,
      1.9610419033987425,
      -3.047464129499112,
      1.9384875725317243,
      1.9343321621196221,
      -1.0711062423064548,
      -2.065382221221749,
      1.9349626148356065,
      2.9343189374097096,
      -1.0468974721568998,
      2.9490835512067455,
      -0.041130497651070415,
      -1.034885919752714,
      -0.023808274625833785,
      1.9936459233553003,
      -0.9958554880465109,
      1.0104987440111561,
      3.0088673918626476,
      0.00752214387469087,
      -1.9965858743018396
    ],
    [
      -0.9976198505522057,
      -0.09124570896666866,
      -1.2812715043932295,
      -0.4922997499981156,
      0.8280417402641799,
      -0.07182392668022346,
      -2.343830972426646,
      2.424339662552601,
      -2.4909098135192846,
      2.9901912349171464,
      -2.1901802538552246,
      -1.0950657088531226,
      1.89580060934709,
      -0.008611767190276844,
      -0.14427365662016406,
      -1.4521886395480355,
      2.002537532718623,
      -0.0005929538612354891,
      1.9985711293707582,
      2.997708735876162,
      -3.0016690142732716,
      0.999765073058433,
      -2,
      3,
      -3,
      2,
      0,
      -3,
      0,
      -1,
      -2,
      -2,
      -1,
      3,
      3,
      -1,
      -1,
      0,
      1.000216385317027,
      -1.9968701739121442,
      -1.9882862330778475,
      -2.9690662935960974,
      -1.9459734931309873,
      1.069874838048476,
      -1.9251426641562213,
      -2.942174185094083,
      1.036955548293284,
      -0.9733646383273874,
      2.0150720623825538,
      -1.9961186706068468,
      -1.9985312245531621,
      -1.0002937021795313,
      -2.0003727758432515,
      1,
      0,
      -1,
      -1,
      3,
      0,
      2,
      0,
      2,
      -2,
      -2,
      -2,
      2.000658373033729,
      2.012757718302186,
      1.0450849893534533,
      2.1167026998306357,
      -2.809156344189637,
      2.238786574692901,
      1.2687122834750673,
      0.2891199956761313,
      -2.7542316715911257,
      0.16566548351277022,
      3.075622431520852,
      1.0134236867853066,
      0.9885313432022448,
      -0.011828048416433402,
      -3.009131340564996,
      -0.0014781494544274377,
      -3,
      1,
      2,
      1,
      0,
      1,
      2,
      -1,
      3,
      -1,
      2,
      0.0007367389333474989,
      2.012539705375724,
      2.04699179717083,
      1.1514445131336568,
      -0.708407893529043,
      -0.5941348653769315,
      0.5108928375387017,
      -2.482395435706636,
      -0.5489221127112931,
      -0.6678723398250124,
      2.2181340937995087,
      -1.8521685866553355,
      -0.9538617617510603,
      -1.0043821720372863,
      0.945341020863478,
      -1.035362199661223,
      1.9932415090206357,
      0,
      3,
      -1,
      0,
      1,
      -1,
      -1,
      2,
      2,
      -2,
      -3,
      3.0119959086266,
      2.0386842007235986,
      2.14957137878163,
      0.36361002543378595,
      1.6123641829757542,
      -1.2852691394332385,
      0.6037768246894201,
      2.368603279876133,
      0.26854100946024095,
      3.1106385768655813,
      -1.934525392179785,
      -0.8875406518009283,
      -0.9097917534720557,
      -1.9936798662094382,
      -0.06422123323395958,
      1.9501359918618268,
      -0.007090417076610504,
      0.9999146447173807,
      -1,
      -2,
      -2,
      -3,
      1,
      2,
      -2,
      0,
      2,
      2.0001697198619963,
      1.0364764974812166,
      2.122565925757477,
      -1.5870361165270923,
      1.7788749406170892,
      2.9909664169637953,
      2.7858910929110765,
      -1.6688794919239898,
      2.097604267097072,
      0.9465694860636491,
      -3.178200918234778,
      -1.0935780109381144,
      -2.9029543040161787,
      1.1153670117977876,
      -1.9799889241821749,
      1.915457756255683,
      1.9561264116983708,
      -1.0157550825763506,
      0.9999357539837224,
      -1,
      -3,
      0,
      2,
      1,
      2,
      1,
      -1,
      0.9982254095130499,
      1.0113657648504712,
      2.051394796611383,
      -1.7399880507538799,
      1.7154259169677188,
      0.07297955028866,
      -1.9193266556944588,
      0.6201579273429875,
      0.031696594632738044,
      0.7809165657187797,
      0.6918968566180859,
      -3.40694369366675,
      -0.22553202081714252,
      2.0328176999014627,
      -1.8610834880350848,
      0.006075694105915022,
      1.9365429549303457,
      -2.055141075325442,
      0.9639776341157943,
      0.9965429986640751,
      0,
      -1,
      -1,
      0,
      -1,
      2,
      2,
      1,
      -2.0046813787372626,
      2.025486265319592,
      1.0433011849187694,
      1.3221159886744565,
      0.7177083025840663,
      2.062667532518174,
      -1.0408244757887426,
      1.3747094853861654,
      -2.347187391244236,
      1.468717280889904,
      1.5907233523878634,
      2.6639664112026398,
      2.86517348670258,
      -0.829287209599451,
      0.18312437600383194,
      0.03760355995842921,
      0.9584094009094286,
      0.9522851677381016,
      -1.0403945699014643,
      0.9936205989559721,
      -3.000005292825381,
      1,
      2,
      2,
      -2,
      1,
      0,
      1,
      -1.9893452087827523,
      -3.0141271348792706,
      -1.9719541607725413,
      2.2555685848002605,
      -1.3770691825459618,
      -0.0792482570626519,
      0.6639042728132526,
      -3.013175380887381,
      -3.4854147018170947,
      1.6128271634112086,
      -0.07220250133766187,
      0.1675970467111228,
      1.3300493101255617,
      2.237245091380688,
      2.054311749032612,
      0.9676034339840242,
      -1.0441134456738335,
      -1.0692974334457739,
      -3.056948920114396,
      0.985427590278568,
      -2.00166663337093,
      1.9987736926622728,
      2,
      2,
      2,
      0,
      -1,
      2,
      1.0039957122962646,
      0.9489207117264347,
      -1.0788048859062673,
      2.102160513914572,
      -2.6821932883342434,
      -1.5976693276464282,
      0.11801441701889089,
      1.4631420894176734,
      -0.6547025173636005,
      -2.2391081806411943,
      1.3207669900187828,
      -1.473338584145866,
      -0.51114366159238,
      0.17731071405581497,
      -1.995377577163704,
      -0.016905759780240722,
      2.9142806679848787,
      -1.1301581273542411,
      -2.087371511475267,
      -0.03641427926826054,
      0.9885476880514622,
      -1.0059747362421394,
      1,
      -1,
      3,
      1,
      0,
      -3.000386244547089,
      1.949646575034459,
      1.824010898099999,
      -1.2895060084620311,
      -2.268059585434184,
      -1.2874943991313732,
      0.5838204416488023,
      1.1516926141699275,
      -4.441606661496637,
      1.6654459717704508,
      -0.7873874882179887,
      1.827744857462205,
      1.167584890287885,
      -1.7305391058621258,
      -0.8988223231929087,
      0.9494703030040016,
      1.9966267514646105,
      0.8578822771794063,
      2.7892489074205082,
      -2.1233273813432207,
      0.9422325728920297,
      2.9849802676613266,
      0.9945833290891545,
      -3,
      -2,
      -2,
      -2,
      -3,
      0.9980694197024575,
      0.908306066960429,
      1.6607025346639979,
      -0.6487338254395888,
      1.1577234051880607,
      -0.0797452670057312,
      1.6649489776484308,
      -2.8193411809780518,
      -2.298373773913082,
      -0.895815087563422,
      0.7992714090062839,
      2.3133201550323763,
      -2.254963304772105,
      -1.9912897998569352,
      -1.0450273061073232,
      -1.104619087624212,
      -0.12240165961820762,
      2.7518080074378233,
      1.697245855208335,
      -2.188857255448713,
      -0.0731377549785262,
      -0.013774759567201183,
      2.995770036466887,
      -1,
      -1,
      -2,
      -1,
      -0.9983659832221449,
      0.9717171511937127,
      -3.172239999232472,
      0.4616446786488137,
      -3.0421964127947567,
      -0.49272992294607515,
      1.1662013642751958,
      -2.9757565752503576,
      -4.219750390810603,
      -2.4274653003327735,
      1.3119817995303789,
      -2.9405386396339392,
      0.31632737459397087,
      -0.4216915357348815,
      1.8563643904979847,
      1.871125087153497,
      1.7315921842675397,
      1.6510435158566983,
      -0.3273160469559549,
      -2.329260474671535,
      2.778776589543171,
      2.9064740986637223,
      -3.0265020087122094,
      -0.005051225300730519,
      -2,
      -1,
      0,
      1,
      2.0000988908172426,
      -1.0536415542764448,
      -1.2773219628662855,
      2.2249513614542353,
      -2.401871923078651,
      -4.866849415712858,
      -0.1886744055838211,
      -2.2264814390981855,
      -3.2967012458733436,
      0.9738519999966473,
      -3.1155756980550278,
      0.569628021323047,
      -1.411791706393455,
      0.7189169506499193,
      -1.1145032468639195,
      2.785925281372021,
      -2.41310241086748,
      -2.4216488600334265,
      -2.358760432474939,
      -3.3161949116270955,
      0.7777266778460568,
      1.8964634102242863,
      1.9714130250634805,
      -1.0017124303966527,
      2,
      2,
      1,
      -1,
      0.9946363595513297,
      0.9118013636527932,
      2.6479089758684564,
      -1.8842997574155245,
      -0.48211742697377385,
      -2.9563588425831706,
      0.7996545424029513,
      0.9347695990379801,
      -4.0586460785685325,
      -4.826867958048197,
      -2.9925654169144575,
      -0.28852370177683895,
      -0.13619040527270365,
      -1.0775726835141317,
      -1.123599373869647,
      1.6650000684828437,
      0.4718353656938684,
      -2.552163780326341,
      1.60875278820903,
      1.7136206727583,
      -1.227807996793998,
      -2.115540387942654,
      -2.0442066734289193,
      -2.007914977392883,
      3,
      -2,
      -1,
      2,
      -0.007197332702712608,
      -3.097684047222714,
      -2.326901222664299,
      1.1372143357655915,
      -4.321027432517995,
      0.3729360799770363,
      -2.7420770058214683,
      -2.7785576844441353,
      -1.8033683912667875,
      -2.6292421554864815,
      0.006456511561324564,
      0.6122750674811448,
      0.7250079601262668,
      -2.2320811949259673,
      0.7139411507309602,
      -2.5016514957454987,
      -2.6453288100551315,
      -3.637808105759861,
      -3.412269980182221,
      0.7350746815924273,
      -1.1964368262227625,
      -0.11229910610254377,
      -3.044333584427211,
      2.9907215329265724,
      -2,
      0,
      -1,
      2,
      -1.0096582818157012,
      -0.05157606627869247,
      1.7094511620715047,
      -3.6828999555516293,
      -0.03707009423665002,
      0.852352262549636,
      -0.32151052526047413,
      -4.454686843759083,
      -2.615429656740351,
      -2.5266390111663664,
      -1.1882878993457444,
      0.14486018296567643,
      -1.6625973079943472,
      1.382876739479261,
      -0.6690926240797044,
      -3.81668615977463,
      0.10964121455427771,
      -2.6119951434936,
      0.6349278234674838,
      -2.2541788885872656,
      1.8215217067170337,
      -0.11491151639754338,
      -2.0503065110653185,
      -1.0112234772430724,
      -1,
      -3,
      1,
      -2,
      1.9993173192782836,
      -2.0327546065056987,
      -1.2204914329063725,
      -1.4465957583695597,
      2.3529964713627662,
      0.18570911410402335,
      -1.9096323380892875,
      -1.121815779026155,
      -4.312322242610992,
      -0.33086571194557884,
      -3.1812827641245534,
      -2.003267161407373,
      1.0595102968003487,
      0.16376089770506133,
      -2.934777379334824,
      -2.018311943423297,
      -0.9165386123522559,
      0.3451797249572504,
      -2.3709113736033958,
      -0.2207425546681078,
      -0.17416796118257863,
      -1.1088384670633602,
      1.9537777987066667,
      2.9859921709217097,
      -3,
      1,
      -2,
      0,
      0.0023352870836271258,
      -2.0298211088665217,
      -1.1648419241056414,
      -2.304836536252391,
      1.607457880079888,
      -3.4600864135715903,
      0.3973911551933239,
      -3.7991726553778604,
      -0.9393180958415721,
      -1.9310357723192006,
      0.09949628858736717,
      0.18679870606550267,
      -1.6365639263971021,
      0.3359062591213467,
      -0.7585200656044349,
      -0.8432981423380721,
      -2.844700597685943,
      -2.613352607747448,
      -0.3557187339349593,
      2.8112202541801348,
      1.8893143658798672,
      -2.083729820441324,
      -0.022281302149281278,
      2.0069731033112252,
      -2,
      -1,
      2,
      3,
      -2.998329672288821,
      -0.020262062711986783,
      0.8945424692818302,
      -0.09624011107440993,
      2.912670627862203,
      -1.2197074581361456,
      -1.2739005389332358,
      -0.31170817175756266,
      1.572940252182176,
      -0.5233339144966455,
      -3.51323927878756,
      -0.4767182514052566,
      0.6395698554782185,
      -1.443865751982967,
      2.4510449536234757,
      -0.6612926680461753,
      0.3241136471953529,
      -2.538209854490699,
      -3.3292174438244357,
      2.849355326167088,
      -1.0999422918567623,
      0.922389086796316,
      -1.0262319604090138,
      1.008294473102236,
      -2,
      3,
      -3,
      1,
      -0.008871281571824423,
      0.9915241954801336,
      -1.0007740984297524,
      -1.882058164230728,
      -1.753949396153363,
      1.184993731577695,
      2.1440025334440533,
      -0.9973053756743654,
      -1.1330099305117864,
      -0.07871784600592738,
      0.8896238800495685,
      -2.241470051526048,
      2.600262586773228,
      -0.5305605409916153,
      -1.5643785995614492,
      -0.6408550315337048,
      1.4427749710994406,
      -0.35047256567935253,
      -1.2074868265308982,
      -2.142049210518954,
      0.9002264645780262,
      -3.0870437489902574,
      1.9677088904158646,
      3.004995723276997,
      -2,
      -3,
      -1,
      -1,
      -1.0039480942833703,
      -2.9917928861979335,
      1.0157463154526416,
      0.19056138426530045,
      2.3789306482628763,
      -1.5550488752787541,
      1.3806799767514442,
      1.1852735469274882,
      1.0441570196833,
      1.0903502823556586,
      1.0732842638316658,
      1.9207991467820624,
      1.756207209198336,
      -1.3913594983863302,
      -1.3967105063934029,
      -2.4896274745444473,
      -0.38753156417775014,
      -0.1707451167224674,
      0.9513991780562182,
      0.9182994058162482,
      -1.053720241487197,
      -3.0316796347731376,
      -2.015997421829211,
      0.0048071499422618225,
      1,
      -2,
      0,
      -2,
      1.9999768961663125,
      0.005456258996265957,
      1.0440094673466618,
      2.1374257848719713,
      -0.7511009000651727,
      -0.6247815632073058,
      2.369240047750857,
      1.2525182844049823,
      0.13826704743332316,
      1.1504876871843042,
      -1.8739815091097698,
      -0.957288949077289,
      -1.053543682535409,
      2.830111566469426,
      0.7257988078427321,
      1.6317169543814245,
      -0.30705428414295943,
      -0.08221103830074364,
      -0.046737437505497206,
      2.925260309197909,
      0.9690400362562965,
      1.006398945542538,
      0.9962071678058765,
      0.013120846568507262,
      1,
      2,
      1,
      -1,
      -0.000581418130378157,
      -1.9864725557718144,
      3.049705244796128,
      -0.8828470624766596,
      -0.8069714193159384,
      2.27120709766758,
      -2.729041009771944,
      2.222876667809996,
      -0.8557888985610346,
      -2.85157027239177,
      2.085083649674036,
      -0.9539459137998898,
      -1.0054680327164727,
      -0.109354803183749,
      -3.265274061572194,
      0.7009894055106001,
      2.813471979262241,
      -1.0570607586012863,
      -0.06597334253903,
      -0.04166282121483535,
      -0.006878117195694513,
      0.9998274479383079,
      -2.9976687528465233,
      1.0133612477117144,
      -3,
      2,
      -1,
      3,
      -0.9978495219705992,
      2.012209105617503,
      0.034837966089908086,
      0.08520542240947106,
      -0.8716958485725784,
      2.1484684330811468,
      -1.855456032962161,
      2.104379618314733,
      2.044645108056995,
      -0.026278826773687123,
      -2.023339348489289,
      0.9720007974204322,
      -3.0261587665367444,
      0.8936315637019789,
      -1.2112837784784631,
      -3.1893043856021706,
      -3.115878201162098,
      -2.042847055717078,
      -0.014428186215717575,
      -1.0052398890840095,
      1.038657514917859,
      3.0134854853799253,
      2.0025874003742725,
      3.0065454384697117,
      0,
      2,
      -3,
      2,
      -1.9999183965593788,
      -1.9945409539892895,
      1.0139335416621036,
      -0.9523677140533446,
      2.065804543145704,
      -0.9261666424407325,
      1.0875218787754455,
      2.058455818387338,
      1.0284821643523727,
      -0.020560181489918585,
      0.9307731574294867,
      -3.057350411554179,
      -2.0579846134558704,
      0.9195708309916478,
      -0.12254926282735158,
      -1.0901839607592372,
      0.966260959651377,
      -1.0111000088539381,
      2.0162460876071453,
      1.0353769594206204,
      2.046739234752466,
      -0.9653333466321511,
      -1.9935825056910503,
      2.0075216885793132,
      1,
      1,
      -1,
      3,
      2,
      -1,
      1.005020662336349,
      1.0233144378555659,
      2.023678779221004,
      -2.9787887235028165,
      -0.978512857638975,
      2.019510872165288,
      -1.9826890818583327,
      -0.015385860796884334,
      -0.012722305878538193,
      1.0015420756551094,
      -3.030016515348149,
      -2.0353167621098582,
      -2.0343315445166152,
      -1.011574696773942,
      1.0215947618989172,
      -0.9622966733342659,
      3.038831791856084,
      0.03906710706456897,
      -1.971891272702562,
      1.0269057946832825,
      -0.9887954077821018,
      2.0082897053453164,
      -3,
      0,
      -1,
      1,
      -1,
      0,
      -1.9987901817216802,
      0.009018062168463703,
      -0.9788498232524218,
      0.024088749041431462,
      -0.9763987731316902,
      -1.9803744930739229,
      2.028699308473683,
      2.0304548974232164,
      -0.966831612295228,
      -1.9751988353138372,
      0.019033912338281504,
      0.02946893767103592,
      -0.9693741645008981,
      -1.9541218721820208,
      -2.9541935981057823,
      -0.9533752906243633,
      0.02606229350713493,
      -1.9730436726594631,
      -1.9794664679609333,
      -0.9852600714761744,
      1.0139088654977928,
      -2.9920551180960326
    ],
    [
      1.8128710173311122,
      1.7853832704636696,
      1.403422333075088,
      -0.2805632048448077,
      -2.51495669183064,
      0.49124413939283806,
      0.7327672964209087,
      -0.8731980723528872,
      -1.994465361479476,
      0.9475520043735887,
      1.7225988724883636,
      -1.065991492752408,
      0.4048264695968368,
      0.9172697121897186,
      -1.9541122201058838,
      -0.38259129520298396,
      1.0009683913756247,
      -2.9979013992628434,
      -0.9975272738156893,
      2.00286684874009,
      -1.9982626940200758,
      2.0005370107655653,
      0,
      1,
      1,
      -3,
      2,
      0,
      1,
      2,
      2,
      2,
      1,
      3,
      -2,
      -1,
      0,
      0,
      0.9998282903827886,
      0.998029283817441,
      -1.0079005920404456,
      -1.0221766088597342,
      -1.0401085456103982,
      0.9484397229311573,
      -0.05556238099693358,
      -1.047629710994382,
      -1.0343904842917806,
      1.9766832956058624,
      -1.0142659357726653,
      0.9938694052491795,
      -2.001955638627795,
      3.0001704678932155,
      2.0002163630952356,
      1,
      -2,
      -2,
      -2,
      0,
      0,
      -1,
      3,
      -1,
      2,
      -1,
      -3,
      1.9994848109251178,
      -1.0093826008120903,
      -2.038821332223349,
      0.9062928513371296,
      -2.169364184516801,
      1.7769938446787177,
      0.7608888648548718,
      1.766136133268914,
      -0.21255458634669014,
      -2.162979376769298,
      -1.1088367717046863,
      2.9531494361122395,
      -0.028358810349072668,
      -0.0165017464543142,
      -2.0019263973633294,
      2.000824598969301,
      0,
      3,
      2,
      -2,
      -3,
      1,
      3,
      2,
      -2,
      -2,
      -1,
      -1.0005830199650805,
      1.9827149094542103,
      -2.070295617094831,
      2.8181462110635525,
      2.7102463705055904,
      1.6248981017979727,
      -2.435246571684538,
      0.5578507051858167,
      2.566652621770733,
      0.5983441385791863,
      -2.342305965252593,
      -0.2214281828426874,
      0.8874444683118968,
      0.9132253711686353,
      -3.0441468760608794,
      1.993734111091825,
      -2.0006254203971174,
      2,
      2,
      -1,
      -2,
      1,
      -2,
      3,
      3,
      -3,
      0,
      2,
      -1.0166306407539503,
      -2.08448045705555,
      -0.2506739039135847,
      -0.40396665023122375,
      0.4846940807583446,
      -3.573768120804477,
      -0.5813334463467188,
      -0.566513775471595,
      -1.55787129011334,
      -2.4984762746997076,
      -2.4454933217053045,
      -1.343790248581197,
      -2.202162827392086,
      -3.126479552795335,
      1.9328772203192697,
      -0.0036126282566540965,
      0.002738497236708739,
      -0.9998260237239637,
      -3,
      0,
      -1,
      0,
      0,
      2,
      -2,
      -1,
      3,
      -1.0065529127127624,
      1.9194331288400204,
      -2.255362347172714,
      -0.5071050059605828,
      0.3027176223259404,
      0.2423454034517879,
      -0.7130936094196748,
      1.3975355716811741,
      0.49955435227507455,
      0.49292899653235006,
      -2.473658795645037,
      -3.4181129852232703,
      -3.3204647680567265,
      -2.184451827202791,
      -2.1238373931487304,
      -0.06349860723738668,
      -2.0066418945536486,
      -2.9968440525707734,
      -1.9999698738939895,
      -2,
      -1,
      1,
      -2,
      -1,
      -1,
      2,
      0,
      -2.003269076488981,
      -2.029193440556747,
      -3.17945088638584,
      -3.429634417461223,
      1.2713694431374194,
      -2.9045227076090234,
      -0.9093685204463215,
      -2.771312842673988,
      0.44121999638018633,
      1.54395242017786,
      -0.48920753256815486,
      0.5131211304207969,
      -2.391809036643084,
      -2.297198386398765,
      0.800969625243469,
      -2.1117168529943933,
      2.96543782124433,
      0.9961941714599534,
      -2.991015526815104,
      2.000963189486838,
      -2,
      3,
      -2,
      2,
      -2,
      -2,
      0,
      -1,
      -0.008441527257182838,
      -2.063503294341525,
      0.7324737850631645,
      -3.5815748141331256,
      0.12394137689999064,
      -1.0762891589614427,
      -4.112455545661135,
      1.0592511963323705,
      -1.7141844729376832,
      -0.6096102715699844,
      -1.602251738829614,
      -2.5793909275816342,
      -1.5065470505921008,
      -1.4020901972238091,
      -2.2605566816556966,
      -2.105191547779231,
      -2.0204453366292303,
      1.0051218957775745,
      -1.9837057116057961,
      -1.9947029502388292,
      1.0000065523928061,
      2,
      -2,
      -2,
      -1,
      0,
      -3,
      0,
      -3.013944932523667,
      0.8999395633188828,
      -1.32893528759263,
      1.3572933948671253,
      -0.9465744967616782,
      -3.1923766735478725,
      -1.2453564273469315,
      -1.1424963546252602,
      1.0827115578318072,
      -2.7819229925006876,
      0.3436363961759238,
      -0.6681944645946616,
      0.2877574359126485,
      -0.5638829688234807,
      0.7172587894786076,
      -0.09608664146632319,
      -3.012994648646315,
      1.0209353161909018,
      -0.9671877964703817,
      0.01259178036474989,
      -2.9989148606402276,
      -0.9991776409967312,
      -1,
      1,
      -1,
      1,
      0,
      0,
      -0.025094278069073484,
      0.8690457350671672,
      -1.3076607401233609,
      -0.5936173274112965,
      -1.8001733574326175,
      -4.09662813125535,
      -4.317831203508408,
      -0.10113997492781913,
      2.2223799421367234,
      -3.6342196519141696,
      1.3171128709589783,
      -2.8054258175421656,
      -2.8234741609785745,
      1.321315518574545,
      -1.4149063889311029,
      -0.16348861775862406,
      -0.017970455109104652,
      -1.9516539214566353,
      -1.9582027059447844,
      -0.97650110292812,
      -1.9888654718819447,
      -1.9946240089942133,
      1,
      -2,
      -2,
      0,
      0,
      0.00038198686889343866,
      0.9745183477061781,
      1.931767752865939,
      -2.1587269528653805,
      -2.4138410913623383,
      -0.6021354024518331,
      1.097814286572313,
      -3.1021653636053848,
      2.248642489895126,
      -0.3727427116792648,
      -0.3498248567821024,
      -1.4856323059228052,
      0.3613957079924945,
      -1.7070496532762836,
      -0.6219023230936861,
      -0.4155159053708836,
      -1.1918061644279425,
      -0.00019660732860652901,
      0.07127712909161468,
      2.0478936244170565,
      1.0288164846098589,
      0.011430322450686137,
      3.005745178908474,
      0,
      -2,
      2,
      3,
      1,
      1.0034977083565546,
      2.0229828494510422,
      0.0753693123470743,
      -1.9502881304928974,
      1.8657971304688892,
      -1.3460686282110843,
      -1.6603862357669155,
      -0.6959240900503565,
      -2.340727488166557,
      1.8828356238748185,
      0.8356681116998723,
      -1.225333772055192,
      0.614751395058409,
      -0.5210932371463535,
      2.4929922773572017,
      -1.3853630027305956,
      -3.139771226018105,
      2.045429312856281,
      2.098745723395744,
      2.079111368308212,
      2.0255118322204595,
      1.0063637196691575,
      1.0047182338629628,
      3,
      -2,
      0,
      0,
      -0.998404438079497,
      0.020151205665450526,
      -0.9016381438829778,
      2.236198492144529,
      -1.7289387896969939,
      0.12053813290559846,
      2.900132065421071,
      -0.33560931329781957,
      -2.3964803521521456,
      -1.3298748780559513,
      1.7293475576248196,
      -3.2572108263558124,
      2.814417163521102,
      -2.2203580017988798,
      2.656129468606909,
      -2.3346530294841545,
      1.6670377536222003,
      1.8557826209626582,
      0.9893394681784331,
      -1.8872865597328814,
      3.0967196712097977,
      -1.976631169225376,
      3.011758702462382,
      3.005291249429695,
      2,
      -1,
      3,
      -1,
      -1.9947318341093807,
      -2.9607117699404686,
      -2.8234659835981746,
      0.3910887382132855,
      -1.5734578080028616,
      -1.6782203247917706,
      1.1616208364449008,
      1.9386713288560773,
      2.7296633489747086,
      -0.37266018930005423,
      -3.444408945131044,
      0.5761672218673983,
      -3.3346366561898364,
      2.779404226073216,
      -1.2718340746956365,
      1.7488454456418772,
      -0.1797667789896944,
      -0.10339314964214585,
      0.9868323640352825,
      0.09655925487356541,
      -0.8914649646598083,
      -2.9713210628923545,
      -0.9841024388786346,
      0.005872804651286547,
      0,
      -1,
      -2,
      2,
      -2.993323979764438,
      1.0562036784203075,
      2.2174333974820417,
      0.40539112792194343,
      3.4970810291774272,
      2.4596935669048294,
      -2.5600136275205387,
      0.19337291324911157,
      -1.9919393810768222,
      -1.1131848158914908,
      -3.253317422935018,
      -3.4601024409828827,
      -1.5396387160633835,
      1.6324439324432887,
      -0.2994714573607139,
      -2.1492870058435267,
      -0.11922378218839282,
      1.8784688602211062,
      2.001352806001599,
      -1.911554867706128,
      2.106598951859071,
      -1.9520404719087074,
      -2.979145965927508,
      3.008658229271371,
      -3,
      -3,
      2,
      -1,
      3.0064918310511928,
      2.0585335046008257,
      -1.7869098589449757,
      1.385387436631042,
      1.5200284665330979,
      1.594952760895299,
      1.4572825283322048,
      -1.701694614554806,
      0.13788789361380577,
      -2.833077875367703,
      3.0336133214741507,
      -1.2126126137855693,
      2.53674816055549,
      -0.45916665240424315,
      1.6945278936315926,
      -0.18444147489869975,
      -0.1730549266368883,
      -0.13137005322371154,
      -0.04488174162212361,
      -1.9828881214376968,
      -1.9317246926940046,
      -1.9496411269105816,
      1.0210365650852868,
      0.007577513520978714,
      0,
      -3,
      -2,
      3,
      0.004875232283691815,
      -0.9369022379813838,
      -0.8360829634338828,
      -2.6980881732244004,
      1.481882740368598,
      -2.5763389983062965,
      0.3161109854573974,
      0.21468645535843536,
      -1.7933605879408692,
      2.294049781662954,
      0.26969430579844667,
      -1.0444789612450294,
      1.7137557197334523,
      1.7284008568322695,
      -1.1886968409153695,
      -1.2171563990606984,
      -0.19714133271542494,
      -0.15942385175237056,
      -2.064299286301494,
      -2.0157321790612404,
      -2.958866781375443,
      1.0375292177519821,
      1.0205266832321715,
      2.0072983428509183,
      2,
      2,
      2,
      0,
      0.008714839675470919,
      -1.9618040893552635,
      -1.9421492722565543,
      2.120315533046932,
      3.1537879124345847,
      -0.9147097788618497,
      0.9560282178650483,
      -2.0315243078309524,
      1.0183195400524734,
      1.1743414768931704,
      -2.8396725791144273,
      1.9664183104922703,
      1.7456407207821167,
      -0.15895115524614564,
      2.9092321761674818,
      -0.20882047242130408,
      0.7371657504457964,
      0.7690920513823427,
      -1.1121232563973074,
      0.994477130502749,
      1.0434345034846801,
      1.0390628934744008,
      3.025895298840201,
      1.0138197961491582,
      1,
      -3,
      1,
      0,
      0.01425538292489742,
      -2.9873381273206134,
      -0.015319505670243674,
      0.9696427109776484,
      -3.107829824304355,
      -2.2174535375758317,
      0.6883992322940116,
      0.6431747051558115,
      1.6835998371252203,
      0.7347588970808827,
      0.7972630253395369,
      0.6505532077824832,
      -2.388656278401727,
      -3.21334666407031,
      -0.21725891552605353,
      2.7113357611863234,
      0.6732648575317669,
      0.670304730365896,
      -2.209660911878424,
      -1.062042687804612,
      -0.9775510260401609,
      1.0255949578264247,
      -2.9810478859895384,
      -2.9837040510998714,
      2,
      1,
      -2,
      -3,
      0.001629118067891099,
      -2.017308177937883,
      1.9337596045931513,
      0.8826730130673367,
      -0.17760159458789382,
      -0.31126875053299563,
      -2.4499837978928736,
      0.46168791461817144,
      2.3383238809289555,
      1.2913522172119745,
      -0.6901744887633997,
      1.303423199431689,
      0.3488185172368311,
      -0.49574240045497947,
      2.509699627697849,
      0.5885884027617614,
      -2.355869840244565,
      0.595464956789438,
      1.713150257737763,
      -0.10607781617092533,
      -2.016553564134899,
      3.0206154805975958,
      0.019106924792149992,
      -1.9853291817653351,
      -2,
      -2,
      2,
      2,
      -3.0063592816690243,
      1.9617684300391742,
      -2.0633836673611023,
      -2.1502972851357205,
      -1.2467038961754644,
      -0.3803782770781567,
      -0.48100480593326567,
      -3.5399625472039187,
      1.2917713545922085,
      1.1323964700657103,
      0.141999743193596,
      -2.8022812186757493,
      2.324128513722091,
      -0.6164399392096127,
      2.4225234224264014,
      0.5504158987249498,
      0.6708300035442915,
      -2.33688542711823,
      1.7460312883580158,
      1.8903880603859422,
      -0.03527023721205187,
      -1.9914209584708822,
      2.011718379168993,
      2.010063129001104,
      0,
      -1,
      2,
      1,
      0.9995009548179065,
      -2.023045095128882,
      -0.039843581344473133,
      -1.1064360989092887,
      1.7220967196178119,
      -3.4538778527443115,
      0.4879419851990713,
      -0.5236929550281868,
      2.4092118006655747,
      0.3319718223155726,
      -3.665297742126937,
      -0.6507334347902527,
      -0.5775141309561395,
      1.4320510149127235,
      -3.5488940910971514,
      -0.38426934528390094,
      0.7344111705362556,
      1.722245970661634,
      -3.198666590159422,
      -0.06615572805112335,
      -2.0111079829372023,
      0.01758424599059865,
      0.010363408295593823,
      2.0050345330617705,
      -3,
      2,
      0,
      2,
      -0.9963834799507938,
      1.9889079123411832,
      0.959552146027981,
      -0.09106938353015526,
      -1.236436588591955,
      0.5974798977644526,
      1.483123418048087,
      1.4679845336918516,
      -0.53859484573217,
      -3.5008997360541265,
      -1.4695231965222226,
      -2.5188151503862124,
      -3.5066660587525766,
      1.4363213172043985,
      0.47492617456019826,
      2.605709460810048,
      -1.266608761707302,
      1.78561569390868,
      1.8549832448833745,
      -0.04809801495537489,
      -0.006612368400924326,
      2.024548137672658,
      -2.982044317798879,
      -2.98925359367592,
      0,
      -1,
      0,
      0,
      1.998394292834395,
      0.9874519555039007,
      -2.0407637964234993,
      0.9264439304769239,
      -2.157026551325695,
      -1.2957576693120267,
      1.5917722633883993,
      0.5188731602672011,
      0.5169400761464462,
      0.536164733489837,
      0.5645583252357903,
      -2.453820570797208,
      -2.455732114132986,
      -0.4657121508491529,
      -2.402307974753699,
      -2.28121804362563,
      0.815173343683169,
      -0.1262336301642795,
      1.9382811087439402,
      0.00041184106959403066,
      2.996165461751046,
      -1.988628667529371,
      1.016345742070041,
      -0.9862551066070433,
      1,
      1,
      3,
      -1,
      0.9993947093017168,
      2.991565096630654,
      0.9738023346842297,
      -0.05142957185765244,
      -1.0885350595095147,
      1.8546540951162294,
      -1.21869806437032,
      1.6969313728132995,
      0.6447560948565568,
      0.6538745239380812,
      -1.3435761298121522,
      -1.3527160760162007,
      2.6420205326336936,
      -1.3474795673440794,
      2.725629935912214,
      0.8514023443058083,
      -3.085615225309539,
      -2.0580086268251767,
      1.9907093175411192,
      3.0250554028360574,
      -1.977536298892273,
      1.0096458304330795,
      -0.9918585718620487,
      2.0070544217599164,
      1,
      2,
      2,
      -2,
      -1.999992694909021,
      1.995860552956296,
      -1.0166138484149165,
      0.9619295299131011,
      -3.0516217315650866,
      -1.0754718614485264,
      -1.1074731278921646,
      1.8560068231270932,
      1.828922707745634,
      1.819244757961089,
      -1.1831328113969413,
      0.8078391225758905,
      2.797078747994578,
      0.79943082616416,
      1.848892516567999,
      0.9111216517367386,
      2.9610487931162734,
      -3.0124782678593744,
      -1.9956000112048362,
      0.02811356452846041,
      -1.9740701138387613,
      1.0191886807329853,
      -1.9919257829687582,
      -1.9958561885962731,
      3,
      0,
      -1,
      -2,
      2,
      3,
      0.9957683184116947,
      -0.019668653455847767,
      1.9703257653028854,
      0.966346482616521,
      -0.034626580038791877,
      -0.052027501851077795,
      0.9221145249087728,
      2.9292473469678595,
      -0.09016167387034137,
      -2.0904484905580363,
      -0.100935540111686,
      2.9089127940545145,
      -1.0736611360719317,
      -1.04294178656295,
      -2.024203438295483,
      -0.009949198618433198,
      -0.9996945194837001,
      1.0144432010538509,
      0.009244057283736739,
      1.0110470469183432,
      -1.9938600162628621,
      -2.996015924844963,
      2,
      2,
      3,
      0,
      1,
      0,
      -1.0006792871552068,
      -2.007388083206917,
      -2.016593667713213,
      -2.02109846695335,
      -1.0239075100398027,
      0.9709993483886084,
      -0.03781169935784734,
      -2.0431575223577556,
      -0.04028540425553775,
      -1.039974638879769,
      -1.0398640196971234,
      0.9711439954746509,
      -1.0265587454379463,
      1.9841784927388184,
      -3.013411775909331,
      1.992265646322538,
      -1.0013390315912643,
      1.0023552050667734,
      3.006068950502707,
      -0.9933621546321765,
      -1.992792071371809,
      3.0044049441143716
    ],
    [
      2.0348412992782605,
      -1.982510095066753,
      2.2581382083861854,
      -1.8190080046745938,
      2.0705055334660702,
      1.9707819085939298,
      -1.089721473516532,
      -0.8043938234957527,
      0.021811724384736504,
      -1.9880414177960495,
      -0.8158815635081696,
      -0.7668637451067445,
      0.8744378128565813,
      0.17588945868946504,
      0.9177736271678895,
      2.407992116911212,
      -0.01200326643135611,
      2.9823209427893134,
      2.982160412662847,
      -2.0206075938613663,
      -0.015018812709131257,
      -3.005553251896003,
      0,
      0,
      3,
      3,
      3,
      1,
      0,
      0,
      0,
      -1,
      -3,
      -1,
      3,
      0,
      -1,
      0,
      1.0001706489466715,
      3.001836428073459,
      0.007891581022320389,
      3.021374905066207,
      -1.9702356989269465,
      -1.9702123624795538,
      -0.9918309844589819,
      0.9840869822652597,
      0.9723504057851998,
      -1.0257461072612188,
      -0.01804930717593018,
      -0.006674458701291251,
      -1.9971779377314718,
      -1.9992578146625901,
      2.0009420044667126,
      -1,
      0,
      -2,
      -2,
      1,
      1,
      0,
      1,
      1,
      -3,
      2,
      3,
      -2.999489780887399,
      2.0098181125138783,
      2.043719313991257,
      1.090160522997508,
      -2.844158640864593,
      1.179077159990922,
      2.1541180470079286,
      0.11102163939074369,
      3.0777176903343437,
      -1.9290337545040623,
      0.05457292222674788,
      -0.9777228325585975,
      0.023182957100204068,
      3.0266846533055114,
      2.0114658183499814,
      -0.9963578668065516,
      -1,
      0,
      -1,
      1,
      0,
      -2,
      -3,
      -2,
      3,
      -2,
      -3,
      0.0005891019632489172,
      -0.9714454616569095,
      2.095277356333042,
      -2.7861651973319614,
      -2.690002749083897,
      3.3627929887858743,
      0.3304083973884725,
      1.2707297166118414,
      3.271770291499583,
      2.3073524202264175,
      -2.6898392503737014,
      0.2021994343368955,
      0.14352244967725372,
      0.10144550500451507,
      -2.9250232358005843,
      -0.9703794060731382,
      2.010251720756973,
      -1,
      2,
      0,
      0,
      0,
      -1,
      -3,
      -1,
      -3,
      1,
      -2,
      0.028083073722324912,
      -1.8592196124425444,
      -0.6258623106596045,
      0.5553097189415296,
      3.6134559509330857,
      0.5777296845658458,
      -1.5031379413511858,
      1.4977640094310638,
      -1.4741031977416814,
      -0.42516193395416296,
      3.567029525309407,
      -0.5803635434339687,
      -1.7161766390599695,
      0.18758631378965174,
      -0.8582622169171856,
      -0.9529507456017984,
      1.009222714439801,
      1.0003187496017636,
      2,
      -2,
      -3,
      -1,
      0,
      -1,
      0,
      0,
      -2,
      -1.9830882473860558,
      2.119560868471469,
      1.348640291277844,
      -2.3150302786836314,
      3.907430467219405,
      1.8801240072358203,
      3.739043787097749,
      0.6623705986292182,
      2.614132349143238,
      -0.2782030828678835,
      0.732141516462775,
      -2.3133591756876104,
      -1.4862220651443407,
      2.287094592665475,
      2.2358259737415525,
      2.185174473920854,
      1.0692179183325634,
      0.012704776486194943,
      -2.999933304036172,
      1,
      1,
      2,
      -1,
      0,
      0,
      -2,
      1,
      0.009351861803844395,
      3.062989044995752,
      3.2383542118862705,
      -2.4442494938866197,
      2.837204201750487,
      -0.05265954164257781,
      3.8670654028396836,
      1.6755083567992757,
      1.5663491411457011,
      1.5148325650514503,
      -1.3580220900756639,
      0.5782680219841019,
      0.50119745144301,
      0.4164254370944668,
      2.2364584690423026,
      3.1838708366787993,
      -0.8322061015299839,
      2.0687008015541593,
      2.0095945372503246,
      0.9998965826791288,
      -3,
      -2,
      -2,
      -1,
      -1,
      0,
      1,
      0,
      -1.97521246765364,
      -1.8808796881752117,
      1.3775521608612307,
      -2.350383819063595,
      0.791119211196245,
      3.766934796325374,
      -2.277486775155734,
      1.5877783103605716,
      0.6221152186895041,
      3.6593950591321667,
      2.6658777390300976,
      -1.398557180922663,
      2.5841921396869725,
      0.44276263357490364,
      3.254003234415883,
      -1.8500670169208089,
      3.1335859733068747,
      -0.920372080707017,
      2.0008270632280123,
      -1.0048170242841308,
      0.9999918031375951,
      -1,
      1,
      2,
      0,
      0,
      0,
      0,
      3.0259820297165114,
      0.18083142267819513,
      -1.5483389708890285,
      -0.3271866711305291,
      -0.33334229535519055,
      3.660723507496273,
      -1.2289597654854998,
      3.9110034990096754,
      -0.879495668283363,
      4.241497042968664,
      -0.8848136083197752,
      1.0547518200876622,
      0.013398076103207625,
      -1.167833658393155,
      -0.5027755502143604,
      -1.742126319180507,
      1.1444696944433144,
      -0.9261206829117792,
      2.9765110263842582,
      -0.01365152953311636,
      1.99871285989363,
      1.9983847962845736,
      0,
      3,
      0,
      -2,
      -2,
      2,
      3.0476270844053985,
      -1.7613209587050214,
      -1.611274804701712,
      3.4755067579208507,
      -0.6813119831170227,
      -1.5423510386841794,
      -0.06683021870907911,
      1.10889748940191,
      2.1408597908314024,
      3.217515369800687,
      2.37713586350762,
      2.378772743613561,
      -0.7504214164910568,
      3.0359012985564853,
      -1.2889831277586088,
      -0.5815086919588486,
      1.1581703137982415,
      -0.9987941959955114,
      -1.0437505211672515,
      1.962611448412928,
      2.9807385299313482,
      -2.0105148288892987,
      0,
      2,
      2,
      -2,
      2,
      -2.0004137399393036,
      -2.92952103912209,
      1.1525226486204043,
      1.1381421834534613,
      -1.8541789440380525,
      -2.0327762871836597,
      1.23401013696352,
      2.7588151232049802,
      0.7914198455502595,
      3.5947398122699266,
      -1.1125566208443072,
      3.220719052159922,
      2.32169717474282,
      3.297187783818514,
      1.0968318747229509,
      -2.1467919664710085,
      -1.486297781784526,
      1.1673333755481443,
      -0.01430180434043635,
      -0.06641307621786002,
      -1.0514065149177436,
      0.9756280293994521,
      1.98907644576401,
      0,
      1,
      1,
      -3,
      -3,
      -2.003016365924923,
      0.0003268217612035194,
      -2.045413645693989,
      -2.172769814801795,
      2.7314441550149104,
      1.7164826651774465,
      -1.9133002870242515,
      -0.6098965798311907,
      2.241517999342318,
      -0.7303519370740947,
      1.5554184681576737,
      3.7061416433600867,
      -1.1262190862138657,
      0.014118027354276728,
      0.9633759953545364,
      -2.135919848072488,
      2.518236877989275,
      2.1577080628728575,
      0.9724141378685964,
      2.9116340630589006,
      -0.05310761495896784,
      -2.0191268038435415,
      -0.00901328634250788,
      2,
      1,
      2,
      2,
      2.9989168342577286,
      -2.0175148858823633,
      -2.096237874870137,
      -2.2669567537801436,
      -1.4239207765995001,
      -3.4978280534950232,
      2.6054518883751436,
      2.9488393254376786,
      -2.9034671460782078,
      2.1367919381662444,
      1.1405693182527512,
      0.35697346684721115,
      -0.6620086904986066,
      -2.548806266702645,
      0.57877151770566,
      -0.4233717088453638,
      0.6686954886369566,
      2.4431940581723084,
      1.135022220413481,
      1.8983095008055435,
      0.8832087930555486,
      0.9362399941172944,
      -3.0285000918499527,
      -2.0100634222228084,
      -2,
      3,
      2,
      -3,
      -0.004051193170336645,
      1.9785973975103517,
      -2.17031478667614,
      1.5890742905321187,
      -0.5129349933019387,
      -0.5744484424303778,
      -2.4838096403935057,
      -2.173751846138169,
      0.14277841069679664,
      -0.6862255024385918,
      -0.5923722058993349,
      3.5302744626462794,
      0.6012384165351387,
      0.5806484238447066,
      2.477290991322264,
      2.3868569209001893,
      1.4130746453766858,
      -0.6920076845573186,
      -1.002323274278498,
      -1.1540398550376523,
      2.8498019658669547,
      -2.066468697563546,
      -0.034067261864901624,
      2.991692778455779,
      -1,
      0,
      -1,
      1,
      -2.9992410970802816,
      2.9706820799961413,
      -0.18220774107815293,
      -1.3334005629429966,
      -1.4750426489043225,
      -2.526646907335958,
      -0.5107379312019252,
      -2.1737537585740387,
      -1.8192704634846129,
      -2.649735643996492,
      2.4358571251046115,
      1.726799781422494,
      1.9998343830068217,
      1.7519735192740562,
      -1.5299091631321997,
      1.2761770566691653,
      -1.714257979232825,
      -1.7759627645163856,
      1.917969307543189,
      1.815586151945834,
      0.8429737868192716,
      -1.088628927777777,
      1.9615064974089451,
      0.9901835704575355,
      3,
      1,
      2,
      -3,
      2.0085465957309268,
      -3.0255952284943373,
      -1.1406279863968218,
      0.785227446723364,
      -2.382692268587931,
      -0.5057180847836986,
      0.7395620937088384,
      -2.9233538630919624,
      2.4148067077717057,
      3.322435522698712,
      2.2173358761018322,
      -2.4702033195687245,
      -0.034090666139837064,
      -1.1977898393031428,
      1.4932809283130328,
      -1.6395923452623247,
      0.2978672650273865,
      -1.8365079372217121,
      -1.0899098389913606,
      2.8623692261503564,
      0.8884727996746073,
      0.9165591630319075,
      -2.035296111213653,
      -3.007320772644941,
      -2,
      1,
      -2,
      0,
      2.0135908993024194,
      0.9797950208978797,
      0.9580038947405276,
      0.9290413838441015,
      1.6909167021820835,
      1.7214375314315624,
      1.9799807050077698,
      0.30894357297532143,
      1.5113061682620135,
      -1.6659751283177964,
      2.1995413748716732,
      0.5536594100113045,
      0.9169062728003218,
      0.6923843043137713,
      0.4724030048401089,
      -0.49621910158497873,
      0.3461556756952329,
      -0.899216926926704,
      0.8692125596686008,
      1.8913208933424193,
      -2.0810366823019244,
      -1.0504851890607694,
      -3.0303163873733734,
      1.9953445162874073,
      2,
      1,
      -1,
      2,
      1.0056039911844303,
      -0.978151043203518,
      3.1251611626990936,
      1.1320258461901802,
      1.0208252731606653,
      0.10234636067778723,
      -1.6434020565297778,
      1.5366404402814169,
      2.711791870839013,
      1.49923433729242,
      1.4065625634426,
      -0.29054594700222847,
      -1.975368676255111,
      1.664004544337775,
      -1.55529487322564,
      2.548628301906653,
      3.421844671185555,
      -1.8355974322396325,
      1.9180175824145387,
      -3.1024796124748097,
      0.928820858848051,
      -2.0493081115366105,
      -1.0326559848252106,
      2.98708770890718,
      -1,
      -1,
      3,
      0,
      -0.0032559883436566617,
      -1.9414452396596822,
      -1.7747546728171182,
      0.2802819897791637,
      -0.7421730781326912,
      0.42809659249472337,
      -2.332622762199871,
      -0.07895863815761481,
      4.085574352281662,
      1.900152604100229,
      -0.3581237285291099,
      2.883291363496038,
      2.00875148142842,
      3.7211237036763753,
      -2.3933294287091833,
      -0.42674860805992126,
      -0.5364617110304355,
      1.362486640243928,
      -1.8991545887532808,
      0.9511522828256889,
      -1.0562230904278016,
      1.9768955047382453,
      1.9721422049136557,
      -1.018520569559198,
      0,
      -2,
      3,
      1,
      -0.9925406858969502,
      2.109365508303733,
      2.2834326568212333,
      1.3156400168933227,
      3.249165453012684,
      1.4076877175233204,
      2.6795035615558804,
      -2.030293953298804,
      2.321269347655417,
      2.348053149213856,
      3.136806785182108,
      2.127611214752803,
      -0.8328194345646752,
      3.93712423115924,
      1.9190819466659832,
      3.713802390536946,
      0.5438695207112018,
      2.5167561437869588,
      0.264415985111635,
      -2.9796747441238205,
      -0.023514169956895793,
      -0.025992095386789486,
      -3.020910748560029,
      -2.0154068249016275,
      2,
      1,
      -1,
      2,
      -1.976482409938092,
      2.1342254529850218,
      2.254218830912846,
      -0.6981654484401951,
      0.2869267728227218,
      -2.5686476562606573,
      0.6174767189199387,
      1.8462224677729306,
      -0.7807128466774119,
      3.430737919217807,
      2.327133144496293,
      2.272531135933934,
      1.27607899243378,
      2.2082166093722915,
      2.1334106572678757,
      -1.0504483534102462,
      2.610570103721954,
      -1.503635876183993,
      -1.7164698772969083,
      1.094563668655794,
      -1.9739704902450872,
      -1.0028921043427454,
      -2.005425073350101,
      -3.010730069925532,
      1,
      1,
      1,
      2,
      1.0201485957138414,
      -1.889808639412839,
      -0.8111272584614764,
      -2.8056685541205026,
      -0.7007483077390326,
      -0.49059337980138207,
      -1.3034236549738403,
      1.8560189817557968,
      -0.9333679723687021,
      3.151470007058023,
      2.0476877901274846,
      1.067462916520407,
      -0.8771487615627541,
      4.182354500408273,
      0.11911479799437112,
      1.8545194103496163,
      1.5220194829072575,
      1.405640597816574,
      2.227648960888207,
      -2.922110321817163,
      0.021199908008575928,
      -0.0009523688185958432,
      3.0034415821575453,
      1.9950905074827185,
      -2,
      1,
      -1,
      1,
      1.0141575179977143,
      -0.9021249873473703,
      -0.8682202326659866,
      -0.8692578463101218,
      -1.754319539134337,
      -1.5637853343275774,
      1.6752715853568358,
      2.8701981026307437,
      -2.019087909830841,
      3.9368889871799757,
      3.81461543119045,
      -2.1619144573485234,
      2.8961059008720853,
      1.019479880834926,
      -2.074967406743899,
      3.7375618030664146,
      -0.5196405490653089,
      2.321986304830162,
      -0.8152548483330527,
      -1.9227028966957893,
      -2.9586719066129175,
      -1.9931754369558512,
      -0.9959117579921213,
      -2.0044247868878595,
      2,
      -3,
      1,
      1,
      -1.9887209115266338,
      1.0539219699899498,
      1.0994453502910075,
      1.0951285061087763,
      0.16525620970278188,
      3.3009322641197376,
      2.506532678743382,
      0.7081681786029042,
      -2.2036290968000105,
      -1.2233386194907054,
      -0.2877451271012504,
      0.7118533477030594,
      -0.22416045275954422,
      0.8361050507533034,
      3.7261684202272907,
      0.5539079296214855,
      1.3635231578759541,
      -0.7786806993733273,
      0.10950099071754285,
      0.035314127006959024,
      1.0349142048416453,
      -1.9901144514731888,
      -0.9991156050834491,
      1.9966126720054431,
      2,
      2,
      -2,
      -1,
      -0.9981331073174614,
      -2.979873290422798,
      -0.9503404295593421,
      1.0741386594438076,
      0.10924788789450195,
      3.1736707916515954,
      -1.7168929501982142,
      1.449855003505345,
      -1.4420232813567004,
      0.5447351955015114,
      2.51094297729633,
      0.5356037685465501,
      -1.3884501234275732,
      1.6454541677379073,
      1.5464379469000014,
      0.3277894450300824,
      0.18152019970005295,
      2.11429781202029,
      3.0412114470531355,
      -0.008953795675941,
      1.9782678128188511,
      0.0003309497283216767,
      2.0029083981760105,
      -0.9989335804525961,
      -2,
      2,
      0,
      1,
      1.000153815213337,
      2.0137044019672534,
      1.0278999680847902,
      2.0511268820999238,
      0.06787370221703012,
      -1.895451302157348,
      -1.840848023504987,
      3.241846882113719,
      -0.7006036100055529,
      2.297036318165818,
      -1.722143912211788,
      -1.676815578022375,
      3.403791823590885,
      1.3925908797515265,
      3.3218035466162132,
      -1.786351613602726,
      -2.8923168485398696,
      1.048719286319408,
      1.0133375989115971,
      -0.037043890122095385,
      0.9624879288626997,
      -1.0218917757031538,
      0.9973174421248163,
      -3.000096637695807,
      1,
      0,
      3,
      1,
      0,
      0,
      3.006870107379813,
      0.02623477695898717,
      1.0400736512670479,
      -0.9486907762020194,
      0.06526842485827479,
      0.10430912366155705,
      -1.8713138628376678,
      0.10940072781199953,
      0.13493280017383225,
      0.14697872533957124,
      3.180509835123328,
      1.1608420427262214,
      1.151677576057413,
      -0.9010475834500189,
      2.056402985300412,
      -1.978508632255853,
      1.0052502721365781,
      -2.0190907124635618,
      0.9787106248721217,
      -1.0216921047549608,
      -1.0082175859566347,
      1.9965122336912728,
      -2,
      1,
      0,
      -3,
      2,
      0,
      1.0008113889391186,
      2.0091237722410242,
      1.0209685858840851,
      2.0271083605251836,
      -2.964040803865771,
      0.04655894683653926,
      -0.9498683526550591,
      2.052604621671774,
      -0.9483094653352699,
      -0.9497738181367387,
      2.0526153777691465,
      -0.9675895707660335,
      1.036619785234962,
      3.020250828221626,
      -1.9881469674801904,
      -1.9916658918026722,
      2.999515052196134,
      -3.0043374018463016,
      0.988552098812682,
      0.9828605775788698,
      1.988561116191812,
      -1.0047430209333201
    ],
    [
      -1.031192111936396,
      1.9893058666516226,
      -1.0141878143597445,
      -0.7619101845432957,
      3.0280597843618935,
      1.974578827045042,
      0.16883220330584534,
      -2.5347379495278024,
      1.3096005766060976,
      -1.005568441310127,
      -0.5765201023991018,
      1.1354171589652107,
      -1.9555185136992908,
      1.7104474677889427,
      -1.7442644505307419,
      -3.0375661927844897,
      1.9919826195560018,
      -2.012353701919966,
      2.988259535559333,
      0.9876811374439967,
      0.9911463643448059,
      -0.003352757989492084,
      1,
      -1,
      -2,
      1,
      -3,
      2,
      1,
      -1,
      2,
      0,
      1,
      1,
      -2,
      -2,
      -1,
      -1,
      -1.9998733998328821,
      1.0014232206959308,
      1.004323388308205,
      -2.9905981716398062,
      2.0092523411986845,
      -0.993346715087847,
      2.993385222510007,
      -1.0191258502485947,
      -0.020620220190619577,
      -1.0149617423154262,
      1.99047436374013,
      -1.0029245293035396,
      -2.0005802549486122,
      -2.0004889489026327,
      2.999379411008197,
      1,
      -2,
      -2,
      2,
      3,
      -1,
      -1,
      2,
      -1,
      -2,
      -1,
      2,
      0.00037941028797781813,
      1.005474371776746,
      -0.9794695627537048,
      2.040109911157946,
      2.0626759965182173,
      -0.9399108799978502,
      0.047285214222249766,
      2.041963663303449,
      -0.9912327593435781,
      -0.029697576593634836,
      -1.0704854989216706,
      -2.0884891330241815,
      0.9472567532509573,
      0.982400744979278,
      0.9928617772593668,
      1.9975861025224113,
      -2,
      0,
      1,
      1,
      -2,
      0,
      3,
      2,
      -2,
      1,
      -2,
      1.0004246027403132,
      -1.991145283360057,
      0.030088694749986496,
      2.0625330554380414,
      2.0998241458142552,
      -2.87274606445353,
      -0.8640408902039878,
      1.0746423427764478,
      -1.0156837323949648,
      -0.09328605757812221,
      2.8600207668943045,
      -1.1348100410850062,
      -1.1476816161269594,
      0.9107901961394826,
      -0.05717526049296909,
      1.9770760606641598,
      -3.0058041285349417,
      1,
      1,
      2,
      1,
      -1,
      3,
      0,
      1,
      0,
      -1,
      1,
      1.009576022898886,
      -0.9636866746731116,
      0.08686558323995715,
      0.15300847573523776,
      1.1826256707806253,
      2.1455826425324935,
      0.03564130801176552,
      -1.1659034306041436,
      1.7231910080069983,
      2.659867651292461,
      -1.3422125777292855,
      -2.2477944730777004,
      -2.165153618380282,
      -3.1058873756219834,
      1.9394493734096838,
      -0.02883746360479427,
      -1.0090814802098205,
      -0.0003956339897421726,
      0,
      -3,
      0,
      2,
      0,
      -3,
      -1,
      2,
      1,
      -1.995505818214602,
      2.0480899856254062,
      -1.880416296710499,
      1.2585176894944354,
      -0.6633897833054566,
      1.2515228897982524,
      1.0281936739192659,
      -1.2851890910646941,
      1.5600858733894218,
      -2.5389946387304714,
      0.43926089422048437,
      -2.483331941956203,
      -0.3407479168828865,
      -0.1980945823837119,
      -2.109915413256035,
      0.9460933402617959,
      -0.012485318731230861,
      0.992661111939847,
      -1.0000901206758086,
      2,
      -2,
      2,
      -1,
      -2,
      -1,
      -2,
      1,
      -0.998722785441375,
      -1.9795285356040784,
      -0.8982348794712951,
      -1.7302522695937794,
      -1.552477413828276,
      1.4638209460019138,
      0.32151072700633215,
      -1.8535287004390366,
      1.8598044813550483,
      -2.3512146120767663,
      -3.5066013544245473,
      -1.5510366468001393,
      1.5377078171910432,
      0.6335055208729349,
      1.8029134521639893,
      -1.1111338110387208,
      -0.06099997297417149,
      0.985742546596693,
      0.9857676085200068,
      2.00042073754947,
      3,
      3,
      1,
      2,
      -2,
      -1,
      -1,
      -1,
      -1.995262352896292,
      0.04536296102608499,
      -0.8271705630020546,
      0.3786862362557121,
      -0.43506610844333987,
      -0.3266912301763053,
      -0.38805184615318566,
      0.37923377491715055,
      1.948938757212656,
      -2.387573120977862,
      1.464506777741578,
      -1.627184320282118,
      0.44386000569617534,
      -1.321017668727728,
      -2.19359707932391,
      -3.1152530393131466,
      -0.07765988981204655,
      -1.0315252641351638,
      -0.008989575899972025,
      1.0004770408524457,
      1.999996891425945,
      -3,
      0,
      0,
      -2,
      -2,
      -2,
      -1,
      -0.9916931420793994,
      2.050698654736607,
      -1.7979671634604357,
      0.4008898055812412,
      -2.4572517090247716,
      0.7257598957856135,
      1.6606298484710798,
      -0.7780609631479318,
      1.582355519589027,
      -2.7582660448231153,
      -0.8334904952196859,
      1.2162101939887215,
      2.428263613144041,
      -0.41417657028448873,
      1.5925405109998776,
      0.7380582280482664,
      -2.1376027712215464,
      -1.0558879238543248,
      2.988887245129919,
      -1.0010302308419534,
      -2.000664626754308,
      0.9996808623800738,
      0,
      -2,
      -1,
      -2,
      0,
      3,
      -0.9923070664333471,
      1.0431207761663635,
      3.141866789799346,
      0.31520846159236804,
      2.3906504607891708,
      2.4143943063606836,
      -1.6419763825787446,
      -3.1428159395040405,
      1.1960000198077942,
      -2.955518387922679,
      -2.795163444938616,
      0.3191442329542963,
      1.4547207057072504,
      1.5465239558780393,
      2.585855887591634,
      0.6857448949099811,
      -0.17433009771851954,
      1.9265562088208048,
      -2.022177138844847,
      -1.0068138231112163,
      -2.004042771242894,
      2.99821555933432,
      -1,
      1,
      2,
      -1,
      0,
      -0.00022016015360255855,
      1.9923755526322215,
      0.9823223492241139,
      -0.014668707573847773,
      -1.9172187012043191,
      0.015754757901986674,
      0.9248751017961774,
      -0.23520615307846554,
      0.22540668974621042,
      -2.1872194813302843,
      -2.2165305862095592,
      -2.0147415790009884,
      0.17084353532239768,
      -0.721414928690836,
      -1.5098036979473555,
      -0.4386128959497639,
      1.6616391977049112,
      -2.2202933707042565,
      -0.12875477955533685,
      -1.0309795882354011,
      -2.0134677049913883,
      -1.0041948200375042,
      1.9983585181663321,
      2,
      0,
      -3,
      1,
      -1,
      -2.0005367659081537,
      1.9689247254845854,
      -0.1273723074957617,
      -3.2389124643077714,
      -0.3244514323438687,
      -1.5717118595733832,
      0.27193926904709176,
      1.1245812320441007,
      0.7612874097109751,
      -0.3566777046360549,
      -2.257803767820361,
      -2.045196287711853,
      -0.9512175908766742,
      -0.861799789548728,
      -1.5863697973822,
      0.5027753304513508,
      1.5612166616231284,
      1.7141288881121692,
      -3.1929223905450894,
      -2.0837384243932826,
      -2.0229997432689726,
      -0.0006635993445452625,
      1.9989918202153485,
      -3,
      -2,
      3,
      3,
      -2.9986668374819434,
      1.9919170637678711,
      -1.060786732362042,
      0.7680829224469313,
      -1.4369691193551841,
      -2.7232885379601073,
      1.9140975551497454,
      0.7869519220420508,
      -1.2225145723662605,
      -0.3633473918331225,
      -1.1865196894240475,
      -2.9081824975352872,
      0.29740680261010943,
      0.18121669210015656,
      0.25764886376759905,
      -3.5210413352104624,
      -0.5259438900567713,
      0.5183586475243582,
      -0.26714227731236434,
      -0.20061664468942292,
      -3.098645678903526,
      1.9680620623146579,
      1.993365516108645,
      -1.0012729117961257,
      3,
      -2,
      1,
      3,
      -0.9964189605016592,
      1.9987139065829767,
      -0.08002821442865134,
      -0.288431875079907,
      1.4383013767501809,
      0.09700175655017927,
      -0.23756232594057614,
      -0.3226768009399885,
      -2.2246941202387647,
      -2.1536717573173743,
      0.15886031063064077,
      -0.47200964724794586,
      -0.4149268071741339,
      1.3922080968021768,
      1.409509380856601,
      -3.4655369585598397,
      1.49417729009371,
      -0.42191598202658986,
      -3.2389257026519234,
      0.8257442589035326,
      0.8996963245816417,
      2.9631533133200505,
      0.9927249164286542,
      0.00047638446765748327,
      0,
      3,
      2,
      -1,
      -1.9902976274394102,
      -0.9859573574521346,
      -3.0539803430412027,
      -2.2668312018595302,
      -1.554925350864692,
      0.024744848424879104,
      1.7134874446259494,
      -4.256274143180833,
      -4.188973631229346,
      0.8333399141677782,
      2.1046039851549243,
      0.5585677494840939,
      -0.2750213892570291,
      -3.422648064644824,
      -1.4550226547639782,
      -1.417598076511635,
      -2.4585567806560906,
      -2.4389287768521934,
      -0.28261539239486017,
      -3.1608540022675444,
      1.8981049075656802,
      -1.0324303630994496,
      -1.009982245247893,
      -1.9991777760897327,
      -2,
      -2,
      -1,
      -1,
      -2.98123995538169,
      1.0373039398512038,
      2.0146189267666763,
      -0.16089245360975116,
      -2.447149093914807,
      -2.8495893836101693,
      0.910972143522043,
      -2.221318966782008,
      -2.259234285799483,
      -0.3168099117264431,
      -3.0714854040409643,
      -3.644172808516052,
      -0.5069717984559114,
      1.5059778787911013,
      0.5743865752222552,
      2.7021718004996296,
      -3.3759098580212563,
      1.5432237233941897,
      -0.27421760818356367,
      -0.1444910152686241,
      1.9262122491812603,
      0.9772289936420028,
      -0.0019015292111709272,
      -0.9958764244122573,
      -1,
      -1,
      0,
      0,
      1.0180366703061232,
      2.0686265843073897,
      0.04942024282881503,
      2.9602110988931085,
      2.6894561626643414,
      -0.5900113665501582,
      0.22884494553527712,
      -2.8849458670354604,
      -2.025280822719239,
      0.8257152181926283,
      0.8945345033746036,
      -2.899219998589306,
      -3.7504773928729724,
      -0.6840162201029188,
      -2.517434335030047,
      -1.3455483724903605,
      -1.3853034220293843,
      -0.316167721791722,
      -1.190473805652233,
      -1.098770801223166,
      -2.044977501214659,
      -0.008473575644140962,
      0.0003827567682259535,
      -0.9954326709285887,
      3,
      -3,
      1,
      3,
      -1.9809885183476497,
      -0.9356238259428602,
      0.08867617945435531,
      1.0383668642865038,
      0.8425538728807699,
      -2.365884068929589,
      1.6710302212652974,
      -0.3219506518268249,
      -2.4910647960902916,
      -3.724480029468774,
      0.17468618905980485,
      1.150312522865116,
      -1.8181844615227059,
      -1.7717066314304304,
      1.307188064004063,
      -0.48350774558482307,
      -1.3895471193713362,
      -3.300270568576386,
      0.8634320313886469,
      1.9231822813349906,
      -1.0411308773479522,
      3.0029293748515173,
      1.0127965472951939,
      1.006648037547006,
      -2,
      -2,
      1,
      1,
      0.018514351208845113,
      -1.936284607070098,
      2.1128090539679873,
      0.09856678385381919,
      -2.012840492806339,
      1.9242136403079684,
      -2.981851791341742,
      2.0480574130545137,
      0.9381060194043891,
      -2.1566377111873316,
      -2.3071225515613785,
      1.5206662120117835,
      1.4809511806073343,
      -2.7097196855841483,
      2.27055388050685,
      -3.5566362414455233,
      1.5274206956618124,
      -0.3540691680988623,
      2.849769559629431,
      0.9422511772934306,
      2.97016964142384,
      2.001044301303307,
      -1.9807941473130448,
      3.0171039022647768,
      2,
      0,
      1,
      0,
      -0.9878121528989964,
      2.0659849714377696,
      1.1193257602822326,
      0.16602541520290884,
      2.167135243627313,
      1.148821559903431,
      1.271936895392762,
      -1.6560978826509214,
      -0.7643100172060662,
      3.1220104877481916,
      1.100391101145481,
      1.9290536450145683,
      -0.23663544214731475,
      2.5515030809946557,
      -2.5183201618041298,
      -1.4894760556447653,
      -1.4626172671230984,
      1.6657874571310352,
      1.84476584060703,
      -3.059225344899266,
      -1.0393893851717655,
      1.9846581092869577,
      0.0018335580368827739,
      -2.9861413545661906,
      2,
      1,
      -2,
      2,
      2.008873346641622,
      -0.925146596376606,
      2.1517287832349834,
      1.2344036061404204,
      1.308228180833177,
      -1.6565647206465715,
      0.3637389981032602,
      1.297821038091924,
      3.2109083341058446,
      1.2138857269062966,
      -0.8149040566143455,
      2.0431920976814633,
      -2.2269902450331176,
      0.6509938992171547,
      2.5773864576225747,
      1.5302801251003255,
      2.6191540971805005,
      -3.1839623765835094,
      1.9328605340601357,
      -2.0785514679572294,
      -0.060651616804581934,
      -2.042551616275073,
      -0.010109097152268322,
      1.0077155771779316,
      -2,
      0,
      -2,
      0,
      2.012206129062895,
      -1.9373402356917915,
      -1.8821290458099915,
      2.201446752263194,
      -1.729352899346137,
      0.3335559648926743,
      -0.7094682429042403,
      2.1088900866653266,
      -1.9986874120285283,
      -1.035566146190868,
      -0.044536715200951676,
      -0.1303054744059962,
      -1.2783391615452135,
      2.620373220436435,
      -2.389411414479449,
      -2.4557573636229764,
      2.696100191872181,
      -0.10107546261496957,
      -3.008473057442382,
      0.9454399050315243,
      2.9658937835020036,
      -3.012142407944972,
      -1.001462515544713,
      1.0048977012915403,
      0,
      1,
      2,
      3,
      1.0097000325846086,
      2.0434698876034436,
      1.076212047539657,
      0.10785933614510922,
      1.134256580076018,
      -0.7948811661219609,
      3.1596591030498753,
      0.013384225134377365,
      0.9041492406768511,
      -0.18175944021562876,
      1.7739111329839565,
      -3.247575788842413,
      -1.3043354928641688,
      -3.3319555501807137,
      -0.33814635693546924,
      -1.4005707107564367,
      0.7225368409420379,
      -0.07641615863935611,
      -0.04534564388820047,
      -1.060033571322041,
      -2.0224886202458108,
      -0.9809962427589419,
      0.009694256933549618,
      2.0124300902822867,
      -1,
      2,
      2,
      -2,
      2.003113060802965,
      0.02428521395631169,
      0.048239466129837476,
      1.0726897461315958,
      0.1098910295628392,
      -0.8469674916708337,
      -2.8944686444916727,
      -2.9862505035440323,
      -3.0659917500388394,
      1.917512480997105,
      2.836037311238377,
      1.801620893011615,
      2.7357981920996783,
      -2.3096800088051843,
      0.6774878654805615,
      0.6818825460671876,
      -0.19528230757020246,
      -1.0646904758915494,
      -2.063119360677076,
      -0.03975843802167472,
      -3.0054807487873214,
      -0.9917087973298196,
      1.0107577654402087,
      2.0143083514899516,
      0,
      -2,
      3,
      2,
      2.0016068815161225,
      -2.9895550434838682,
      -0.9766139848468437,
      -1.9572156292377008,
      0.06151083273585606,
      -0.9300047389654266,
      -1.9481702483246446,
      -1.0176210590424377,
      0.922943205644888,
      -0.10738972064380815,
      -1.1098490747244896,
      -0.152588928479933,
      -3.219798525043848,
      -3.262250186120207,
      0.7352007988359233,
      1.7666412483077916,
      -2.1444093391766392,
      -2.071780856886827,
      0.9626885471177645,
      2.9822244658928683,
      -0.9807661714516662,
      -0.9890872110629351,
      1.0088201003203938,
      0.007920334730640934,
      0,
      2,
      1,
      0,
      -1.9998556445765452,
      2.0054129850044196,
      -0.9931466737494716,
      1.0158689758545252,
      1.0191220372017233,
      -0.9866981200703117,
      0.007752663254799046,
      0.9853202406901355,
      -1.0516451925000423,
      -3.089093193277707,
      -3.0929645722406,
      -1.1020223222680265,
      -1.1440334048617113,
      -1.1485457629189149,
      2.857578847299899,
      -0.11709827802741861,
      1.9181664257592974,
      -2.040169159068539,
      -2.0120342798112225,
      3.0141998332092093,
      -0.9731535587740395,
      -0.9774427274745293,
      3.010806063506726,
      2.0091340429926046,
      -3,
      0,
      -1,
      0,
      -2,
      -2,
      0.0013044912226976254,
      -0.9911835274241552,
      1.9992886916854642,
      -2.0081218734053863,
      -0.016420169598080167,
      -2.038516416312915,
      -2.037253197333061,
      2.943704590446881,
      -0.05181725952967984,
      -0.04200053875905163,
      -2.0641179080075727,
      -0.06150274261045696,
      -3.052406266688628,
      -1.0525007358602547,
      -2.0335992530034637,
      -1.0031594208927395,
      -1.9883761412846108,
      -0.9737792593677767,
      -0.9849085856449508,
      -0.9849197413317828,
      0.008454423104270836,
      2.0080611026478223,
      0,
      1,
      -1,
      -1,
      3,
      -1,
      -1.9996091790147994,
      -1.9980430790329715,
      0.00603808658308463,
      1.0028986042591663,
      1.994325623225784,
      2.985210254863942,
      -0.010249444919890114,
      2.988297101114073,
      -0.004380258177920821,
      0.9895596437640835,
      -2.0193060640646965,
      -3.003937853069846,
      -1.0005837588359183,
      0.0034993928290547095,
      0.0037465421541325278,
      1.0150570611791112,
      2.0140683440901803,
      2.023761062818362,
      -1.9812243428395024,
      3.0061584204761576,
      -0.9891029129440827,
      -2.9930504515649887
    ],
    [
      1.8142384429537677,
      0.8554317320965928,
      -1.5636681513324224,
      -1.7332342094539066,
      -2.3815374472102224,
      2.465458351981715,
      -0.18404525169108638,
      -1.856714253492159,
      -0.17681509722352898,
      -2.044141463785633,
      -0.05279193905547612,
      -0.6534289587498834,
      -2.5287862848072944,
      -0.8938288399500149,
      -2.7680439907975827,
      1.029573058698517,
      -2.012819666620241,
      -0.01786669580057795,
      0.9832982526796246,
      -0.019617510614326133,
      -0.015120271871195901,
      -3.0057399047853286,
      -2,
      2,
      3,
      -2,
      2,
      2,
      3,
      0,
      1,
      -2,
      0,
      1,
      -2,
      0,
      -3,
      -3,
      1.9998882667328175,
      -0.0013383966879612146,
      -2.005724938804356,
      -1.0189860519601917,
      -2.0471679966898946,
      -1.073397915779767,
      1.8904586237035954,
      -3.123212515329697,
      0.8889485220440362,
      1.9144583879236605,
      -2.0576868634663597,
      -1.024175195887597,
      -2.003308767829743,
      -0.999853289626333,
      0.00018620932042351216,
      -1,
      1,
      0,
      2,
      2,
      -3,
      -2,
      -2,
      2,
      0,
      3,
      2,
      -2.000336093727239,
      -2.006247488616533,
      -0.02524053317681726,
      -1.0802366242584873,
      0.8451226687438166,
      0.7640936296800458,
      1.7117674475246698,
      0.7095267623064807,
      -0.26978309317198557,
      -0.2010831646881071,
      -0.1589101875282471,
      -0.1194625706339059,
      -0.06380932848994629,
      1.9770835582892974,
      -0.002238852930854887,
      2.0006962027443467,
      1,
      -2,
      -2,
      0,
      3,
      0,
      3,
      2,
      1,
      0,
      0,
      -1.00037767209041,
      1.9918850703902424,
      0.9649123165692371,
      -2.110080769831008,
      -2.205750902710096,
      1.7137541510223306,
      2.6597627876422347,
      0.6241853456469032,
      -0.36326501250960774,
      0.7198509911833427,
      -2.189934575394643,
      -0.13000903033280364,
      1.9250126771359124,
      0.9270626983079779,
      -1.0454770945228011,
      -3.0106876130275606,
      -1.9967142200747563,
      2,
      0,
      0,
      -1,
      3,
      2,
      2,
      -2,
      -3,
      -3,
      -3,
      0.9928544712922803,
      -1.0207445170981684,
      -2.0426523998014154,
      0.9407462191863674,
      -1.089026083938813,
      -1.1580313355217238,
      -3.256340488136137,
      -0.34815039515853496,
      1.6621927101731813,
      1.7851758234223327,
      -0.08255284216623912,
      2.9883649075915706,
      0.04552246010080096,
      -1.0041105968484696,
      1.0161021358506794,
      1.0141181858040735,
      -1.9919098301475442,
      -0.9995174652544253,
      1,
      2,
      1,
      -1,
      -3,
      0,
      -3,
      1,
      2,
      -1.0001461486263257,
      -2.021415780013311,
      1.9561446164345273,
      -0.9454786862016309,
      0.18877404795541294,
      -0.7983122509165405,
      0.06206435527878998,
      0.8704011357996928,
      -2.224528997007023,
      -1.2289714132292,
      1.8393008678720093,
      -2.9964313234052264,
      -0.8875427016226889,
      -2.944506330616937,
      2.058212409527589,
      0.07870393773284931,
      -0.9444948745622718,
      -0.9879280610964362,
      1.0000773326393242,
      -2,
      -2,
      3,
      0,
      2,
      -2,
      2,
      -2,
      -0.00030333667836925364,
      -0.00421201185013775,
      -1.0654984682188893,
      -0.01807060603711549,
      1.1051647736105412,
      1.2223741691221595,
      1.2362683142310333,
      -1.904687504047905,
      -0.1609220347181962,
      -2.4600513173013954,
      1.469708992539856,
      1.41561316549226,
      -0.297895966857603,
      -2.0868094296629565,
      -0.0843985993100061,
      0.9820212116471976,
      -1.9071867270904588,
      0.057960362418024505,
      3.0042654817439503,
      3.0005378685058783,
      2,
      1,
      -2,
      1,
      -3,
      1,
      -2,
      2,
      0.001015893063033558,
      2.985782981700316,
      -0.06728777073136497,
      -0.102944834976101,
      2.909598258976389,
      0.901464925822864,
      -3.2147165846742407,
      -1.4101651676433027,
      -1.6854641721535997,
      -2.901064001131532,
      1.0752606896258794,
      1.0803662652742834,
      -0.4857096204043103,
      1.8259837270222548,
      -1.158552461614492,
      1.9519210049590152,
      1.0704473363713696,
      -1.9310564699854929,
      -1.9954716044485776,
      -1.9992310640124789,
      2.999994467289574,
      -1,
      2,
      -1,
      2,
      0,
      2,
      3,
      -1.0037026308639034,
      -1.0346170800301069,
      -1.1392302546141768,
      1.7504712088412806,
      2.5767912714509156,
      2.412404609456783,
      0.42952584622348716,
      2.223896176719099,
      -3.068955255131487,
      -4.046950127452975,
      1.1736740278181261,
      0.3663581777500772,
      -0.23170608248226804,
      -2.0075834570697677,
      1.8830487265428586,
      -1.037020452196582,
      2.0685238534042973,
      -1.9412940442311075,
      0.9937248652052412,
      2.9963519792087605,
      1.9988301379858486,
      2.9985954315008354,
      2,
      -2,
      -2,
      1,
      -1,
      0,
      0.9917344481996372,
      -1.086281698541145,
      -0.29766434006754844,
      -2.489530539502356,
      0.2796917299717287,
      0.021942555433864606,
      -3.7465301991800986,
      -0.75346310847176,
      -3.1239912187386776,
      -0.9587965084790067,
      0.5148901300401948,
      -1.309235747881282,
      2.8705242153598456,
      -1.0648801225766331,
      -1.1119613039133616,
      -0.9896586955293949,
      1.0416917596198092,
      -2.9997638262742297,
      1.971410782957175,
      -2.02472610264871,
      1.9858758783161818,
      1.9912592545699104,
      -3,
      0,
      -2,
      2,
      2,
      -1.0003067034111421,
      1.9777741415160546,
      -0.17343391615925544,
      -2.483957993150299,
      2.2419688234588198,
      -2.259677452733278,
      0.4393380935573445,
      -1.3453566212172883,
      -2.406098956440372,
      0.44389847603271537,
      -2.154162799550426,
      1.5592658493851626,
      2.810395733754163,
      0.8605802983292536,
      0.9490135984711434,
      -0.0037350777121731436,
      3.055677995836464,
      1.0235361115590127,
      -0.02555278043663853,
      -2.0459587033553617,
      2.9631226637121855,
      -1.0189553376580711,
      -3.0087010974221218,
      2,
      2,
      3,
      -2,
      -3,
      -2.000815471721645,
      -0.06459946981596411,
      -1.2991671747183708,
      -0.6714464966183634,
      -3.215623216964796,
      -4.959495971222249,
      -0.3181095240187031,
      -3.2697590261463536,
      -1.4207173247308928,
      -0.2590151811121914,
      1.395479616439659,
      -2.8748842459426007,
      0.4431969643232557,
      1.5893718506227676,
      -1.2189078590172606,
      2.9358510178010384,
      0.012635681033586877,
      0.9758908665265315,
      -2.0826362342279894,
      -1.0801706096974442,
      1.9502721895319752,
      -1.0141555916406195,
      0.9929260754244114,
      -2,
      3,
      1,
      0,
      1.0018901782416698,
      0.985632894340297,
      -0.11503790000573055,
      -0.418022807857767,
      -2.8858575529967476,
      -1.5818923501035838,
      -3.4499138908325837,
      -3.809056124910272,
      -2.793050946459633,
      -5.048354786278165,
      -1.770074721296806,
      0.10594402100833164,
      -0.11593644526454237,
      0.146385596943003,
      1.264803088057267,
      -2.489564930014493,
      1.6706727177175027,
      1.801416493451891,
      1.845750195447827,
      0.8183592731141315,
      -3.120370037359146,
      -1.0793883496259316,
      -2.025483200522192,
      -0.007577283823527873,
      2,
      0,
      -2,
      0,
      -1.9949491993563642,
      -1.0070332023375468,
      2.850620382397313,
      -0.4937919075271432,
      -3.018946103157205,
      -2.7622998529301226,
      -0.5412518369878021,
      -2.896757235874053,
      -0.829624725586331,
      -0.820068968104529,
      -5.434483816589183,
      -3.5614948950644143,
      -0.8931057778406265,
      -3.6595762964575744,
      1.2296689718104896,
      1.273880879520143,
      -2.561113576635889,
      -0.35415390567825145,
      -1.3299754383299902,
      -0.27485367350102047,
      2.8346601067043715,
      0.9088501597847238,
      2.972091207261722,
      -2.0019944469566187,
      2,
      1,
      0,
      0,
      2.0123011244196687,
      -2.00174041153593,
      -2.1329344418417873,
      1.5235495345000343,
      -4.026232667944663,
      -1.7917198500121885,
      -3.454615923060165,
      -0.6400396843726257,
      -2.566276461091713,
      -3.514087222821779,
      -1.0979192670087157,
      -2.3177953179703636,
      -0.6368745708356589,
      -1.5571836597887818,
      0.2611747267598407,
      -0.7126025047182605,
      1.337106748093476,
      -1.5830817617977606,
      -2.5108271415729644,
      -2.3437713364985937,
      -0.2117612249105301,
      1.896184121397736,
      -2.0362660992111454,
      0.9977908565785251,
      -3,
      -1,
      2,
      2,
      3.021559508114766,
      -0.9924181256453435,
      -2.068718173979778,
      -1.3668212271511786,
      0.11940441049365641,
      1.4212680822978445,
      -5.064383917219842,
      -4.220058544432275,
      -0.20500496487905634,
      -1.2677402147128298,
      -1.065047705574545,
      -1.388819104057325,
      -2.8053295635326,
      1.2356622137832707,
      1.225422637661632,
      1.4623168005990093,
      0.39602003628950494,
      0.2833247498501961,
      1.3809817464169738,
      1.5949121045699801,
      -1.2069374090825367,
      -2.106914915905488,
      -0.025935280303406374,
      2.001456772881394,
      -2,
      -2,
      1,
      0,
      -1.983904537916785,
      0.0425293741363585,
      -3.019162872159554,
      0.7775998504917346,
