{
  "input_neurons": [],
  "layer_one_neurons": [
    0.981,
    0,
    0,
    0,
    1,
    0,
    0,
    0,
    0,
    0,
    1,
    0,
    1,
    0,
    1,
    0
  ],
  "layer_two_neurons": [
    0.361,
    0.956,
    0.115,
    1,
    0.074,
    0.506,
    0.001,
    0,
    1,
    0.222,
    0.621,
    0,
    0,
    0.615,
    0.553,
    0.492
  ],
  "layer_one_weights": [
    [
      2,
      0,
      -3,
      0,
      2,
      0,
      0,
      2,
      2,
      3,
      2,
      3,
      -3,
      2,
      -4,
      -3.029212975935871,
      3.9411299262964343,
      -1.0755456958967369,
      -3.1230866071818832,
      -0.22564100838177867,
      -3.171251950867522,
      2.959362987973984,
      -1,
      2,
      -3,
      3,
      -4,
      0,
      4,
      -3,
      2,
      1,
      1,
      3,
      -1,
      -3,
      2,
      -3,
      1.9865994057858634,
      2.9207766675239886,
      -3.274483624702149,
      3.2154505589585023,
      -2.4719159020374972,
      -5.000907067186735,
      -0.3565978443847711,
      -6.331614919300441,
      -3.9236779287077206,
      -3.5486159738959024,
      1.0217566852073745,
      1.606220973072377,
      0.9097752763804642,
      1.0145798979502805,
      -1.9996251360303494,
      -4,
      -4,
      4,
      -2,
      -2,
      -1,
      3,
      2,
      2,
      -3,
      -2,
      4,
      2.960882269230588,
      -0.2500493421820558,
      -0.08422719127515615,
      -6.799113069073829,
      -1.8280931578426451,
      -5.267073746555807,
      -4.920653623712405,
      -8.989582802692793,
      -7.714515492348358,
      -2.616654733017938,
      0.40148261193729234,
      -2.8350603919851367,
      -1.2905334877152992,
      -0.9012064174935299,
      -1.8616398365049858,
      -2.9494364305036997,
      -3.996564366368206,
      -2,
      -4,
      0,
      -1,
      4,
      3,
      0,
      0,
      -1,
      1,
      0.9597087223537238,
      2.663767486002769,
      1.4794590050064358,
      -0.3491486538709443,
      -8.359289347890812,
      -11.542773426385557,
      -7.722380971811457,
      -6.792130828745034,
      -5.929496631085769,
      -3.411778665673873,
      -4.040331672482797,
      4.380735989749186,
      1.4511766331735454,
      3.6485732119764367,
      4.70524408464454,
      4.405935995722949,
      -0.9228989004512829,
      1.998578835301984,
      -1,
      -4,
      1,
      4,
      -2,
      -2,
      0,
      -2,
      2,
      1.9855646422349926,
      -3.2452666742118033,
      0.00471508167664181,
      0.6615608567212633,
      -5.936504218844007,
      -7.465326503661915,
      -2.954809922155823,
      -1.0750379216235166,
      -1.2616141177909759,
      -3.774474052543823,
      -3.4402844704746633,
      2.7930618564760463,
      6.3992885732901925,
      -1.9312582605926865,
      2.0481657504729824,
      -1.0380690853040173,
      2.8641556421574785,
      -2.8464441846277277,
      -3.0068344185669083,
      2,
      1,
      0,
      4,
      3,
      3,
      0,
      0,
      -3,
      1.9601704933809354,
      -3.6865865744701805,
      -2.1123813237087705,
      -0.8319866962387241,
      -0.12098625951816887,
      4.6228658628115005,
      -3.3966653405470275,
      -2.6151866666465495,
      -6.682708704951259,
      -1.9626328287173103,
      -0.1359151361050448,
      3.513134701495059,
      3.2489126073949817,
      -2.3820341420242754,
      0.24223536870285686,
      2.8579173103957554,
      1.0733579992319389,
      0.20266798843067546,
      -1.0240790969386675,
      -1,
      0,
      2,
      -2,
      4,
      2,
      -2,
      1,
      1.985751436079071,
      -2.2400191383355246,
      -4.154098492172693,
      -1.4851031555723342,
      -5.409322959607405,
      -1.8261250573717804,
      -5.269256093225814,
      -3.013410065478901,
      -7.22241012071192,
      -4.753710391385708,
      -3.1060234812618375,
      2.603048211403471,
      3.5796344754241884,
      4.052426115613516,
      1.9009044638176695,
      0.39716094696863186,
      0.5872280435499098,
      3.8981739878370023,
      4.130049161589819,
      1.96545720855566,
      0.9966868318312413,
      2,
      -4,
      -1,
      1,
      1,
      3,
      -1,
      -0.0956358516935213,
      -1.971872773834996,
      -2.720513844801197,
      -8.489368112392228,
      -9.62375677746243,
      -2.5033670813071933,
      -3.7853324141760964,
      -4.7549139373648455,
      -3.2783793061256845,
      -3.297908158808063,
      -0.16468215534730438,
      3.988848959473323,
      9.083332429731968,
      1.1398126483859652,
      5.694322645756476,
      2.661736460241975,
      0.4977653955156656,
      1.3469754831098852,
      -2.11204054041842,
      -1.0541391410955638,
      -0.016712289453423405,
      -1,
      2,
      -4,
      -1,
      1,
      -3,
      -1,
      0.6699966098945708,
      -3.7661527899782783,
      -10.826334702626584,
      -6.275499942633348,
      -9.261572747012595,
      -10.391517570675884,
      -9.474812068356902,
      -4.010885923584781,
      -3.82253851794245,
      -3.9328196104138047,
      0.7532176727260976,
      1.8873272568635762,
      9.495980773946906,
      1.6377028173021093,
      1.3373871825281434,
      0.15314273185876917,
      4.222630638720633,
      3.1906341395491724,
      -0.23560741256798912,
      -0.17354068916465998,
      -0.038246490592227476,
      -3.003920939093916,
      0,
      -2,
      1,
      2,
      3,
      0,
      0.48827208321717586,
      0.2479032010359869,
      -7.6481727213854285,
      -13.057108060188872,
      -12.437662191225062,
      -11.872551741336808,
      -1.5420450673560895,
      -3.003086271348605,
      -2.1302111014215765,
      -0.688584584299601,
      0.19833854960767278,
      3.639998291641968,
      8.573301059883498,
      8.027790645427572,
      1.634376679333614,
      0.06785622320473013,
      0.06600866853283242,
      -1.773412471253654,
      -0.20944168881641906,
      1.718321254848181,
      -2.090689850060003,
      2.9915131015378487,
      4,
      2,
      -4,
      2,
      -4,
      -1.000245245430096,
      0.391767562470878,
      0.5949374783403527,
      -7.60413307886565,
      -9.171147276984172,
      -12.411266824013914,
      -10.885324700820812,
      -4.3806190212161455,
      -2.1177223366793867,
      -2.846845528896822,
      0.9103604634185378,
      3.744184508981151,
      7.0388706575009365,
      10.901267883481477,
      8.510909779711577,
      4.583590119489165,
      5.722820968097707,
      1.77335307474397,
      -1.9769235130942147,
      -2.3732117995654702,
      -1.57563373116918,
      1.802748994801448,
      -3.0597114943747306,
      -1,
      -2,
      2,
      -3,
      1,
      1.0742715415554869,
      1.417237944949356,
      -1.247841780967275,
      -10.0376703391833,
      -14.581016209050352,
      -19.173184817580132,
      -20.722833307938366,
      -17.35172754841664,
      -9.65273561941659,
      -11.140097811194506,
      -5.48504531849753,
      -1.7488399066783868,
      10.315204542469557,
      11.015673597228037,
      12.498157259929526,
      7.171552430285198,
      5.366302234166235,
      -1.9428992702325125,
      0.016492118027863652,
      2.2131550504474893,
      2.3249314325374786,
      -0.28477965423744045,
      -1.0780822380477493,
      0,
      2,
      -3,
      2,
      -3.9068244054345755,
      -0.6846140727970792,
      2.3446077513421475,
      -0.9645997783902417,
      -6.540234750505904,
      -12.05054870065215,
      -20.19374675807801,
      -23.52982214867321,
      -23.96391764144916,
      -23.995417921405913,
      -13.164373766156672,
      -7.416196523224166,
      -0.9804510976455922,
      1.8477741089693185,
      4.1099950926953905,
      2.2094407363387223,
      4.8113222234521285,
      3.2606353781855937,
      1.383479065439629,
      0.3579183894709396,
      2.2044941086518395,
      -3.7087944699246536,
      -4.373864299198374,
      -0.10232724703333111,
      -2,
      3,
      0,
      3,
      -1.776347042474555,
      0.40691798161119863,
      -1.5261233817514595,
      -1.8911183518209882,
      -7.941116055711672,
      -8.701277206312268,
      -20.88380379816386,
      -20.350497019638272,
      -19.608480519658745,
      -20.191102353233532,
      -10.5003429505479,
      -9.076068208413293,
      -1.8993027144127106,
      1.086942595705256,
      0.3722870141750677,
      6.0568108973799335,
      3.350374312247473,
      1.9835844626137273,
      0.44459054977581847,
      -1.248232450486809,
      -0.8885013366729418,
      -0.7327355131316341,
      -0.37593580495465023,
      -2.1251472211820235,
      -2,
      3,
      0,
      -3,
      -3.825748777771717,
      -2.746058697682525,
      1.6980114777809434,
      -4.622871844582622,
      -9.791717452868836,
      -7.604810012731321,
      -19.1596331919874,
      -20.37092771493182,
      -15.057659208936949,
      -17.91440997575622,
      -5.26607690616016,
      -1.0391148346226133,
      5.520113374567526,
      6.2618237134727615,
      4.131282154930989,
      2.0144591596164148,
      2.2536063637875783,
      -5.007991747878459,
      -1.1071980997188158,
      -0.1565512266382714,
      2.9665000271877537,
      1.341447179277461,
      -4.398686752173002,
      -2.115376524334689,
      1,
      -4,
      -4,
      -2,
      3.2176000067059047,
      -1.4494243751281155,
      1.2458208914054683,
      -1.112893853915987,
      -9.5155702376658,
      -10.158880555513568,
      -14.028477950325303,
      -11.36433375502663,
      -12.703592012789139,
      -10.223043132355555,
      -3.3120456259158164,
      0.8728219562595011,
      7.0721496017841385,
      1.8473786663506842,
      5.706054993405109,
      5.627717239413093,
      1.7009342881484328,
      1.3787172359092652,
      -1.2160550277783984,
      -4.36931898025228,
      -0.9906297579746576,
      -0.6169870133695657,
      1.6427642089024477,
      1.8507579852953633,
      -2,
      0,
      -2,
      1,
      2.162622432801726,
      -0.39676895059945777,
      2.30264807262562,
      -6.377396420123742,
      -9.78269027761274,
      -12.145526388242292,
      -13.745783517643993,
      -7.886591974037521,
      -6.254803526070618,
      -8.282798991639336,
      0.12596385886582254,
      2.5761415795183766,
      4.24462444292827,
      0.741643528729267,
      1.6504471769032516,
      -2.1099507756014533,
      4.4360831681165545,
      -2.5750772610268937,
      0.7392255886255931,
      1.5750216784574487,
      -4.246005273484887,
      0.441908268623556,
      -3.223942484871157,
      1.9450079066675696,
      -1,
      -1,
      0,
      4,
      0.15993982421426847,
      4.449790480038999,
      2.778039355916155,
      0.03210513318401944,
      -4.045510922113594,
      -8.926999373231867,
      -10.331922961706974,
      -7.02896031429893,
      -6.655789579609439,
      -5.411722563510585,
      -1.617563106978231,
      1.9264409136217409,
      4.410428300142266,
      0.7199170121902956,
      4.914108595374112,
      -0.3681023852599465,
      -2.0515271737118512,
      0.73911325299055,
      -0.3156807560282875,
      -1.2394061633136653,
      1.5916585111752735,
      0.5514383064719692,
      -3.1909750094041986,
      -3.1026596457617606,
      2,
      3,
      0,
      2,
      3.0982630900558,
      0.005338500048032227,
      0.8204132867973374,
      -4.08667880627027,
      -5.2048481309223265,
      -10.049368196718401,
      -8.345894718718432,
      -6.783345546147558,
      -6.229289612264241,
      -4.591505288777479,
      -3.5654624095612406,
      -2.161337011390806,
      1.582505462807083,
      -0.534982758904577,
      4.7103901493295695,
      2.9269202303033524,
      -2.007053700448979,
      -2.508387422587371,
      -4.648067200809848,
      -0.9736796928156225,
      -2.9190886619455894,
      2.713451743123769,
      -2.0900236407500015,
      -3.132578240853788,
      1,
      2,
      3,
      3,
      3.1326100559548795,
      -3.389874842957825,
      1.3728944251069632,
      -4.704977723204955,
      -9.130465255350341,
      -9.400690885906528,
      -5.090079003793194,
      -1.4769739901725163,
      -6.398005374863459,
      -2.9827006616606186,
      -0.9459173319784702,
      -5.572915018851334,
      -2.484385311613626,
      -1.885637161260428,
      -0.10647247084462269,
      -4.2078030971020155,
      -1.5854464534789328,
      1.6909737556353572,
      -2.0730477069597137,
      -1.2565050605596155,
      1.1520219217075263,
      -0.03099863908059662,
      -2.7333915059788647,
      -0.025894717657874287,
      3,
      1,
      -1,
      2,
      -0.025624246463256135,
      3.596238614332683,
      -3.2780053597919654,
      -1.549270602048084,
      -4.719874535382062,
      -3.6060260733290224,
      -4.1232620005771015,
      -3.598639921870587,
      0.24445756864177803,
      1.2588418244120363,
      -2.3381119124624403,
      -1.9766988707992217,
      -1.8967926783213702,
      -5.447010280921218,
      -2.6214148277013147,
      -4.087240106423936,
      -1.8458563756915538,
      -2.442895972138843,
      1.3714042106674893,
      -4.7867215695371135,
      1.4797453808263317,
      -3.6512163730862763,
      -0.6647505076918233,
      -0.8580205270905737,
      3,
      3,
      -3,
      -4,
      1.0275705858208004,
      -0.48333387598137445,
      -1.5805749174709498,
      -3.511423271866102,
      -3.968034133278085,
      0.5168683306673927,
      1.8012559324730302,
      -1.683537294006142,
      -3.7482299436095725,
      -2.6964590550917316,
      -3.4019045300572954,
      -2.0624292918351115,
      0.8853347819177042,
      -2.753806218948817,
      0.8465723890256356,
      -3.931602966269835,
      1.4936950697371876,
      -1.3300529758304371,
      -5.02178852063619,
      1.514041377436872,
      -0.36674526182728895,
      -1.1479945370590237,
      -1.2806573029971462,
      -1.6678592418838003,
      1,
      3,
      3,
      -3,
      -3.0100107008070593,
      -1.1796177854611885,
      -0.27825314545391433,
      -2.0679019441069793,
      -4.540838836928427,
      -3.50673726021473,
      -4.042582213069925,
      -2.888434812291483,
      -1.3957077744812043,
      1.0701447009137897,
      -2.9593299851042416,
      -3.7860263362175246,
      -0.24969307622799586,
      -3.402029068175951,
      -5.192935114566559,
      -2.0104501957769423,
      -5.140407284002331,
      -1.9729413147692476,
      -2.4058454432173324,
      -1.4150705124059133,
      1.0767569361223475,
      4.334211103471698,
      -1.8680894982197045,
      -0.5472381310162411,
      -2,
      3,
      -1,
      0,
      -1.0046865421456916,
      4.0078557926090586,
      -2.374935217072229,
      -1.8206578162610532,
      -0.6548483958727053,
      -0.29012148954832084,
      -2.730254480019425,
      -1.5798528006770147,
      -4.186397754323533,
      -2.396723718389402,
      -1.965841429113515,
      1.208009114135677,
      -2.498689640881353,
      -5.936124851140486,
      1.0543490943693545,
      -6.598168414160602,
      0.7871853323377217,
      -2.064068839945773,
      -3.0337306831397317,
      -2.095239438730604,
      1.8837721366322184,
      -0.9186621553522776,
      -1.0128689619315834,
      -3.6268591980077427,
      3,
      2,
      -3,
      -4,
      -3.0272725819603092,
      -2.9350395477727633,
      -2.3531460934364343,
      -2.3477032678077046,
      0.44153540483489345,
      -1.4105645432432614,
      -4.74884106646634,
      -3.1940196128949188,
      -0.9732529106759595,
      -5.622886306623018,
      -2.496020406272845,
      -1.0102488734784099,
      -3.6775364939699138,
      -1.3637841878783907,
      -2.644743559498024,
      -2.9756862946068727,
      -3.1907189423085764,
      -1.9165142671984163,
      1.5464458693531016,
      2.4334408201215574,
      0.7881116806282846,
      3.670391132531433,
      -1.5673326972698058,
      2.1291107527362216,
      -3,
      -4,
      -1,
      -1,
      3.0404167160419657,
      3.0530117036966806,
      -3.312341829266774,
      -0.4121288315734517,
      2.137346944969901,
      1.917172447952214,
      -3.365642294691957,
      -4.9498248995609515,
      1.008875343986925,
      0.17139170594305625,
      0.630812016725144,
      -2.0025340663678133,
      -1.3390861520863184,
      -5.899784924318514,
      -5.571610433546687,
      -3.480998676718787,
      -1.745036791630905,
      -3.7744476371749607,
      -1.2789032796021822,
      0.22702115630819025,
      -2.269463337289073,
      -2.4036719884294326,
      -3.7787860733981455,
      -1.9304734801609351,
      0,
      1,
      2,
      4,
      -1.9945150824868703,
      2.0241849134970495,
      -0.3028248246217017,
      -1.5798887310482126,
      2.5708299740504037,
      -1.982893173742641,
      1.6756060656134935,
      1.464014926596829,
      -0.8223869927952833,
      -2.0972948936334754,
      0.07857445210049971,
      -4.059133401703564,
      0.8716358086851094,
      0.8665494580605512,
      0.32172535612003866,
      0.7394526535198642,
      -4.924053660600639,
      -3.389094482077565,
      -2.099466252568281,
      0.031519015788481555,
      0.22769775814833804,
      3.3899533281096694,
      2.360154541229977,
      2.108214624162583,
      2,
      -2,
      2,
      0,
      -3,
      3,
      -3.15819639407201,
      -3.3843383408346543,
      0.5105902935992659,
      0.26358892207724954,
      -0.9008015185165374,
      2.8636157318668274,
      -2.5041496243525496,
      0.4617030191421727,
      0.6184658239359214,
      1.8706018636455453,
      2.736247361020919,
      -3.993372984710593,
      -3.5712106488855033,
      3.4231949149480982,
      -1.4444566767409597,
      -0.32703992503893287,
      -2.2906856802575395,
      0.853207903256856,
      -3.0547720466313923,
      4.058694895201441,
      -2.8104055514216,
      4.155830908454016
    ],
    [
      -1,
      -1,
      -1,
      4,
      -3,
      -3,
      0,
      4,
      1,
      -3,
      1,
      0,
      0,
      3,
      -4,
      -3.0189117212859538,
      -0.08764941187322561,
      1.9114816730658377,
      -3.09463892433364,
      0.8501908981819285,
      -0.0690160201091276,
      2.99475740524219,
      -1,
      2,
      1,
      -4,
      -3,
      3,
      3,
      1,
      -3,
      -4,
      -1,
      -2,
      -4,
      0,
      -2,
      -1,
      -1.0186356172457425,
      -3.1610380197238936,
      -2.4936471116954793,
      -0.13054085552135197,
      -4.087170955623579,
      -2.74517231274878,
      -5.951701726178737,
      0.3794418291972302,
      -0.9906270534447952,
      -3.3866145334565965,
      -0.6550117701134865,
      2.772674496529316,
      1.9370551715897215,
      -1.994134417430786,
      0.00006177046570192037,
      1,
      0,
      2,
      -2,
      -3,
      3,
      -4,
      1,
      1,
      2,
      4,
      -3,
      -3.061212127621942,
      2.5349159956421876,
      -4.636647182492461,
      -7.159252301208224,
      -8.93095002448346,
      -6.355127514529643,
      -8.967785986057477,
      -11.954432972209155,
      -12.121458975083451,
      -8.366068768019856,
      -7.472000472166892,
      2.327868010259675,
      -4.4273820260380345,
      -0.911859768254045,
      0.9933483222490737,
      -2.980111206020056,
      0.9998715101892538,
      -2,
      3,
      2,
      2,
      4,
      -1,
      2,
      3,
      2,
      -3,
      -0.0701059706007457,
      1.3447982686257816,
      0.46812177522550197,
      -4.0221316260501165,
      -15.307783728683159,
      -19.73021677445091,
      -23.315388136728963,
      -22.050020229279202,
      -21.309577411387764,
      -18.242008542836047,
      -6.8348206940051,
      -4.836641823229502,
      -2.422503561048765,
      -2.602526818038003,
      2.6729970265329137,
      -1.7997213814929103,
      0.10613405394829019,
      -0.9758652510657583,
      2,
      -3,
      1,
      1,
      -3,
      -1,
      1,
      -3,
      -2,
      2.9842321340120472,
      -2.5839314110155884,
      -5.7540627273750955,
      -8.137120018256295,
      -14.452020806411058,
      -20.202608888877556,
      -17.336085653992367,
      -22.904316185500956,
      -21.020174136404133,
      -17.385725165990163,
      -13.527743894604777,
      -10.35519336388115,
      -3.824396237746272,
      -4.528582200678614,
      3.127208779065253,
      3.8245997802326896,
      -0.6462220700473392,
      1.2003745253954277,
      -3.940320787095877,
      3,
      -2,
      1,
      -2,
      3,
      -1,
      3,
      -1,
      -1,
      -1.2489957549625315,
      1.7461141497391577,
      -4.203644715821617,
      -11.480105664854547,
      -23.801041942254063,
      -17.024750481270388,
      -22.882310233548942,
      -14.309728386270471,
      -13.931317996329598,
      -11.723079332442738,
      -10.83313164695672,
      -13.039154507475503,
      -12.301053859966832,
      -6.263749190289489,
      -4.4897857153336105,
      -0.695498768884335,
      3.2354653388755996,
      2.1892815005736623,
      3.141793140255423,
      1,
      -3,
      -2,
      2,
      2,
      0,
      -4,
      -2,
      2.955439535583412,
      2.166151208415639,
      -5.849383215157088,
      -11.311316775331209,
      -14.169839460949424,
      -19.33986243050206,
      -23.55983935705182,
      -15.979365432419383,
      -19.13101451103706,
      -13.514875452799716,
      -11.403471668444723,
      -12.389858371012561,
      -11.12302323930489,
      -9.312376000436439,
      -10.45368985470195,
      -1.8315858380452412,
      -0.2658694542399014,
      3.1390281606739063,
      -2.6610651358943627,
      2.1732851357432987,
      -0.9828267942603935,
      -2,
      -2,
      0,
      2,
      3,
      -4,
      -1,
      3.8261146385014837,
      -0.8404249313042402,
      -10.982029746421807,
      -17.729959513141207,
      -16.43365065687137,
      -26.918316380193477,
      -26.87694250993917,
      -22.317433890218684,
      -19.98657466025727,
      -21.272292267727874,
      -18.910926832043003,
      -17.224837394070242,
      -16.27202111296164,
      -12.625935762207533,
      -10.03936853560358,
      -3.0352957933066933,
      0.4719998893415663,
      2.559697396169719,
      -0.4912265283650708,
      -1.730239584865443,
      4.086899433246635,
      -4,
      -1,
      3,
      2,
      -1,
      3,
      -1,
      -2.4549046658325553,
      -3.8918926025244094,
      -11.848438111283016,
      -17.25387652193088,
      -14.638616469564106,
      -20.131011311575016,
      -24.792985938492073,
      -20.655640536124363,
      -15.217342490389141,
      -19.990799049049258,
      -22.621489869540703,
      -21.42225978302845,
      -20.88659372971227,
      -14.554493612319364,
      -7.8886572841213765,
      -6.940886258624797,
      1.107984762434179,
      -1.3516650514342328,
      3.1068689902229405,
      -0.4291038294908374,
      2.1639878650713724,
      -0.9856981957018792,
      3,
      3,
      2,
      -2,
      1,
      -2,
      2.4049822385268773,
      -1.0492444306754667,
      -9.103114263831102,
      -3.6664465790014216,
      -7.88921152488523,
      -12.336948217529836,
      -6.108070877271695,
      -10.186948067927377,
      -5.901106694823004,
      -7.525312724400271,
      -17.206285099052373,
      -18.61033907404802,
      -18.520416734016518,
      -11.654007891429094,
      -7.49545415941211,
      2.4625008146197955,
      4.970437611298821,
      0.46354608719284696,
      5.645730051431631,
      -0.16371041225953456,
      4.336761138634729,
      0.030723362940554656,
      -4,
      3,
      -3,
      4,
      0,
      -3.9923550261849385,
      2.7691332227918917,
      -1.2459617835593306,
      -2.7851724966484936,
      -1.4156543122723702,
      1.175362146875865,
      2.430119217143851,
      5.214212577120691,
      4.801036578478707,
      1.397401493830705,
      0.025104239117221386,
      -6.670141561172653,
      -12.772710041845393,
      -10.178630367805948,
      -4.70213842697854,
      1.2247058644158968,
      -3.559420457667031,
      4.509048303718666,
      4.892838858880826,
      5.036632519314155,
      2.58956472948169,
      -2.3237398820095847,
      3.160583136845676,
      2,
      -3,
      -4,
      -2,
      2,
      1.2298617390522744,
      5.145428486429672,
      4.4124405088666325,
      10.349453273366507,
      11.987308188130092,
      13.285879838392766,
      13.079576510869263,
      7.960698610445508,
      7.021759712521634,
      1.6291873290851893,
      -4.465397339452093,
      -8.788136143393315,
      -16.626794231840382,
      -13.135158937284125,
      -6.35291517829152,
      2.1237955203282706,
      -1.0313591576903611,
      2.615779634719176,
      1.9644552944624596,
      0.9880459587142345,
      2.1748799135742303,
      -2.156761991323809,
      -3.7302349658912672,
      -3,
      -3,
      4,
      -1,
      2.0502769644772902,
      -2.4208892736860896,
      4.00414720309975,
      7.6524953774096875,
      17.9656245266,
      17.282195761657274,
      13.454491964670906,
      14.982789354742657,
      12.679317101593115,
      1.9875059789722007,
      -9.637209570083806,
      -9.666346152671679,
      -15.444367426274578,
      -16.455903323694763,
      -12.347104181840429,
      -11.555955049653303,
      -4.201531612345238,
      2.515792737485688,
      2.3517570763545756,
      6.035272338714484,
      2.5122997862410954,
      2.670296696991349,
      -0.7774817822122406,
      2.3697737399881125,
      -1,
      -1,
      0,
      1,
      2.1742535254073996,
      -0.13558502045240298,
      7.232011867245712,
      7.358311155250593,
      14.558694595621613,
      16.819142153911784,
      10.047325590657746,
      11.142078209134057,
      9.585149423881251,
      2.2622568394503646,
      -12.141280290329322,
      -16.378445297077985,
      -15.482385995593972,
      -14.626523516007673,
      -11.391448592763021,
      -6.770264031539805,
      2.60805261553517,
      5.718024062457711,
      4.639101039789584,
      6.369610128628513,
      8.768837505942319,
      2.843166142400255,
      1.2489104092503351,
      -0.5451203022019256,
      2,
      -2,
      -2,
      -2,
      0.8978861798392929,
      4.568333652795613,
      2.8901897922803172,
      2.938182139144434,
      12.95771245472775,
      10.83635104166423,
      12.920478820024428,
      3.6832460077753524,
      5.354180185894523,
      -3.0411471616164922,
      -7.876077654824109,
      -8.66400445363487,
      -12.80818669665097,
      -8.029869766831863,
      -12.037944826605655,
      -3.306336198472697,
      4.426441680243104,
      2.222825986485884,
      5.09115011171667,
      8.513361729511672,
      8.476469113152547,
      6.1161352299132705,
      2.1854992418631127,
      2.4307043036182256,
      3,
      -3,
      2,
      -3,
      2.7774045135599374,
      -0.17089661727667432,
      -1.2182116202533662,
      2.9158806952258924,
      7.105815556407306,
      6.724384390975412,
      0.23140390092741403,
      5.983270230566128,
      -3.20198580088032,
      -3.89731429593589,
      -5.087992323414673,
      -5.803007394928738,
      -6.9934312132696395,
      -5.333673914419689,
      -1.5099768280229051,
      0.3196754435850733,
      6.396289664556174,
      5.085122395576313,
      4.641006514299435,
      6.00742548105225,
      1.308658159631249,
      0.09068415754291687,
      2.320417874426157,
      -2.479243260956617,
      3,
      -2,
      3,
      4,
      -3.2590420332035075,
      -0.4663581426036673,
      -0.8686708845777059,
      -1.9155343597455934,
      2.5493578365050085,
      -3.1847632532792343,
      -0.8397890842245633,
      0.5399257587902431,
      0.06866832829968886,
      -4.197114089795533,
      -8.071585673837951,
      -7.079155043175604,
      -2.8062067819659062,
      0.45958108996733543,
      -0.47224648113753587,
      4.326776962899613,
      3.4839264066082376,
      6.54138855129335,
      2.725720643160869,
      4.67574366215198,
      7.709828984439114,
      4.7658262041650525,
      -2.5321109754771016,
      2.5046839362874533,
      -1,
      3,
      -3,
      -3,
      3.65131380984155,
      -0.28537033250262006,
      -1.1505339945235722,
      0.002259601807102503,
      -4.432669938518328,
      -2.3764732695220334,
      -1.879271259633684,
      -5.6726212719227345,
      -5.208025668852559,
      -2.123037003758696,
      -3.1547680775520037,
      -6.2396973695576,
      -3.658062917235454,
      2.8791560303409933,
      4.768211998273115,
      4.538869724125296,
      5.449437227619116,
      9.638736392142626,
      3.9363326080058174,
      7.484946410452927,
      2.127433741706075,
      5.932343624745281,
      -2.8259813335965016,
      3.391527194871616,
      -2,
      2,
      -3,
      4,
      -3.2445361905798897,
      0.3361052185739752,
      -5.740667768972787,
      -6.362541918570606,
      -8.469329055698484,
      -7.895610845358042,
      -8.416033599304146,
      -6.282799856152861,
      -3.58423289218855,
      -11.407032652276303,
      -9.92722825409006,
      -7.02268747222493,
      -5.114876053126204,
      1.1415341131659191,
      1.46966843609981,
      3.0392499026204507,
      6.711169881320849,
      1.9069191681320201,
      5.01892553310743,
      -0.5227372779493831,
      4.963293887558877,
      3.7326322415236435,
      0.011743792293548907,
      -0.6513327471776742,
      1,
      0,
      3,
      1,
      1.8424277540776561,
      -1.9333070289026018,
      -0.9072685163611579,
      -9.313779873133813,
      -5.598650258689906,
      -11.78551921164215,
      -9.361204523142053,
      -10.639227617270206,
      -9.793695897148323,
      -8.671499075459723,
      -8.648756745822451,
      -11.888934895464892,
      -3.0578605758514543,
      1.5370236216191338,
      1.061726453892209,
      2.5913468719651216,
      5.361841989633872,
      0.7372163879317245,
      0.3419539564697922,
      6.917316936155819,
      2.811153034055882,
      -0.9173970000893366,
      3.661250986650967,
      -1.7981435068884073,
      3,
      -1,
      4,
      -2,
      -3.2412614962520165,
      -5.473163791691233,
      -5.015996120918025,
      -8.056364731389145,
      -5.523930186118143,
      -11.465712962383897,
      -9.937817819416669,
      -9.668162201907217,
      -9.69355150085159,
      -7.568056079232831,
      -12.10046863427297,
      -10.548706464792042,
      -4.772249534319527,
      0.6232209952825741,
      5.054033812841393,
      1.9967290403068083,
      1.9968024413379157,
      -0.9143845809789451,
      5.431126493375843,
      3.0949118003569303,
      2.870330989183578,
      4.547707633370188,
      2.3788336651915096,
      2.020625631347083,
      -1,
      1,
      0,
      4,
      -2.0915464342038623,
      -3.3137573493650616,
      -3.616024361695957,
      -5.981709301372794,
      -6.954425143146638,
      -8.275793640917273,
      -8.402270396497537,
      -6.101797423112033,
      -7.9294894070981465,
      -8.11565963362978,
      -10.817627376559916,
      -4.8032991722828635,
      -1.4709202603823757,
      -0.7358015390066487,
      -2.8911996576123427,
      1.3630605155509765,
      3.479865509863361,
      -0.06824873106811907,
      3.4891552336440412,
      1.9432596166175844,
      0.8628211881792849,
      -1.439067389117583,
      2.927081735687146,
      -3.1725585996647214,
      -2,
      4,
      -1,
      -2,
      -1.060821574793972,
      -1.8531114436760212,
      -3.552868711716343,
      -9.02066700644275,
      -3.53860221153987,
      -11.194975716954557,
      -3.8334284303233948,
      -6.415060236974801,
      -11.104116414144714,
      -3.5261876368842815,
      -4.136830587625334,
      -4.151650567030379,
      -7.829969582838163,
      -3.5406843269704953,
      -3.2295117120513717,
      0.045722471957566,
      -2.992584473313513,
      -1.4754092856228884,
      0.847418535064544,
      2.0415477682399756,
      2.9589342919810027,
      3.7357527319816692,
      -1.3356844785493553,
      -2.2900199205490392,
      1,
      3,
      2,
      2,
      -1.0486245788352022,
      -0.729751671015068,
      -4.049806153641338,
      -7.352322856689175,
      -3.401750325502228,
      -6.19912035418163,
      -7.472247351801431,
      -5.478849258262291,
      -3.067251700736575,
      -8.049259866316008,
      -6.045185928510109,
      -9.983367384890615,
      -4.899072316870455,
      -1.3486423355383288,
      -3.402999489848339,
      -2.6202719611466176,
      -4.599489576021892,
      -0.4296686920251702,
      -2.3576085608405575,
      1.7981107968458094,
      -2.3732315692790786,
      -0.4417972494423536,
      -2.3984007109408276,
      -1.222772080415325,
      3,
      -1,
      0,
      1,
      2.949499658567876,
      -2.535333930378921,
      2.339360630702512,
      -1.0482834953168911,
      -8.32101851246481,
      -5.184211556926521,
      -1.980741473645033,
      -5.062294749605095,
      -1.1637782701403088,
      -4.104236090842632,
      -3.789193684301864,
      -3.1169370717934695,
      -4.261490585227171,
      -6.036559854763769,
      -3.119092250164597,
      -2.324682612251306,
      -2.7940028387664824,
      -4.622872916239923,
      -2.8312549596772625,
      3.2752112211537923,
      -2.3995277613858077,
      -2.39905654891511,
      0.7379763309234066,
      -2.125204416797757,
      1,
      0,
      -2,
      2,
      -1.0379887360052769,
      -3.2452866205191047,
      1.9953022764852069,
      -4.806531898454919,
      -4.658195157164983,
      -1.5770417004760653,
      -6.698462115974967,
      -1.903251116584895,
      -5.429444853453626,
      0.8499168332126172,
      -0.9785886037387681,
      -2.7329712663166608,
      -4.111175736409582,
      -0.5720886665120737,
      -4.548843702493066,
      -2.624858536425907,
      -2.604315225216037,
      -3.8837165856531337,
      -0.7047139708045659,
      -3.7119486070925425,
      0.5669433978915573,
      1.6357189057969295,
      3.899522637020964,
      -1.0692433766768215,
      -4,
      -1,
      -2,
      -3,
      -2.0040371567773065,
      -2.112882356801902,
      -3.4489081556191836,
      -4.985125627526097,
      -5.4705558954758615,
      0.5851419955027405,
      -3.596968257012356,
      -1.5130228136496853,
      -6.489446344691462,
      -0.3063971941474292,
      -1.5843247596474392,
      -7.421544606656228,
      -6.669299853489713,
      -5.469670845558165,
      -3.6472413796865237,
      -1.8585371155796473,
      1.7844248512438232,
      -0.40695242862287456,
      -1.5232417162436969,
      1.5479812557679538,
      -2.3200048105164033,
      0.7132450758160171,
      -2.152684665415162,
      0.9306198986241705,
      0,
      1,
      -1,
      -3,
      2,
      -3,
      -3.147168932363166,
      -3.42292290154131,
      -0.6130981679872036,
      0.9500722119687598,
      2.683981542945059,
      -2.4638657139181914,
      0.13812398923437053,
      -4.879316729501246,
      -3.77235752719122,
      -1.8562441690254627,
      0.8605796317005245,
      -4.899481582118147,
      -3.6609850979860004,
      2.5954531257131985,
      -1.1044454943420074,
      0.21025286530257134,
      2.436153020587785,
      -0.34792841567034016,
      -3.197886148120092,
      -1.10064303771155,
      -4.113245845418313,
      2.9477968355877042
    ],
    [
      -1,
      -2,
      0,
      -1,
      3,
      -2,
      2,
      1,
      -1,
      1,
      2,
      -2,
      -2,
      1,
      -2,
      0.00936771174724,
      -2.9867550415332946,
      3.053097719712449,
      1.0443514823427358,
      -3.930491267590964,
      3.05645464842327,
      -2.9789477646250853,
      -2,
      0,
      0,
      -2,
      -3,
      3,
      -4,
      1,
      0,
      1,
      4,
      -1,
      1,
      2,
      1,
      4,
      2.988538298063439,
      -0.11977907596541876,
      -3.35079239327299,
      -1.7816886168920747,
      -2.3824309995267803,
      0.3359200033647406,
      -0.629165739683751,
      -2.3558704667471635,
      0.040631184774773274,
      -3.5218620107106693,
      1.8119908772268956,
      0.918571661388492,
      -3.0467214408930277,
      0.9939555651106831,
      -1.000145446434624,
      0,
      4,
      1,
      -1,
      3,
      -2,
      -1,
      -3,
      4,
      -1,
      -1,
      2,
      -2.041558942245958,
      -3.361821459668075,
      -4.224435495839546,
      -0.8391775834884506,
      -6.481242499349767,
      -4.611019353711421,
      -8.965840979887874,
      -4.476309643909075,
      -6.417150321517954,
      -0.4440763634539027,
      -2.263909392346965,
      -3.4832986098766963,
      -1.9888190176805238,
      -4.332041922357816,
      1.87475576756671,
      -1.0388920298733728,
      0.9986550508377027,
      1,
      3,
      2,
      2,
      2,
      3,
      3,
      3,
      -3,
      3,
      0.9501282788699651,
      -3.5265362004763374,
      -1.819915329719763,
      -6.6006812436746465,
      -8.651898459353133,
      -9.680956839725772,
      -8.073583925170531,
      -6.469457950602829,
      -6.667193919169928,
      -10.206224828445666,
      -6.668837667992046,
      -6.049342891974905,
      0.19461735324213933,
      -6.690990987276342,
      -2.339747060391586,
      2.4917987194587212,
      -3.127004444509026,
      -1.0142437358658964,
      3,
      -3,
      2,
      -2,
      1,
      -2,
      -4,
      2,
      1,
      2.9868976023957434,
      -4.501716757547682,
      -0.932226433289311,
      -7.285648723829099,
      -11.121513062349855,
      -7.653893415066508,
      -13.690376747258897,
      -12.314762612568641,
      -5.930119401287843,
      -5.636846913000952,
      -10.728150014685824,
      -5.921678018869324,
      -5.57437198640974,
      -7.227211720843697,
      -2.1116015747779504,
      1.828600234514716,
      3.1427682256745064,
      -0.24106486532356705,
      1.9828739835397577,
      -1,
      -3,
      -2,
      -3,
      3,
      -4,
      2,
      4,
      -3,
      -3.2069276716420543,
      -0.6009494706666373,
      -3.7530896461576226,
      -6.44943718048789,
      -9.289791986711688,
      -13.767880447285926,
      -7.048127787137338,
      -10.107355428975547,
      -3.7450348998687755,
      -10.600720605298566,
      -9.819629200527704,
      -11.425054317146607,
      -7.758441093235398,
      -3.9803702789881594,
      -3.6566801996496205,
      0.6480147826161032,
      0.2560838041261494,
      3.7550421388154516,
      -3.039829896949872,
      -3,
      -1,
      1,
      4,
      1,
      2,
      -2,
      -1,
      1.970204779116761,
      2.459053581668489,
      -6.233481366892367,
      -6.050385247843383,
      -9.802123934287671,
      -5.738161958640084,
      -5.275994314623876,
      -4.847456209136689,
      -5.186271505978378,
      -8.546750455501996,
      -13.06613255917687,
      -7.6338474840506745,
      -13.88173950841636,
      -10.864354782026277,
      -7.576643019296802,
      -6.627389921404585,
      -5.440384223284693,
      -2.6481422473319527,
      2.9025747012365852,
      -1.032302242587589,
      -1.0039468247155379,
      1,
      0,
      0,
      1,
      1,
      1,
      0,
      0.847039820894325,
      -1.1052262948264784,
      -4.934182232783058,
      -10.192195067041094,
      -12.45159867849789,
      -13.039888922458308,
      -11.50241917963252,
      -7.120032834820401,
      -6.1526898056565384,
      -8.659810005857848,
      -10.845639280657046,
      -17.462876390391614,
      -13.427968519780213,
      -15.960113591258379,
      -12.388805487451753,
      -7.883828252759188,
      0.6745833918551455,
      0.3565554748998573,
      1.9668883473202934,
      0.9773713454820597,
      0.979514260812017,
      -3,
      0,
      -2,
      -4,
      3,
      1,
      0,
      1.6717184485959584,
      0.35654900080692425,
      -3.1286818016763527,
      -8.523425777382203,
      -10.23216169476378,
      -12.087894308765003,
      -9.712345626662609,
      -5.94092689472797,
      -4.065961141313685,
      -9.069219619902608,
      -17.2979536444771,
      -12.398657830683216,
      -15.109072256510919,
      -19.74995325000551,
      -10.194793860215025,
      -8.713802627052731,
      -5.858647945632959,
      0.8743086112668297,
      -2.296907400736055,
      -0.20572173030697122,
      -1.0594077971108498,
      -0.011221346531673254,
      -3,
      0,
      -2,
      -1,
      2,
      3,
      -1.467992275144307,
      -1.5098560091485989,
      -10.52674380934356,
      -12.302239541017975,
      -11.0009536445487,
      -7.009867898071226,
      -6.292238550808368,
      -5.250864950788059,
      -7.516803950383138,
      -12.37684002637397,
      -13.556373282536034,
      -13.528783152320585,
      -19.13254326455281,
      -15.088818455633845,
      -9.291010078574097,
      -8.693657447972399,
      -7.39575083881069,
      2.716552202135221,
      -0.2955621451761761,
      3.7927714462911357,
      -1.1253031968979417,
      1.97759886806797,
      0,
      -3,
      -3,
      2,
      -3,
      3.997991183367716,
      0.29945047306921246,
      0.1477891419203633,
      -7.247348259488471,
      -13.728465569822028,
      -11.961772189581186,
      -11.998761289512261,
      -11.455868357177495,
      -5.02793614703267,
      -8.024737711417231,
      -15.97195267294125,
      -17.09657360786233,
      -19.50989272650549,
      -16.668740659519194,
      -14.829914008341657,
      -14.763000407446526,
      -5.547283274798059,
      -2.5209330764212927,
      -2.646504342070786,
      -0.5755670485096578,
      -2.376040861767652,
      -2.226013738990248,
      3.9394242275854423,
      3,
      3,
      -2,
      -2,
      -2,
      -3.0350050674548683,
      -0.9341785759100536,
      -7.086594421568749,
      -9.870873106695019,
      -10.486623753736016,
      -10.874174798126099,
      -11.329536649439206,
      -7.557001894667109,
      -10.017131624820149,
      -13.808646863183768,
      -14.343506837477884,
      -16.857844660599994,
      -19.11891457965793,
      -23.72100446319005,
      -20.09140955007414,
      -12.161577203716767,
      -4.465137976713969,
      -1.3592136339066454,
      -4.688952112391361,
      1.2424708909749138,
      -1.5428110154503007,
      2.6870414372021285,
      1.9105849469499088,
      0,
      0,
      -4,
      -4,
      -2.9540166945364965,
      -2.047571527809478,
      -5.174332460206276,
      -5.494429429902008,
      -2.6899275522589345,
      -10.575431386031207,
      -9.267777440317195,
      -11.585496351655058,
      -15.052790287800557,
      -18.418773814384455,
      -20.08621967541729,
      -17.072407000797742,
      -18.572192109524874,
      -19.10439766575018,
      -22.488387084826446,
      -15.630203777734751,
      -13.81672582425923,
      -2.975495360576125,
      -2.4842589121616405,
      -1.8904198154088239,
      -0.6830629230975345,
      -1.6065888738331842,
      2.5671338393196392,
      -3.1280485726550893,
      0,
      0,
      -2,
      -2,
      -0.908588888260528,
      -3.9577618854190484,
      1.7805462691798077,
      -1.128872094306268,
      -2.5615915917958265,
      -11.019394179577835,
      -13.435955487356326,
      -10.441469760359187,
      -16.012264544791968,
      -20.019557492685323,
      -18.127221992536498,
      -17.95728307996284,
      -18.35681155212625,
      -20.386515245315653,
      -18.210400141727238,
      -13.761353004527868,
      -7.299281276517479,
      -2.0449303624351094,
      -4.777482849828423,
      -0.1343710951415694,
      -3.3197804248913743,
      1.6401742590405266,
      -4.386220724135362,
      -2.1812310066690044,
      3,
      3,
      3,
      -3,
      1.2206459488610852,
      -3.0482469198409587,
      1.637315900069041,
      -0.659615520823637,
      -1.153383429695255,
      -9.610652748491837,
      -11.683805350164176,
      -16.488724050323604,
      -12.458369221862165,
      -18.4528281835542,
      -17.019087790825534,
      -11.016049169858503,
      -9.672919058229068,
      -9.93316576170829,
      -6.859125318382242,
      -5.670926495383495,
      -4.635719796292011,
      -7.993395427325234,
      -1.205047289964256,
      3.2821817147443233,
      4.167298567923606,
      1.9591132324485154,
      -4.23909901543169,
      -1.1720944773105586,
      1,
      4,
      -4,
      -4,
      -0.6692305118654194,
      -2.159898705526858,
      -2.2629786522387634,
      -3.1254787854621955,
      -2.5423052878457604,
      -8.43401066899023,
      -8.523812384591514,
      -6.595683187186166,
      -9.682664203723721,
      -8.532145351486472,
      -15.573838811863574,
      -10.201482297614334,
      -10.790964947027243,
      -7.759097885757679,
      -5.37832484941724,
      -6.1336969373398444,
      -7.215745066635977,
      -4.296951621253289,
      -1.2037439914310992,
      -2.8547537492999036,
      5.058285932523816,
      0.6482566644328527,
      0.17536100579014297,
      -0.010341186134043827,
      0,
      0,
      -4,
      -3,
      -0.5514663997202005,
      -1.9291861393891137,
      3.854103292811846,
      -3.9845481880538136,
      -1.239866182169028,
      -4.3344229813450434,
      -6.745801264036419,
      -0.48524495183449357,
      -2.612484026033998,
      -5.442921271961425,
      -9.71345422646676,
      -11.020214169589456,
      -4.72599456670501,
      -3.8246927519379326,
      -1.538013185385924,
      -3.2298678535987175,
      -5.457172036101344,
      -0.08595559044949871,
      3.412017383090133,
      -1.951666322407287,
      3.918189586789449,
      -2.6313892222061837,
      -0.48319535734543434,
      1.1754673462671554,
      -2,
      1,
      3,
      0,
      3.422950249861736,
      -0.9715896755097682,
      -1.079757791118553,
      -1.2357695552829064,
      -1.0858198655164857,
      -1.1658497072793477,
      -0.9660975269398117,
      -1.4343627868263669,
      -4.964161714583789,
      -1.6055245218987253,
      -7.501434185724468,
      -9.079442718600408,
      -1.6853725981919945,
      0.18489073978287454,
      -2.192571861137615,
      3.294763124185184,
      -3.1387540410430668,
      2.024117582571709,
      0.03432340682784184,
      1.5701000861884424,
      4.736990410504751,
      -1.4011475401119857,
      -2.4275224345631656,
      1.0936314538004723,
      -2,
      -2,
      0,
      1,
      -2.5492673538464663,
      4.8299870182644025,
      2.1912497279903187,
      -0.5179475552143896,
      -5.610807616481925,
      -2.5124101828374217,
      -3.416760090351785,
      -3.5328813216044956,
      -4.494521546299173,
      -4.167201872768869,
      -4.269879501759167,
      -10.881269100457148,
      -2.0166453912656825,
      0.5342464326440574,
      4.2130662093934585,
      0.17660259848460802,
      -3.739691156695695,
      0.5285465206601786,
      -1.9856334692849265,
      1.4596797320654276,
      6.168963897268312,
      4.937445741978788,
      1.6758495491205703,
      2.064492636240537,
      -3,
      -3,
      3,
      0,
      3.4141186520495372,
      3.7244182952406764,
      3.1529875524067963,
      -3.5316087120594415,
      1.1152771662728411,
      -6.711891830987945,
      -1.2730276828246554,
      -3.1547605923318627,
      -2.6813029812241562,
      -6.621556590550464,
      -3.0143616166111746,
      -7.684240157839182,
      -2.285834890944595,
      1.0640432993023967,
      -1.6142293030298052,
      0.9817718895564768,
      -3.103761572959009,
      0.6853551051999991,
      6.482001991539585,
      3.4294846734759785,
      2.0156694190897086,
      1.1133862202123939,
      3.9976524940326064,
      2.0895737752407957,
      -2,
      3,
      1,
      -1,
      -0.8094275232589265,
      -1.2336789101639936,
      -0.8292476418741414,
      -1.293386650522993,
      -4.818678842633489,
      0.9647154414282398,
      -0.642609278209085,
      -1.2334957352515459,
      -7.864970861824045,
      -6.159377231045042,
      -2.532315599325922,
      -3.0675800587877284,
      1.4529495151383487,
      -0.11551361582205988,
      -2.1120946255363924,
      -3.4891997404370785,
      2.4962132458769974,
      -1.1353017429774561,
      0.8624136844875248,
      1.4418764313999928,
      4.017085541750265,
      0.9918951547143154,
      -1.8601273865426806,
      1.337100342048803,
      -2,
      3,
      2,
      4,
      3.241232518332278,
      -1.3699352836325518,
      1.2136585514739764,
      -1.426158735828295,
      -2.555843279605652,
      -0.7089822501960118,
      -1.7985091773818649,
      0.8808667049559303,
      -0.32019659661447236,
      -3.1138475697162726,
      -1.7675427252109155,
      0.034121967313524224,
      1.221809718724555,
      -0.505008397247607,
      -2.5922965617544977,
      -3.857126187636975,
      -2.3999806279288514,
      -0.05634139932330478,
      7.287150370111843,
      4.476352182216746,
      -0.20283565663334052,
      5.603006681976945,
      2.3775452945206736,
      -1.3667291894120552,
      -3,
      -3,
      3,
      3,
      2.2098467294270585,
      -0.5103529204701401,
      1.228241277260307,
      2.0964396642539618,
      -4.592855845498958,
      -5.776913035351488,
      -3.9744158766789615,
      -4.275448179641613,
      -4.992676969087459,
      -8.170032807525416,
      -7.165385281292409,
      -7.399464561815492,
      -6.674903262754314,
      -2.4500266706169644,
      -0.910173266752197,
      -1.1107476044693898,
      -1.423173842604823,
      -2.6306268714636802,
      5.372711204828821,
      2.846928847542316,
      4.056867797960561,
      3.6824385613975577,
      0.47935841171968074,
      1.7067185736634463,
      -4,
      1,
      0,
      3,
      -1.8416099370257397,
      1.3026411360648409,
      1.9817680299180425,
      2.3658517659159526,
      -2.9117219486695056,
      -6.052529452341801,
      -0.4582801307468011,
      -4.910888773337292,
      -4.877454953203644,
      -7.655156176632347,
      -6.185084127348424,
      -8.242423479120028,
      -7.920779897820482,
      -3.9437123891715093,
      -1.68096045709911,
      -6.72413823067761,
      -1.5425990236831175,
      1.3017687390349117,
      0.46474074962871964,
      7.2103638148892495,
      1.0455977996334809,
      1.0517782230338548,
      2.398146995356506,
      -1.4096445243706004,
      -3,
      1,
      3,
      3,
      -1.9521488880687559,
      -1.8957190864554259,
      -0.5023819753801222,
      -0.7181090261692347,
      2.2788372271448107,
      -3.695263603355431,
      -1.0636360795632716,
      -1.3694520566361448,
      -8.394484695508856,
      -4.162131767799809,
      -5.874418705803274,
      -9.19350274563216,
      -4.209286900510832,
      -5.219527602673162,
      -7.332532495535958,
      -0.16466425040837726,
      1.3453469116597019,
      -2.4512797140264517,
      -2.2554739083240567,
      3.5953927566271786,
      1.1456724782212502,
      0.35034696939398374,
      2.9346955599483895,
      1.3467161246172188,
      0,
      -3,
      0,
      3,
      -1.965691397667396,
      3.0110798089696473,
      -2.448088301814407,
      2.2442185063974516,
      -1.2164000300368003,
      -1.685277756519621,
      -6.160145393473918,
      -2.186557248034946,
      -7.780075229004681,
      -8.073363230201995,
      -4.8501047146101115,
      -4.555787944434832,
      -6.186969867447852,
      -4.426621115484908,
      0.08771816004789479,
      1.5592686280545256,
      1.2144971720893216,
      -3.758865860965515,
      -2.229617723287558,
      5.111097493387577,
      1.4309281660729758,
      4.014898682513671,
      1.3663508698856162,
      2.212895286709585,
      -3,
      0,
      1,
      0,
      4.003629419545523,
      -1.0075833462587214,
      -0.34137749461073436,
      -3.6269175609734337,
      -1.750654589942122,
      -1.4021800608485269,
      -3.8043174033698994,
      -4.085521472001991,
      -1.5645211526842322,
      0.35293353955897006,
      -1.3979674031510887,
      0.22628333381301777,
      -0.38144413507063124,
      1.2473812012861134,
      -1.8423291958077432,
      2.6131750636362767,
      2.945480164442649,
      0.29875698549435914,
      -2.8401014434801817,
      0.5410595963332759,
      1.5898750950768992,
      2.7221199604229005,
      4.423476309300366,
      -2.833963564471402,
      -2,
      -2,
      -1,
      -1,
      0,
      4,
      -2.147694726296853,
      -4.332480819425175,
      1.5454289570347046,
      2.2829053983875465,
      -4.927823246823866,
      1.9026489752088058,
      1.6108808887071238,
      1.630300877584403,
      -3.2563613271626397,
      -0.20513592498580793,
      0.8644191971524077,
      -2.675484754834989,
      -2.2197092107496696,
      4.122254837366271,
      -0.6380107911403949,
      0.24692392864308102,
      0.9998419957499962,
      0.1356423830562657,
      2.2329336225924212,
      -2.767901457191081,
      3.3203768962016964,
      -3.8339719717266196
    ],
    [
      0,
      -4,
      4,
      2,
      0,
      2,
      2,
      2,
      -3,
      3,
      4,
      4,
      1,
      -1,
      2,
      -2.012997385798153,
      -0.0009277266932522378,
      -0.014193791784377963,
      -0.02419086825939201,
      -1.0483864923101,
      -3.034178780515237,
      0.9950348415425064,
      -1,
      2,
      2,
      4,
      2,
      -2,
      -3,
      0,
      -2,
      -4,
      1,
      -4,
      -2,
      2,
      -4,
      4,
      -3.008398392669259,
      1.8946232911792034,
      -1.317061092889217,
      3.285018309586047,
      -3.259951373217326,
      -4.597129550961102,
      -0.7004747109140875,
      -2.5934443302539036,
      0.7391504405375133,
      -0.908055717605829,
      -2.515365464696645,
      1.7800782636751327,
      3.940484847910037,
      1.0087739457738722,
      -2.9998899828738708,
      -3,
      0,
      1,
      -1,
      2,
      -2,
      0,
      -1,
      -1,
      1,
      1,
      0,
      0.9665927794554984,
      -1.2985169928087752,
      -4.0933929411059085,
      0.6619508642413005,
      -7.028297844402179,
      -6.484315403435862,
      -9.54883522984751,
      -4.672993340146972,
      -8.858299023837429,
      -7.267384551835404,
      -4.475364976400895,
      -2.3326486133565165,
      2.5711439552302924,
      2.0169651736080128,
      1.110270603870825,
      -1.963622237705963,
      0.0015446032545447844,
      -3,
      2,
      3,
      4,
      0,
      1,
      -2,
      2,
      -2,
      -2,
      3.959506194832627,
      1.5837163815134727,
      1.4492644898397002,
      -1.642231972876143,
      -7.6138091727471675,
      -8.819418887660452,
      -15.131264976642548,
      -13.999928231414602,
      -15.96163035967174,
      -13.068501712821542,
      -6.39133687842966,
      -3.3933401535422565,
      -0.2919514747576277,
      2.7243359191146306,
      -3.394931960409724,
      -0.5683265938999623,
      3.0799044467754646,
      3.0103327736280185,
      2,
      -1,
      1,
      2,
      2,
      1,
      -3,
      0,
      0,
      1.987377866398169,
      -0.3967090518049634,
      -3.8411108839759454,
      -6.193286337457246,
      -8.664613354837215,
      -10.010601421164314,
      -16.68389136134167,
      -16.14747365632348,
      -20.0433619523103,
      -22.548770802444224,
      -18.00151281754751,
      -11.56182273224292,
      -7.881169495355031,
      -5.082815914568255,
      1.9401913035978882,
      -1.3021794205541255,
      0.5257951639934019,
      -2.819800810874096,
      3.0064232666741835,
      -3,
      2,
      0,
      2,
      3,
      -4,
      2,
      1,
      -1,
      0.8118617997125882,
      2.1077696428450956,
      -2.6020457331274485,
      -12.202349250142612,
      -13.829469373281459,
      -11.921242076495224,
      -17.69062127563451,
      -14.297843694216304,
      -17.32987190251226,
      -16.13862698505394,
      -18.501890231199233,
      -15.742141266433057,
      -13.494609536014087,
      -5.619912228155548,
      -6.695432293083515,
      -1.8834159684833025,
      -0.7025981093632379,
      0.09373538255454059,
      0.02206865296222735,
      -2,
      -2,
      0,
      0,
      2,
      -3,
      1,
      3,
      -3.0177986672365114,
      -1.648831480776851,
      -2.7328781720020348,
      -6.635768596053035,
      -13.00762689423501,
      -13.431615241608515,
      -15.547863962038607,
      -19.772459944899655,
      -15.225193050563352,
      -17.836817975199757,
      -16.45334541220874,
      -11.521595909702176,
      -10.911373569454971,
      -8.667787251624672,
      -11.144087139897199,
      -2.515455778952005,
      1.1274852629161582,
      -2.974161761417821,
      -1.1165409686418046,
      -0.9994402785887767,
      -2.998461878834192,
      1,
      -4,
      0,
      0,
      -2,
      0,
      -3,
      -2.0783090457115296,
      -3.1061757786724584,
      -8.565243411255231,
      -8.356305248354166,
      -19.547855868937773,
      -23.3762751953925,
      -20.625592369357385,
      -21.746920290748186,
      -18.67305450545228,
      -13.814913176695205,
      -16.500090710891715,
      -19.08162207980695,
      -15.86955411410509,
      -12.405068423347423,
      -9.072490618154939,
      -2.1016647121499585,
      1.2297016636181202,
      2.486360324230741,
      0.7182712428443144,
      -2.038292236151752,
      -1.9922627313010415,
      1,
      -4,
      -3,
      2,
      0,
      -4,
      -4,
      -3.20427804861149,
      -0.7107525905059137,
      -8.250532701657404,
      -12.097853667864758,
      -16.592899186736012,
      -17.27287236136493,
      -18.90626412752571,
      -23.743446148761922,
      -15.559650100530074,
      -12.604672385115592,
      -11.88388183629151,
      -16.19464145333599,
      -20.80260658166472,
      -17.39349834512572,
      -10.4600390381978,
      -8.42956566072658,
      -3.0093214404694573,
      -0.6949370981901731,
      2.828520247478131,
      -4.0545060129223796,
      -0.9647075216654012,
      3.0080088202234028,
      -4,
      2,
      -3,
      3,
      0,
      -4,
      1.701007396698419,
      -2.951581526175669,
      -10.171556551686221,
      -12.05872332887079,
      -12.676666004889103,
      -19.19938494328821,
      -17.739906616320333,
      -13.454570974669018,
      -4.519223241327644,
      -9.316244772350139,
      -8.518961143950735,
      -14.462533230859488,
      -18.790783017307376,
      -11.16483034948403,
      -5.5818110307292645,
      -8.135495128173178,
      -3.4873266236669216,
      1.1959557801524023,
      -2.1721333437189885,
      -0.07990422830049868,
      1.0917239392447724,
      -0.9837617899712284,
      -4,
      -3,
      -1,
      -4,
      4,
      2.002129925276161,
      -1.1063931550791148,
      -4.627554729739042,
      -3.1616160915875025,
      -12.548809881357451,
      -15.255958593826167,
      -11.242512051837277,
      -5.557803689097929,
      0.04678628132181417,
      -3.952292187371309,
      0.25777547219285996,
      -1.9033992798795145,
      -10.450029131498425,
      -10.71378282139799,
      -17.057566044521455,
      -5.966143418471574,
      -6.056932305161168,
      -2.397123664432918,
      1.9718565297826287,
      -1.9973008821549085,
      -2.939667029222614,
      4.149166630270555,
      3.0462732639791836,
      -3,
      -3,
      3,
      -4,
      -2,
      1.0731515721870666,
      -0.6080011697819022,
      0.6316142648135151,
      -1.6365627637244486,
      -5.178760895276369,
      -13.324497776258005,
      -6.363990088238148,
      -6.965399950041802,
      -5.724042782180342,
      2.5849863662329917,
      2.778173817861021,
      -4.655053157955435,
      -9.77104704637923,
      -9.092314079185112,
      -9.84974188445251,
      -12.887582736367714,
      -10.158958132540342,
      -5.452888966771241,
      -5.539265402027698,
      -2.2784249965199552,
      -1.7235928624648198,
      0.1450094793260257,
      -1.930119446005386,
      -1,
      -3,
      2,
      0,
      2.969449775096634,
      -0.9355671014904955,
      4.8966572486059095,
      -1.4921876219359904,
      0.7372691585417891,
      -5.002585244874994,
      -6.543567242540051,
      -4.879670547436567,
      -2.3381209890657013,
      -5.434965165491277,
      -4.068481606994917,
      -3.4550083832606098,
      -4.551100301706052,
      -6.622660353031787,
      -9.050302669796803,
      -12.428586167631583,
      -11.0931051743853,
      -6.569772527095531,
      -7.436170485165832,
      -6.076463008469939,
      0.29897659640569535,
      0.3000621811111042,
      2.2459887477424343,
      3.103011692548426,
      3,
      -1,
      -2,
      1,
      0.9566068297856175,
      2.9416369107643057,
      -3.225532772389261,
      -2.387606964967044,
      -3.975621527857986,
      -0.26664998452202515,
      -9.51984490687865,
      -6.253753649115308,
      -4.067491931440298,
      0.49949170645274305,
      2.3572316889003333,
      -1.5296833593458328,
      0.3924521834365259,
      -2.6593412937285708,
      -13.024666721734063,
      -15.85698306701681,
      -11.017893818818592,
      -14.603339220959832,
      -7.366312946904917,
      -7.182663035655292,
      -1.3383221835999457,
      1.8514455688255267,
      2.1252876738609237,
      -1.859616842510097,
      -1,
      1,
      1,
      3,
      -3.204025387513638,
      3.718555956243376,
      3.414420474820951,
      0.31919732333697937,
      -2.84436023037023,
      -3.7331072203043782,
      -9.64811884500872,
      -7.1649706829101145,
      0.8134596556359408,
      0.41974267200504395,
      -0.45565591823241136,
      1.6165455709638505,
      -1.6216020576049017,
      -6.191624934876744,
      -15.142851444463426,
      -15.867795375857185,
      -13.266582647178028,
      -12.700728172857364,
      -12.139450559540029,
      -7.211594561434757,
      -5.985246824370625,
      3.582180557681437,
      1.0598189152677098,
      3.1179060815141804,
      -1,
      3,
      -2,
      -2,
      -1.3626917154395668,
      -1.062375320456277,
      0.08273638944722184,
      -4.692641422076717,
      -2.958409152448025,
      -11.365237601823397,
      -11.704725060764018,
      -9.495666543832005,
      -4.667122265028065,
      0.7213754451462169,
      3.1838856464688052,
      -1.1692261949556402,
      -4.168426626408913,
      -6.6290751234850385,
      -9.013502593621428,
      -11.667239090749415,
      -8.972095847612563,
      -12.198225437304776,
      -10.077314115721144,
      -9.014692243898024,
      -1.6379547160940886,
      -0.05175720361092811,
      -3.1182665127269034,
      2.9870332579094923,
      0,
      1,
      -2,
      4,
      1.65805086725558,
      -2.2918682532291728,
      -4.431923339650205,
      -7.119552556745494,
      -6.4957210256002,
      -13.596906185220753,
      -13.444685890846094,
      -8.693149249771693,
      -9.24799273549141,
      -2.1928697523276215,
      -4.121552356620517,
      -4.64829863610312,
      -6.644218732529574,
      -4.915212971475556,
      -9.303538690101945,
      -11.804225236682452,
      -14.750285399786993,
      -10.223636303354237,
      -7.215764607337828,
      -8.586039747665085,
      -2.227824221851572,
      0.6384806091973008,
      1.829679147518494,
      -3.1337739562875235,
      -1,
      1,
      -3,
      -3,
      -1.36723390757902,
      -0.14019486547059704,
      -1.8308006340915988,
      -6.992165234554522,
      -11.921010969938372,
      -9.97083473645288,
      -8.590646116954007,
      -5.516949280802828,
      -10.23635572163722,
      -7.41880032132984,
      -8.327030267686045,
      -6.541002657154756,
      -10.010197464051295,
      -3.0390776142433613,
      -8.988580409096732,
      -5.627947582773014,
      -14.57112051383484,
      -11.898949528241971,
      -6.277633616758891,
      -4.470853554282165,
      -7.499743772045713,
      -4.224328500323767,
      2.8774462524605133,
      0.04728763941445749,
      1,
      -3,
      -3,
      -4,
      -1.2857553924654717,
      -3.9299629395484725,
      -6.502008414905323,
      -7.241664811524854,
      -13.749343222203473,
      -13.98774462771504,
      -9.41393716433096,
      -10.611976855301725,
      -11.152563840679784,
      -10.600151254755975,
      -6.370780497944517,
      -7.380137526306867,
      -10.984431155165458,
      -7.459400245886546,
      -9.8658558705248,
      -6.116771825595334,
      -13.77410569824595,
      -7.9996147600509655,
      -10.385525769971428,
      -4.568864034031921,
      -6.357136482720263,
      -4.376756308069391,
      -1.255945865526026,
      -0.9719776988112905,
      -3,
      0,
      -1,
      1,
      -3.2430411929909853,
      2.290959390599689,
      -3.723871059496586,
      -4.068230009590111,
      -10.063861825563102,
      -8.946111864149636,
      -14.573182662713547,
      -14.286129014472484,
      -9.83384532282369,
      -6.9666851032050285,
      -8.963360976463346,
      -14.156873446127868,
      -15.768661583225548,
      -6.136889094291423,
      -8.316426529853569,
      -8.143629391050576,
      -13.166367022438106,
      -8.462984457692835,
      -5.637720699023189,
      -9.705413957736509,
      -5.241975977301343,
      -3.488137149670675,
      -2.6552346487239578,
      1.9108680165035996,
      3,
      2,
      -2,
      -1,
      -2.21916020344167,
      0.18593709579635723,
      -6.863617279449874,
      -6.151564469074013,
      -7.741493703510626,
      -9.783130865770502,
      -9.619103415109228,
      -8.36552128825754,
      -8.628238785072792,
      -7.492986426027847,
      -8.633394853586221,
      -13.452475444102907,
      -15.866704479566836,
      -7.733923212259264,
      -7.432329369870105,
      -11.03295295854051,
      -9.325059787629431,
      -13.963193899745612,
      -7.813203711005545,
      -6.922396059849969,
      -0.16409810890217266,
      -2.3999860194900204,
      -4.771996269046475,
      -3.2549645992255027,
      1,
      0,
      1,
      1,
      -2.08937462637792,
      1.4584000728095614,
      -2.397941596112327,
      -5.373072744418909,
      -4.293197566421584,
      -10.428680136050067,
      -8.817000022945107,
      -11.240992118642914,
      -11.992639266015829,
      -8.355792059565402,
      -13.228434287487678,
      -17.06849090209643,
      -14.134784881045864,
      -11.10034257258683,
      -10.692353226246484,
      -7.535701769077724,
      -6.8087026369021775,
      -11.381737377622331,
      -12.325766273328895,
      -2.9547643097716354,
      -0.4524130201175981,
      1.0697359218111189,
      -3.0556650058859707,
      0.5314785154695336,
      -2,
      2,
      -3,
      -3,
      -3.9951947366856984,
      2.769774390791574,
      -3.66390286584394,
      -1.2396299823977261,
      -4.41089249301353,
      -6.411326381358506,
      -6.04815448923386,
      -6.451427773243346,
      -5.941641789435808,
      -10.186910375604748,
      -11.082910171072962,
      -7.853114606339435,
      -9.236596696257255,
      -4.570572471379835,
      -7.331032656927607,
      -10.244409295329456,
      -5.556284124589407,
      -10.436805834512617,
      -8.39239697053575,
      -7.55823264533069,
      -4.299774532575796,
      -4.09319017403166,
      2.801258887823747,
      0.42852562074990685,
      -2,
      -1,
      -2,
      -2,
      -3.985162822826654,
      -2.3095978400711314,
      -0.3668075603850351,
      -1.3063446363573505,
      -3.1175565149217466,
      -6.171376584921172,
      -7.350132799154269,
      -9.249318456447064,
      -7.866995212109345,
      -3.443172116002223,
      -7.540425392448501,
      -12.04982971160238,
      -9.766417491364665,
      -5.331118806877659,
      -2.5237711094753132,
      -4.176973142600415,
      -6.917354703095689,
      -8.436624837852193,
      -1.1206991049084587,
      -2.1580709792280413,
      -0.34638144566667156,
      0.45462753838263653,
      -0.11354158992110157,
      -0.4360102428793186,
      -1,
      0,
      -2,
      -4,
      -0.9789074422260254,
      -0.2776978416582669,
      -0.19795338611007185,
      -5.2882348074759635,
      -1.7496976349476963,
      -0.8353781035490491,
      -2.8472095407696583,
      -7.9701157745711555,
      -1.7490435936344062,
      -6.000089972959765,
      -5.249302821376971,
      -5.311590034362689,
      -6.158286364792181,
      -0.6950694682195632,
      -6.129888646445689,
      -6.532433084089244,
      -7.157347911823503,
      1.0542350680116608,
      -4.889077216059974,
      1.5504305755026428,
      0.37512998247271,
      -1.0467265486675197,
      0.3571620985601422,
      -0.24255457137570488,
      4,
      3,
      -1,
      3,
      -2.0407159053034003,
      -2.1438722888953876,
      2.3360211509495885,
      1.6562903915006182,
      -3.010954730658817,
      -6.842372420527167,
      0.02184448522502334,
      -2.196638128394464,
      -3.365096183876189,
      -6.11032542248518,
      -3.786610583022534,
      -7.548365905132401,
      -7.0095348341156685,
      -0.9433801612363905,
      -3.2633380633052016,
      -4.4427989159099575,
      0.9377620638120555,
      -2.8422083627174097,
      -2.562539314116029,
      -1.2793701546041147,
      -2.1432037749210933,
      -3.7425499816831893,
      -1.252491665760248,
      -3.147463399697271,
      2,
      3,
      -2,
      3,
      -2.004389973548524,
      -3.0651345787626276,
      3.7889198015849623,
      2.486154810186488,
      -3.939739789917885,
      2.5201892538680997,
      -4.732616379844853,
      0.21570169755549354,
      0.15712357733281854,
      -2.840920093226125,
      -1.0087518445064514,
      -0.042750569305443985,
      -6.287063540270285,
      -2.7129002243068343,
      -2.554751802592578,
      0.08470144768115037,
      2.799139679872056,
      0.21640652974864277,
      -1.6517010187687544,
      -1.6136074165351968,
      -3.4921287497686215,
      -2.478960506090682,
      -0.33055184040904206,
      -1.1206710135284568,
      -2,
      4,
      3,
      -3,
      -1,
      0,
      1.9482913444466647,
      1.834827308429306,
      0.7205010415038738,
      2.4554931900320427,
      -3.750678564439099,
      -3.8962229366183734,
      -3.1516031913089493,
      -1.1316099708558576,
      1.9650599548339325,
      -4.986614821176905,
      0.8293262845832484,
      0.789806414225999,
      0.7173608648180093,
      -5.07164055163307,
      -2.9159838099357436,
      2.392251660247067,
      -3.4015102897487464,
      -1.3057830670545196,
      1.7658678312747988,
      1.8738248688647243,
      2.795701426029284,
      -4.123039477213715
    ],
    [
      4,
      1,
      -1,
      2,
      -2,
      2,
      3,
      -4,
      2,
      -1,
      4,
      -2,
      3,
      1,
      0,
      -2.998445791357257,
      -1.936923757137687,
      2.0991603635449274,
      1.055566070133302,
      -2.9197305579265227,
      -0.9729105810034018,
      4.008696533248653,
      0,
      -2,
      -1,
      0,
      0,
      -4,
      4,
      4,
      -4,
      -2,
      -1,
      -3,
      1,
      3,
      1,
      2,
      -2.9958938025748147,
      0.04086933050491617,
      1.1221017749224758,
      3.3048843977518416,
      1.5827214449849747,
      0.8325678550550258,
      -1.019299078705424,
      2.9276960491504376,
      0.6934630846525169,
      -3.5446183573356413,
      2.258173715643612,
      2.0859336357518403,
      0.04644079789457296,
      2.0052584651461323,
      3.000130523776044,
      2,
      2,
      -2,
      4,
      2,
      2,
      -3,
      0,
      2,
      2,
      1,
      1,
      -1.9850816199075352,
      1.1239623555010858,
      2.4468297608156,
      4.13395275306947,
      5.952326217661004,
      5.746413166960397,
      6.3020238545534895,
      0.6456167577003313,
      2.597381138608898,
      5.119970234481457,
      5.439636828625248,
      4.613469804586423,
      1.8966107190291626,
      2.3620768880559786,
      3.132316423516802,
      -3.9676767502495873,
      2.0018107691450853,
      -3,
      4,
      0,
      1,
      -3,
      -4,
      1,
      -2,
      -3,
      3,
      3.017424107363311,
      4.176248091845576,
      3.7448726139494743,
      5.967829755531155,
      3.7053333933320762,
      2.799602117958781,
      7.22418824028079,
      5.83478898934348,
      4.269880296979314,
      6.446095328027655,
      5.17812506436483,
      4.436606243102539,
      5.762793788296491,
      4.395810869754741,
      3.3358723437131563,
      -0.5103299463772966,
      4.06492503228083,
      -3.998751431653705,
      1,
      1,
      0,
      -3,
      2,
      2,
      4,
      1,
      1,
      -3.994013990684726,
      1.1782314775865146,
      -0.028263953423166895,
      3.9728921879705936,
      7.8487940934083795,
      10.629575391680385,
      10.64816245471331,
      11.701837294091089,
      12.025476402431428,
      10.700362840270794,
      6.127062364816852,
      8.368000950960708,
      9.930962673935703,
      4.178281367511084,
      6.506327704797218,
      1.9901557643677612,
      -1.2883180527188445,
      -1.8727633271990949,
      -2.014214994593727,
      4,
      3,
      0,
      -1,
      1,
      -2,
      4,
      3,
      -3,
      4.06814519483496,
      2.807654509026943,
      0.579226813325746,
      9.815859113521128,
      10.688778465355167,
      6.905910022048469,
      9.08656351302295,
      9.754468891859537,
      5.65495907765446,
      7.9290938378665565,
      9.944830805670927,
      11.118580468828558,
      7.172160522790406,
      10.666793004172524,
      6.14100033606225,
      1.3389900168017022,
      -2.3161480676377604,
      -3.963475601995077,
      3.9634547573202368,
      1,
      1,
      0,
      -4,
      -3,
      2,
      -1,
      2,
      -1.9899972613054075,
      3.164041741681771,
      -0.6582514990873831,
      1.4125383151473985,
      4.313876758603668,
      10.268564190461602,
      8.20434865677736,
      5.259584355902531,
      10.197566033643907,
      5.139258524579244,
      13.564058173401182,
      9.923277309249723,
      13.637279410415074,
      14.105008034966444,
      12.523663394600897,
      3.198172502170618,
      -1.3686596066503576,
      -1.301577548356627,
      3.8490087307737597,
      -3.0767700311649686,
      -2.00543613320643,
      2,
      0,
      0,
      1,
      -2,
      -3,
      2,
      -3.9629195067399494,
      0.1806162705432621,
      2.7123006517501267,
      1.0113235005298629,
      4.33350548929397,
      10.645961712878984,
      8.137750747813984,
      9.848777882602267,
      4.653041404661141,
      5.053959708553572,
      11.076730830932105,
      17.79378681918127,
      19.311381161912003,
      14.110711632319843,
      11.728050923730452,
      2.9603156374305004,
      6.583276606243761,
      -2.5136889264696785,
      -2.2260716513288834,
      -1.1404586876365503,
      1.9728928154442638,
      2,
      3,
      -1,
      -1,
      0,
      0,
      -2,
      2.0549753560056945,
      0.30903738262455394,
      4.8513862417988065,
      7.122931757988984,
      8.700491628292859,
      7.2252001718344925,
      11.948201488041878,
      10.146247562958363,
      3.9275408280398056,
      10.486035006245292,
      10.472510516951864,
      16.799863556674953,
      18.93332214044222,
      18.12320510057822,
      9.504014081397946,
      10.415933231424695,
      3.9309198328984265,
      1.621087985436865,
      -3.1981986856549356,
      3.870695252834458,
      0.9619814768419226,
      2.0003972654749753,
      -2,
      3,
      3,
      -4,
      -4,
      -2,
      -1.8790441830993245,
      0.7777957058882524,
      -0.8421293809427215,
      1.8765792441503644,
      4.187876793740957,
      6.608106530776776,
      3.784496451757733,
      5.49366155613983,
      1.6583630303665078,
      6.58023223409232,
      14.00919760220423,
      15.942433839230526,
      24.681914269721986,
      17.49293667728837,
      15.880985551643183,
      5.857346147488287,
      5.476131796015939,
      2.8076951482138264,
      1.8362704194838586,
      2.823398407770111,
      -3.0530732435135723,
      2.999993413198253,
      3,
      0,
      -2,
      3,
      -3,
      2.9980232369811004,
      1.1794056564230497,
      4.721524495638874,
      5.864243278383278,
      2.0293633644540923,
      8.088348480978455,
      5.2124397614324085,
      7.743681385673516,
      2.6371141591291125,
      5.710209175245564,
      9.284118483530829,
      10.359241660713277,
      16.927964726660477,
      21.770096829590827,
      23.50559628827607,
      16.65145645483348,
      5.790988479084546,
      -0.230456791034449,
      1.831885774807609,
      -0.35912999249515504,
      -4.291584842576724,
      1.8977976391500324,
      -0.03208456998863816,
      2,
      3,
      3,
      2,
      2,
      0.9750887932684166,
      4.0672147547209825,
      2.353951201788698,
      -0.5670207988124475,
      2.4805793097884323,
      1.255011149364064,
      0.9363473087882668,
      -1.0386301256491741,
      0.09406796562646533,
      2.2430200626063357,
      3.7874487889902313,
      13.420261681075576,
      13.061676903333325,
      22.23017837608654,
      19.380951020156463,
      10.388004793975876,
      10.655149113061134,
      8.087009014248123,
      -0.0503501001691064,
      -4.369844940522348,
      3.696519298876238,
      -0.0873683271721393,
      -0.05035480567740675,
      -2,
      3,
      -3,
      4,
      -3.034870873687949,
      -3.0625023936949503,
      -2.1915364931275403,
      -2.979764768389878,
      2.2905909790735226,
      1.393468296626978,
      6.562900431918369,
      3.343212984668222,
      3.586873639189472,
      -0.7537709901091676,
      5.87944524147067,
      8.924061520782733,
      13.287490736361411,
      15.82324010188488,
      22.86071608891607,
      16.21352163334446,
      13.703288797791506,
      9.895203097724536,
      5.546599937704596,
      -1.7679748017121772,
      -2.2780212651356977,
      -1.3095372704331296,
      -0.10922701477848386,
      -4.046351467368652,
      3,
      2,
      0,
      -2,
      1.9234646095295918,
      1.6731592379229236,
      2.3773900303404147,
      -0.1899399349289795,
      1.3883148075276655,
      -3.009512755478643,
      2.965380798482596,
      1.3185428706957816,
      6.671839090031013,
      2.508731993227155,
      5.380836940238886,
      7.635705278797607,
      10.943248253927559,
      11.968064752905079,
      12.008378917223546,
      9.042646465800374,
      4.290684112961842,
      -0.7339227558607049,
      2.6863100220501606,
      -1.562950613194056,
      -2.602611020129371,
      1.4929233193212172,
      0.8510487182573199,
      -3.0321752566216285,
      0,
      0,
      -1,
      3,
      -3.135007212732891,
      -3.33914289595491,
      0.03394875192507211,
      0.7699351015786439,
      -0.6025018361419832,
      1.8992133056317537,
      0.1569847681511089,
      -0.5449153001155572,
      4.652238644020451,
      6.432817768499361,
      8.373926752387465,
      8.054091340324607,
      5.276194009906868,
      9.45003250958857,
      12.934262417233839,
      6.311061804645449,
      4.093641552495654,
      -2.0982236387683595,
      2.684831753402972,
      -1.2836015837207844,
      -3.451161469486296,
      2.196582960143937,
      1.739740441374715,
      -2.0553968032018903,
      3,
      0,
      2,
      3,
      2.8155572936308864,
      0.1656438164853615,
      -1.5763568128794785,
      -1.4902296633322072,
      -4.276298488486374,
      0.5445095923905066,
      -0.2106242127130893,
      -3.723461979353169,
      -1.9253025409794593,
      -0.7236639694884187,
      3.3399338023328897,
      3.4328716083933677,
      7.5391840115224955,
      3.344134278766608,
      3.2901991215302826,
      9.088648320498477,
      5.923058748331698,
      -0.6095169080780642,
      -2.4038041536119903,
      -3.2627659672966476,
      -1.9824286260964625,
      -4.336872989525897,
      1.312072145477627,
      -3.2543328273591694,
      2,
      2,
      0,
      -4,
      -4.248510599033611,
      -0.8102037879050566,
      -2.664147650314808,
      -0.03407539799011295,
      -1.5804834891190136,
      -1.2695299208502897,
      -1.3683593856316771,
      -2.0638210429968105,
      -0.7240808861606156,
      -1.417345118003258,
      -0.6251587761749524,
      2.210860914309712,
      2.9290584259260184,
      2.6468968092928207,
      1.5368687249807047,
      -0.18824010098512498,
      1.8583954155351021,
      -1.3047733543602618,
      0.6985958362989019,
      -7.009586653443551,
      -0.37026716827781736,
      0.3192339491603022,
      0.08725884262215464,
      2.642157061571062,
      0,
      1,
      3,
      -1,
      1.7064014845237985,
      2.982814609448013,
      -0.07259101954914042,
      -3.321410391502144,
      -5.34763587950977,
      -4.795617214709903,
      -6.508114314453225,
      -6.987128918080528,
      -3.7690531944267884,
      -0.480793788810255,
      3.1431433960709176,
      2.0057448721391187,
      -3.854529458444873,
      -2.2860628704173376,
      0.1980109694523962,
      1.2702845482564102,
      -1.4826458001542542,
      1.2243900484537968,
      -3.0525574837958493,
      -6.45231470113906,
      -3.9777643303184105,
      0.0760534826850838,
      3.208227286044642,
      -2.190986004880154,
      3,
      1,
      -1,
      2,
      -2.3912550596708315,
      2.821069469131555,
      -1.9013719675295186,
      -2.0772907029022565,
      -1.574549411826225,
      -3.82404146162516,
      1.013845830438238,
      -4.4814669582898965,
      -2.9453678414715947,
      -2.8537066774163007,
      -0.9666522619231349,
      3.360901625206253,
      -1.8221961640878142,
      -6.428409612498076,
      -0.5130166080065403,
      -2.488579332702541,
      -1.8921395627726438,
      -1.0560017653769962,
      -2.1557301054789217,
      -2.815376840315576,
      -0.09217153087177245,
      -0.039560391626272104,
      -3.760111730315193,
      2.818986036963126,
      1,
      -3,
      2,
      -3,
      0.6457049143757703,
      0.8373335447128613,
      -3.62588951180904,
      1.5005075011406714,
      -0.48068290363648614,
      -1.0819261184482067,
      -0.15882445905813103,
      -4.61715325722989,
      -0.5504723714035122,
      -4.085456951384795,
      1.6377170156235368,
      -3.0194522103469006,
      -0.8900721982681749,
      -2.0389215751346508,
      2.302325430267624,
      -3.695836039716207,
      -1.3102457570046502,
      -0.8784253848213166,
      -4.117349234686005,
      -4.561678999024697,
      0.31534893701652095,
      -3.8788089891926103,
      1.1580334413100797,
      1.8642549762164327,
      0,
      -1,
      -1,
      0,
      -2.2207392730232156,
      2.9765875652564624,
      0.859877063780907,
      -0.9684404434178456,
      -2.85551760379263,
      0.005631519185490224,
      0.5349092130828134,
      -1.4287826378875943,
      2.4294730931896282,
      -1.8148400098283268,
      4.342687656488387,
      -1.2166211690547384,
      0.7490787223157012,
      -0.7266199002411713,
      -1.9863178944311564,
      -1.1388906202205258,
      -0.2454054583219595,
      1.1340723555030339,
      -2.9722713949150728,
      -6.217859802133455,
      -1.373449150062773,
      -0.4943898974623113,
      -1.861312880088643,
      -2.266208738648623,
      3,
      1,
      3,
      -4,
      -0.19919075954683102,
      -3.7703991029268265,
      -2.797942083767169,
      1.6743351223132943,
      2.543165445883808,
      2.582092536218977,
      3.35714540374675,
      -1.175727600325252,
      1.5802483638643634,
      2.652154584822653,
      5.794066308109912,
      5.459988974016568,
      3.1464678761355733,
      -3.9892738039922806,
      2.4791404476176364,
      -0.13517371938198547,
      -1.1835089864224009,
      -1.8574389810246559,
      -4.55287854799274,
      -0.5906821068453845,
      -5.549374994707416,
      2.40643769099415,
      0.10569858852738703,
      -0.4273128519926513,
      1,
      -2,
      0,
      0,
      -0.17438951104219547,
      -3.512899573349088,
      -1.5469948304310568,
      -0.0698021167662205,
      -3.101266469257489,
      -2.098961100931219,
      2.906885448488226,
      2.8539409960174913,
      6.039289117194109,
      3.0823843770376027,
      3.8396032818455157,
      2.8437307581137037,
      3.472145670775579,
      -2.833391913338247,
      -1.7243866213122365,
      4.272944761922201,
      2.337181432739042,
      -0.5266150634679556,
      0.47982523334894683,
      -2.099475459047185,
      1.2924841062109291,
      0.3373280995324066,
      1.0907337131237305,
      1.5756058979081273,
      -4,
      -3,
      3,
      4,
      0.894900932263941,
      2.764009275690476,
      3.87942463445388,
      0.19016058957933085,
      0.22766015783088608,
      2.8875819135508003,
      0.5665160339333934,
      1.5062366101514635,
      1.8263085977464333,
      6.622381353848066,
      3.0535909459399986,
      2.3737958907939762,
      5.089406049206868,
      5.110597431269434,
      0.7523821558549995,
      -2.804947548965264,
      -1.037536129059368,
      -2.2388526125634898,
      -0.12094746299364983,
      -4.356566906206851,
      -4.07276579093935,
      -4.317344752885952,
      -3.8956261496865654,
      0.6299983368378013,
      1,
      -4,
      1,
      -4,
      -3.027584322098164,
      -0.9854326269061339,
      -3.654416411942606,
      3.5261719151977124,
      3.3486069491100086,
      1.948063918803785,
      4.545545437893663,
      2.19232940871544,
      5.841924974309663,
      3.1264478848801462,
      3.8841250783952974,
      6.5099222001575185,
      1.5181965484028086,
      3.708826418118874,
      -2.1020195615732518,
      2.2450525797754457,
      -1.8799977369576717,
      0.4185918909991922,
      -2.35588560525438,
      -4.715384719782941,
      -1.3100635819847797,
      3.137452372204358,
      -1.6165665397789888,
      0.7773568246178255,
      -3,
      1,
      1,
      -1,
      -1.005321240050079,
      2.0546644266724576,
      -2.6598384905276347,
      -1.4355129682220067,
      -3.3071254097153107,
      0.059507345327308794,
      0.5404127668821277,
      5.858338414202201,
      1.2085811120947545,
      3.6432513904723254,
      2.4764979629886392,
      6.570214570288138,
      3.254764860675226,
      3.5659995172474668,
      4.019183437165041,
      1.4161031147279042,
      2.2759727694323373,
      -3.239024356362784,
      3.4808618701976237,
      -0.6321552983182886,
      -0.8764705367521674,
      -1.6344603409269487,
      -2.211174671424954,
      0.8735552704603974,
      0,
      2,
      2,
      3,
      0.999467166960161,
      -0.9700975509524947,
      -0.8090857590743011,
      -0.6546067197971319,
      2.5111087513267427,
      1.7994157632244445,
      3.0492719508957262,
      3.1111628221778784,
      5.315036765110352,
      -1.6191589192466544,
      4.490900930147171,
      -1.257801826897301,
      -2.3860343704207283,
      4.148795575692644,
      1.4562537229242087,
      -0.9185048512432392,
      0.8773101588884905,
      -0.27596148319812264,
      -2.057954797944353,
      -1.275762660785377,
      2.7048056730579626,
      -4.4268545468186336,
      -0.2578046324371541,
      2.902105700579432,
      -3,
      1,
      2,
      -2,
      -2,
      0,
      4.078721639913815,
      -1.8388091138235438,
      3.213471787175243,
      -0.6820381302047038,
      3.445432882609135,
      4.51907667107501,
      0.6308081965993255,
      -2.3909420560012027,
      3.562268822153053,
      2.594733002271021,
      3.6483380607007367,
      3.4080741395155654,
      -2.8311761139562064,
      -3.9949165227602403,
      -4.169283626628186,
      2.8871779543923313,
      -1.9912139691330315,
      -3.055447035610403,
      -1.1364777559028552,
      0.8689481763019029,
      -3.195289061742173,
      -2.110064191985921
    ],
    [
      -1,
      -2,
      -2,
      -1,
      0,
      -2,
      -2,
      2,
      -4,
      2,
      -1,
      -1,
      2,
      4,
      -3,
      1.928787527082949,
      -2.157998597076286,
      0.7484207116699583,
      -3.2442765179429567,
      0.6331017753271604,
      -0.234772863247108,
      -3.060862108605557,
      3,
      -2,
      -3,
      0,
      1,
      -3,
      -3,
      4,
      4,
      2,
      -4,
      3,
      -2,
      -2,
      2,
      -1,
      0.007856364225798796,
      2.0551501012447773,
      3.1838982509293805,
      3.3744310627754373,
      0.606747254134627,
      1.5929857641120861,
      0.06066448341419031,
      -1.3851900985109526,
      2.484965029071407,
      1.1560928413936409,
      1.2491354498042226,
      -2.2915821297540298,
      -2.08416759004067,
      -3.0061830341579143,
      -1.000179577178984,
      3,
      -3,
      0,
      -3,
      3,
      3,
      -3,
      -1,
      2,
      -2,
      0,
      0,
      -2.9759060968725537,
      -2.82972230165962,
      1.509463108221295,
      2.4367253618759337,
      -2.2451454368018116,
      0.2249879655536437,
      0.013717991928516228,
      -2.7629679487910157,
      -1.9779112350720511,
      -0.9661725026954471,
      -6.770763780384413,
      -6.082221125085166,
      1.0291854837460555,
      -3.340527095865036,
      -0.06800476427779364,
      -3.0290582558390557,
      -1.002024205774796,
      1,
      -3,
      4,
      3,
      -4,
      -4,
      -1,
      4,
      3,
      -4,
      -3.972563051768893,
      3.239906430362555,
      0.7344839027266883,
      1.1066466894821154,
      -1.7180170696454438,
      1.811048892410271,
      -1.1804750740773244,
      -5.976402301024742,
      -8.255009620254176,
      -8.837529723110904,
      -9.111359080101549,
      -5.882970392610879,
      -6.862957394310946,
      -0.9625283820752828,
      -0.6475053635026692,
      2.7841992956291346,
      -3.053344657344694,
      -0.0019869790036094194,
      0,
      3,
      -3,
      3,
      1,
      2,
      -3,
      0,
      2,
      4.004216961415481,
      -1.7880103843063881,
      0.704451123580913,
      0.12681086403261083,
      2.5338187657510245,
      0.6226241796249515,
      -5.864801267867479,
      -6.167408704223974,
      -7.991302870476875,
      -12.585542341007887,
      -9.027734437466908,
      -8.260726837004595,
      -6.355462560452139,
      -5.024848681823106,
      -3.989320295035916,
      -2.0774827466548875,
      0.4200016635686536,
      -4.088980112488578,
      3.996242677193816,
      -2,
      -3,
      1,
      4,
      3,
      4,
      0,
      3,
      -3,
      2.071163900105743,
      -1.475825599608639,
      2.815934162884658,
      1.5052212499570727,
      2.7950401779428944,
      1.38811836012684,
      -2.475808464973112,
      -6.58607487658949,
      -12.678156515581986,
      -14.185973533244727,
      -15.90080765439932,
      -14.547363122096414,
      -7.753116917781856,
      -10.729416412655711,
      -6.1484944506709445,
      -1.5433507358144993,
      2.2911950895220734,
      -2.2007141803743937,
      -1.0047847203281421,
      0,
      2,
      -3,
      1,
      -1,
      -3,
      -1,
      -1,
      -0.9852165889090614,
      0.2588376557179483,
      3.5509993903317767,
      6.234758731825934,
      5.523814139186987,
      -1.0077571448256566,
      -2.401398939421174,
      -5.430464820895916,
      -8.936151478970476,
      -6.783675855444867,
      -9.883655104053163,
      -19.23689176363912,
      -15.31749783523591,
      -16.30319180108425,
      -8.181996716597455,
      -6.217192795344455,
      1.748677217428449,
      1.2995740253223578,
      -3.211665162862926,
      -1.0061470297026784,
      2.9995675492978435,
      1,
      -4,
      1,
      -1,
      2,
      3,
      -2,
      -1.9449352116357663,
      1.9578812193974804,
      1.282415521262122,
      4.906089673793298,
      6.178490046240907,
      -1.4212866741265806,
      -4.6356493989696546,
      -9.783970190025405,
      -8.931208853852304,
      -11.175092758279764,
      -10.921136389510865,
      -18.365321415603553,
      -15.728678645955535,
      -14.317425013202227,
      -11.34220164282624,
      -6.646119956139994,
      -0.19354495229965357,
      1.0022904818520233,
      -2.196121036511982,
      -1.9956682076313121,
      -2.0022338496057897,
      -1,
      -4,
      -1,
      0,
      -1,
      -2,
      -3,
      -1.789625003698022,
      4.361505221710669,
      7.288743447501669,
      8.25375696283181,
      1.8575554438249002,
      -2.341183881564623,
      -0.06842394550503728,
      -8.01662056493113,
      -7.230788784091926,
      -8.89890655515571,
      -10.567518074230646,
      -15.889330435271093,
      -23.926088421035324,
      -22.383074913740824,
      -11.719761306810396,
      -9.927700046266402,
      -2.2332877659699446,
      -0.4119234551475047,
      -2.2060520969974147,
      -3.0948748446552434,
      -1.0086369772420838,
      -0.0012969104809427477,
      1,
      -3,
      -1,
      -4,
      -4,
      -2,
      -3.7870515018439086,
      4.3499582108879915,
      0.9209981266976061,
      6.24056563634427,
      1.6192978265554308,
      -3.135861191364085,
      -4.484952074418112,
      -1.743652874136051,
      -3.122769017445398,
      -11.268408467459507,
      -10.753100613622422,
      -18.097197063579753,
      -19.788661062737336,
      -23.026222835727744,
      -17.615691832876205,
      -6.263580429919667,
      -5.185797112176674,
      -4.858650480731234,
      -3.3647860531908806,
      -1.117106895828103,
      2.9991039710610123,
      1.9973154446028325,
      2,
      3,
      -3,
      4,
      -3,
      1.999579088838721,
      4.076067550867047,
      0.8801989451060757,
      -0.21834945529428554,
      -0.7806111255941561,
      -3.6107953133002866,
      -4.023654427181666,
      -8.98177140124235,
      -5.837821752182183,
      -5.685545731234303,
      -8.878838878335085,
      -14.61405530398662,
      -17.119203543365394,
      -19.563219811163965,
      -18.752780844422,
      -11.536541319235587,
      -9.444419539091182,
      -7.973808484532163,
      -0.49262001761009355,
      -2.5464878123660344,
      -1.1439021028096523,
      0.9885067316484188,
      -1.9982832583280368,
      -3,
      -1,
      -3,
      3,
      1,
      -3.072793894630141,
      2.7340058256957462,
      -1.3578509942798074,
      -1.6535493348124526,
      -1.254842205114217,
      -9.1691102927968,
      -11.176705057366558,
      -4.3966096547080005,
      -2.3116471525354054,
      1.8035665727488297,
      -1.7617878087129035,
      -9.0746032274743,
      -10.026743867361983,
      -22.388079713217216,
      -20.350054183411128,
      -12.694718704141545,
      -9.137239666777882,
      -9.864125338689165,
      -4.870282119210809,
      -1.7991119278326932,
      -4.238362131088376,
      -1.0786850286514753,
      -3.003835110626961,
      3,
      -3,
      2,
      3,
      -2.0371942495598465,
      -4.224853325921142,
      1.3286674872631725,
      1.1714530127480218,
      -8.648416380791412,
      -3.8884624795562788,
      -10.988608747559848,
      -6.231423052034658,
      -9.459004684728212,
      -3.808683059645739,
      -1.4811647380720925,
      -3.5240569527240733,
      -5.241363763834614,
      -7.0972863143272775,
      -13.161553019753708,
      -14.397860588449756,
      -17.41687350656723,
      -11.622718306655237,
      -10.602277998003293,
      -1.3242181335062733,
      1.0450611679265944,
      -1.2299358374863298,
      2.8588626609744803,
      -2.0071466409497876,
      -4,
      -1,
      -2,
      3,
      2.913744910415735,
      -0.2014366927708515,
      -4.670384843491732,
      -3.5478837528063623,
      -4.065255847901853,
      -8.067350273912425,
      -9.833203085923682,
      -9.767721154401693,
      -8.500778147176677,
      -6.842292155933542,
      -5.104733806493638,
      -6.2995204563916225,
      -4.077787981272658,
      -10.991359841907936,
      -17.495339565167054,
      -16.81569760325421,
      -15.87826977917974,
      -11.025340170275518,
      -9.152217801793975,
      -5.631858635768373,
      0.7099690194943754,
      -3.224390959562294,
      2.8848967186571333,
      -0.02270955876111834,
      4,
      -1,
      -2,
      -1,
      3.0319873274336797,
      -1.9851236980698397,
      1.7283160507295054,
      -1.4144908184096299,
      -6.809314245928629,
      -7.772436320517476,
      -8.414504805303869,
      -10.944098786682398,
      -3.6269089538162107,
      -7.910020125257723,
      -7.297847946822412,
      -7.044939028538061,
      -9.616679781378183,
      -11.604367618975235,
      -12.53152138013069,
      -13.36727869762271,
      -10.896361459475028,
      -11.10918373371579,
      -7.837779993013146,
      -6.134123605914197,
      -0.4858537635345775,
      -2.2966648626889463,
      1.908020210993566,
      0.9674426805419624,
      0,
      2,
      3,
      1,
      3.0743525312558893,
      -3.7504238054985697,
      0.0582665893975701,
      -1.105165740989359,
      -3.952978940940743,
      -9.404036032209353,
      -9.273148500329034,
      -3.720396333020843,
      -4.432946347480639,
      -5.75949780590581,
      -4.057588234761072,
      -5.808431133458799,
      -6.786591028377977,
      -10.541388609032648,
      -8.500975315890514,
      -9.141245763888422,
      -8.595510104236244,
      -12.229255931523673,
      -8.512387363993987,
      -5.051167176694635,
      0.5090464789892627,
      2.760274678559501,
      -1.972664120637794,
      3.048268482295902,
      1,
      -1,
      4,
      -4,
      2.056110683691908,
      -3.5900406689918354,
      0.6124513866758606,
      3.0429709578950517,
      -2.565269557920023,
      -3.930794582605234,
      -9.092246524381084,
      -6.159358060226617,
      -3.521808975717004,
      -3.5914808413298376,
      -8.353061125579307,
      -7.229007741352443,
      -7.137933605330862,
      -10.056151774045233,
      -10.239602606837565,
      -11.184338072479733,
      -15.62134248583536,
      -10.691262366740434,
      -7.053687594255821,
      -6.254617005850201,
      -4.4175591613887475,
      0.7779764137156657,
      1.115695118610826,
      -1.8868200976706735,
      -4,
      0,
      -2,
      -4,
      1.0631986485981302,
      -1.456196311680875,
      5.066699751215602,
      3.330916445396057,
      -4.66473119139668,
      -5.003248146758719,
      -3.2680459126112886,
      -3.0924015065025587,
      1.4028651579681883,
      -1.922109908572806,
      -7.518078929592668,
      -7.4298607311869045,
      -7.454299210388174,
      -8.023098974037934,
      -6.196010074725001,
      -9.4327699259584,
      -7.903034613822754,
      -9.852325825328087,
      -3.664566265187325,
      -4.360156525413741,
      -4.471044943984645,
      -3.1276288754024675,
      2.0766546987365984,
      4.040036141973989,
      3,
      2,
      1,
      1,
      4.10748808313758,
      -2.183231689267318,
      -0.5220318008303445,
      0.6573246049860132,
      2.0037840898181103,
      -4.128282970873163,
      -2.8795777264618185,
      -4.6822092962321795,
      1.8707569265518025,
      -1.5911265789817202,
      -5.258079247514024,
      -7.351929015130559,
      -3.9707408478309616,
      -11.239271643059933,
      -10.891959130639867,
      -11.74839433756586,
      -9.925214540893636,
