{
  "input_neurons": [],
  "layer_one_neurons": [
    0,
    0,
    0,
    1,
    0,
    0,
    1,
    1,
    1,
    0,
    0.67,
    1,
    0.007,
    0.008,
    0.999,
    1
  ],
  "layer_two_neurons": [
    0.004,
    0.602,
    0.003,
    1,
    1,
    0.039,
    0.079,
    0.001,
    0.02,
    0.018,
    0,
    1,
    0.368,
    0.08,
    0.995,
    0.969
  ],
  "layer_one_weights": [
    [
      1.922958901984215,
      -2.0760393846613,
      0.6142532497042431,
      0.6223502815053598,
      -3.214165094345998,
      1.84347455503867,
      0.029954327982925834,
      -1.6518671205594146,
      1.1563806159391414,
      -3.0234769886811597,
      -0.828235195665627,
      -2.41214350936171,
      1.1069133191556053,
      -2.3828561579697314,
      0.21584503844905498,
      -3.3546919221536746,
      -0.9953708183453485,
      3.0088262286430076,
      -0.9893754818495148,
      -1.9879342456218603,
      0.008662809366907697,
      1.0027619665761098,
      -2,
      0,
      -2,
      2,
      2,
      -1,
      0,
      0,
      -3,
      0,
      -1,
      3,
      -2,
      2,
      1,
      -2,
      2.9998255941058964,
      1.9979215537747328,
      -0.009396869097168015,
      -1.0269298556088502,
      -0.045050833639694796,
      0.9461416973815856,
      -3.046485549630128,
      0.975248241804554,
      1.991841302931676,
      0.997703655053687,
      -1.001845228868147,
      -1.001527152124703,
      -0.004230025740233725,
      1.9993449381957504,
      -2.0008314245977012,
      0,
      1,
      3,
      -2,
      -2,
      0,
      3,
      2,
      1,
      -2,
      0,
      0,
      -0.0005243788406452032,
      1.988989369338509,
      -1.0477023335963782,
      -1.1069494054431301,
      -2.18889887319099,
      2.7554634917825456,
      0.7564974108802603,
      -1.204128238283449,
      1.8263828198756646,
      -3.1501319627218844,
      -1.1205413718480888,
      0.9226608467595444,
      -3.0562134441611053,
      0.9646115238114138,
      -0.013552458846221891,
      0.9967902912313026,
      2,
      -1,
      0,
      -1,
      2,
      2,
      -1,
      -2,
      -1,
      -1,
      2,
      -0.0005966438958438561,
      -2.0216655707022664,
      2.912009348586616,
      2.78456463108754,
      1.6443031488464948,
      -1.458553825335032,
      -3.4910919756939296,
      -3.497823530341973,
      -3.5266799509725244,
      1.4954237678307383,
      -0.4317243590894527,
      1.704945769282596,
      0.7740612083944242,
      -2.163266345849781,
      -1.0850671939138903,
      -2.0250110151248077,
      2.993275919415438,
      0,
      -2,
      2,
      2,
      1,
      -2,
      3,
      0,
      -1,
      1,
      3,
      -0.02036700642397969,
      -1.1110635173286165,
      1.6904822881786863,
      -1.5084978655146979,
      0.34020167855650535,
      -1.7530174058079209,
      0.20960161711614406,
      0.1386192515862781,
      -1.9117605593701292,
      0.17643428606388292,
      -3.690253468644062,
      -1.50239877481464,
      0.6247881776315105,
      -1.2447874535068302,
      0.8746324567386572,
      -2.0349213057527336,
      0.993136080078225,
      2.99982045263078,
      -2,
      3,
      0,
      -2,
      1,
      -1,
      2,
      1,
      -3,
      -0.009202483593760542,
      0.9051705621822282,
      -1.283746217822332,
      -3.5736909352160855,
      -1.8339957169733692,
      -0.9720071805138275,
      -2.976011843181878,
      2.0189857076161557,
      2.0426904248405755,
      -1.033212396759163,
      -3.9793930250862504,
      -1.7967182638852242,
      -0.6153640530395923,
      1.5762944301965904,
      -0.28078134117565673,
      -0.13934081853503372,
      0.9648414014586465,
      -2.0106265485050843,
      0.9999473160358622,
      1,
      2,
      1,
      2,
      2,
      3,
      0,
      -1,
      -2.0041763805334485,
      -3.0402048093916876,
      -2.1882116043448914,
      -3.4267341389519745,
      -0.7715951045629708,
      -2.9815005318176686,
      -1.0334937435513123,
      -1.8729125323830267,
      1.224494609661519,
      -0.7929368028516852,
      -1.9771405017301733,
      1.0099974431452678,
      -2.8423447966678235,
      -1.7486249369324591,
      -2.5262591477728282,
      1.6914390603390403,
      -2.146495905365148,
      1.959789316660258,
      2.9932052682932033,
      2.999724884376806,
      1,
      -1,
      1,
      0,
      2,
      2,
      -2,
      2,
      1.9901224749089503,
      1.9187663346499018,
      -1.2491855183440421,
      -3.5407882414883782,
      0.17109368647259238,
      0.9955472810168443,
      -4.063942302239198,
      1.007423932028836,
      -1.0121247775022364,
      -1.0627588441548461,
      -4.204543655625948,
      -3.3231815178239383,
      -1.2363109147949598,
      -3.0327847339323384,
      0.26221384931728736,
      -1.3951667066172069,
      0.8001939502651279,
      1.938324819337435,
      0.0006154696771674287,
      1.0027003915267603,
      3.0000077114806296,
      3,
      0,
      0,
      3,
      -2,
      1,
      3,
      1.9834999766839656,
      -1.1177150846189443,
      -3.3138572800862507,
      -0.6293954082106502,
      2.112173295647086,
      -2.1802686951778307,
      -1.3358182283473643,
      0.5809445336170898,
      -0.6116902362900003,
      0.29762487740901883,
      0.2800863368859472,
      -2.8147097205948675,
      0.2493262947773685,
      -1.4465907408036112,
      -2.016956476104795,
      -0.5814082602115593,
      0.7157602206589071,
      -0.08027696510972214,
      2.01907036395353,
      0.009276075681481,
      2.0010543444581845,
      2.001142158374303,
      -3,
      -1,
      1,
      2,
      1,
      1,
      -0.03389810031101008,
      -1.1582843022955511,
      -1.3075938611662947,
      -1.5786249127121779,
      1.2216834299330062,
      -3.2297403976936896,
      -0.5160135235227554,
      -0.4873307382580554,
      -3.5996382043650232,
      -0.7571367347505051,
      -0.8820694275540447,
      -3.0004146885655354,
      0.09640115094937711,
      -1.5578681839529434,
      -3.1604720594827036,
      -1.7540552391900472,
      0.6580025910723686,
      1.931478570456365,
      -2.967632618612504,
      1.0270130118904346,
      -1.987186549913299,
      -0.993357456712407,
      2,
      2,
      -1,
      -1,
      2,
      -0.9996572942023468,
      0.9615832646779517,
      2.90897499655122,
      -1.1585053536097893,
      -2.3642548773566383,
      -1.5774423600609515,
      -3.033559306462178,
      -2.22823582387257,
      -0.10277868107367269,
      0.9678949537741813,
      -1.3419700412933244,
      -2.559255039765301,
      -4.683829178142269,
      -2.803659752222361,
      0.4783870821854495,
      1.798200109844054,
      2.152842158480614,
      1.612983763625649,
      0.927600410173525,
      -1.952237081610779,
      2.0372797176321957,
      1.0157943330114894,
      -1.9929685239895971,
      1,
      -1,
      -2,
      1,
      -2,
      -2.9960648766266877,
      2.0190674539966924,
      0.059602679106685805,
      1.0810730222260942,
      -0.08618552897969867,
      -0.4581081917978305,
      -1.7990938278002813,
      1.245766198526422,
      -2.495294271059856,
      -3.5460993719889573,
      -1.7697126697669265,
      -0.9058986658141489,
      -1.1733728080980206,
      -2.490748964140995,
      0.6114849751528504,
      -3.1659810883591604,
      -0.8191800506807579,
      -2.396030698703,
      -0.08588774648346413,
      -2.942312611856783,
      0.03639904052059908,
      2.0146947737006693,
      -2.993631566759167,
      -1,
      1,
      2,
      -1,
      1.0009644818845118,
      2.0187481233385602,
      -2.8946799298390244,
      2.229816214950003,
      0.2723281127076153,
      2.0711163532321613,
      1.6044971005841289,
      -2.6226568823650966,
      1.6002030443397082,
      0.596091965314515,
      1.5683738613109246,
      -2.4777671720893917,
      -2.43947310588493,
      -2.7256752344355375,
      -1.093571573739593,
      -3.0804971788343956,
      -2.9682354514175424,
      -2.712225203473361,
      -2.3750457605659507,
      -1.0641708513041355,
      -0.9320940595756996,
      -1.9599998984426916,
      1.024082014202307,
      1.0096144291432572,
      2,
      -3,
      -1,
      2,
      0.003940138396278334,
      -1.9633631112136973,
      -1.8102857762115145,
      -0.6261862774942917,
      2.343430816346026,
      -2.889492325192229,
      -1.28743288783651,
      -1.49366484421028,
      2.5478250965249774,
      0.3679784451841661,
      -0.7410433684262882,
      1.3119936688026137,
      0.3122288019913327,
      2.248524184689411,
      -0.011058298995774702,
      2.016557946705244,
      2.2260039294359006,
      0.4070460573537342,
      -0.31759631296473095,
      2.9136352613481753,
      -0.9517371342550979,
      -1.963238792847521,
      1.027403466464705,
      3.006947371721724,
      2,
      3,
      -3,
      2,
      -1.9971342441753017,
      1.0639385612861696,
      -2.777094272870928,
      2.3220972852533284,
      1.2869319365288694,
      3.0350036173518893,
      1.7060265482054102,
      1.445800177960514,
      -2.658256387830208,
      2.1326538126205397,
      1.001716800323724,
      0.9232050825302414,
      -2.1867794709582915,
      -0.04928807147148738,
      -1.0969798461118472,
      -0.9277336824299628,
      -1.7020941336267332,
      0.42520919172327487,
      -3.31866924220728,
      1.8855785564023644,
      1.0219065037475132,
      2.052228033019347,
      -1.9687328049491897,
      1.0079540952451305,
      2,
      -2,
      3,
      2,
      1.999850958698076,
      1.067861960890041,
      0.18368284788896588,
      -0.7903097770531765,
      1.1668493247759866,
      -0.042446703198250404,
      -1.473471824472171,
      -0.7133970776381028,
      -3.8668878949105627,
      -1.8686319135537899,
      1.1739251455958923,
      -0.9224995510873722,
      0.7886489548141018,
      -1.1613327388834485,
      -2.066269549852983,
      2.120384142151563,
      -1.6340399354277375,
      -2.5012430678246047,
      1.7009811012578375,
      -1.149608650673913,
      -0.008041595345844218,
      -1.9518232641523823,
      3.0331528650595656,
      -0.9915973063516657,
      2,
      -1,
      -1,
      1,
      0.0014009079178539875,
      3.0497950565583847,
      1.082651978487307,
      1.0605731291929477,
      -0.9371712443028546,
      1.764314013347093,
      -1.573160273426861,
      -2.788120130615081,
      -1.8894361644952262,
      -1.7881381918629176,
      1.272939707205954,
      -0.9223087897427841,
      0.8226729657902374,
      -3.0120034350050116,
      -1.863681038899399,
      1.19210785901697,
      1.463495117655527,
      -0.3780598601258996,
      2.746887015996678,
      1.8474295907879401,
      -2.0266757894082197,
      -0.9701078512488186,
      0.03296524795038683,
      2.0123315421674945,
      -2,
      3,
      -3,
      -1,
      1.0011289411448128,
      1.0204689128820563,
      -1.0379039377403976,
      1.870069129114615,
      -0.23022857253914972,
      0.5076651609398756,
      2.263652933800355,
      -2.770587921433151,
      1.1426196076462996,
      -3.7771814681761495,
      2.19069617009031,
      -0.07164611081377811,
      -3.352312600201715,
      0.9980823111551099,
      1.2226367089493608,
      -3.754689222745324,
      -2.5578632062384856,
      -3.4229337862462907,
      0.7142924680447398,
      -1.1540728675391092,
      0.9708576870926389,
      0.032771504490190444,
      1.0388250135030113,
      1.0193828314165512,
      -1,
      -1,
      -2,
      2,
      2.008804026947821,
      -2.0045305195120666,
      -3.1082120589745768,
      -2.245246520430502,
      -0.39549377662756674,
      -3.6435272261309266,
      1.197348228440277,
      1.1005572256975527,
      -2.9589851937636236,
      -0.9110335615779434,
      1.0328456426568045,
      -1.32006173335717,
      -3.4387573483827216,
      -0.22206020941820132,
      -0.01725023315250481,
      -2.868306804769757,
      -0.7108762573853508,
      -0.6326036296282975,
      -2.4482585297075397,
      -1.207439986034542,
      -3.05563625234976,
      2.011676744901736,
      -1.971711974987368,
      -2.980802571077638,
      2,
      2,
      0,
      1,
      -0.0011808128757412237,
      -2.0405713812259405,
      -1.180806197210665,
      -0.32140853495087773,
      -2.403875963902828,
      2.375139262293221,
      -0.8310712738295519,
      -0.01971301757614311,
      -4.263249247536018,
      -2.386130088524339,
      -4.421553542970891,
      -0.560292037014626,
      1.361401169137595,
      -3.477278461599351,
      0.692273700881118,
      -3.0063389113670693,
      -1.8879692257273086,
      -1.7927618855461347,
      0.46811420479613475,
      -2.2427550845025936,
      -2.078550659048404,
      0.006895167477592763,
      0.017525240402407757,
      2.0148588775282965,
      0,
      0,
      2,
      0,
      -0.006601427073515102,
      -2.0581613977357502,
      -0.18476628204235632,
      -0.35334142200166724,
      -0.48689001382516284,
      -1.6851426058998134,
      0.10176209109417929,
      -0.13315689948180393,
      -3.464199156207453,
      -0.7029169608116456,
      -4.689205834038529,
      1.316103173452644,
      -4.737025212699614,
      -1.5888888497241374,
      -3.3581545253183496,
      0.8481296648521021,
      0.09581240728334568,
      0.2640480855985693,
      -3.4622388517050666,
      0.7620297764095192,
      1.9010832898076144,
      -2.012514166677223,
      -0.9928713329673196,
      1.0096901607088138,
      -2,
      -1,
      0,
      -1,
      1.9957949761862706,
      0.9449473972466835,
      0.8514871063987509,
      -2.2817041065123798,
      2.4859269145765706,
      -3.7972987213019955,
      -0.0008885710671615656,
      -0.18179748152636308,
      -0.3934869608784327,
      0.3868281968462724,
      -3.577786123845139,
      -0.5741653078018724,
      -1.5892284392997915,
      -4.507308601109128,
      -3.278942029893805,
      1.9606875365271916,
      -1.7944326058257936,
      0.41017248337358936,
      -1.3550509760248082,
      2.830845481990445,
      1.924999104502887,
      -1.0079470562782022,
      0.0027414769860548403,
      1.0055019420904514,
      -2,
      0,
      2,
      3,
      -3.0043806329158422,
      -2.0585820878105854,
      -3.1257330092279108,
      -1.2085005336262014,
      0.588443600561585,
      -1.6713417254338454,
      0.049824779707631224,
      -3.1243153168866717,
      0.7737932192902475,
      -1.3322912718786748,
      0.6600904269235555,
      -4.3514988365447955,
      -3.2844403797452393,
      -2.244258801486613,
      -3.037334849670188,
      0.14893209175196265,
      -1.6272235935966495,
      1.5815755673235632,
      -3.247572402784431,
      -0.12175414285540312,
      -3.0578431173787837,
      -3.003277450534895,
      -0.9990030450427525,
      -1.9970162867875183,
      0,
      0,
      0,
      0,
      -1.0050250977078357,
      1.9632605126195457,
      1.900668695462663,
      -2.1433791493419987,
      0.7409854273532408,
      0.5731889228199034,
      -2.6476546382672557,
      -1.8572392407448317,
      2.0488869774135705,
      1.0308742732890939,
      -2.0256929164346693,
      -1.0690764846256364,
      -1.055512930016363,
      -2.0046526098320965,
      1.2027852548324367,
      -0.5943734523217332,
      0.6048650085872087,
      -3.248923213499934,
      -2.1407302271338917,
      -1.0671640629452146,
      -0.037890443093768746,
      -3.0050092452166397,
      2.9997128042377876,
      1.0015204689444284,
      0,
      2,
      1,
      -3,
      -0.0011836675159293928,
      -1.013974061840301,
      -3.0514453635266747,
      -1.1075196377644547,
      -2.1592804384222744,
      1.7683759375032546,
      0.6495933302836038,
      -3.5213411625737816,
      2.3707520666768094,
      -1.6406102179465627,
      -0.649673425906582,
      -2.7243945299304184,
      1.2009747425783526,
      -1.7610383898410915,
      1.4058555990989696,
      -3.391451089543597,
      -1.2549143512561096,
      -0.16319301147654441,
      1.9152337587067287,
      0.973905304384166,
      0.002166843106501252,
      -0.0041449008581934425,
      1.9996395625651668,
      1.99924093662587,
      3,
      1,
      -3,
      2,
      -0.00005144384732724733,
      -1.007671452364803,
      1.9683731362220722,
      2.926011746457421,
      -3.10321669980548,
      2.8581940296548445,
      1.7998449838699238,
      -0.26764557087859076,
      0.675185097822593,
      0.6578978160751751,
      -1.332896388080019,
      -3.395965499268607,
      1.527729122398675,
      0.5497348386103893,
      -1.354982545461029,
      1.7504016696338969,
      2.8273895583573863,
      -1.1098272222734409,
      1.956527993343612,
      0.012921769742644041,
      1.0206978452336655,
      0.012965243734307259,
      -1.9966680816701132,
      -2.998965822828565,
      0,
      -1,
      0,
      -1,
      -2,
      1,
      1.9927823584683662,
      1.9664029335155748,
      -0.06278572783798322,
      0.9236816164450555,
      0.9093674336589795,
      -2.1338678119567334,
      -3.1580390745445057,
      -0.15272460310726527,
      -3.1789156050447116,
      -1.1823133746863015,
      -1.2205943821554375,
      0.7975709346190124,
      -3.1812172013155613,
      -3.134543963344571,
      1.8984765488953061,
      -1.0494798043958593,
      -1.0189810024947121,
      2.0096583633474543,
      -1.9888150020933473,
      -1.9877152600150791,
      -1.9950379320156633,
      -2.996456872441037,
      2,
      0,
      0,
      -1,
      1,
      -1,
      0.9991466930827919,
      0.9877257462333668,
      1.9732286142884683,
      1.9598076511647957,
      -3.0486628271419574,
      1.9367585682870563,
      1.9317900411672575,
      -1.074691378945889,
      -2.070509950299606,
      1.9310665460339016,
      2.929038872776419,
      -1.05311499254557,
      2.947950191689243,
      -0.0407396515156004,
      -1.0348461446159825,
      -0.02436294799451881,
      1.992304908343096,
      -0.9962886346365146,
      1.0107002409843495,
      3.0088746446201147,
      0.00752214387469087,
      -1.9965858743018396
    ],
    [
      -0.9978292992502463,
      -0.10861252716545247,
      -1.3264177779539352,
      -0.5436322956973678,
      0.813253755470144,
      -0.08280433967919364,
      -2.353047536008317,
      2.362521321788595,
      -2.548285777950803,
      2.989968714086469,
      -2.195272240753834,
      -1.1214070616796574,
      1.8588178158654578,
      0.001409042829049239,
      -0.20930383531318428,
      -1.563827145226778,
      2.0026289127277086,
      -0.0005717379617317141,
      1.9985372270549975,
      2.9976398479533244,
      -3.0017380277589303,
      0.999765073058433,
      -2,
      3,
      -3,
      2,
      0,
      -3,
      0,
      -1,
      -2,
      -2,
      -1,
      3,
      3,
      -1,
      -1,
      0,
      1.000216385317027,
      -1.9968701739121442,
      -1.9881948530687614,
      -2.9672885907982947,
      -1.9413143066246386,
      1.076697180589455,
      -1.915937771921611,
      -2.93258119644744,
      1.0438000104530043,
      -0.9711208178163039,
      2.0144830624015437,
      -1.9961186706068468,
      -1.9985312245531621,
      -1.0002937021795313,
      -2.0003727758432515,
      1,
      0,
      -1,
      -1,
      3,
      0,
      2,
      0,
      2,
      -2,
      -2,
      -2,
      2.000658373033729,
      2.012757718302186,
      1.048023154944444,
      2.122973186222501,
      -2.79184990856057,
      2.269473400829131,
      1.3098913864839645,
      0.33382979441365324,
      -2.716069903215554,
      0.19443670915965755,
      3.0894653677633044,
      1.012069582758233,
      0.9850230475259759,
      -0.01720736057643351,
      -3.0134243280211908,
      -0.0014781494544274377,
      -3,
      1,
      2,
      1,
      0,
      1,
      2,
      -1,
      3,
      -1,
      2,
      0.0007367389333474989,
      2.012713612869976,
      2.0562256046141045,
      1.1726689756353077,
      -0.6527473639230139,
      -0.5079747527305258,
      0.6108355540855773,
      -2.389835848339246,
      -0.45890867622252174,
      -0.5998495549502965,
      2.254193699909758,
      -1.837202705679574,
      -0.9538480669357924,
      -1.0110323391398142,
      0.9355046984381857,
      -1.0427426489720637,
      1.9932415090206357,
      0,
      3,
      -1,
      0,
      1,
      -1,
      -1,
      2,
      2,
      -2,
      -3,
      3.012435605764318,
      2.052267602560262,
      2.179247640559187,
      0.4422868426481124,
      1.7287722473033782,
      -1.1755373474743576,
      0.6888787082862154,
      2.4340534158425284,
      0.32473978347779164,
      3.1422650420537477,
      -1.9007883189094756,
      -0.8607273103149455,
      -0.9012664954395389,
      -1.9922307234323593,
      -0.0758470915197554,
      1.9435175447442636,
      -0.008810169282051474,
      0.9999146447173807,
      -1,
      -2,
      -2,
      -3,
      1,
      2,
      -2,
      0,
      2,
      2.001058355398182,
      1.0475279145720782,
      2.1556621569727508,
      -1.5035779492305508,
      1.892063908868638,
      3.1060387114008243,
      2.875330347571296,
      -1.6142587893124805,
      2.132118834285641,
      0.9602478696884837,
      -3.1633988092437346,
      -1.050492420168263,
      -2.8634008418315764,
      1.124674649747569,
      -1.9758995114827267,
      1.908798370620201,
      1.952161420990249,
      -1.0147855993542927,
      0.9999357539837224,
      -1,
      -3,
      0,
      2,
      1,
      2,
      1,
      -1,
      0.9982254095130499,
      1.0181774880110985,
      2.0710239895244213,
      -1.686728589712459,
      1.8313039804164284,
      0.20119492913629675,
      -1.7747850110156709,
      0.7500194063860184,
      0.1132442583633898,
      0.8340459254881869,
      0.7331832083346274,
      -3.382355485539661,
      -0.16756367122847526,
      2.0833339735925347,
      -1.8452357398225772,
      0.003600349507290038,
      1.9302347464156768,
      -2.053256684685292,
      0.9643669257862137,
      0.9965320184388812,
      0,
      -1,
      -1,
      0,
      -1,
      2,
      2,
      1,
      -2.0043615990007404,
      2.037033365878182,
      1.0606716916500625,
      1.3959335013892489,
      0.8374827447586061,
      2.229407363237125,
      -0.8737777712435894,
      1.5246082393732032,
      -2.238903967102378,
      1.5312406841727877,
      1.6353452136717095,
      2.715204202612578,
      2.910034421785015,
      -0.7766532164733351,
      0.20237980550215232,
      0.02882809531306166,
      0.9561088718665411,
      0.9545449613013113,
      -1.03840664826562,
      0.9936397368739326,
      -3.000005292825381,
      1,
      2,
      2,
      -2,
      1,
      0,
      1,
      -1.9872172643479848,
      -3.0033032057280318,
      -1.947751463569291,
      2.3324099165137873,
      -1.2675444919193495,
      0.04808537833955306,
      0.8034623256353923,
      -2.8913548712840966,
      -3.398474015742742,
      1.6551611264315709,
      -0.019526127422935607,
      0.2469786425806566,
      1.3982117137848713,
      2.2932104896360364,
      2.086708756384101,
      0.976150561354652,
      -1.0520843190597078,
      -1.0677255680326299,
      -3.0566314569027906,
      0.985355604583582,
      -2.00166663337093,
      1.9987736926622728,
      2,
      2,
      2,
      0,
      -1,
      2,
      1.005580931043658,
      0.9599039725258257,
      -1.0579516769486754,
      2.1438097495304267,
      -2.619588096206001,
      -1.5360699876361639,
      0.20447038070909254,
      1.5473282854809938,
      -0.6141536186198259,
      -2.1877637396527256,
      1.3992475261135062,
      -1.3629520455329103,
      -0.42504679276346363,
      0.24759328639858588,
      -1.9534932455875589,
      -0.0004788375307282761,
      2.89890351321925,
      -1.1434668846758882,
      -2.0926836687348125,
      -0.03763459684202681,
      0.9885476880514622,
      -1.0059747362421394,
      1,
      -1,
      3,
      1,
      0,
      -3.000386244547089,
      1.950557637132842,
      1.8174345456450103,
      -1.2941385574534974,
      -2.2484338063800884,
      -1.2809703296876411,
      0.5790866241772304,
      1.1782920006872115,
      -4.402012701472284,
      1.6785962028129953,
      -0.7375810852048843,
      1.9140497750466816,
      1.2446116411402368,
      -1.6715642584835073,
      -0.8242948246922918,
      1.0099635805448604,
      2.023666902600191,
      0.8335452483107438,
      2.764424368623432,
      -2.1285031930859253,
      0.9400677671919886,
      2.9849802676613266,
      0.9945833290891545,
      -3,
      -2,
      -2,
      -2,
      -3,
      0.9972297771834702,
      0.9080375348741258,
      1.639778465365314,
      -0.6814010092995887,
      1.120256190420247,
      -0.12034611638979643,
      1.6017352258060444,
      -2.83286930511387,
      -2.321378334389193,
      -0.9181427615029139,
      0.8472538249466629,
      2.38512221541595,
      -2.2092591033065694,
      -1.9388484604904306,
      -0.9843771511768797,
      -1.0576737820801256,
      -0.08363376904177566,
      2.732014846368599,
      1.6690477381625342,
      -2.1964087921593,
      -0.07809718618152826,
      -0.014985151061181649,
      2.995407241116951,
      -1,
      -1,
      -2,
      -1,
      -0.9983659832221449,
      0.9695920675333456,
      -3.182036599489884,
      0.4313919439940251,
      -3.0933259801837036,
      -0.5539429087490692,
      1.0730412079545542,
      -3.055608146201767,
      -4.272662501878056,
      -2.4588801167979453,
      1.2918340294858381,
      -2.893686083102912,
      0.36668920509157515,
      -0.3993814483309412,
      1.879533053290805,
      1.8864652313597443,
      1.748870035996168,
      1.6511458577219065,
      -0.35596084343802487,
      -2.3686723353193693,
      2.759592252004708,
      2.8984164933329986,
      -3.0302357358874947,
      -0.007578286280142567,
      -2,
      -1,
      0,
      1,
      2.0000988908172426,
      -1.0556189442927961,
      -1.2940468570549257,
      2.183950585483268,
      -2.467277283544512,
      -4.944557825553627,
      -0.29333233705292133,
      -2.3283680690344974,
      -3.3755340153537396,
      0.9161581305283694,
      -3.119069523727112,
      0.6363412975532299,
      -1.3620700620437598,
      0.7448274683229608,
      -1.1121397975265812,
      2.7855599934827,
      -2.410208748417644,
      -2.437428982251893,
      -2.3886455037533687,
      -3.354082167849355,
      0.7592873134648405,
      1.888660567826757,
      1.9682502535921338,
      -1.0024594703070884,
      2,
      2,
      1,
      -1,
      0.9945601182051068,
      0.9077994489595661,
      2.626734527340327,
      -1.9356193328807954,
      -0.5460714288286231,
      -3.044332908215578,
      0.7013720343593635,
      0.8440704763554958,
      -4.142807537223746,
      -4.9033824924866956,
      -2.9943312801190434,
      -0.22620739425968903,
      -0.06804278713454055,
      -1.0440847189860032,
      -1.1181960646746865,
      1.6769473731589528,
      0.4928225068837265,
      -2.5542286318105667,
      1.57222171745237,
      1.6790187004602986,
      -1.2467936937572066,
      -2.1260035244388646,
      -2.046721661451483,
      -2.008861837626931,
      3,
      -2,
      -1,
      2,
      -0.00761201124436364,
      -3.1001401476888133,
      -2.344726939145006,
      1.0957961831381444,
      -4.360933709496478,
      0.3198907538184823,
      -2.8242987062192912,
      -2.842790555170887,
      -1.8540530191053877,
      -2.6727619378530316,
      0.01784604640944021,
      0.6357023207637588,
      0.760450847020062,
      -2.2020106567972655,
      0.7175702331359817,
      -2.5049294859603553,
      -2.636212302767568,
      -3.630948918069016,
      -3.454241981188856,
      0.6962187813490446,
      -1.210603142406367,
      -0.12275700119269511,
      -3.0458307542038376,
      2.989840454374975,
      -2,
      0,
      -1,
      2,
      -1.009131215923749,
      -0.05233958641930922,
      1.6954155154399513,
      -3.7177510876444746,
      -0.058178138747320925,
      0.817747510940654,
      -0.36808130784901305,
      -4.475269577384562,
      -2.638530029817641,
      -2.563827562893072,
      -1.202198364517418,
      0.14644820414243465,
      -1.6385774953574208,
      1.3868694242505302,
      -0.6750854129446738,
      -3.821592457633893,
      0.11600711855540516,
      -2.6245857974465863,
      0.5963535938205903,
      -2.295938217683737,
      1.8103628434945263,
      -0.12381155746832283,
      -2.048992441260315,
      -1.0088175175336351,
      -1,
      -3,
      1,
      -2,
      1.9993892327692366,
      -2.0305952378080474,
      -1.2233852133903054,
      -1.4590902381094886,
      2.3416761203237533,
      0.17687186782778982,
      -1.9036000817751042,
      -1.1114487943298486,
      -4.309848252237917,
      -0.3400148621897016,
      -3.1743379119004347,
      -1.97629904174083,
      1.0897643914533608,
      0.16738840346138112,
      -2.938811859531602,
      -2.0230256811703837,
      -0.9160197202091653,
      0.3219096487511528,
      -2.4222525152028576,
      -0.2616292533566875,
      -0.18658577102368218,
      -1.1144576432243147,
      1.957156269372407,
      2.988192426602154,
      -3,
      1,
      -2,
      0,
      0.0017546002816783539,
      -2.0229643433387015,
      -1.161625794462887,
      -2.310191278349676,
      1.6097777093550694,
      -3.4317604227601786,
      0.44757960113646617,
      -3.7650093350909537,
      -0.9123144081563045,
      -1.9086999746346138,
      0.10579277510384612,
      0.22328102797262891,
      -1.616449720724014,
      0.3113094618073528,
      -0.7939508327911694,
      -0.8691778299650679,
      -2.846663393143001,
      -2.636850222312013,
      -0.3973514483592274,
      2.7664767791975855,
      1.867547906366187,
      -2.085843789234953,
      -0.018806621749917908,
      2.0069731033112252,
      -2,
      -1,
      2,
      3,
      -2.999624566591037,
      -0.017074947463741535,
      0.9046071404517882,
      -0.0776243494707092,
      2.927683616534941,
      -1.1841925014331725,
      -1.2277593338736135,
      -0.2794071485477013,
      1.5941878684767743,
      -0.492104838980026,
      -3.485975412936703,
      -0.4619339438955538,
      0.6468300198955861,
      -1.4752385515547057,
      2.408116172184025,
      -0.6911575282957015,
      0.3112637854574886,
      -2.5515157006277325,
      -3.344462454489702,
      2.823334173538731,
      -1.1191360278320346,
      0.9164434207156746,
      -1.0240033699196587,
      1.0096749804463498,
      -2,
      3,
      -3,
      1,
      -0.009662119702974856,
      0.9931582456713247,
      -0.9947838359046192,
      -1.8537605108305377,
      -1.7129720554234944,
      1.2188019577237927,
      2.179403304373388,
      -0.9818738008824297,
      -1.1251005706169055,
      -0.05561305986017784,
      0.9542024944009516,
      -2.195233084608109,
      2.608447873517802,
      -0.5512204003210346,
      -1.5994899436805827,
      -0.6652141556159926,
      1.4457858609530154,
      -0.3461226515593778,
      -1.2145998631776314,
      -2.148408843396433,
      0.8842605868440663,
      -3.0921694896995375,
      1.9646857422614175,
      3.006337421177702,
      -2,
      -3,
      -1,
      -1,
      -1.0037278768332663,
      -2.987613252493588,
      1.0223722606887629,
      0.2233283496156755,
      2.4266219505907767,
      -1.5144800393322806,
      1.4116906799708981,
      1.211984276457763,
      1.0753979591291876,
      1.1371825270747393,
      1.1573093332077466,
      1.976206620282172,
      1.7776334683545143,
      -1.3976263668335438,
      -1.4172699790208734,
      -2.5196624098746154,
      -0.38742229438092285,
      -0.16900943048411937,
      0.9520098549690276,
      0.9253421990288131,
      -1.06143677149818,
      -3.033784533481622,
      -2.0197990672816792,
      0.005253610067816149,
      1,
      -2,
      0,
      -2,
      1.9999768961663125,
      0.00821376346930998,
      1.0569778932480807,
      2.170850230642105,
      -0.7043274523265809,
      -0.5789905986147034,
      2.423930406993391,
      1.3047822400295184,
      0.18490385310493107,
      1.2083479989545074,
      -1.8145997088931547,
      -0.9020453721067525,
      -1.0084288280525016,
      2.8574068298952695,
      0.7464987010594984,
      1.618021245636508,
      -0.3131619467935308,
      -0.07889675909250593,
      -0.036722524996367634,
      2.9419447268838086,
      0.9739324220172072,
      1.007235374043161,
      0.9939988839159631,
      0.014040328273924308,
      1,
      2,
      1,
      -1,
      -0.000581418130378157,
      -1.985709888840503,
      3.0596054612979633,
      -0.8480149764802306,
      -0.770709574871356,
      2.3057437285910445,
      -2.6887098486539367,
      2.2686667389282604,
      -0.8043319563963113,
      -2.8052948984577424,
      2.1174242215598036,
      -0.9250637820063395,
      -0.9757883798515274,
      -0.0811292097490385,
      -3.2433332302866593,
      0.7037940203217982,
      2.8217640576642653,
      -1.0398282608538776,
      -0.05339361368124538,
      -0.031449216203008445,
      -0.0005705129798974713,
      1.0025602688951893,
      -2.996010574938503,
      1.0139778731561588,
      -3,
      2,
      -1,
      3,
      -0.9978495219705992,
      2.0126014549849334,
      0.03862524302441358,
      0.1021494837955797,
      -0.8435131020034566,
      2.171988249236388,
      -1.8317872812274107,
      2.123116454786104,
      2.0573122150050933,
      -0.0073764116592979646,
      -2.014077699208852,
      0.9681465287217478,
      -3.015002183630111,
      0.91319199673117,
      -1.2036583230987647,
      -3.1959178212144144,
      -3.1059488255981558,
      -2.0313777102441595,
      -0.0005001449672767922,
      -0.9993984115155724,
      1.0388467188997168,
      3.0143488112020678,
      2.0067422559185015,
      3.007129725991361,
      0,
      2,
      -3,
      2,
      -1.9999183965593788,
      -1.9945409539892895,
      1.0127503754785692,
      -0.9473328673178886,
      2.076595224492407,
      -0.9174387736329169,
      1.0986289400239544,
      2.072016385308921,
      1.033853163125589,
      -0.022614072557513232,
      0.9300370944520617,
      -3.0585328822317095,
      -2.0546591848371745,
      0.9234190899447249,
      -0.12297442985187174,
      -1.0922036193127331,
      0.9695623326584409,
      -1.0098845218192332,
      2.0259999948772673,
      1.039699345988312,
      2.047181072735605,
      -0.9634895355962997,
      -1.9926155591962853,
      2.0081019936441993,
      1,
      1,
      -1,
      3,
      2,
      -1,
      1.005020662336349,
      1.024254726848907,
      2.0293104225677348,
      -2.9714015020290465,
      -0.9722493899007942,
      2.0285626682194726,
      -1.9769804691661534,
      -0.02129289310156689,
      -0.015942636741574465,
      0.9997840775470194,
      -3.029614141991808,
      -2.034721770331042,
      -2.0302108458095858,
      -1.003826319093765,
      1.0291801036515578,
      -0.9593019241307047,
      3.0401428461474107,
      0.03951561432856636,
      -1.9682857258754785,
      1.028687103650122,
      -0.9887954077821018,
      2.0082897053453164,
      -3,
      0,
      -1,
      1,
      -1,
      0,
      -1.9987901817216802,
      0.009018062168463703,
      -0.9772286353328679,
      0.02671507347110887,
      -0.9738481041382586,
      -1.9768868213676423,
      2.0336223988141264,
      2.03475274644068,
      -0.9658060999903921,
      -1.9762793680700186,
      0.01721347928641218,
      0.029125228658380797,
      -0.9687218296870383,
      -1.9503237502393924,
      -2.9500176018582014,
      -0.9506585484113429,
      0.027791349366506533,
      -1.9706238832775496,
      -1.977836187146204,
      -0.98521320704815,
      1.0139088654977928,
      -2.9920551180960326
    ],
    [
      1.8124993571464738,
      1.7801095681837535,
      1.4109529827239886,
      -0.31565132193156387,
      -2.5311659128904744,
      0.4856787309732509,
      0.7676277747453167,
      -0.8519951040458759,
      -2.0752268895321264,
      0.9451159266453946,
      1.6365873635240604,
      -1.0893086804781138,
      0.3604378178701996,
      0.8895320386273214,
      -1.9848518956911088,
      -0.38332167607153445,
      1.0009229712129566,
      -2.997878191522752,
      -0.9972016449592412,
      2.003204072769001,
      -1.9979492207867173,
      2.0005370107655653,
      0,
      1,
      1,
      -3,
      2,
      0,
      1,
      2,
      2,
      2,
      1,
      3,
      -2,
      -1,
      0,
      0,
      0.9998282903827886,
      0.998029283817441,
      -1.0079460122031136,
      -1.023075413691625,
      -1.042610726967244,
      0.944630438718505,
      -0.06063641504067674,
      -1.0524186687904946,
      -1.038024036724824,
      1.9758221596215917,
      -1.0137870385296874,
      0.9938694052491795,
      -2.001955638627795,
      3.0001704678932155,
      2.0002163630952356,
      1,
      -2,
      -2,
      -2,
      0,
      0,
      -1,
      3,
      -1,
      2,
      -1,
      -3,
      1.9994848109251178,
      -1.0093826008120903,
      -2.0403348190331214,
      0.9027726411666248,
      -2.1796323318583424,
      1.7584998476086675,
      0.736211667413831,
      1.7382927934788348,
      -0.23656730922275493,
      -2.1833344523397065,
      -1.1235803394359245,
      2.945172922154943,
      -0.030614157659539547,
      -0.01722220410529411,
      -2.0023667338462787,
      2.000824598969301,
      0,
      3,
      2,
      -2,
      -3,
      1,
      3,
      2,
      -2,
      -2,
      -1,
      -1.0005830199650805,
      1.9825927965411183,
      -2.0757800270352225,
      2.8053830787702743,
      2.6768006804119393,
      1.5749640703055334,
      -2.4936805934517348,
      0.5023418902106981,
      2.5110684175213307,
      0.5505801044351983,
      -2.3813113774445163,
      -0.24998061846358985,
      0.8651422678094113,
      0.9046961210378772,
      -3.041858310449309,
      1.994789030092469,
      -2.0006254203971174,
      2,
      2,
      -1,
      -2,
      1,
      -2,
      3,
      3,
      -3,
      0,
      2,
      -1.0169439081046192,
      -2.092695042189072,
      -0.27150275853752287,
      -0.45014281486861785,
      0.4185943252140103,
      -3.6356966895341425,
      -0.6367707886126357,
      -0.6176932125864544,
      -1.606382154513793,
      -2.5383684522724823,
      -2.4951781377813913,
      -1.3892362243602792,
      -2.2337786149024383,
      -3.1430356396816252,
      1.9323868936953972,
      -0.002554424152085485,
      0.0027030615966335846,
      -0.9998260237239637,
      -3,
      0,
      -1,
      0,
      0,
      2,
      -2,
      -1,
      3,
      -1.0071780365427374,
      1.9116934000692574,
      -2.2757441389866666,
      -0.5521328555375651,
      0.2394114410923641,
      0.19021494337379716,
      -0.7555057562862306,
      1.3664471800679,
      0.4673687881775215,
      0.46374721973062616,
      -2.503254620200131,
      -3.457133005332113,
      -3.3628241176045974,
      -2.2067985270692527,
      -2.1362897633329916,
      -0.06574567928048602,
      -2.003635218087674,
      -2.99680310223938,
      -1.9999698738939895,
      -2,
      -1,
      1,
      -2,
      -1,
      -1,
      2,
      0,
      -2.003269076488981,
      -2.0335107483754196,
      -3.1931149484845056,
      -3.457697293684938,
      1.2138528165782596,
      -2.966473054032192,
      -0.9776958205102715,
      -2.836974368498792,
      0.3932971398631744,
      1.5047314383776038,
      -0.5280613747026683,
      0.49158161023332225,
      -2.4394547941973825,
      -2.34470933958306,
      0.7810547493825565,
      -2.117534623044521,
      2.965277501088704,
      0.9996186308777512,
      -2.9890415634778233,
      2.0010426088445428,
      -2,
      3,
      -2,
      2,
      -2,
      -2,
      0,
      -1,
      -0.008669358057669422,
      -2.0713308990948485,
      0.7197931550136901,
      -3.6185315325954814,
      0.060041190300190464,
      -1.1641982053267446,
      -4.217423805340517,
      0.956271188411564,
      -1.7896666300902266,
      -0.6502353741723327,
      -1.6252069218833192,
      -2.6073135594394086,
      -1.547842469603032,
      -1.4485727431880626,
      -2.2901777746713172,
      -2.1086776175760518,
      -2.019995758330448,
      1.0082811540980383,
      -1.982217286388897,
      -1.9947137230743797,
      1.0000065523928061,
      2,
      -2,
      -2,
      -1,
      0,
      -3,
      0,
      -3.015262888274956,
      0.887417429650548,
      -1.3434456770743561,
      1.3016210544355775,
      -1.031707310628746,
      -3.2970847165826376,
      -1.3689933059411727,
      -1.2471828047026132,
      1.0069973856071297,
      -2.8028842586921896,
      0.3364815244133692,
      -0.6937153467006004,
      0.24227984451838705,
      -0.6078235495490211,
      0.6849520747125885,
      -0.1112803068583444,
      -3.0098675060132765,
      1.0220387342823898,
      -0.9650060327207872,
      0.012693091052728473,
      -2.9989148606402276,
      -0.9991776409967312,
      -1,
      1,
      -1,
      1,
      0,
      0,
      -0.028726794262693298,
      0.8588958101425954,
      -1.3207585958554684,
      -0.6552400655184131,
      -1.8765983225346763,
      -4.175715299342826,
      -4.417755164315345,
      -0.19711162006156946,
      2.1807636702669986,
      -3.648598442489472,
      1.3152644344490032,
      -2.82397446524757,
      -2.8632335816583563,
      1.2705273403514485,
      -1.4523096520468235,
      -0.17279828299544214,
      -0.014781804053054496,
      -1.9510932632029745,
      -1.955334415101499,
      -0.9748551909442066,
      -1.9888654718819447,
      -1.9946240089942133,
      1,
      -2,
      -2,
      0,
      0,
      0.00038198686889343866,
      0.9723626386682124,
      1.9344574140817552,
      -2.1667034193373627,
      -2.467235340361704,
      -0.6442157466016726,
      1.0515626352046723,
      -3.1598396688490737,
      2.2049568075504333,
      -0.36680036858064036,
      -0.33898645109654885,
      -1.4616386240781207,
      0.3938554449143508,
      -1.6901988692388952,
      -0.6611721825469109,
      -0.45355704666199714,
      -1.1979337611787404,
      0.010161982997968744,
      0.07623296475322194,
      2.0495049914082144,
      1.0300043097044533,
      0.011430322450686137,
      3.005745178908474,
      0,
      -2,
      2,
      3,
      1,
      1.0048129442871543,
      2.026737774719575,
      0.0876459309163031,
      -1.9439262795261956,
      1.853336713759396,
      -1.3562267515866115,
      -1.6829595600569744,
      -0.7297555924872101,
      -2.3422158273725264,
      1.9053887182704803,
      0.83833440571788,
      -1.2172024570596358,
      0.6562573347610839,
      -0.49127663446584263,
      2.4727016644444753,
      -1.4075402831706443,
      -3.1404818095210327,
      2.058322825859414,
      2.1094360670458774,
      2.0819932866155253,
      2.0279820767437173,
      1.007329238421499,
      1.0050501552389948,
      3,
      -2,
      0,
      0,
      -0.998404438079497,
      0.023365351427207342,
      -0.8903132573130651,
      2.258855595909722,
      -1.7050329906236807,
      0.13150188269662214,
      2.9147971381877085,
      -0.34847096397914373,
      -2.4037622483350733,
      -1.326846240262649,
      1.7393166290006592,
      -3.2683946742991337,
      2.8101516370578086,
      -2.1910066772629593,
      2.6659589465005356,
      -2.3478596608651356,
      1.6584510332455549,
      1.8716988025839174,
      1.0068447413721497,
      -1.8726745541782135,
      3.104827506927485,
      -1.9708001428441861,
      3.0144071269898496,
      3.0075525267885594,
      2,
      -1,
      3,
      -1,
      -1.9947318341093807,
      -2.956465287049468,
      -2.809114283859865,
      0.42090290756874593,
      -1.5413562957060425,
      -1.6606910723176374,
      1.1659593569023838,
      1.9274121616630993,
      2.741816407467472,
      -0.3673691537265643,
      -3.4492107142697512,
      0.5514264748918443,
      -3.3381739450034242,
      2.816103349970699,
      -1.253827636579575,
      1.7278544401040958,
      -0.1926309524478107,
      -0.10134323023748056,
      0.9931544350617322,
      0.10684074490207711,
      -0.8889985290332858,
      -2.967687899720021,
      -0.9812694710612208,
      0.00653188599335118,
      0,
      -1,
      -2,
      2,
      -2.9935214240356918,
      1.0616770859716862,
      2.2319362683829804,
      0.44098223550862287,
      3.524025203350736,
      2.482700292885162,
      -2.5464820858764767,
      0.21478972149283784,
      -1.9523281557737175,
      -1.085158994677562,
      -3.253559551879123,
      -3.4860780412067087,
      -1.548697793283753,
      1.6528774083305484,
      -0.2955149768340045,
      -2.1712563025426093,
      -0.1538090647793896,
      1.8509937083232268,
      2.000378262845111,
      -1.909223287346705,
      2.1075725312402436,
      -1.9474532426744036,
      -2.977205376417981,
      3.0096791498649065,
      -3,
      -3,
      2,
      -1,
      3.0054179268441303,
      2.063238892181613,
      -1.7728904458262837,
      1.4102392941181872,
      1.5343044417313,
      1.6149207267817813,
      1.48636237427535,
      -1.6647936215349084,
      0.18774886735275437,
      -2.795796905436641,
      3.057276405252321,
      -1.1802472449698433,
      2.546399215151732,
      -0.450722597281909,
      1.6981070707029913,
      -0.20428014688346774,
      -0.20168086334685867,
      -0.15960107813246194,
      -0.05724771557740659,
      -1.9804891030580674,
      -1.925475156797888,
      -1.9437325864973058,
      1.0234806410099055,
      0.008731649378381303,
      0,
      -3,
      -2,
      3,
      0.005565911801234522,
      -0.9368347144867067,
      -0.8312101476420559,
      -2.6876121584709187,
      1.4922207838174992,
      -2.5538003303773746,
      0.3312387394697251,
      0.22384710236040123,
      -1.7692805211122884,
      2.335404606406408,
      0.2973254696422227,
      -1.014661946582268,
      1.7379714790069032,
      1.7704196631391695,
      -1.1627489806576088,
      -1.2279071755864286,
      -0.21144629500726236,
      -0.1818231289105146,
      -2.0884719256096145,
      -2.0089625558239117,
      -2.9512149086030575,
      1.0439242427392261,
      1.0213244116267006,
      2.008162078991074,
      2,
      2,
      2,
      0,
      0.007513564468101967,
      -1.9606575612672663,
      -1.9335207007684994,
      2.121946030116507,
      3.1526321717775523,
      -0.9134223692609722,
      0.9353887634357057,
      -2.038496650807079,
      1.030696483275147,
      1.199294053119048,
      -2.820695411817039,
      1.9654300186757467,
      1.7179282473693385,
      -0.14659269001239636,
      2.9217973396150865,
      -0.22824910134607593,
      0.717255190224393,
      0.7434030488301411,
      -1.126231154744139,
      0.9976853268122434,
      1.0500215979956582,
      1.0436046976357558,
      3.0265406947307576,
      1.0142757927632546,
      1,
      -3,
      1,
      0,
      0.01204601226986551,
      -2.9875727727564283,
      -0.009579516528359887,
      0.9634517409919932,
      -3.122449636614714,
      -2.2449994381051557,
      0.6475278102978118,
      0.6241864717614555,
      1.676524201778258,
      0.7271975420541787,
      0.7876684251368683,
      0.6032156550813451,
      -2.430790016987494,
      -3.2000640061201158,
      -0.19615869810770578,
      2.7019281321499604,
      0.644534375256851,
      0.6444947413649956,
      -2.2278244445409663,
      -1.0603848227771087,
      -0.9726985574023199,
      1.0334674966533837,
      -2.9786917853765527,
      -2.9837040510998714,
      2,
      1,
      -2,
      -3,
      -0.00019863460726516073,
      -2.0179003439487504,
      1.9306086093938355,
      0.870389409385076,
      -0.1902120544459319,
      -0.3515864604139029,
      -2.4903040127574223,
      0.4339896100068835,
      2.310610042563987,
      1.2422452277598706,
      -0.749301278787023,
      1.2381272065509523,
      0.30250135399901956,
      -0.5003259496709592,
      2.5111513287882508,
      0.5771444434449362,
      -2.38733277583194,
      0.5631609618652202,
      1.6983731148611048,
      -0.11166332066935755,
      -2.01790701796917,
      3.027342027036187,
      0.0218934026097563,
      -1.9841891623050727,
      -2,
      -2,
      2,
      2,
      -3.0066211409536496,
      1.9626510266165116,
      -2.071150143990148,
      -2.165164843137399,
      -1.2692019743141103,
      -0.4223636806974292,
      -0.5299728513094895,
      -3.5752028465108827,
      1.2446240867244796,
      1.0659678483386223,
      0.058647332261430325,
      -2.8837771201885976,
      2.2680218238453596,
      -0.6542096020260316,
      2.3948555878414957,
      0.530582178224691,
      0.6364250709596021,
      -2.3677645223299995,
      1.7321801828963945,
      1.8807047085154822,
      -0.03126111147948278,
      -1.9853045054931209,
      2.013636442568355,
      2.01117109972152,
      0,
      -1,
      2,
      1,
      0.9997405004987557,
      -2.021481096871963,
      -0.04831662834695463,
      -1.1258033793542737,
      1.6891890495258268,
      -3.5012658148355316,
      0.4379524405716495,
      -0.5630189426404383,
      2.3621678106724175,
      0.27508005029647126,
      -3.7335228828961604,
      -0.7136081908794549,
      -0.6298636781477776,
      1.3907493545200893,
      -3.5768755141393154,
      -0.39649126296892573,
      0.7111044417921103,
      1.7030179576593492,
      -3.207849120610566,
      -0.0693223787263001,
      -2.0044060075251005,
      0.02636293009964754,
      0.013119747221149738,
      2.006152608569392,
      -3,
      2,
      0,
      2,
      -0.9963834799507938,
      1.9868926772505358,
      0.9487796184904821,
      -0.11032792106473038,
      -1.2650478206670377,
      0.5562894515549852,
      1.4344744251003618,
      1.4326644547265217,
      -0.5671695288756385,
      -3.5325733391381626,
      -1.494268122024697,
      -2.5418561594979208,
      -3.532955892569912,
      1.4105832054110323,
      0.453451473344728,
      2.6059650470380094,
      -1.2745994392225384,
      1.7740540061343502,
      1.8495853635142712,
      -0.050751564233477583,
      0.00120137217834717,
      2.0341660758550075,
      -2.9774380655959045,
      -2.9872572510906523,
      0,
      -1,
      0,
      0,
      1.998394292834395,
      0.9857285896470503,
      -2.051948807268951,
      0.9083128606756282,
      -2.1770689260093166,
      -1.3207088867401677,
      1.5525153140184613,
      0.4832241157157226,
      0.4859322220880485,
      0.5057353724892025,
      0.5439172470524266,
      -2.4690448605071444,
      -2.4666665708080515,
      -0.47914628034254697,
      -2.4135671296246723,
      -2.282547506598141,
      0.8092533968397493,
      -0.1356525661377426,
      1.9336638973385478,
      -0.0015460803861365895,
      3.0006097078738034,
      -1.981709165791812,
      1.0210929892443388,
      -0.9848061599687913,
      1,
      1,
      3,
      -1,
      0.9993947093017168,
      2.9913279727753985,
      0.9713454744864387,
      -0.06109523351555718,
      -1.1051039304396106,
      1.838094739896982,
      -1.2405360905027902,
      1.6728465593619037,
      0.6204847850215677,
      0.6242278787752419,
      -1.370625484895537,
      -1.3721066334713827,
      2.6201120504457798,
      -1.369249930121625,
      2.7108721427358167,
      0.8418789537024027,
      -3.0943030504991937,
      -2.06136780345005,
      1.9863679334741722,
      3.023391048591084,
      -1.9744652214431349,
      1.011978833245505,
      -0.9888643882918622,
      2.00828014031425,
      1,
      2,
      2,
      -2,
      -1.999992694909021,
      1.995860552956296,
      -1.0164187924195784,
      0.9585189220338006,
      -3.0595176261296393,
      -1.0830111325139338,
      -1.119401334616031,
      1.8413171321724442,
      1.8145426197117027,
      1.8052265333117132,
      -1.1987599215172242,
      0.7919784512300442,
      2.778910296474984,
      0.7820478611780437,
      1.8345548934705325,
      0.9025285622346759,
      2.95624864574985,
      -3.0156550900867676,
      -1.9950095384095439,
      0.03018507290423545,
      -1.9723202132927158,
      1.019754193571857,
      -1.9909673003169166,
      -1.9949548902400058,
      3,
      0,
      -1,
      -2,
      2,
      3,
      0.9957683184116947,
      -0.02020813410363246,
      1.9669539471202209,
      0.9613791848571424,
      -0.03979776268371846,
      -0.059653648022695654,
      0.9155244910351334,
      2.9275725217578628,
      -0.09344268915426411,
      -2.092681477847821,
      -0.10716820283245332,
      2.899473354490368,
      -1.0805610273019421,
      -1.045979114480874,
      -2.0262880945769326,
      -0.010763950892739254,
      -0.9992804087806115,
      1.0139077958142915,
      0.008752718112420019,
      1.0115933898304736,
      -1.9938600162628621,
      -2.996015924844963,
      2,
      2,
      3,
      0,
      1,
      0,
      -1.0006792871552068,
      -2.007388083206917,
      -2.0175238067611176,
      -2.0226052922109554,
      -1.025370928808506,
      0.9689915937592125,
      -0.04065339056381938,
      -2.0455460986611995,
      -0.042478769877585296,
      -1.0415909609426734,
      -1.0410711859642947,
      0.9684309327271315,
      -1.0276696927167541,
      1.9834658882460185,
      -3.0137116998029128,
      1.9911211312190014,
      -1.0022450026603,
      1.0008475984518617,
      3.005161854742245,
      -0.9933583623634935,
      -1.992792071371809,
      3.0044049441143716
    ],
    [
      2.0353065528872327,
      -1.9863784258997401,
      2.253865820438992,
      -1.8618770271447747,
      2.0859206078385943,
      1.9679539157022168,
      -1.1351573268813042,
      -0.8589119366808747,
      -0.013150012140645493,
      -1.987198675810948,
      -0.8088566530162001,
      -0.8114128306849149,
      0.914310669915493,
      0.11223455111987071,
      0.8776939059208541,
      2.3253584269682994,
      -0.011951304958893268,
      2.982066698636417,
      2.9797049082368696,
      -2.023059279382038,
      -0.017284378377693404,
      -3.005553251896003,
      0,
      0,
      3,
      3,
      3,
      1,
      0,
      0,
      0,
      -1,
      -3,
      -1,
      3,
      0,
      -1,
      0,
      1.0001706489466715,
      3.001836428073459,
      0.007943542494783231,
      3.022356949003823,
      -1.9678287095407818,
      -1.966821199824278,
      -0.9886986844574966,
      0.9831295773569814,
      0.9719103987364185,
      -1.0295907428506281,
      -0.0206401838325382,
      -0.006674458701291251,
      -1.9971779377314718,
      -1.9992578146625901,
      2.0009420044667126,
      -1,
      0,
      -2,
      -2,
      1,
      1,
      0,
      1,
      1,
      -3,
      2,
      3,
      -2.999489780887399,
      2.0098181125138783,
      2.0453004671830812,
      1.0934142735060193,
      -2.835511407345737,
      1.1935647415866828,
      2.1658120464971695,
      0.11612093420170765,
      3.0789390472886624,
      -1.9242854492429795,
      0.060368083257705395,
      -0.9712290993450429,
      0.030983372623496014,
      3.0322871501378486,
      2.016369054126756,
      -0.9963578668065516,
      -1,
      0,
      -1,
      1,
      0,
      -2,
      -3,
      -2,
      3,
      -2,
      -3,
      0.0005891019632489172,
      -0.971347462769225,
      2.1001336416460394,
      -2.7756453631062588,
      -2.6653341491167093,
      3.3892062403851138,
      0.34845288814721387,
      1.2790680242176327,
      3.2808942296404267,
      2.3205995276221283,
      -2.671924072487736,
      0.22380704282836472,
      0.168875148527395,
      0.11761995486992506,
      -2.9253384586970674,
      -0.9672086389536793,
      2.010251720756973,
      -1,
      2,
      0,
      0,
      0,
      -1,
      -3,
      -1,
      -3,
      1,
      -2,
      0.02833073524109968,
      -1.8520610068571899,
      -0.6021385881438204,
      0.5888234344393171,
      3.657239284148755,
      0.603527865115353,
      -1.5022392214502442,
      1.4844307197696733,
      -1.4951651315890584,
      -0.4385558355621692,
      3.5840438219602744,
      -0.563511601981162,
      -1.6893799311478404,
      0.2082235925060163,
      -0.8490209464842575,
      -0.9481285832668834,
      1.0104374551040627,
      1.0003187496017636,
      2,
      -2,
      -3,
      -1,
      0,
      -1,
      0,
      0,
      -2,
      -1.9825940951579775,
      2.1249411448783566,
      1.3723322955690105,
      -2.2826649990678645,
      3.950315737200035,
      1.9001910420072148,
      3.7245965619603028,
      0.6223287282096454,
      2.581993919914139,
      -0.31997229585163134,
      0.6953921344493695,
      -2.335995221493814,
      -1.4792811550535305,
      2.3063104252653157,
      2.261316235542571,
      2.2032199836466195,
      1.068697279421379,
      0.01510672487677653,
      -2.999933304036172,
      1,
      1,
      2,
      -1,
      0,
      0,
      -2,
      1,
      0.009351861803844395,
      3.0665516137655873,
      3.251968814689332,
      -2.4231752339125374,
      2.8678560917674067,
      -0.022821244309717797,
      3.8760051366138804,
      1.651917936807015,
      1.555313610934388,
      1.5017023808277847,
      -1.372742128872654,
      0.5447478346237914,
      0.5007464792471684,
      0.43082757095715957,
      2.2522772317717257,
      3.2006443266699223,
      -0.8138332179625544,
      2.0731994295643146,
      2.0094602981344725,
      1.000148401615828,
      -3,
      -2,
      -2,
      -1,
      -1,
      0,
      1,
      0,
      -1.97503235018544,
      -1.8725500424948673,
      1.3965759298222165,
      -2.3266434819531208,
      0.8268189002347567,
      3.7984651719652156,
      -2.2259015357956686,
      1.6399905227249088,
      0.6725971202098346,
      3.68601907844361,
      2.6571821389268937,
      -1.4077856072061572,
      2.6041857299943083,
      0.48623781811431876,
      3.288385638579758,
      -1.8361760404260274,
      3.1387833673077763,
      -0.918948940356853,
      2.000519190088735,
      -1.0047937071839976,
      0.9999918031375951,
      -1,
      1,
      2,
      0,
      0,
      0,
      0,
      3.0273102247355124,
      0.20387973250039548,
      -1.5289535700611867,
      -0.29922373987834266,
      -0.29831976995061027,
      3.7017713197861957,
      -1.1673237124693396,
      3.9488801642338522,
      -0.8398675782549965,
      4.242695800661081,
      -0.9188501101202242,
      1.0268966433176638,
      0.04349737844861213,
      -1.117477203768793,
      -0.47343633262065143,
      -1.7297530483328716,
      1.144242184040187,
      -0.9294955913785921,
      2.9730269193178285,
      -0.013803063476975665,
      1.99871285989363,
      1.9983847962845736,
      0,
      3,
      0,
      -2,
      -2,
      2,
      3.0553537489427818,
      -1.745577340849853,
      -1.6049023728098328,
      3.503409429949092,
      -0.6707301516319322,
      -1.5462057929096076,
      -0.044137173354604514,
      1.131897307858379,
      2.132045593493521,
      3.196535901068449,
      2.3134217141966857,
      2.3251000486542535,
      -0.7433007992730992,
      3.0798131591313624,
      -1.2700644450265022,
      -0.5677270687620611,
      1.1570612011404648,
      -1.004364151892561,
      -1.0501920445686492,
      1.9598727592411158,
      2.9807385299313482,
      -2.0105148288892987,
      0,
      2,
      2,
      -2,
      2,
      -2.0004137399393036,
      -2.923716568702334,
      1.1535924749621056,
      1.1307395228241037,
      -1.8639798177298994,
      -2.0776366199190974,
      1.1895409724157064,
      2.74023384297176,
      0.7525052191965009,
      3.535487660511637,
      -1.1713340163970605,
      3.146766669656979,
      2.260902296980475,
      3.297235574752519,
      1.1396582703006557,
      -2.1182772303845128,
      -1.4758385534097607,
      1.1544591326233882,
      -0.026016605713714253,
      -0.07411886499309901,
      -1.0564413417976388,
      0.9756280293994521,
      1.98907644576401,
      0,
      1,
      1,
      -3,
      -3,
      -2.0046540604423675,
      -0.004634578769077384,
      -2.0506591065773714,
      -2.2077352378354624,
      2.6726279127355292,
      1.63007180859357,
      -1.9795791871623503,
      -0.6524137793823196,
      2.140630382962123,
      -0.848570571755897,
      1.4813224123468247,
      3.6424333728332052,
      -1.1897845674332823,
      -0.0013523667154000127,
      0.9885815810945687,
      -2.1200443804233458,
      2.513417968291834,
      2.1359136581630938,
      0.9491006238583993,
      2.897373939717463,
      -0.06242958401372111,
      -2.0211343848569134,
      -0.009610013679850109,
      2,
      1,
      2,
      2,
      2.9989168342577286,
      -2.0215681718614644,
      -2.109919700090802,
      -2.291465973024278,
      -1.4883774624227692,
      -3.5684229301311916,
      2.5142142685654667,
      2.893279602683684,
      -2.9599425183617782,
      2.0385781353413877,
      1.032786699902013,
      0.2747440387302593,
      -0.7200032592781647,
      -2.6140833709942375,
      0.5387210406968179,
      -0.42161011314304386,
      0.6618076054775874,
      2.410399775141187,
      1.0938976402741136,
      1.8621297821045717,
      0.8604822348373474,
      0.9239992719024497,
      -3.0343973363413346,
      -2.0138540303398216,
      -2,
      3,
      2,
      -3,
      -0.004051193170336645,
      1.9731693672149457,
      -2.183079746384608,
      1.557804461169391,
      -0.5606239271374247,
      -0.6186665486120458,
      -2.535807530150445,
      -2.2075260077795873,
      0.07011253852975408,
      -0.7549285106915223,
      -0.6516996588111238,
      3.494667527983238,
      0.5645845083329671,
      0.5310531713473049,
      2.4392737069306945,
      2.3990539792573955,
      1.4078087036672975,
      -0.7313147106322034,
      -1.036702270667952,
      -1.1849431688213035,
      2.8315381875895773,
      -2.0756280557366846,
      -0.039305842281993394,
      2.9906399333221145,
      -1,
      0,
      -1,
      1,
      -2.998377764831702,
      2.9680421717154477,
      -0.18772422575437214,
      -1.3641708296927302,
      -1.4987684736119264,
      -2.5540723768624765,
      -0.5402563992737112,
      -2.212004613758185,
      -1.8799841992445823,
      -2.689248976783164,
      2.4270508365484944,
      1.7284148643315513,
      1.988572610696894,
      1.735451268846152,
      -1.5311445295370123,
      1.2886691653227913,
      -1.7116650227996506,
      -1.8013916081524994,
      1.883235723728313,
      1.796188325498918,
      0.8266677622635223,
      -1.1019995002187049,
      1.9564713042886341,
      0.9883631552278523,
      3,
      1,
      2,
      -3,
      2.0132422808878343,
      -3.0244865983305504,
      -1.1442600340144196,
      0.7731867776489425,
      -2.3819707950086153,
      -0.5332747159634854,
      0.7044778286976036,
      -2.9764894932465884,
      2.3580980584946754,
      3.297055087762228,
      2.195167601697641,
      -2.514259696569007,
      -0.036959642997675304,
      -1.2012974180788363,
      1.4850484011687035,
      -1.6401978096882606,
      0.2833557562737089,
      -1.8680966085260777,
      -1.133088694081895,
      2.8320505719408313,
      0.868168978773481,
      0.9001346517076398,
      -2.0414854141279077,
      -3.0093535913412595,
      -2,
      1,
      -2,
      0,
      2.0140865157942476,
      0.9876323965337278,
      0.9640619007617122,
      0.9384671784202981,
      1.6969797566101934,
      1.6954178770859443,
      1.9712578446502127,
      0.2897749010458868,
      1.5061441265435058,
      -1.6895100590744039,
      2.1486042317430334,
      0.5068673306568835,
      0.9183245161270022,
      0.6532795678085128,
      0.43752669745241235,
      -0.5049998928224686,
      0.3153421284668578,
      -0.9260701683271387,
      0.8425128749005487,
      1.855601248513947,
      -2.100722208582915,
      -1.0652148719713999,
      -3.033919971276898,
      1.9942655429255398,
      2,
      1,
      -1,
      2,
      1.010180081373167,
      -0.9742114944267903,
      3.120827233239669,
      1.1535350459647686,
      1.0350368517452149,
      0.10166831842011066,
      -1.6134812838779604,
      1.5418305135538037,
      2.7287167688864913,
      1.4792609959854535,
      1.3545663455225856,
      -0.3078586167837288,
      -1.9350578219085597,
      1.651685607435223,
      -1.5724742056748489,
      2.5566277667984827,
      3.40233884740161,
      -1.8609074533161365,
      1.8879805474250047,
      -3.1285028478146586,
      0.9132211079258952,
      -2.059427640233173,
      -1.035408082128089,
      2.9868064993037002,
      -1,
      -1,
      3,
      0,
      0.004004034155329503,
      -1.9354513029464748,
      -1.7741372669211526,
      0.30434406060622377,
      -0.724239399653678,
      0.44950983665582467,
      -2.2932143973628007,
      -0.052808303224968815,
      4.131501871972917,
      1.916758557640643,
      -0.36543692724151405,
      2.91224870651067,
      2.059245788136397,
      3.707128063214499,
      -2.4204463054666263,
      -0.4185949039583768,
      -0.5445750359963537,
      1.3389909350210532,
      -1.9169390852491195,
      0.9319956120688188,
      -1.0692435948063663,
      1.9616155601580862,
      1.9669531827797915,
      -1.018520569559198,
      0,
      -2,
      3,
      1,
      -0.9850885322649866,
      2.114787525664597,
      2.2937480561904673,
      1.3402672025020759,
      3.2600362449109186,
      1.4401089251497037,
      2.712028646057598,
      -1.9905549312772264,
      2.3957794124122938,
      2.4198595751414747,
      3.1958186008081544,
      2.1767229260874283,
      -0.7676170241087305,
      3.9613755265223465,
      1.9208948786860636,
      3.7136293364733515,
      0.5376511075093181,
      2.511345260336905,
      0.2539880828934157,
      -2.98785921850388,
      -0.025651960657398044,
      -0.03722664467824365,
      -3.025316043111734,
      -2.0170349277358652,
      2,
      1,
      -1,
      2,
      -1.9727778248392907,
      2.13579652327079,
      2.2725292691811125,
      -0.672848336137633,
      0.29966598235167113,
      -2.533571516618751,
      0.6628935574899123,
      1.8939589172615636,
      -0.7037718304483158,
      3.5150687323076983,
      2.414463667350371,
      2.3415887985408683,
      1.3551855270581252,
      2.283140947792576,
      2.1739518243953304,
      -1.028894413471492,
      2.6184168859651265,
      -1.5008300205120335,
      -1.7173663034707194,
      1.092016776100011,
      -1.9797028599322075,
      -1.0096647321619554,
      -2.0070777199347325,
      -3.0123124028005748,
      1,
      1,
      1,
      2,
      1.0197807204580531,
      -1.8924748753447325,
      -0.7937385308890856,
      -2.7818643810093104,
      -0.681062305055752,
      -0.45366503971709354,
      -1.249211919706526,
      1.9137261716079668,
      -0.874323857145978,
      3.1950634897781542,
      2.1035609530730657,
      1.126779090464246,
      -0.8013405911973143,
      4.260211368091567,
      0.1691576204147712,
      1.8740113986433644,
      1.5329524807943498,
      1.4104587538007403,
      2.2292122065679654,
      -2.926670034443375,
      0.012713374482922321,
      -0.011599363166197895,
      3.0009427358010745,
      1.9938010382947626,
      -2,
      1,
      -1,
      1,
      1.0141575179977143,
      -0.8969354952304502,
      -0.853001816480645,
      -0.8569115458912352,
      -1.738008428593199,
      -1.5316966964861296,
      1.7157546068950646,
      2.910399105079874,
      -1.987130621220363,
      3.95398035138384,
      3.829489086376216,
      -2.1385153943495454,
      2.9392338362669497,
      1.0690191409691219,
      -2.0412354924820986,
      3.7433476292482672,
      -0.5140835839596247,
      2.3263552021407294,
      -0.8117909371756007,
      -1.9260222394398263,
      -2.9696252762612794,
      -2.004869958717897,
      -1.001381502505034,
      -2.0073185443548662,
      2,
      -3,
      1,
      1,
      -1.9887209115266338,
      1.057461015648071,
      1.1165670391291995,
      1.1074837673851736,
      0.17949145031550529,
      3.3166166866521087,
      2.53695052297553,
      0.7406565070859312,
      -2.174147392227309,
      -1.1992783664563818,
      -0.26770618093041076,
      0.7269971468629178,
      -0.20738034260853963,
      0.85667183712022,
      3.738242434286048,
      0.5533941781032061,
      1.357802141806467,
      -0.7828218750535076,
      0.10793332921204586,
      0.03100888007410508,
      1.02886320870898,
      -1.9960676870792078,
      -1.0040529043142994,
      1.9943869337149656,
      2,
      2,
      -2,
      -1,
      -0.9981331073174614,
      -2.9796982913919097,
      -0.9485055863480942,
      1.0821058949576734,
      0.12166473385380669,
      3.1835339874926767,
      -1.702399040778688,
      1.4714081672204318,
      -1.4165449405689008,
      0.5759596631202343,
      2.537770295066349,
      0.5637184865098576,
      -1.3578755375652027,
      1.6679377378279479,
      1.5600012082914436,
      0.3307129344719612,
      0.17325570368821444,
      2.1049814435020227,
      3.040461072610117,
      -0.011986467238789274,
      1.9740441360611778,
      -0.0010321655030849435,
      2.000288096528849,
      -0.9994662702419868,
      -2,
      2,
      0,
      1,
      1.000153815213337,
      2.0137044019672534,
      1.0277612419215805,
      2.0538646340264757,
      0.07360565658088074,
      -1.8907193939121403,
      -1.8334871916315225,
      3.252891375521854,
      -0.6866556096923605,
      2.3166993345258597,
      -1.7044263113078892,
      -1.6530554776407518,
      3.43145569705523,
      1.4186753051987953,
      3.3366357285638335,
      -1.7818547020777078,
      -2.890583108226987,
      1.0478304828947556,
      1.0087820486022505,
      -0.04346363346172243,
      0.9588528017483303,
      -1.022398407662368,
      0.996881688140227,
      -3.0001639202302615,
      1,
      0,
      3,
      1,
      0,
      0,
      3.006870107379813,
      0.02680453325330994,
      1.0428789712087954,
      -0.9450756214596365,
      0.06861972771851649,
      0.11131151180910372,
      -1.8645370687518719,
      0.11760548447805463,
      0.14737850690971113,
      0.15662936177039558,
      3.19539675533123,
      1.176464372163979,
      1.1612286498330635,
      -0.8982492025919273,
      2.0583690842222926,
      -1.980223752053398,
      1.0037680920407595,
      -2.0218354385359034,
      0.9770076393966587,
      -1.0221815627494557,
      -1.0082175859566347,
      1.9965122336912728,
      -2,
      1,
      0,
      -3,
      2,
      0,
      1.0008113889391186,
      2.0091237722410242,
      1.0219509243225726,
      2.0286997487955336,
      -2.962495258055884,
      0.049143063181204545,
      -0.9456894219328815,
      2.058680980463116,
      -0.9401913170668134,
      -0.9448793821200089,
      2.0600741584559894,
      -0.959340321590712,
      1.035585073018311,
      3.0179049387773107,
      -1.9886539827914549,
      -1.9920914754851375,
      3.0008175435552347,
      -3.005085137849781,
      0.9864442456408918,
      0.9826827133638755,
      1.988561116191812,
      -1.0047430209333201
    ],
    [
      -1.0310432468929909,
      1.9985422551189083,
      -1.0055674062051756,
      -0.7645729152112017,
      3.0374745369503517,
      1.978583867455541,
      0.15232691884477528,
      -2.4793214348961627,
      1.313714246073097,
      -1.0048917225424623,
      -0.5364008432250411,
      1.1201982111236028,
      -1.9285827271054188,
      1.688911664636571,
      -1.748468045128203,
      -3.046931277541926,
      1.9920284166703082,
      -2.0125077502599824,
      2.9867360170356787,
      0.9861053594776373,
      0.9896818622796921,
      -0.003352757989492084,
      1,
      -1,
      -2,
      1,
      -3,
      2,
      1,
      -1,
      2,
      0,
      1,
      1,
      -2,
      -2,
      -1,
      -1,
      -1.9998733998328821,
      1.0014232206959308,
      1.0043691854225114,
      -2.9897063563165114,
      2.011553311177068,
      -0.990075075327709,
      2.9970225665565797,
      -1.017952290593721,
      -0.0197066777021533,
      -1.0169371282708861,
      1.9883412605383117,
      -1.0029245293035396,
      -2.0005802549486122,
      -2.0004889489026327,
      2.999379411008197,
      1,
      -2,
      -2,
      2,
      3,
      -1,
      -1,
      2,
      -1,
      -2,
      -1,
      2,
      0.00037941028797781813,
      1.005474371776746,
      -0.9779977017507103,
      2.0430899332622725,
      2.0710210967398894,
      -0.9249227910366286,
      0.06610455046863353,
      2.0612591532541487,
      -0.9775159690112645,
      -0.017647154782180607,
      -1.0667553381253798,
      -2.090833463956233,
      0.9440112397575351,
      0.9789765548625836,
      0.9903243796953044,
      1.9975861025224113,
      -2,
      0,
      1,
      1,
      -2,
      0,
      3,
      2,
      -2,
      1,
      -2,
      1.0004246027403132,
      -1.9910798601388695,
      0.034150172921056196,
      2.0723903976387383,
      2.130478675163159,
      -2.824959770137808,
      -0.8126175471912422,
      1.117206779930136,
      -0.9759732927386815,
      -0.07299630146554185,
      2.861642215534163,
      -1.1375238716216054,
      -1.1535960888358838,
      0.9047558749950525,
      -0.06274255252858169,
      1.972525199738241,
      -3.0058041285349417,
      1,
      1,
      2,
      1,
      -1,
      3,
      0,
      1,
      0,
      -1,
      1,
      1.0097386783551376,
      -0.9579580220552376,
      0.10715583398119707,
      0.20169756239096856,
      1.2499277900689845,
      2.19373085167085,
      0.06188276330621041,
      -1.1578666422317727,
      1.7236795664083322,
      2.6480727021973425,
      -1.353287100031863,
      -2.2564531595132444,
      -2.168637134610926,
      -3.1050594772129267,
      1.9322803698546156,
      -0.03441849626383915,
      -1.0104714831368513,
      -0.0003956339897421726,
      0,
      -3,
      0,
      2,
      0,
      -3,
      -1,
      2,
      1,
      -1.9951776780073913,
      2.0533432764245605,
      -1.8585733505069395,
      1.3131158286858984,
      -0.5929033668189213,
      1.3020589423319182,
      1.0468821905950467,
      -1.2852855152695595,
      1.545403148336332,
      -2.5688011297542603,
      0.40970745892075705,
      -2.500997067378329,
      -0.3537745717311787,
      -0.20942849101284844,
      -2.1111895755872108,
      0.9413632536407869,
      -0.015348795082020073,
      0.9921814429448156,
      -1.0000901206758086,
      2,
      -2,
      2,
      -1,
      -2,
      -1,
      -2,
      1,
      -0.998722785441375,
      -1.9769995085994592,
      -0.8835803291631983,
      -1.6916752865978242,
      -1.4810764024272518,
      1.5453076114403657,
      0.3806735905165916,
      -1.8189366272725598,
      1.868657297743451,
      -2.358694562623824,
      -3.5161254295194295,
      -1.5923558600985146,
      1.5058278200183863,
      0.6108511203111695,
      1.7829220835071649,
      -1.1213092746934457,
      -0.06870260954291264,
      0.9835983845973726,
      0.9856348986698208,
      2.0002198202038985,
      3,
      3,
      1,
      2,
      -2,
      -1,
      -1,
      -1,
      -1.995144058019018,
      0.051026580808562774,
      -0.8079108829057996,
      0.4340849265630991,
      -0.3600439911994123,
      -0.23528796663420937,
      -0.31372923846009226,
      0.45651551317895306,
      1.999719413594223,
      -2.3803554360098715,
      1.4432994546408289,
      -1.6655209552472752,
      0.39111438615658034,
      -1.3512689367546213,
      -2.21691913629771,
      -3.1276563921328147,
      -0.07727497845132707,
      -1.031329120190541,
      -0.007062148803692653,
      1.0004890371604125,
      1.999996891425945,
      -3,
      0,
      0,
      -2,
      -2,
      -2,
      -1,
      -0.9909242426287859,
      2.0631041942637176,
      -1.7740111818930036,
      0.45871362392296705,
      -2.383178992735753,
      0.7898316677900835,
      1.7635013437870741,
      -0.6908019500885821,
      1.6394603114409672,
      -2.754695405475215,
      -0.8660156955366336,
      1.1878667458387249,
      2.3912129996226112,
      -0.43826829364412456,
      1.588474310713405,
      0.7485318686868205,
      -2.1409827094438483,
      -1.052347179427484,
      2.9905767238235588,
      -1.0010605833239712,
      -2.000664626754308,
      0.9996808623800738,
      0,
      -2,
      -1,
      -2,
      0,
      3,
      -0.9909892165781433,
      1.0530159522559654,
      3.155355288428982,
      0.3443894247322358,
      2.4238365645255606,
      2.4609970123471863,
      -1.5580651640960783,
      -3.07062813926282,
      1.2141605153816781,
      -2.958053014760016,
      -2.800931132760268,
      0.3242666988724107,
      1.421709740466165,
      1.5321943209209796,
      2.5968931889262024,
      0.6918846024388313,
      -0.17884832176744386,
      1.923170762920715,
      -2.023889184461966,
      -1.0070646217188912,
      -2.004042771242894,
      2.99821555933432,
      -1,
      1,
      2,
      -1,
      0,
      -0.00022016015360255855,
      1.9929568012110566,
      0.9797804590585171,
      -0.023969961874898426,
      -1.914831199737404,
      0.016270492665040184,
      0.935370786902764,
      -0.20364961541686408,
      0.2706850358798581,
      -2.1821715571355385,
      -2.2446111265589885,
      -2.024189630433016,
      0.144435299507662,
      -0.7916958006016201,
      -1.524230264790581,
      -0.42540495171334586,
      1.670419321016037,
      -2.225627893385924,
      -0.13918204779796914,
      -1.031690061609032,
      -2.0133215872973502,
      -1.0041948200375042,
      1.9983585181663321,
      2,
      0,
      -3,
      1,
      -1,
      -2.0012403382161117,
      1.9675908423680932,
      -0.1419990947206137,
      -3.272435537062241,
      -0.3574728079586612,
      -1.5992455990537962,
      0.23350852667797073,
      1.126072906305111,
      0.7611327065337624,
      -0.39119635277879106,
      -2.2903328430161674,
      -2.0591025605136504,
      -1.0064613671941744,
      -0.9371462281909152,
      -1.6075529943312166,
      0.5054177680173834,
      1.5752996747029595,
      1.7117571300957595,
      -3.202912109387578,
      -2.0835581775705765,
      -2.0236936485455965,
      -0.0008274123629818715,
      1.998917151278609,
      -3,
      -2,
      3,
      3,
      -2.9986668374819434,
      1.9901922536229175,
      -1.0676518236913388,
      0.7471297380774532,
      -1.48596753104273,
      -2.763639171120113,
      1.838658664020148,
      0.7196230925738647,
      -1.2610098266308516,
      -0.38895559251837,
      -1.24340644235767,
      -2.9241787232651855,
      0.2891928988678462,
      0.1267808395357259,
      0.19993496695263135,
      -3.5596378378548668,
      -0.5391616011701593,
      0.5058318605198143,
      -0.2723184356964988,
      -0.2124530133779224,
      -3.104185125136426,
      1.9650139870457513,
      1.9925463048748642,
      -1.0021173031299484,
      3,
      -2,
      1,
      3,
      -0.9964189605016592,
      1.9981052019587027,
      -0.08581085218109835,
      -0.3060738578671519,
      1.40587542265821,
      0.05144879354341259,
      -0.3133325069307061,
      -0.3969154986531682,
      -2.2706789238735188,
      -2.204465625660636,
      0.10568489385544191,
      -0.47915814169443055,
      -0.4248226371991237,
      1.3544166583744452,
      1.3457734729492534,
      -3.5016325332628147,
      1.476792693677649,
      -0.4364378941030572,
      -3.242306577206328,
      0.8163681598560705,
      0.8944687167127656,
      2.959154948661541,
      0.9912725998194377,
      0.00016675358342693882,
      0,
      3,
      2,
      -1,
      -1.9898201727749911,
      -0.9823811661774908,
      -3.0560682660096408,
      -2.2832058378170204,
      -1.5753005318884332,
      -0.022855240294634305,
      1.6427000000212795,
      -4.325693197976409,
      -4.242376080008157,
      0.7663073148430206,
      2.0564674336390825,
      0.5575283819178222,
      -0.27122037669399063,
      -3.457032851923023,
      -1.5149328021421626,
      -1.4306650264646104,
      -2.441988240065176,
      -2.4344520744770337,
      -0.29665517395027174,
      -3.1720142684752455,
      1.894368157625525,
      -1.0371926885163754,
      -1.0107749581354257,
      -1.9995326918593739,
      -2,
      -2,
      -1,
      -1,
      -2.9786430678166798,
      1.0449809407741697,
      2.0198098822210127,
      -0.16535633575524933,
      -2.4485280444114514,
      -2.883466531994752,
      0.8495279893273031,
      -2.268094618581105,
      -2.2941603813749176,
      -0.3756933740220069,
      -3.114342913885483,
      -3.67309685353654,
      -0.5273535205597872,
      1.4794152406851566,
      0.534063074108652,
      2.6955488612520995,
      -3.3604718172867285,
      1.5604320450130809,
      -0.2817041721459904,
      -0.15249654094909054,
      1.9287703151574846,
      0.9751309306476014,
      -0.0012837246199914423,
      -0.9961311671303078,
      -1,
      -1,
      0,
      0,
      1.0214128604050217,
      2.0778973163162915,
      0.0545251547470851,
      2.9572384898809996,
      2.689893186299793,
      -0.6055887559451284,
      0.20564776393354345,
      -2.8925666762710187,
      -2.0409379006808677,
      0.7613604246817212,
      0.8359759311371829,
      -2.9508590761723985,
      -3.7883671939607746,
      -0.7295276811200454,
      -2.570273323898504,
      -1.3514431136828435,
      -1.3653237558342324,
      -0.3033192186052205,
      -1.1927381610079038,
      -1.1090575524389983,
      -2.039609451207798,
      -0.008468277606885097,
      0.004000971128858735,
      -0.9920648625777968,
      3,
      -3,
      1,
      3,
      -1.9772409064244776,
      -0.927005824824904,
      0.09981031479253111,
      1.0486065633053019,
      0.846758027874086,
      -2.3686442675584707,
      1.6923465176168808,
      -0.29033357364118995,
      -2.4719797498111946,
      -3.7509795529023333,
      0.14532163568825598,
      1.119782474696962,
      -1.8441586144475224,
      -1.821743047304578,
      1.2413128686276351,
      -0.5000064336393496,
      -1.3748033897997947,
      -3.299303654470232,
      0.8469748060825162,
      1.912074324265125,
      -1.037459670956886,
      3.004452210164797,
      1.0185095168248182,
      1.0096944612231782,
      -2,
      -2,
      1,
      1,
      0.022210836837165897,
      -1.9242550232513036,
      2.1257683002114054,
      0.1130904307508739,
      -2.003084771639974,
      1.9465907048870252,
      -2.916071374630958,
      2.1117056308978235,
      0.9851178949956474,
      -2.1336993846062873,
      -2.3205108098004787,
      1.5192434591898438,
      1.4620564469482915,
      -2.778875965158191,
      2.1863909025849226,
      -3.593349050283698,
      1.5297345588285238,
      -0.36572947696194,
      2.8308944498214537,
      0.9234660218548987,
      2.967673296311673,
      2.004527897905517,
      -1.9758884331880489,
      3.0171039022647768,
      2,
      0,
      1,
      0,
      -0.9855626263630541,
      2.0725229472784954,
      1.1322226666589337,
      0.1910231982502873,
      2.181740571631565,
      1.1859107166178504,
      1.3421538404980355,
      -1.5929807853036348,
      -0.7184610269022347,
      3.17224638232061,
      1.138562220607676,
      1.9374391088731702,
      -0.2442263696337967,
      2.4999335897577337,
      -2.5718147563736986,
      -1.5060443729874522,
      -1.4599539266720367,
      1.6638612473870067,
      1.8416759094323136,
      -3.0681730465337522,
      -1.0431106250010629,
      1.9835475345222568,
      0.004518605257271741,
      -2.9847280145135766,
      2,
      1,
      -2,
      2,
      2.0103324058540104,
      -0.9220269918198024,
      2.1597195341022957,
      1.262893037052874,
      1.340110918049998,
      -1.618497461693632,
      0.424268757453686,
      1.3440653156813775,
      3.2454460333768367,
      1.2691462619181237,
      -0.737164692309952,
      2.0937057419922644,
      -2.214964133988683,
      0.6351025020469324,
      2.5578045850350257,
      1.5368911670798142,
      2.642587397434567,
      -3.1706809243943423,
      1.939181963563076,
      -2.071140023524926,
      -0.06256554218058913,
      -2.0430741018400447,
      -0.011850956264239952,
      1.0090891847792673,
      -2,
      0,
      -2,
      0,
      2.012408680772234,
      -1.9342885560803424,
      -1.8707936202677151,
      2.231062130679596,
      -1.6997780390541353,
      0.36915219089953466,
      -0.6649258871683646,
      2.1429347020658995,
      -1.9670515982762868,
      -0.9846545059599597,
      0.013274298138884387,
      -0.1001506244345419,
      -1.2672812784846572,
      2.6205775930450623,
      -2.404923208815211,
      -2.4702481063438877,
      2.710136029707542,
      -0.09359649850587913,
      -2.9984454087827586,
      0.9590156942556233,
      2.96902449845129,
      -3.0091963954263776,
      -1.0031846404412554,
      1.0060792313033582,
      0,
      1,
      2,
      3,
      1.0097000325846086,
      2.046014230999922,
      1.0867181153708878,
      0.12987642062034946,
      1.1627924612761618,
      -0.7640808923572384,
      3.1993125997414897,
      0.04432753752531207,
      0.9273688295338923,
      -0.1503871173143849,
      1.792699187977071,
      -3.2462644658563553,
      -1.2990588842873654,
      -3.325655774203271,
      -0.3391088747737779,
      -1.4147694219407092,
      0.716194995894194,
      -0.07378319530569039,
      -0.029428149298979803,
      -1.0427119362707296,
      -2.0137673150784186,
      -0.9754861002187402,
      0.011219551805110166,
      2.014409483320637,
      -1,
      2,
      2,
      -2,
      2.003113060802965,
      0.02534244049306995,
      0.056122343697250776,
      1.095291725188424,
      0.13151303914142481,
      -0.8267117763298781,
      -2.870125491265357,
      -2.9628990896133263,
      -3.039632495768512,
      1.9399768751840276,
      2.839537267241151,
      1.7975676079245522,
      2.7277582986335718,
      -2.3090375887778163,
      0.6745236079654283,
      0.6768250548644468,
      -0.1893588214039682,
      -1.0505379642539012,
      -2.0501538558720194,
      -0.032821055180880944,
      -2.998383402120646,
      -0.9855052439889644,
      1.0152326807391263,
      2.0170228126457994,
      0,
      -2,
      3,
      2,
      2.0016068815161225,
      -2.9892791231280995,
      -0.9744702121454966,
      -1.9467916593418704,
      0.07881390066703631,
      -0.916286009084384,
      -1.93254218429589,
      -1.008321127416408,
      0.9308389993188504,
      -0.09310999427962086,
      -1.1054867859580004,
      -0.1676445257700696,
      -3.228483942204994,
      -3.2564586062213197,
      0.733315655245307,
      1.7543401560925749,
      -2.1408527186069706,
      -2.0616009537823743,
      0.9765268824500671,
      2.9845167743576515,
      -0.9815258090290154,
      -0.9874178368662763,
      1.0140850805069566,
      0.010121579874385726,
      0,
      2,
      1,
      0,
      -1.9998556445765452,
      2.0054129850044196,
      -0.994235034756149,
      1.0188671517685475,
      1.0263467514597913,
      -0.9811200240968678,
      0.015806615330152138,
      0.9957187979178503,
      -1.0479738946581936,
      -3.094611223149939,
      -3.095803920713037,
      -1.1120429549091924,
      -1.151123631973702,
      -1.150054999236751,
      2.849973385342841,
      -0.1222591030999396,
      1.916633557299847,
      -2.0400107271492818,
      -2.004020206354478,
      3.014783490352061,
      -0.9744832984288059,
      -0.9755723354891681,
      3.0121505905314274,
      2.0103010091914904,
      -3,
      0,
      -1,
      0,
      -2,
      -2,
      0.0013044912226976254,
      -0.9906066685934005,
      2.0030336582413892,
      -2.0025972336183253,
      -0.011880547956700677,
      -2.0323550963092454,
      -2.03338137195962,
      2.9360989157237065,
      -0.06010315528686642,
      -0.05224182854849505,
      -2.072236303880473,
      -0.06283429611174703,
      -3.055059994697034,
      -1.052722255798651,
      -2.031689155715939,
      -1.0031466303958048,
      -1.9880497582493417,
      -0.9772435323445555,
      -0.98495782195703,
      -0.9831127524645694,
      0.008454423104270836,
      2.0080611026478223,
      0,
      1,
      -1,
      -1,
      3,
      -1,
      -1.9996091790147994,
      -1.9980430790329715,
      0.007032670774040841,
      1.0045098306485154,
      1.9958904356862217,
      2.9873806850833597,
      -0.007151004744533985,
      2.9895542359111937,
      -0.006010284765894569,
      0.9847677162242633,
      -2.02523309494214,
      -3.006432138767835,
      -1.004637975687904,
      0.0029423394578783923,
      0.004695421435295061,
      1.0150936098205758,
      2.015000324608011,
      2.0225550473251723,
      -1.9835556811915687,
      3.005984414514278,
      -0.9891029129440827,
      -2.9930504515649887
    ],
    [
      1.8140958772315834,
      0.8537466406875626,
      -1.5755852195454567,
      -1.7372541776022958,
      -2.3798224111650406,
      2.458064570085147,
      -0.1900598142040858,
      -1.9045775684916264,
      -0.1821187020372301,
      -2.045305129695586,
      -0.018248430884674486,
      -0.6611367060975841,
      -2.5351573214664285,
      -0.9739021608415028,
      -2.7988215863764405,
      0.9902707331879854,
      -2.012853283079908,
      -0.01815244028087698,
      0.9807680912104019,
      -0.021964845583243936,
      -0.017262067325135064,
      -3.0057399047853286,
      -2,
      2,
      3,
      -2,
      2,
      2,
      3,
      0,
      1,
      -2,
      0,
      1,
      -2,
      0,
      -3,
      -3,
      1.9998882667328175,
      -0.0013383966879612146,
      -2.005758555264023,
      -1.0196108672740996,
      -2.048857884039163,
      -1.0761643627408464,
      1.8851357625850427,
      -3.1327375399003663,
      0.8815384243019375,
      1.9081648628560384,
      -2.060851682005103,
      -1.024175195887597,
      -2.003308767829743,
      -0.999853289626333,
      0.00018620932042351216,
      -1,
      1,
      0,
      2,
      2,
      -3,
      -2,
      -2,
      2,
      0,
      3,
      2,
      -2.000336093727239,
      -2.006247488616533,
      -0.026237324963737065,
      -1.0827070826745835,
      0.8372542345622257,
      0.7490220427748294,
      1.6887713425429156,
      0.6799468692827277,
      -0.3004626778253074,
      -0.22197747395457548,
      -0.17728835852995026,
      -0.13137561082499127,
      -0.06463691488570948,
      1.9758102858329203,
      -0.0029406162962718643,
      2.0006962027443467,
      1,
      -2,
      -2,
      0,
      3,
      0,
      3,
      2,
      1,
      0,
      0,
      -1.00037767209041,
      1.9917716318611025,
      0.9604979750367894,
      -2.1196062730928618,
      -2.2233505208468016,
      1.6880584320665923,
      2.622998164841396,
      0.5832246593375916,
      -0.4002973450235676,
      0.6780728580206067,
      -2.236345165111242,
      -0.15561030656414607,
      1.913744693320501,
      0.9246701874359367,
      -1.0505576945182988,
      -3.0137804521118814,
      -1.9967142200747563,
      2,
      0,
      0,
      -1,
      3,
      2,
      2,
      -2,
      -3,
      -3,
      -3,
      0.9925613867568971,
      -1.0274391277580268,
      -2.0426499168683,
      0.9353565787667094,
      -1.0997669409592052,
      -1.187829348052841,
      -3.3045803874899056,
      -0.4107575672338864,
      1.6022934685281247,
      1.7190711145598243,
      -0.1395265186586259,
      2.9509422448311238,
      0.04332600474589916,
      -0.9996736056133415,
      1.01449591069339,
      1.0135582310868083,
      -1.992423067393304,
      -0.9995174652544253,
      1,
      2,
      1,
      -1,
      -3,
      0,
      -3,
      1,
      2,
      -1.0007350327463982,
      -2.0268804882497298,
      1.9633708255359992,
      -0.9384344457541783,
      0.1973039722798116,
      -0.7970316479762335,
      0.0436557014175165,
      0.8365411037729448,
      -2.2763284263188286,
      -1.2999976098849075,
      1.7689442890995888,
      -3.060275673053157,
      -0.9216322783322688,
      -2.947359131962273,
      2.073969304073308,
      0.08584800617212837,
      -0.9446912778980544,
      -0.9856397752333519,
      1.0000773326393242,
      -2,
      -2,
      3,
      0,
      2,
      -2,
      2,
      -2,
      -0.00030333667836925364,
      -0.008459452903882692,
      -1.0683869141234072,
      -0.016010098400562403,
      1.1076927103441772,
      1.2328948131964845,
      1.2435131713185528,
      -1.911721640899604,
      -0.18726880426820247,
      -2.5136203458906787,
      1.4144072088657518,
      1.3490222796432867,
      -0.3520413278825914,
      -2.1177672388232085,
      -0.08243285276709764,
      0.9986189175679546,
      -1.8954195348754181,
      0.06436945980351033,
      3.0058533071005065,
      3.000756305640982,
      2,
      1,
      -2,
      1,
      -3,
      1,
      -2,
      2,
      0.0008027406736639622,
      2.9802786308880336,
      -0.07208326624416517,
      -0.10482542262562186,
      2.9116886065808805,
      0.9099436416707527,
      -3.1957061637030395,
      -1.3762919905541349,
      -1.6603073377778528,
      -2.9008320639073113,
      1.047848161773671,
      1.0279775352324416,
      -0.5173013558831893,
      1.8300150261435897,
      -1.1614401766847007,
      1.9627056576591972,
      1.0789668285382998,
      -1.926008275866757,
      -1.9929491941172532,
      -1.9992099004054373,
      2.999994467289574,
      -1,
      2,
      -1,
      2,
      0,
      2,
      3,
      -1.0046746895105891,
      -1.0341183024279959,
      -1.1511589231751707,
      1.7304152072351586,
      2.565307586003458,
      2.396225831193359,
      0.4628208252258671,
      2.249692186995986,
      -3.0471811445255907,
      -4.040517535270736,
      1.1230637606682423,
      0.31647863909119744,
      -0.22733125830276613,
      -1.9671215192358893,
      1.9029195386100661,
      -1.0209591635111936,
      2.0774317921624053,
      -1.938678964406756,
      0.9936677569353684,
      2.9962661981774064,
      1.9988301379858486,
      2.9985954315008354,
      2,
      -2,
      -2,
      1,
      -1,
      0,
      0.991243891214866,
      -1.0916812096332869,
      -0.33193280915721685,
      -2.5414956186818185,
      0.22877636279520996,
      -0.02515624420579772,
      -3.7476562965030222,
      -0.7588673009548591,
      -3.1577464341527985,
      -1.0083856200727814,
      0.4633681115987014,
      -1.326664350593031,
      2.8732916312300407,
      -1.0277635490739294,
      -1.0889993694631683,
      -0.96722827907453,
      1.0505071596690967,
      -3.0043945446813987,
      1.9666967497834416,
      -2.026068221655512,
      1.9858758783161818,
      1.9912592545699104,
      -3,
      0,
      -2,
      2,
      2,
      -1.0003067034111421,
      1.975958516450998,
      -0.188775379923349,
      -2.538771958077866,
      2.1604137165667954,
      -2.3631049761028873,
      0.3398739219533362,
      -1.403360485013419,
      -2.4635355499672174,
      0.365405891836753,
      -2.252125542913302,
      1.5330227429851564,
      2.8202409313353467,
      0.8815381429160927,
      0.9893720003782125,
      0.028630142432357085,
      3.084018602765538,
      1.0240909171348078,
      -0.03649900690015165,
      -2.0503866013797514,
      2.960153443510617,
      -1.0189553376580711,
      -3.0087010974221218,
      2,
      2,
      3,
      -2,
      -3,
      -2.0017796068359326,
      -0.07055077870211615,
      -1.3259681683880635,
      -0.7440005103743239,
      -3.3282220588406624,
      -5.107512024767362,
      -0.4897158762647094,
      -3.3947806037357227,
      -1.567583637534331,
      -0.43407332775931573,
      1.2646943624775566,
      -2.9254544279697274,
      0.4146040825526892,
      1.5917562078134888,
      -1.1969757620160988,
      2.955219941341211,
      0.041583518846442256,
      0.9777579175996233,
      -2.0951191941800373,
      -1.0892005046785462,
      1.9436630866174953,
      -1.0154604104998777,
      0.9925368776838707,
      -2,
      3,
      1,
      0,
      1.0018901782416698,
      0.9832683325733678,
      -0.12635471712675977,
      -0.4496452130495806,
      -2.976409729347452,
      -1.6905718132790304,
      -3.6251421620209228,
      -3.988953553019647,
      -2.963659538396373,
      -5.2583565021474925,
      -2.011015210992368,
      -0.03627859250568205,
      -0.1868179281558525,
      0.1006410192576396,
      1.2140415631449182,
      -2.5149584635468676,
      1.6641672259637057,
      1.7950103639964412,
      1.8259235099954734,
      0.7898082310014398,
      -3.1391338433864227,
      -1.0880634236908544,
      -2.0299082557928325,
      -0.010484662319814177,
      2,
      0,
      -2,
      0,
      -1.9949491993563642,
      -1.0084066511153524,
      2.8411583871205415,
      -0.5222684162654744,
      -3.082640714604467,
      -2.8613691070051326,
      -0.7011265413799085,
      -3.0719399943315797,
      -0.9974982594246931,
      -1.0386020368226123,
      -5.642383276662273,
      -3.6665354945642257,
      -0.9186466237315077,
      -3.675508691194618,
      1.171384769646981,
      1.2266822105906123,
      -2.5814805446081404,
      -0.39599340248442916,
      -1.36043810242586,
      -0.30164749431036275,
      2.815663748250183,
      0.9005382342085102,
      2.9680021991354075,
      -2.002890264737609,
      2,
      1,
      0,
      0,
      2.0128545477205635,
      -1.9985919100276288,
      -2.1359743628169467,
      1.4977162033311653,
      -4.070322628448763,
      -1.8790929699688128,
      -3.5931645695029344,
      -0.7823825188400177,
      -2.705637477278923,
      -3.6890291576227434,
      -1.245421579350553,
      -2.3690094577497485,
      -0.6298217881096819,
      -1.5576595095990213,
      0.22341185299744523,
      -0.7431484561891067,
      1.319913134951427,
      -1.6327798013926735,
      -2.5586457292068103,
      -2.3756449263413324,
      -0.2313978614028173,
      1.8843674421227428,
      -2.0396287930863295,
      0.9968373760541666,
      -3,
      -1,
      2,
      2,
      3.0245695909464634,
      -0.9832641358507629,
      -2.061677230532565,
      -1.3813592639958419,
      0.09284278804180071,
      1.343690240062385,
      -5.176611140465351,
      -4.332365449308062,
      -0.31546044840335113,
      -1.4034031432018874,
      -1.1806290216875954,
      -1.4491688421090738,
      -2.8259510599393702,
      1.218189308090887,
      1.1910626701402072,
      1.423851891428301,
      0.3666435103843852,
      0.2405594118407396,
      1.3143850071877847,
      1.5565856616198945,
      -1.2196638801532331,
      -2.1177234253650346,
      -0.027995913062837677,
      2.000571351761255,
      -2,
      -2,
      1,
      0,
      -1.9801820009560536,
      0.0528710664015722,
